{"learner":{"attributes":{"scikit_learn":"{\"_estimator_type\": \"classifier\"}"},"feature_names":[],"feature_types":[],"gradient_booster":{"model":{"cats":{"enc":[],"feature_segments":[],"sorted_idx":[]},"gbtree_model_param":{"num_parallel_tree":"1","num_trees":"100"},"iteration_indptr":[0,1,2,3,4,5,6,7,8,9,10,11,12,13,14,15,16,17,18,19,20,21,22,23,24,25,26,27,28,29,30,31,32,33,34,35,36,37,38,39,40,41,42,43,44,45,46,47,48,49,50,51,52,53,54,55,56,57,58,59,60,61,62,63,64,65,66,67,68,69,70,71,72,73,74,75,76,77,78,79,80,81,82,83,84,85,86,87,88,89,90,91,92,93,94,95,96,97,98,99,100],"tree_info":[0,0,0,0,0,0,0,0,0,0,0,0,0,0,0,0,0,0,0,0,0,0,0,0,0,0,0,0,0,0,0,0,0,0,0,0,0,0,0,0,0,0,0,0,0,0,0,0,0,0,0,0,0,0,0,0,0,0,0,0,0,0,0,0,0,0,0,0,0,0,0,0,0,0,0,0,0,0,0,0,0,0,0,0,0,0,0,0,0,0,0,0,0,0,0,0,0,0,0,0],"trees":[{"base_weights":[7.2150286E-8,-1.1208993E-1,3.9528915E-1,-7.4548537E-1,-4.842475E-2,-3.451563E-1,4.950898E-1,-9.102549E-2,-9.035766E-1,7.7284737E-3,-7.575599E-1,-7.785869E-1,6.879771E-1,1.1471454E0,3.5884237E-1,-4.1404337E-2,3.9461743E-2,-5.7195164E-2,-3.2987144E-2,-1.4942392E-2,4.4475766E-3,-4.5808014E-2,-1.9324338E-2,2.8369335E-2,-4.7394723E-2,5.043074E-2,-1.82102E-2,8.4937096E-2,2.1917587E-2,4.4151447E-3,3.2103017E-2],"categories":[],"categories_nodes":[],"categories_segments":[],"categories_sizes":[],"default_left":[0,0,0,0,0,0,0,0,0,0,0,0,0,0,0,0,0,0,0,0,0,0,0,0,0,0,0,0,0,0,0],"id":0,"left_children":[1,3,5,7,9,11,13,15,17,19,21,23,25,27,29,-1,-1,-1,-1,-1,-1,-1,-1,-1,-1,-1,-1,-1,-1,-1,-1],"loss_changes":[3.0516802E1,2.1601868E1,1.1414816E1,4.9811954E0,1.9463898E1,8.892216E0,1.1537022E1,7.5527434E0,1.5485992E0,1.1326252E1,1.7566395E0,3.6405745E0,2.4071448E0,8.165691E0,8.578927E0,0E0,0E0,0E0,0E0,0E0,0E0,0E0,0E0,0E0,0E0,0E0,0E0,0E0,0E0,0E0,0E0],"parents":[2147483647,0,0,1,1,2,2,3,3,4,4,5,5,6,6,7,7,8,8,9,9,10,10,11,11,12,12,13,13,14,14],"right_children":[2,4,6,8,10,12,14,16,18,20,22,24,26,28,30,-1,-1,-1,-1,-1,-1,-1,-1,-1,-1,-1,-1,-1,-1,-1,-1],"split_conditions":[3.6783218E-1,-7.1382225E-1,-3.4635028E-1,1E0,1.2082205E-1,3.1800557E-2,2.9384664E-1,1.6710741E-3,-8.075462E-1,-4.386501E-2,3.2667857E-1,-7.664352E-1,-3.8564482E-1,1.3E1,1.8645798E0,-4.1404337E-2,3.9461743E-2,-5.7195164E-2,-3.2987144E-2,-1.4942392E-2,4.4475766E-3,-4.5808014E-2,-1.9324338E-2,2.8369335E-2,-4.7394723E-2,5.043074E-2,-1.82102E-2,8.4937096E-2,2.1917587E-2,4.4151447E-3,3.2103017E-2],"split_indices":[2,2,1,4,2,3,1,3,2,3,0,0,0,5,2,0,0,0,0,0,0,0,0,0,0,0,0,0,0,0,0],"split_type":[0,0,0,0,0,0,0,0,0,0,0,0,0,0,0,0,0,0,0,0,0,0,0,0,0,0,0,0,0,0,0],"sum_hessian":[6.8674316E2,5.355863E2,1.511569E2,4.7938988E1,4.876473E2,1.7661732E1,1.3349516E2,9.633672E0,3.8305313E1,4.527826E2,3.486472E1,1.2615522E1,5.0462093E0,2.179045E1,1.1170472E2,5.2755823E0,4.35809E0,1.743236E1,2.0872955E1,9.427236E1,3.5851022E2,2.339606E1,1.14686575E1,1.1468657E0,1.14686575E1,3.8993435E0,1.1468657E0,1.14686575E1,1.0321792E1,5.7802032E1,5.3902687E1],"tree_param":{"num_deleted":"0","num_feature":"6","num_nodes":"31","size_leaf_vector":"1"}},{"base_weights":[-9.098664E-5,-1.0701555E-1,3.744564E-1,-6.8107104E-1,-4.2060953E-2,-3.2929933E-1,4.6816295E-1,-8.5684186E-1,-2.6658946E-1,1.2495277E-2,-7.294722E-1,-7.8660375E-1,5.8254606E-1,1.0784373E0,3.3946767E-1,-5.4223754E-2,-2.6363416E-2,3.3245914E-2,-3.0204346E-2,-1.4143008E-2,4.6538E-3,-4.4200372E-2,-1.853392E-2,2.7491111E-2,-4.833664E-2,5.552582E-2,-7.108022E-5,7.930796E-2,2.0797744E-2,-3.6825612E-2,2.0194339E-2],"categories":[],"categories_nodes":[],"categories_segments":[],"categories_sizes":[],"default_left":[0,0,0,0,0,0,0,0,0,0,0,0,0,0,0,0,0,0,0,0,0,0,0,0,0,0,0,0,0,0,0],"id":1,"left_children":[1,3,5,7,9,11,13,15,17,19,21,23,25,27,29,-1,-1,-1,-1,-1,-1,-1,-1,-1,-1,-1,-1,-1,-1,-1,-1],"loss_changes":[2.7580454E1,1.9947702E1,1.02400875E1,3.7341862E0,1.809835E1,8.196974E0,1.0266766E1,2.2597008E0,5.9501233E0,1.0685452E1,1.6397381E0,3.6093392E0,2.089871E0,7.1161766E0,8.148229E0,0E0,0E0,0E0,0E0,0E0,0E0,0E0,0E0,0E0,0E0,0E0,0E0,0E0,0E0,0E0,0E0],"parents":[2147483647,0,0,1,1,2,2,3,3,4,4,5,5,6,6,7,7,8,8,9,9,10,10,11,11,12,12,13,13,14,14],"right_children":[2,4,6,8,10,12,14,16,18,20,22,24,26,28,30,-1,-1,-1,-1,-1,-1,-1,-1,-1,-1,-1,-1,-1,-1,-1,-1],"split_conditions":[3.6783218E-1,-6.929774E-1,-3.4635028E-1,2.2265768E-2,1.2082205E-1,2.7576173E-2,2.9384664E-1,-6.411765E-1,1E0,-4.253927E-2,3.2667857E-1,-7.664352E-1,-5.0009775E-1,1.3E1,4.6734187E-1,-5.4223754E-2,-2.6363416E-2,3.3245914E-2,-3.0204346E-2,-1.4143008E-2,4.6538E-3,-4.4200372E-2,-1.853392E-2,2.7491111E-2,-4.833664E-2,5.552582E-2,-7.108022E-5,7.930796E-2,2.0797744E-2,-3.6825612E-2,2.0194339E-2],"split_indices":[2,2,1,3,2,3,1,1,4,3,0,0,1,5,1,0,0,0,0,0,0,0,0,0,0,0,0,0,0,0,0],"split_type":[0,0,0,0,0,0,0,0,0,0,0,0,0,0,0,0,0,0,0,0,0,0,0,0,0,0,0,0,0,0,0],"sum_hessian":[6.8667883E2,5.347379E2,1.5194095E2,5.3391285E1,4.8134662E2,1.7558535E1,1.3438242E2,3.674249E1,1.6648794E1,4.4686325E2,3.448337E1,1.1785351E1,5.7731843E0,2.211815E1,1.1226426E2,2.037745E1,1.636504E1,4.1698065E0,1.2478989E1,9.524565E1,3.5161758E2,2.307917E1,1.14042E1,1.1560354E0,1.0629315E1,2.5584197E0,3.2147644E0,1.173232E1,1.0385831E1,5.7522593E0,1.06512E2],"tree_param":{"num_deleted":"0","num_feature":"6","num_nodes":"31","size_leaf_vector":"1"}},{"base_weights":[-2.0017759E-4,-6.554583E-1,5.5377476E-2,-8.2698274E-1,-2.5437352E-1,-4.0158093E-2,3.5477445E-1,-1.050408E0,-5.063711E-1,6.3349557E-1,-5.812798E-1,1.1838972E-2,-7.0261526E-1,-3.1324294E-1,4.4262007E-1,-6.25821E-2,7.420668E-3,1.0971035E-3,-5.943182E-2,-1.9960113E-2,5.1580258E-2,-1.5129996E-3,-4.753403E-2,-1.534041E-2,4.004946E-3,-5.5401534E-2,-2.7300123E-2,-3.7919026E-2,2.7925089E-2,5.0819494E-2,1.6039148E-2],"categories":[],"categories_nodes":[],"categories_segments":[],"categories_sizes":[],"default_left":[0,0,0,0,0,0,0,0,0,0,0,0,0,0,0,0,0,0,0,0,0,0,0,0,0,0,0,0,0,0,0],"id":2,"left_children":[1,3,5,7,9,11,13,15,17,19,21,23,25,27,29,-1,-1,-1,-1,-1,-1,-1,-1,-1,-1,-1,-1,-1,-1,-1,-1],"loss_changes":[2.5072866E1,3.492897E0,1.8167282E1,2.1372013E0,5.4676023E0,1.6612137E1,9.153828E0,5.2585716E0,6.2377353E0,2.5523255E0,2.6911163E0,9.767408E0,1.6234932E0,7.5790973E0,9.19429E0,0E0,0E0,0E0,0E0,0E0,0E0,0E0,0E0,0E0,0E0,0E0,0E0,0E0,0E0,0E0,0E0],"parents":[2147483647,0,0,1,1,2,2,3,3,4,4,5,5,6,6,7,7,8,8,9,9,10,10,11,11,12,12,13,13,14,14],"right_children":[2,4,6,8,10,12,14,16,18,20,22,24,26,28,30,-1,-1,-1,-1,-1,-1,-1,-1,-1,-1,-1,-1,-1,-1,-1,-1],"split_conditions":[-6.929774E-1,2.2265768E-2,3.6783218E-1,-6.411765E-1,1E0,1.2082205E-1,-3.4635028E-1,-7.39057E-1,-4.4138598E-1,-7.468198E-1,5.6732796E-2,-5.851604E-2,-5.5071205E-1,2.7576173E-2,2.9384664E-1,-6.25821E-2,7.420668E-3,1.0971035E-3,-5.943182E-2,-1.9960113E-2,5.1580258E-2,-1.5129996E-3,-4.753403E-2,-1.534041E-2,4.004946E-3,-5.5401534E-2,-2.7300123E-2,-3.7919026E-2,2.7925089E-2,5.0819494E-2,1.6039148E-2],"split_indices":[2,3,2,1,4,2,1,2,0,1,3,3,0,3,1,0,0,0,0,0,0,0,0,0,0,0,0,0,0,0,0],"split_type":[0,0,0,0,0,0,0,0,0,0,0,0,0,0,0,0,0,0,0,0,0,0,0,0,0,0,0,0,0,0,0],"sum_hessian":[6.8648334E2,5.2829716E1,6.336536E2,3.626085E1,1.6568869E1,4.8102698E2,1.5262662E2,2.0027784E1,1.6233065E1,4.2064385E0,1.236243E1,4.469291E2,3.4097878E1,1.7439915E1,1.351867E2,1.7111408E1,2.9163764E0,9.694191E0,6.5388727E0,1.1696407E0,3.036798E0,5.3957415E0,6.966688E0,7.823275E1,3.6869635E2,7.8087664E0,2.628911E1,1.1630895E1,5.8090205E0,2.2392256E1,1.1279446E2],"tree_param":{"num_deleted":"0","num_feature":"6","num_nodes":"31","size_leaf_vector":"1"}},{"base_weights":[-4.979365E-4,-6.3205326E-1,5.2485153E-2,-4.8000452E-1,-1.1216534E0,1.164471E-3,5.723452E-1,-8.7609744E-1,9.657873E-2,-6.2288888E-2,-3.9545783E-1,-2.222346E-1,5.8967743E-2,1.0262215E0,-2.2232717E-1,-5.61484E-2,1.3132493E-2,6.137054E-2,-1.1230267E-2,-3.8730614E-2,8.53962E-3,-3.1719472E-2,2.4647256E-3,4.325318E-2,1.9251254E-3,6.9420926E-2,5.827867E-3,6.0419727E-2,-3.5852764E-2],"categories":[],"categories_nodes":[],"categories_segments":[],"categories_sizes":[],"default_left":[0,0,0,0,0,0,0,0,0,0,0,0,0,0,0,0,0,0,0,0,0,0,0,0,0,0,0,0,0],"id":3,"left_children":[1,3,5,7,9,11,13,15,17,-1,19,21,23,25,27,-1,-1,-1,-1,-1,-1,-1,-1,-1,-1,-1,-1,-1,-1],"loss_changes":[2.3029335E1,3.427084E0,1.6940027E1,9.766555E0,5.777197E-1,7.4887953E0,2.080512E1,7.38756E0,6.873066E0,0E0,8.1899756E-1,1.3372396E1,7.566963E0,1.18604965E1,1.61277E1,0E0,0E0,0E0,0E0,0E0,0E0,0E0,0E0,0E0,0E0,0E0,0E0,0E0,0E0],"parents":[2147483647,0,0,1,1,2,2,3,3,4,4,5,5,6,6,7,7,8,8,10,10,11,11,12,12,13,13,14,14],"right_children":[2,4,6,8,10,12,14,16,18,-1,20,22,24,26,28,-1,-1,-1,-1,-1,-1,-1,-1,-1,-1,-1,-1,-1,-1],"split_conditions":[-6.929774E-1,-4.2448583E-1,2.1699076E0,-6.411765E-1,4E0,-4.253927E-2,3E0,-7.39057E-1,-8.413742E-1,-6.2288888E-2,1.6710741E-3,-4.0060675E-1,-6.6880924E-1,3.5556667E0,2.6708524E0,-5.61484E-2,1.3132493E-2,6.137054E-2,-1.1230267E-2,-3.8730614E-2,8.53962E-3,-3.1719472E-2,2.4647256E-3,4.325318E-2,1.9251254E-3,6.9420926E-2,5.827867E-3,6.0419727E-2,-3.5852764E-2],"split_indices":[2,0,2,1,4,3,4,2,2,0,3,0,2,2,2,0,0,0,0,0,0,0,0,0,0,0,0,0,0],"split_type":[0,0,0,0,0,0,0,0,0,0,0,0,0,0,0,0,0,0,0,0,0,0,0,0,0,0,0,0,0],"sum_hessian":[6.862373E2,5.2268654E1,6.339686E2,4.1393898E1,1.0874758E1,5.7791864E2,5.6049995E1,2.4229557E1,1.716434E1,8.676288E0,2.1984708E0,1.1821081E2,4.5970782E2,3.548907E1,2.0560925E1,1.9924051E1,4.305505E0,3.1726131E0,1.3991727E1,1.0963798E0,1.1020911E0,4.6417377E1,7.1793434E1,1.0360313E1,4.493475E2,2.5006176E1,1.0482895E1,4.912307E0,1.5648618E1],"tree_param":{"num_deleted":"0","num_feature":"6","num_nodes":"29","size_leaf_vector":"1"}},{"base_weights":[-5.00647E-4,-6.089742E-1,4.9971327E-2,-7.7777743E-1,-2.1976016E-1,-3.838647E-2,3.2488632E-1,-9.914635E-1,-4.7691694E-1,6.165337E-1,-5.360761E-1,1.1161187E-2,-6.767327E-1,-3.0412728E-1,4.0662187E-1,-5.9463214E-2,6.8428144E-3,3.2779865E-2,-3.788473E-2,5.090329E-2,-2.0642744E-2,-3.5240527E-4,-4.4965338E-2,-1.4185003E-2,3.6861305E-3,-5.6770325E-2,-2.691326E-2,-3.4894016E-2,2.9150426E-2,4.753589E-2,1.4534521E-2],"categories":[],"categories_nodes":[],"categories_segments":[],"categories_sizes":[],"default_left":[0,0,0,0,0,0,0,0,0,0,0,0,0,0,0,0,0,0,0,0,0,0,0,0,0,0,0,0,0,0,0],"id":4,"left_children":[1,3,5,7,9,11,13,15,17,19,21,23,25,27,29,-1,-1,-1,-1,-1,-1,-1,-1,-1,-1,-1,-1,-1,-1,-1,-1],"loss_changes":[2.1128128E1,3.2911701E0,1.5444065E1,1.8647671E0,4.9160156E0,1.5241753E1,8.073307E0,4.7008553E0,5.9110928E0,2.5788355E0,2.5132718E0,8.284226E0,1.5932817E0,6.81805E0,8.382332E0,0E0,0E0,0E0,0E0,0E0,0E0,0E0,0E0,0E0,0E0,0E0,0E0,0E0,0E0,0E0,0E0],"parents":[2147483647,0,0,1,1,2,2,3,3,4,4,5,5,6,6,7,7,8,8,9,9,10,10,11,11,12,12,13,13,14,14],"right_children":[2,4,6,8,10,12,14,16,18,20,22,24,26,28,30,-1,-1,-1,-1,-1,-1,-1,-1,-1,-1,-1,-1,-1,-1,-1,-1],"split_conditions":[-6.929774E-1,2.2265768E-2,3.6783218E-1,-6.411765E-1,1E0,1.2082205E-1,-3.4635028E-1,-7.39057E-1,-6.075382E-1,-5.428206E-1,5.6732796E-2,-5.851604E-2,-4.9663818E-1,3.1800557E-2,2.9384664E-1,-5.9463214E-2,6.8428144E-3,3.2779865E-2,-3.788473E-2,5.090329E-2,-2.0642744E-2,-3.5240527E-4,-4.4965338E-2,-1.4185003E-2,3.6861305E-3,-5.6770325E-2,-2.691326E-2,-3.4894016E-2,2.9150426E-2,4.753589E-2,1.4534521E-2],"split_indices":[2,3,2,1,4,2,1,2,1,1,3,3,1,3,1,0,0,0,0,0,0,0,0,0,0,0,0,0,0,0,0],"split_type":[0,0,0,0,0,0,0,0,0,0,0,0,0,0,0,0,0,0,0,0,0,0,0,0,0,0,0,0,0,0,0],"sum_hessian":[6.8597833E2,5.1694984E1,6.342833E2,3.536064E1,1.6334341E1,4.8065955E2,1.5362381E2,1.9333565E1,1.6027079E1,4.2222395E0,1.2112101E1,4.4695032E2,3.3709225E1,1.7353712E1,1.362701E2,1.6403862E1,2.9297037E0,2.9188776E0,1.31082E1,3.0453453E0,1.1768941E0,5.3457193E0,6.7663817E0,7.761318E1,3.6933713E2,6.1471105E0,2.7562115E1,1.2166828E1,5.186884E0,2.2670586E1,1.1359952E2],"tree_param":{"num_deleted":"0","num_feature":"6","num_nodes":"31","size_leaf_vector":"1"}},{"base_weights":[-6.949016E-4,-5.868779E-1,4.736589E-2,-4.3745258E-1,-1.0738527E0,-1.0666839E-4,5.2355033E-1,-8.239915E-1,1.10478505E-1,-5.9878744E-2,-3.6620438E-1,-1.698949E-1,6.6209316E-2,9.4616985E-1,-2.2656149E-1,-5.3281296E-2,1.2216385E-2,5.829659E-2,-9.870968E-3,-3.766882E-2,9.7249355E-3,-1.5091664E-2,1.9739345E-2,4.237058E-3,-3.0826304E-2,6.4009145E-2,4.8286715E-3,5.6382876E-2,-3.5157714E-2],"categories":[],"categories_nodes":[],"categories_segments":[],"categories_sizes":[],"default_left":[0,0,0,0,0,0,0,0,0,0,0,0,0,0,0,0,0,0,0,0,0,0,0,0,0,0,0,0,0],"id":5,"left_children":[1,3,5,7,9,11,13,15,17,-1,19,21,23,25,27,-1,-1,-1,-1,-1,-1,-1,-1,-1,-1,-1,-1,-1,-1],"loss_changes":[1.9370108E1,3.3214035E0,1.4365265E1,8.892204E0,5.722885E-1,6.529017E0,1.8477144E1,6.5807514E0,6.1026516E0,0E0,8.322438E-1,1.2253352E1,5.3281636E0,1.03878975E1,1.4712834E1,0E0,0E0,0E0,0E0,0E0,0E0,0E0,0E0,0E0,0E0,0E0,0E0,0E0,0E0],"parents":[2147483647,0,0,1,1,2,2,3,3,4,4,5,5,6,6,7,7,8,8,10,10,11,11,12,12,13,13,14,14],"right_children":[2,4,6,8,10,12,14,16,18,-1,20,22,24,26,28,-1,-1,-1,-1,-1,-1,-1,-1,-1,-1,-1,-1,-1,-1],"split_conditions":[-6.929774E-1,-4.2448583E-1,2.1699076E0,-6.411765E-1,4E0,-4.979959E-1,3E0,-7.39057E-1,-8.413742E-1,-5.9878744E-2,-8.075462E-1,3.1800557E-2,3.0977848E0,3.5556667E0,2.6708524E0,-5.3281296E-2,1.2216385E-2,5.829659E-2,-9.870968E-3,-3.766882E-2,9.7249355E-3,-1.5091664E-2,1.9739345E-2,4.237058E-3,-3.0826304E-2,6.4009145E-2,4.8286715E-3,5.6382876E-2,-3.5157714E-2],"split_indices":[2,0,2,1,4,0,4,2,2,0,2,3,0,2,2,0,0,0,0,0,0,0,0,0,0,0,0,0,0],"split_type":[0,0,0,0,0,0,0,0,0,0,0,0,0,0,0,0,0,0,0,0,0,0,0,0,0,0,0,0,0],"sum_hessian":[6.8556903E2,5.1100502E1,6.3446857E2,4.0554813E1,1.0545691E1,5.7785944E2,5.6609127E1,2.3484097E1,1.7070717E1,8.387012E0,2.1586792E0,1.6186809E2,4.1599133E2,3.6041607E1,2.0567522E1,1.9154268E1,4.3298273E0,3.225877E0,1.3844839E1,1.0736698E0,1.0850095E0,1.3158794E2,3.0280148E1,4.0585098E2,1.0140346E1,2.550692E1,1.0534686E1,4.998476E0,1.5569046E1],"tree_param":{"num_deleted":"0","num_feature":"6","num_nodes":"29","size_leaf_vector":"1"}},{"base_weights":[-7.395799E-4,-8.792601E-2,2.976165E-1,-5.9981406E-1,-3.9689317E-2,8.965346E-2,2.626411E-1,-4.184685E-2,-7.430629E-1,6.6860686E-3,-6.5171075E-1,1.4331128E-1,6.4985615E-1,-3.5588786E-2,3.4705337E-2,-4.9290914E-2,-2.5373489E-2,-1.3473444E-2,3.234335E-3,-3.919967E-2,-1.3170386E-2,-3.5328984E-2,1.2000819E-2,4.0426776E-2,-8.360456E-3],"categories":[],"categories_nodes":[],"categories_segments":[],"categories_sizes":[],"default_left":[0,0,0,0,0,0,0,0,0,0,0,0,0,0,0,0,0,0,0,0,0,0,0,0,0],"id":6,"left_children":[1,3,5,7,9,-1,11,13,15,17,19,21,23,-1,-1,-1,-1,-1,-1,-1,-1,-1,-1,-1,-1],"loss_changes":[1.787599E1,1.3107143E1,7.6573725E0,3.623703E0,1.3828682E1,0E0,6.977585E0,5.622065E0,1.5772209E0,7.285226E0,1.5562439E0,9.889141E0,4.772317E0,0E0,0E0,0E0,0E0,0E0,0E0,0E0,0E0,0E0,0E0,0E0,0E0],"parents":[2147483647,0,0,1,1,2,2,3,3,4,4,6,6,7,7,8,8,9,9,10,10,11,11,12,12],"right_children":[2,4,6,8,10,-1,12,14,16,18,20,22,24,-1,-1,-1,-1,-1,-1,-1,-1,-1,-1,-1,-1],"split_conditions":[3.6783218E-1,-7.1382225E-1,4.2245945E-1,1E0,1.2082205E-1,8.965346E-2,2.935728E-2,1.6710741E-3,-8.075462E-1,-5.851604E-2,4E0,-3.4635028E-1,2.9493864E0,-3.5588786E-2,3.4705337E-2,-4.9290914E-2,-2.5373489E-2,-1.3473444E-2,3.234335E-3,-3.919967E-2,-1.3170386E-2,-3.5328984E-2,1.2000819E-2,4.0426776E-2,-8.360456E-3],"split_indices":[2,2,2,4,2,0,3,3,2,3,4,1,1,0,0,0,0,0,0,0,0,0,0,0,0],"split_type":[0,0,0,0,0,0,0,0,0,0,0,0,0,0,0,0,0,0,0,0,0,0,0,0,0],"sum_hessian":[6.851991E2,5.3079425E2,1.5440483E2,4.472607E1,4.8606818E2,2.3799086E0,1.5202493E2,9.400887E0,3.5325184E1,4.527505E2,3.3317696E1,1.1725885E2,3.4766083E1,4.9383883E0,4.4624977E0,1.5829766E1,1.9495417E1,7.795275E1,3.7479773E2,2.4091467E1,9.226229E0,1.1334986E1,1.0592386E2,2.912103E1,5.6450524E0],"tree_param":{"num_deleted":"0","num_feature":"6","num_nodes":"25","size_leaf_vector":"1"}},{"base_weights":[-8.0941856E-4,-5.4675317E-1,4.2966105E-2,-3.9918083E-1,-1.0333519E0,-1.1482019E-3,4.8245266E-1,-7.787151E-1,1.2555224E-1,-5.7914894E-2,-3.3627814E-1,-1.6226953E-1,6.1542228E-2,8.77726E-1,-2.2744837E-1,-5.088508E-2,1.19101815E-2,5.64923E-2,-8.666596E-3,-3.660861E-2,1.0951612E-2,-1.4352376E-2,1.8280145E-2,7.7741877E-3,-3.6204045E-3,5.928446E-2,4.2690127E-3,5.2680533E-2,-3.428546E-2],"categories":[],"categories_nodes":[],"categories_segments":[],"categories_sizes":[],"default_left":[0,0,0,0,0,0,0,0,0,0,0,0,0,0,0,0,0,0,0,0,0,0,0,0,0,0,0,0,0],"id":7,"left_children":[1,3,5,7,9,11,13,15,17,-1,19,21,23,25,27,-1,-1,-1,-1,-1,-1,-1,-1,-1,-1,-1,-1,-1,-1],"loss_changes":[1.6411558E1,3.2479305E0,1.2326207E1,8.211781E0,5.8879757E-1,5.8558273E0,1.6473492E1,6.021928E0,5.5872445E0,0E0,8.4549284E-1,1.0800763E1,5.2631917E0,9.039227E0,1.3365805E1,0E0,0E0,0E0,0E0,0E0,0E0,0E0,0E0,0E0,0E0,0E0,0E0,0E0,0E0],"parents":[2147483647,0,0,1,1,2,2,3,3,4,4,5,5,6,6,7,7,8,8,10,10,11,11,12,12,13,13,14,14],"right_children":[2,4,6,8,10,12,14,16,18,-1,20,22,24,26,28,-1,-1,-1,-1,-1,-1,-1,-1,-1,-1,-1,-1,-1,-1],"split_conditions":[-6.929774E-1,-4.2448583E-1,2.1699076E0,-6.411765E-1,4E0,-4.979959E-1,3E0,-7.39057E-1,-8.413742E-1,-5.7914894E-2,1.6710741E-3,3.1800557E-2,-3.6762808E-2,3.5556667E0,2.6708524E0,-5.088508E-2,1.19101815E-2,5.64923E-2,-8.666596E-3,-3.660861E-2,1.0951612E-2,-1.4352376E-2,1.8280145E-2,7.7741877E-3,-3.6204045E-3,5.928446E-2,4.2690127E-3,5.2680533E-2,-3.428546E-2],"split_indices":[2,0,2,1,4,0,4,2,2,0,3,3,1,2,2,0,0,0,0,0,0,0,0,0,0,0,0,0,0],"split_type":[0,0,0,0,0,0,0,0,0,0,0,0,0,0,0,0,0,0,0,0,0,0,0,0,0,0,0,0,0],"sum_hessian":[6.8472266E2,4.997482E1,6.3474786E2,3.974237E1,1.0232449E1,5.7775226E2,5.69956E1,2.2781046E1,1.6961327E1,8.116042E0,2.1164064E0,1.6138542E2,4.1636682E2,3.645887E1,2.0536732E1,1.844541E1,4.3356347E0,3.2524414E0,1.3708884E1,1.0496173E0,1.0667892E0,1.3089969E2,3.0485727E1,2.446377E2,1.7172913E2,2.589699E1,1.0561881E1,5.0685496E0,1.5468182E1],"tree_param":{"num_deleted":"0","num_feature":"6","num_nodes":"29","size_leaf_vector":"1"}},{"base_weights":[-8.01045E-4,-2.4233301E-1,9.3219064E-2,-8.185499E-1,-1.3466135E-1,4.4400033E-2,4.5832503E-1,-9.557123E-1,2.706047E-1,-5.4974616E-1,-2.9198028E-2,7.8353554E-1,1.3858675E-2,8.296008E-1,-2.1644208E-1,-6.216873E-2,-3.644676E-2,-2.3775704E-2,4.3383688E-2,2.561943E-2,-3.306428E-2,4.1653765E-3,-2.6930172E-2,6.574513E-2,-2.8238341E-2,-1.1741047E-3,1.5660634E-2,5.590105E-2,4.070083E-3,5.01012E-2,-3.2981142E-2],"categories":[],"categories_nodes":[],"categories_segments":[],"categories_sizes":[],"default_left":[0,0,0,0,0,0,0,0,0,0,0,0,0,0,0,0,0,0,0,0,0,0,0,0,0,0,0,0,0,0,0],"id":8,"left_children":[1,3,5,7,9,11,13,15,17,19,21,23,25,27,29,-1,-1,-1,-1,-1,-1,-1,-1,-1,-1,-1,-1,-1,-1,-1,-1],"loss_changes":[1.5583333E1,1.1818967E1,8.783917E0,4.75156E0,7.128245E0,9.8496E0,1.4747656E1,8.5056305E-1,2.2583215E0,4.2493362E0,7.563607E0,1.3147565E1,4.7076097E0,8.048319E0,1.2234573E1,0E0,0E0,0E0,0E0,0E0,0E0,0E0,0E0,0E0,0E0,0E0,0E0,0E0,0E0,0E0,0E0],"parents":[2147483647,0,0,1,1,2,2,3,3,4,4,5,5,6,6,7,7,8,8,9,9,10,10,11,11,12,12,13,13,14,14],"right_children":[2,4,6,8,10,12,14,16,18,20,22,24,26,28,30,-1,-1,-1,-1,-1,-1,-1,-1,-1,-1,-1,-1,-1,-1,-1,-1],"split_conditions":[-4.344338E-1,-6.811158E-1,2.1699076E0,4.628295E-2,-4.253927E-2,-4.093159E-1,3E0,-8.075462E-1,-7.591743E-1,-3.9509776E-1,-4.7392097E-1,4E0,9.334483E-2,3.5556667E0,2.6708524E0,-6.216873E-2,-3.644676E-2,-2.3775704E-2,4.3383688E-2,2.561943E-2,-3.306428E-2,4.1653765E-3,-2.6930172E-2,6.574513E-2,-2.8238341E-2,-1.1741047E-3,1.5660634E-2,5.590105E-2,4.070083E-3,5.01012E-2,-3.2981142E-2],"split_indices":[2,1,2,3,3,2,4,2,1,3,2,4,3,2,2,0,0,0,0,0,0,0,0,0,0,0,0,0,0,0,0],"split_type":[0,0,0,0,0,0,0,0,0,0,0,0,0,0,0,0,0,0,0,0,0,0,0,0,0,0,0,0,0,0,0],"sum_hessian":[6.8422784E2,1.9127542E2,4.9295242E2,2.9075006E1,1.6220041E2,4.358021E2,5.7150333E1,2.5931808E1,3.143198E0,3.2008396E1,1.3019202E2,1.631463E1,4.1948746E2,3.671774E1,2.0432594E1,9.455229E0,1.647658E1,1.4877006E0,1.6554976E0,2.7003653E0,2.9308031E1,1.0732503E2,2.2866982E1,1.1720388E1,4.594242E0,3.73784E2,4.5703453E1,2.6144949E1,1.0572792E1,5.1132946E0,1.53193E1],"tree_param":{"num_deleted":"0","num_feature":"6","num_nodes":"31","size_leaf_vector":"1"}},{"base_weights":[-7.893318E-4,-7.960795E-2,2.6681814E-1,-4.2199723E-2,-6.2552863E-1,8.548202E-2,2.3295513E-1,-5.14644E-1,1.06313815E-2,-5.42399E-2,-4.8957765E-1,1.2310208E-1,5.869977E-1,-1.8317929E-2,-5.0315745E-2,-1.2729578E-2,3.3108077E-3,2.5917238E-2,-3.217433E-2,1.2538597E-2,-2.4275137E-2,3.6689457E-2,-8.754835E-3],"categories":[],"categories_nodes":[],"categories_segments":[],"categories_sizes":[],"default_left":[0,0,0,0,0,0,0,0,0,0,0,0,0,0,0,0,0,0,0,0,0,0,0],"id":9,"left_children":[1,3,5,7,9,-1,11,13,15,-1,17,19,21,-1,-1,-1,-1,-1,-1,-1,-1,-1,-1],"loss_changes":[1.446391E1,1.0791347E1,7.224577E0,1.2405845E1,1.5854034E0,0E0,5.9016275E0,3.2758932E0,6.6188664E0,0E0,4.673675E0,9.328606E0,4.1678286E0,0E0,0E0,0E0,0E0,0E0,0E0,0E0,0E0,0E0,0E0],"parents":[2147483647,0,0,1,1,2,2,3,3,4,4,6,6,7,7,8,8,10,10,11,11,12,12],"right_children":[2,4,6,8,10,-1,12,14,16,-1,18,20,22,-1,-1,-1,-1,-1,-1,-1,-1,-1,-1],"split_conditions":[3.6783218E-1,1.2082205E-1,4.2245945E-1,-6.929774E-1,-4.9663818E-1,8.548202E-2,2.935728E-2,-4.2448583E-1,-5.851604E-2,-5.42399E-2,-3.0238613E-1,8.40506E-3,2.9493864E0,-1.8317929E-2,-5.0315745E-2,-1.2729578E-2,3.3108077E-3,2.5917238E-2,-3.217433E-2,1.2538597E-2,-2.4275137E-2,3.6689457E-2,-8.754835E-3],"split_indices":[2,2,2,2,1,0,3,0,3,0,1,3,1,0,0,0,0,0,0,0,0,0,0],"split_type":[0,0,0,0,0,0,0,0,0,0,0,0,0,0,0,0,0,0,0,0,0,0,0],"sum_hessian":[6.837316E2,5.287122E2,1.5501947E2,4.958147E2,3.2897503E1,2.4200468E0,1.5259941E2,4.8988827E1,4.4682587E2,5.919827E0,2.6977676E1,1.1749159E2,3.5107826E1,3.89783E1,1.0010528E1,7.679899E1,3.700269E2,3.260085E0,2.3717592E1,9.7604576E1,1.9887012E1,2.9468807E1,5.6390176E0],"tree_param":{"num_deleted":"0","num_feature":"6","num_nodes":"23","size_leaf_vector":"1"}},{"base_weights":[-8.439979E-4,-2.266538E-1,8.64007E-2,-7.866144E-1,-1.2375658E-1,7.378745E-1,6.237644E-2,-9.2257065E-1,2.6865068E-1,-5.179661E-1,-2.477952E-2,1.2326715E0,-5.4605365E-1,1.1959205E-2,4.2470875E-1,-6.0604353E-2,-3.4969732E-2,-2.2919111E-2,4.1992124E-2,2.5074163E-2,-3.136752E-2,3.8118955E-2,-4.665114E-3,-2.4339205E-2,7.4018955E-2,-5.953881E-2,5.1633663E-2,-1.1389483E-3,1.4441577E-2,3.8666464E-2,-1.0746118E-2],"categories":[],"categories_nodes":[],"categories_segments":[],"categories_sizes":[],"default_left":[0,0,0,0,0,0,0,0,0,0,0,0,0,0,0,0,0,0,0,0,0,0,0,0,0,0,0,0,0,0,0],"id":10,"left_children":[1,3,5,7,9,11,13,15,17,19,21,23,25,27,29,-1,-1,-1,-1,-1,-1,-1,-1,-1,-1,-1,-1,-1,-1,-1,-1],"loss_changes":[1.3500158E1,1.0906253E1,7.6902695E0,4.474283E0,6.3281307E0,1.1782555E1,8.723406E0,8.530197E-1,2.1028159E0,3.945959E0,7.1343703E0,6.2277203E0,6.8863964E0,4.0506973E0,1.317425E1,0E0,0E0,0E0,0E0,0E0,0E0,0E0,0E0,0E0,0E0,0E0,0E0,0E0,0E0,0E0,0E0],"parents":[2147483647,0,0,1,1,2,2,3,3,4,4,5,5,6,6,7,7,8,8,9,9,10,10,11,11,12,12,13,13,14,14],"right_children":[2,4,6,8,10,12,14,16,18,20,22,24,26,28,30,-1,-1,-1,-1,-1,-1,-1,-1,-1,-1,-1,-1,-1,-1,-1,-1],"split_conditions":[-4.344338E-1,-6.811158E-1,-4.093159E-1,4.628295E-2,-4.253927E-2,4E0,2.1699076E0,-8.075462E-1,-7.591743E-1,-3.9509776E-1,-2.4588162E-2,-5.265467E-1,-4.16804E-1,9.334483E-2,3E0,-6.0604353E-2,-3.4969732E-2,-2.2919111E-2,4.1992124E-2,2.5074163E-2,-3.136752E-2,3.8118955E-2,-4.665114E-3,-2.4339205E-2,7.4018955E-2,-5.953881E-2,5.1633663E-2,-1.1389483E-3,1.4441577E-2,3.8666464E-2,-1.0746118E-2],"split_indices":[2,1,2,3,3,4,2,2,1,3,3,0,2,3,4,0,0,0,0,0,0,0,0,0,0,0,0,0,0,0,0],"split_type":[0,0,0,0,0,0,0,0,0,0,0,0,0,0,0,0,0,0,0,0,0,0,0,0,0,0,0,0,0,0,0],"sum_hessian":[6.832685E2,1.8997379E2,4.932947E2,2.8458677E1,1.615151E2,1.6487383E1,4.7680734E2,2.5322031E1,3.1366465E0,3.1564732E1,1.2995038E2,1.192982E1,4.557562E0,4.194723E2,5.733505E1,9.093873E0,1.6228159E1,1.4669542E0,1.6696923E0,2.7112849E0,2.8853447E1,9.595512E0,1.20354866E2,1.380684E0,1.0549136E1,3.41051E0,1.147052E0,3.7352518E2,4.594713E1,3.697397E1,2.0361082E1],"tree_param":{"num_deleted":"0","num_feature":"6","num_nodes":"31","size_leaf_vector":"1"}},{"base_weights":[-8.0384454E-4,-1.5432565E-1,1.1660777E-1,-5.5290586E-1,-8.4737346E-2,6.75411E-3,3.1175438E-1,-7.623912E-1,-7.17502E-2,2.5364718E-1,-1.7373833E-1,2.458063E-1,-2.2596E-1,7.821932E-1,2.09813E-1,-3.0776083E-2,-6.253071E-2,-1.9563189E-2,4.16369E-2,-1.568474E-2,2.0299327E-2,-1.6763752E-2,4.473578E-3,-9.780939E-3,2.0100687E-2,-3.022984E-2,1.4964688E-4,6.714114E-2,1.9047294E-2,-3.8774636E-2,1.3443331E-2],"categories":[],"categories_nodes":[],"categories_segments":[],"categories_sizes":[],"default_left":[0,0,0,0,0,0,0,0,0,0,0,0,0,0,0,0,0,0,0,0,0,0,0,0,0,0,0,0,0,0,0],"id":11,"left_children":[1,3,5,7,9,11,13,15,17,19,21,23,25,27,29,-1,-1,-1,-1,-1,-1,-1,-1,-1,-1,-1,-1,-1,-1,-1,-1],"loss_changes":[1.234262E1,8.183592E0,8.315793E0,4.3728027E0,7.687982E0,1.3923063E1,6.536848E0,1.4171028E0,4.495304E0,4.7306623E0,8.599493E0,8.590532E0,1.099708E1,5.004059E0,6.9702206E0,0E0,0E0,0E0,0E0,0E0,0E0,0E0,0E0,0E0,0E0,0E0,0E0,0E0,0E0,0E0,0E0],"parents":[2147483647,0,0,1,1,2,2,3,3,4,4,5,5,6,6,7,7,8,8,9,9,10,10,11,11,12,12,13,13,14,14],"right_children":[2,4,6,8,10,12,14,16,18,20,22,24,26,28,30,-1,-1,-1,-1,-1,-1,-1,-1,-1,-1,-1,-1,-1,-1,-1,-1],"split_conditions":[-3.5253906E-1,-6.1575226E-2,3.6783218E-1,1.3E1,-7.2308816E-3,-3.6762808E-2,2.9384664E-1,-2.9942426E-1,4E0,-6.811158E-1,2.5580721E-2,-4.0670443E-1,-6.888378E-2,1.2E1,4.6734187E-1,-3.0776083E-2,-6.253071E-2,-1.9563189E-2,4.16369E-2,-1.568474E-2,2.0299327E-2,-1.6763752E-2,4.473578E-3,-9.780939E-3,2.0100687E-2,-3.022984E-2,1.4964688E-4,6.714114E-2,1.9047294E-2,-3.8774636E-2,1.3443331E-2],"split_indices":[1,3,2,5,3,1,1,0,4,1,3,0,2,5,1,0,0,0,0,0,0,0,0,0,0,0,0,0,0,0,0],"split_type":[0,0,0,0,0,0,0,0,0,0,0,0,0,0,0,0,0,0,0,0,0,0,0,0,0,0,0,0,0,0,0],"sum_hessian":[6.827425E2,2.957368E2,3.8700568E2,4.2925793E1,2.52811E2,2.4827763E2,1.3872803E2,2.9498322E1,1.342747E1,5.226144E1,2.0054956E2,1.2244328E2,1.2583435E2,2.3519114E1,1.15208916E2,2.4414558E1,5.083763E0,1.0341661E1,3.0858078E0,1.0838295E1,4.1423145E1,1.2410828E2,7.644129E1,3.1937914E1,9.050537E1,4.679885E1,7.90355E1,8.832114E0,1.4687E1,5.8285146E0,1.093804E2],"tree_param":{"num_deleted":"0","num_feature":"6","num_nodes":"31","size_leaf_vector":"1"}},{"base_weights":[-8.7173167E-4,-4.7444054E-1,3.5542037E-2,-3.2590944E-1,-9.7253186E-1,-1.7674822E-2,2.7522966E-1,-6.929169E-1,1.545763E-1,-5.5156868E-2,-1.3746346E-2,-5.426325E-3,-9.204546E-1,7.358584E-2,2.3393437E-1,-4.6694435E-2,1.3116161E-2,5.4510005E-2,-6.6419095E-3,-8.541486E-3,3.0370369E-3,-1.7198801E-2,-5.4037936E-2,-5.3923577E-2,1.352965E-2],"categories":[],"categories_nodes":[],"categories_segments":[],"categories_sizes":[],"default_left":[0,0,0,0,0,0,0,0,0,0,0,0,0,0,0,0,0,0,0,0,0,0,0,0,0],"id":12,"left_children":[1,3,5,7,9,11,13,15,17,-1,-1,19,21,-1,23,-1,-1,-1,-1,-1,-1,-1,-1,-1,-1],"loss_changes":[1.1800424E1,3.297842E0,8.110493E0,7.0093265E0,6.7337227E-1,5.7555046E0,5.3632736E0,5.395026E0,4.9227633E0,0E0,0E0,5.64647E0,2.7212E-1,0E0,5.7212057E0,0E0,0E0,0E0,0E0,0E0,0E0,0E0,0E0,0E0,0E0],"parents":[2147483647,0,0,1,1,2,2,3,3,4,4,5,5,6,6,7,7,8,8,11,11,12,12,14,14],"right_children":[2,4,6,8,10,12,14,16,18,-1,-1,20,22,-1,24,-1,-1,-1,-1,-1,-1,-1,-1,-1,-1],"split_conditions":[-6.929774E-1,-4.2448583E-1,9.868919E-1,-6.411765E-1,4E0,8.5685873E-1,9.974052E-1,-7.39057E-1,-8.413742E-1,-5.5156868E-2,-1.3746346E-2,-4.979959E-1,2.4280913E-1,7.358584E-2,1.0162555E0,-4.6694435E-2,1.3116161E-2,5.4510005E-2,-6.6419095E-3,-8.541486E-3,3.0370369E-3,-1.7198801E-2,-5.4037936E-2,-5.3923577E-2,1.352965E-2],"split_indices":[2,0,2,1,4,2,2,2,2,0,0,0,1,0,2,0,0,0,0,0,0,0,0,0,0],"split_type":[0,0,0,0,0,0,0,0,0,0,0,0,0,0,0,0,0,0,0,0,0,0,0,0,0],"sum_hessian":[6.8232574E2,4.7860504E1,6.344652E2,3.8141117E1,9.719388E0,5.199493E2,1.14515945E2,2.1373423E1,1.6767694E1,7.69703E0,2.0223575E0,5.139818E2,5.967457E0,2.664885E0,1.1185107E2,1.7085688E1,4.287735E0,3.2840285E0,1.3483665E1,1.4640901E2,3.675728E2,1.982793E0,3.984664E0,2.267122E0,1.0958394E2],"tree_param":{"num_deleted":"0","num_feature":"6","num_nodes":"25","size_leaf_vector":"1"}},{"base_weights":[-1.0072554E-3,-2.0583102E-1,7.726555E-2,-7.38689E-1,-1.1068428E-1,7.030165E-1,5.4087296E-2,-8.732351E-1,2.68438E-1,-4.872108E-1,-1.7242312E-2,1.1658795E0,-5.2406675E-1,9.134885E-3,3.7512848E-1,-5.847183E-2,-3.2654673E-2,-2.1644875E-2,4.021271E-2,2.4104556E-2,-2.9686296E-2,4.6204086E-3,-2.5790235E-2,-2.317784E-2,6.973968E-2,-5.8021154E-2,4.9764868E-2,1.590184E-2,-1.1556664E-3,3.5224546E-2,-1.151485E-2],"categories":[],"categories_nodes":[],"categories_segments":[],"categories_sizes":[],"default_left":[0,0,0,0,0,0,0,0,0,0,0,0,0,0,0,0,0,0,0,0,0,0,0,0,0,0,0,0,0,0,0],"id":13,"left_children":[1,3,5,7,9,11,13,15,17,19,21,23,25,27,29,-1,-1,-1,-1,-1,-1,-1,-1,-1,-1,-1,-1,-1,-1,-1,-1],"loss_changes":[1.0964335E1,9.504951E0,7.1387167E0,4.0924854E0,5.6778073E0,1.0601838E1,6.8981433E0,8.89328E-1,1.8965052E0,3.600079E0,7.1828527E0,5.5263977E0,6.4801836E0,4.196323E0,1.1869732E1,0E0,0E0,0E0,0E0,0E0,0E0,0E0,0E0,0E0,0E0,0E0,0E0,0E0,0E0,0E0,0E0],"parents":[2147483647,0,0,1,1,2,2,3,3,4,4,5,5,6,6,7,7,8,8,9,9,10,10,11,11,12,12,13,13,14,14],"right_children":[2,4,6,8,10,12,14,16,18,20,22,24,26,28,30,-1,-1,-1,-1,-1,-1,-1,-1,-1,-1,-1,-1,-1,-1,-1,-1],"split_conditions":[-4.344338E-1,-6.811158E-1,-4.093159E-1,4.628295E-2,-4.253927E-2,4E0,2.1699076E0,-8.075462E-1,-7.591743E-1,-3.9509776E-1,-4.7392097E-1,-5.265467E-1,-4.16804E-1,-5.926878E-1,3E0,-5.847183E-2,-3.2654673E-2,-2.1644875E-2,4.021271E-2,2.4104556E-2,-2.9686296E-2,4.6204086E-3,-2.5790235E-2,-2.317784E-2,6.973968E-2,-5.8021154E-2,4.9764868E-2,1.590184E-2,-1.1556664E-3,3.5224546E-2,-1.151485E-2],"split_indices":[2,1,2,3,3,4,2,2,1,3,2,0,2,1,4,0,0,0,0,0,0,0,0,0,0,0,0,0,0,0,0],"split_type":[0,0,0,0,0,0,0,0,0,0,0,0,0,0,0,0,0,0,0,0,0,0,0,0,0,0,0,0,0,0,0],"sum_hessian":[6.819056E2,1.8808813E2,4.9381747E2,2.7471817E1,1.6061632E2,1.6590391E1,4.7722708E2,2.4351542E1,3.120275E0,3.1096842E1,1.2951949E2,1.208263E1,4.5077615E0,4.1951477E2,5.7712296E1,8.543726E0,1.58078165E1,1.4345957E0,1.6856793E0,2.7297466E0,2.8367096E1,1.068371E2,2.2682386E1,1.3620899E0,1.072054E1,3.3436027E0,1.164159E0,3.8818142E1,3.8069662E2,3.7272015E1,2.0440283E1],"tree_param":{"num_deleted":"0","num_feature":"6","num_nodes":"31","size_leaf_vector":"1"}},{"base_weights":[-1.0362056E-3,-4.468372E-1,3.2575335E-2,-2.981425E-1,-9.4827896E-1,-2.7685812E-2,2.1610692E-1,-6.5297806E-1,1.512586E-1,-5.3981174E-2,-1.2953003E-2,1.5515839E-2,-6.027871E-1,8.081854E-2,1.8346521E-1,-4.4605892E-2,1.2749853E-2,3.0371318E-2,-1.9268027E-2,1.346627E-3,-5.117808E-2,-3.785942E-2,-1.2957187E-2,-1.6505433E-2,1.2522394E-2],"categories":[],"categories_nodes":[],"categories_segments":[],"categories_sizes":[],"default_left":[0,0,0,0,0,0,0,0,0,0,0,0,0,0,0,0,0,0,0,0,0,0,0,0,0],"id":14,"left_children":[1,3,5,7,9,11,13,15,17,-1,-1,19,21,-1,23,-1,-1,-1,-1,-1,-1,-1,-1,-1,-1],"loss_changes":[1.02390585E1,3.289381E0,7.0339556E0,6.223669E0,6.70701E-1,1.191685E1,6.88793E0,4.9286213E0,4.5811415E0,0E0,0E0,5.3273263E0,1.5818939E0,0E0,5.405566E0,0E0,0E0,0E0,0E0,0E0,0E0,0E0,0E0,0E0,0E0],"parents":[2147483647,0,0,1,1,2,2,3,3,4,4,5,5,6,6,7,7,8,8,11,11,12,12,14,14],"right_children":[2,4,6,8,10,12,14,16,18,-1,-1,20,22,-1,24,-1,-1,-1,-1,-1,-1,-1,-1,-1,-1],"split_conditions":[-6.929774E-1,-4.2448583E-1,3.6783218E-1,-6.411765E-1,4E0,1.2082205E-1,4.2245945E-1,-7.39057E-1,-7.5271225E-1,-5.3981174E-2,-1.2953003E-2,3.2773068E0,3.2667857E-1,8.081854E-2,-3.4635028E-1,-4.4605892E-2,1.2749853E-2,3.0371318E-2,-1.9268027E-2,1.346627E-3,-5.117808E-2,-3.785942E-2,-1.2957187E-2,-1.6505433E-2,1.2522394E-2],"split_indices":[2,0,2,1,4,2,2,2,2,0,0,0,0,0,1,0,0,0,0,0,0,0,0,0,0],"split_type":[0,0,0,0,0,0,0,0,0,0,0,0,0,0,0,0,0,0,0,0,0,0,0,0,0],"sum_hessian":[6.8135864E2,4.6908016E1,6.344507E2,3.7409412E1,9.498604E0,4.782652E2,1.5618546E2,2.0650953E1,1.675846E1,7.502421E0,1.9961826E0,4.457532E2,3.2511997E1,2.452661E0,1.5373279E2,1.6359661E1,4.291293E0,8.986927E0,7.771533E0,4.4187228E2,3.8809216E0,2.1602448E1,1.0909549E1,1.7283937E1,1.3644885E2],"tree_param":{"num_deleted":"0","num_feature":"6","num_nodes":"25","size_leaf_vector":"1"}},{"base_weights":[-1.188802E-3,-1.9330014E-1,7.170037E-2,-7.0504045E-1,-1.0409339E-1,6.6477007E-1,4.962344E-2,-8.386174E-1,2.6826608E-1,-4.6717808E-1,-1.4732672E-2,1.0974735E0,-5.053414E-1,6.1264713E-3,3.318603E-1,-5.6810148E-2,-3.1220904E-2,-2.0423774E-2,3.855173E-2,2.3043143E-2,-2.8547734E-2,4.519342E-3,-2.4793869E-2,-2.2637388E-2,6.561365E-2,-5.6692936E-2,4.8049483E-2,-1.5603269E-3,1.52565045E-2,2.9190032E-2,-5.8385204E-3],"categories":[],"categories_nodes":[],"categories_segments":[],"categories_sizes":[],"default_left":[0,0,0,0,0,0,0,0,0,0,0,0,0,0,0,0,0,0,0,0,0,0,0,0,0,0,0,0,0,0,0],"id":15,"left_children":[1,3,5,7,9,11,13,15,17,19,21,23,25,27,29,-1,-1,-1,-1,-1,-1,-1,-1,-1,-1,-1,-1,-1,-1,-1,-1],"loss_changes":[9.561142E0,8.500021E0,6.448205E0,3.8269567E0,5.2200704E0,9.508485E0,5.870056E0,8.5886574E-1,1.7103093E0,3.3243628E0,6.6357956E0,4.998088E0,6.1206465E0,4.6472626E0,7.285471E0,0E0,0E0,0E0,0E0,0E0,0E0,0E0,0E0,0E0,0E0,0E0,0E0,0E0,0E0,0E0,0E0],"parents":[2147483647,0,0,1,1,2,2,3,3,4,4,5,5,6,6,7,7,8,8,9,9,10,10,11,11,12,12,13,13,14,14],"right_children":[2,4,6,8,10,12,14,16,18,20,22,24,26,28,30,-1,-1,-1,-1,-1,-1,-1,-1,-1,-1,-1,-1,-1,-1,-1,-1],"split_conditions":[-4.344338E-1,-6.811158E-1,-4.093159E-1,4.628295E-2,-4.253927E-2,4E0,2.0550156E0,-8.075462E-1,-7.591743E-1,-3.9509776E-1,-4.7392097E-1,-5.265467E-1,-4.16804E-1,9.334483E-2,3E0,-5.6810148E-2,-3.1220904E-2,-2.0423774E-2,3.855173E-2,2.3043143E-2,-2.8547734E-2,4.519342E-3,-2.4793869E-2,-2.2637388E-2,6.561365E-2,-5.6692936E-2,4.8049483E-2,-1.5603269E-3,1.52565045E-2,2.9190032E-2,-5.8385204E-3],"split_indices":[2,1,2,3,3,4,2,2,1,3,2,0,2,3,4,0,0,0,0,0,0,0,0,0,0,0,0,0,0,0,0],"split_type":[0,0,0,0,0,0,0,0,0,0,0,0,0,0,0,0,0,0,0,0,0,0,0,0,0,0,0,0,0,0,0],"sum_hessian":[6.808106E2,1.868046E2,4.9400604E2,2.6705175E1,1.6009943E2,1.668455E1,4.7732147E2,2.3604122E1,3.1010542E0,3.0785551E1,1.2931387E2,1.2225629E1,4.4589195E0,4.1446747E2,6.2854E1,8.077579E0,1.5526544E1,1.401773E0,1.6992811E0,2.7502275E0,2.8035324E1,1.067939E2,2.251997E1,1.3530216E0,1.0872607E1,3.2798197E0,1.1791002E0,3.6925824E2,4.5209232E1,4.0057415E1,2.2796585E1],"tree_param":{"num_deleted":"0","num_feature":"6","num_nodes":"31","size_leaf_vector":"1"}},{"base_weights":[-1.206102E-3,-2.2528508E-1,5.779145E-2,-7.398728E-1,-1.0595058E-1,8.538054E-1,4.0442843E-2,-8.8269717E-1,2.5931427E-1,-5.0196224E-1,-9.246728E-3,-2.4832438E-1,1.208378E0,2.3896904E-3,3.5557264E-1,-3.25464E-2,-5.6263078E-2,-1.9931374E-2,3.719305E-2,3.8297772E-2,-3.0972017E-2,4.606095E-2,-6.4860666E-3,-4.162694E-2,2.1879727E-2,-3.992624E-3,7.2966896E-2,-2.235539E-2,1.6556893E-3,3.3612706E-2,3.3002489E-3],"categories":[],"categories_nodes":[],"categories_segments":[],"categories_sizes":[],"default_left":[0,0,0,0,0,0,0,0,0,0,0,0,0,0,0,0,0,0,0,0,0,0,0,0,0,0,0,0,0,0,0],"id":16,"left_children":[1,3,5,7,9,11,13,15,17,19,21,23,25,27,29,-1,-1,-1,-1,-1,-1,-1,-1,-1,-1,-1,-1,-1,-1,-1,-1],"loss_changes":[9.018151E0,8.6520195E0,7.422709E0,4.0243845E0,4.459669E0,4.78166E0,6.3491125E0,5.885124E-1,1.6033459E0,3.8796568E0,1.0736628E1,1.8153232E0,2.976781E0,6.5538096E0,5.1868496E0,0E0,0E0,0E0,0E0,0E0,0E0,0E0,0E0,0E0,0E0,0E0,0E0,0E0,0E0,0E0,0E0],"parents":[2147483647,0,0,1,1,2,2,3,3,4,4,5,5,6,6,7,7,8,8,9,9,10,10,11,11,12,12,13,13,14,14],"right_children":[2,4,6,8,10,12,14,16,18,20,22,24,26,28,30,-1,-1,-1,-1,-1,-1,-1,-1,-1,-1,-1,-1,-1,-1,-1,-1],"split_conditions":[-5.1096857E-1,-6.811158E-1,-4.954074E-1,4.628295E-2,-4.253927E-2,-3.9384782E-2,9.617485E-2,-6.899531E-1,-7.591743E-1,-7.7829665E-1,-1.5783658E-2,-4.9940586E-1,1E1,-4.344338E-1,-2.2188795E-1,-3.25464E-2,-5.6263078E-2,-1.9931374E-2,3.719305E-2,3.8297772E-2,-3.0972017E-2,4.606095E-2,-6.4860666E-3,-4.162694E-2,2.1879727E-2,-3.992624E-3,7.2966896E-2,-2.235539E-2,1.6556893E-3,3.3612706E-2,3.3002489E-3],"split_indices":[2,1,2,3,3,3,3,2,1,3,3,2,5,2,1,0,0,0,0,0,0,0,0,0,0,0,0,0,0,0,0],"split_type":[0,0,0,0,0,0,0,0,0,0,0,0,0,0,0,0,0,0,0,0,0,0,0,0,0,0,0,0,0,0,0],"sum_hessian":[6.801691E2,1.411704E2,5.389987E2,2.5596138E1,1.15574265E2,1.0468174E1,5.285306E2,2.249699E1,3.0991476E0,2.1860928E1,9.371333E1,2.620971E0,7.847203E0,4.724839E2,5.6046688E1,1.3388173E1,9.108816E0,1.3895991E0,1.7095486E0,1.3856708E0,2.0475258E1,9.980902E0,8.373244E1,1.2999847E0,1.3209864E0,1.3906279E0,6.456575E0,2.936198E1,4.4312192E2,2.6138798E1,2.990789E1],"tree_param":{"num_deleted":"0","num_feature":"6","num_nodes":"31","size_leaf_vector":"1"}},{"base_weights":[-1.1275191E-3,-1.311551E-1,9.682518E-2,-5.015019E-1,-6.7697674E-2,3.7926146E-1,3.0495359E-2,-7.0312387E-1,-5.1095758E-2,2.6456106E-1,-1.5528485E-1,5.416309E-1,-5.1690155E-1,-1.2661643E-1,2.4208769E-1,-2.760603E-2,-6.0528476E-2,-1.8227747E-2,4.082588E-2,-8.045738E-3,2.1087954E-2,-1.5210872E-2,4.2072046E-3,2.4792054E-3,3.6842074E-2,-5.1624503E-2,3.178405E-2,3.441983E-2,-8.700463E-3,7.74348E-2,1.0301392E-2],"categories":[],"categories_nodes":[],"categories_segments":[],"categories_sizes":[],"default_left":[0,0,0,0,0,0,0,0,0,0,0,0,0,0,0,0,0,0,0,0,0,0,0,0,0,0,0,0,0,0,0],"id":17,"left_children":[1,3,5,7,9,11,13,15,17,19,21,23,25,27,29,-1,-1,-1,-1,-1,-1,-1,-1,-1,-1,-1,-1,-1,-1,-1,-1],"loss_changes":[8.6832E0,6.849918E0,7.2729855E0,3.8410025E0,7.3520765E0,1.1027921E1,1.0534915E1,1.5853605E0,4.1811867E0,3.5979598E0,7.137513E0,6.016941E0,7.69342E0,7.1493073E0,6.041015E0,0E0,0E0,0E0,0E0,0E0,0E0,0E0,0E0,0E0,0E0,0E0,0E0,0E0,0E0,0E0,0E0],"parents":[2147483647,0,0,1,1,2,2,3,3,4,4,5,5,6,6,7,7,8,8,9,9,10,10,11,11,12,12,13,13,14,14],"right_children":[2,4,6,8,10,12,14,16,18,20,22,24,26,28,30,-1,-1,-1,-1,-1,-1,-1,-1,-1,-1,-1,-1,-1,-1,-1,-1],"split_conditions":[-3.5253906E-1,-6.1575226E-2,-2.3342612E-1,1.3E1,-7.2308816E-3,-5.3178288E-2,3.6783218E-1,-2.9942426E-1,4E0,-4.253927E-2,2.5580721E-2,-4.0947083E-1,-2.607712E-1,-3.9509776E-1,4.2245945E-1,-2.760603E-2,-6.0528476E-2,-1.8227747E-2,4.082588E-2,-8.045738E-3,2.1087954E-2,-1.5210872E-2,4.2072046E-3,2.4792054E-3,3.6842074E-2,-5.1624503E-2,3.178405E-2,3.441983E-2,-8.700463E-3,7.74348E-2,1.0301392E-2],"split_indices":[1,3,1,5,3,0,2,0,4,3,3,0,1,3,2,0,0,0,0,0,0,0,0,0,0,0,0,0,0,0,0],"split_type":[0,0,0,0,0,0,0,0,0,0,0,0,0,0,0,0,0,0,0,0,0,0,0,0,0,0,0,0,0,0,0],"sum_hessian":[6.797572E2,2.9191495E2,3.8784225E2,4.1691914E1,2.5022304E2,7.2864235E1,3.1497803E2,2.8412233E1,1.3279679E1,5.1779366E1,1.9844366E2,6.2022438E1,1.0841798E1,1.809904E2,1.3398761E2,2.3505589E1,4.906644E0,1.0181157E1,3.0985217E0,1.3963037E1,3.781633E1,1.2217577E2,7.626789E1,1.7973223E1,4.4049217E1,7.56287E0,3.2789283E0,9.202911E0,1.7178749E2,2.4718971E0,1.3151572E2],"tree_param":{"num_deleted":"0","num_feature":"6","num_nodes":"31","size_leaf_vector":"1"}},{"base_weights":[-1.0167799E-3,-4.0747103E-1,2.8779209E-2,-2.5669062E-1,-9.186214E-1,1.8432718E-2,8.6721164E-1,-5.9884226E-1,1.5722057E-1,-5.261417E-2,-1.1677007E-2,3.3953756E-2,-9.187075E-1,1.1996942E0,-1.1569119E-2,-4.186614E-2,1.2754454E-2,5.4269113E-2,-4.7600134E-3,-2.9845227E-5,2.4801543E-2,-5.200206E-2,1.0144481E-4,3.006362E-4,8.3274096E-2],"categories":[],"categories_nodes":[],"categories_segments":[],"categories_sizes":[],"default_left":[0,0,0,0,0,0,0,0,0,0,0,0,0,0,0,0,0,0,0,0,0,0,0,0,0],"id":18,"left_children":[1,3,5,7,9,11,13,15,17,-1,-1,19,21,23,-1,-1,-1,-1,-1,-1,-1,-1,-1,-1,-1],"loss_changes":[8.250112E0,3.350151E0,5.4901814E0,5.3789916E0,6.892338E-1,9.16589E0,3.095789E0,4.4163027E0,4.2454376E0,0E0,0E0,9.878616E0,1.149149E0,3.3730745E0,0E0,0E0,0E0,0E0,0E0,0E0,0E0,0E0,0E0,0E0,0E0],"parents":[2147483647,0,0,1,1,2,2,3,3,4,4,5,5,6,6,7,7,8,8,11,11,12,12,13,13],"right_children":[2,4,6,8,10,12,14,16,18,-1,-1,20,22,24,-1,-1,-1,-1,-1,-1,-1,-1,-1,-1,-1],"split_conditions":[-6.929774E-1,-4.2448583E-1,3.9389248E0,-6.411765E-1,4E0,3.5556667E0,4E0,-7.39057E-1,-8.567421E-1,-5.261417E-2,-1.1677007E-2,2.1699076E0,6.05043E-2,-2.8751555E-3,-1.1569119E-2,-4.186614E-2,1.2754454E-2,5.4269113E-2,-4.7600134E-3,-2.9845227E-5,2.4801543E-2,-5.200206E-2,1.0144481E-4,3.006362E-4,8.3274096E-2],"split_indices":[2,0,2,1,4,2,4,2,2,0,0,2,3,3,0,0,0,0,0,0,0,0,0,0,0],"split_type":[0,0,0,0,0,0,0,0,0,0,0,0,0,0,0,0,0,0,0,0,0,0,0,0,0],"sum_hessian":[6.7925635E2,4.552763E1,6.3372876E2,3.6316948E1,9.210682E0,6.270132E2,6.715534E0,1.9637337E1,1.6679611E1,7.2585196E0,1.9521623E0,6.177458E2,9.267419E0,5.084666E0,1.6308684E0,1.5365583E1,4.2717533E0,2.8607235E0,1.3818888E1,5.756981E2,4.204768E1,8.073876E0,1.1935425E0,1.7114966E0,3.373169E0],"tree_param":{"num_deleted":"0","num_feature":"6","num_nodes":"25","size_leaf_vector":"1"}},{"base_weights":[-9.936092E-4,-3.92922E-1,2.7399708E-2,-2.45783E-1,-8.9727587E-1,1.7461699E-2,8.2850903E-1,-5.804079E-1,1.520698E-1,-5.153073E-2,-1.1331906E-2,3.2288563E-2,-8.8594365E-1,1.1444811E0,-1.1231631E-2,-4.082611E-2,1.2200012E-2,4.493068E-2,-6.923908E-3,-2.835489E-5,2.3529839E-2,-5.0207403E-2,9.868229E-5,2.9113394E-4,7.920943E-2],"categories":[],"categories_nodes":[],"categories_segments":[],"categories_sizes":[],"default_left":[0,0,0,0,0,0,0,0,0,0,0,0,0,0,0,0,0,0,0,0,0,0,0,0,0],"id":19,"left_children":[1,3,5,7,9,11,13,15,17,-1,-1,19,21,23,-1,-1,-1,-1,-1,-1,-1,-1,-1,-1,-1],"loss_changes":[7.575297E0,3.1919665E0,5.039301E0,5.0109377E0,6.613798E-1,8.440787E0,2.838213E0,4.1490707E0,3.9603305E0,0E0,0E0,8.912247E0,1.0700102E0,3.060216E0,0E0,0E0,0E0,0E0,0E0,0E0,0E0,0E0,0E0,0E0,0E0],"parents":[2147483647,0,0,1,1,2,2,3,3,4,4,5,5,6,6,7,7,8,8,11,11,12,12,13,13],"right_children":[2,4,6,8,10,12,14,16,18,-1,-1,20,22,24,-1,-1,-1,-1,-1,-1,-1,-1,-1,-1,-1],"split_conditions":[-6.929774E-1,-4.2448583E-1,3.9389248E0,-6.411765E-1,4E0,3.5556667E0,4E0,-7.39057E-1,-6.075382E-1,-5.153073E-2,-1.1331906E-2,2.1699076E0,6.05043E-2,-2.8751555E-3,-1.1231631E-2,-4.082611E-2,1.2200012E-2,4.493068E-2,-6.923908E-3,-2.835489E-5,2.3529839E-2,-5.0207403E-2,9.868229E-5,2.9113394E-4,7.920943E-2],"split_indices":[2,0,2,1,4,2,4,2,1,0,0,2,3,3,0,0,0,0,0,0,0,0,0,0,0],"split_type":[0,0,0,0,0,0,0,0,0,0,0,0,0,0,0,0,0,0,0,0,0,0,0,0,0],"sum_hessian":[6.7876556E2,4.49843E1,6.3378125E2,3.597605E1,9.008245E0,6.270246E2,6.7566376E0,1.9291534E1,1.6684519E1,7.066491E0,1.9417545E0,6.1784863E2,9.175992E0,5.130587E0,1.6260505E0,1.500391E1,4.2876234E0,4.0879574E0,1.25965605E1,5.7569324E2,4.215536E1,7.9824257E0,1.1935668E0,1.7115725E0,3.4190147E0],"tree_param":{"num_deleted":"0","num_feature":"6","num_nodes":"25","size_leaf_vector":"1"}},{"base_weights":[-9.890666E-4,-1.1641456E-1,9.1175206E-2,-8.7235145E-2,-9.774966E-1,4.2351583E-1,2.4306169E-2,-4.2171916E-1,-3.1800255E-2,-1.1181861E0,-3.4467306E-3,5.7820034E-1,-3.948021E-1,-1.2011727E-1,2.1793664E-1,-3.212656E-2,3.46183E-3,9.658077E-4,-2.5872186E-2,-1.4758714E-2,-5.9890177E-2,-4.6571963E-3,4.12617E-2,-4.6393923E-2,3.0388033E-2,-1.5255088E-2,3.813964E-3,7.444586E-2,9.148997E-3],"categories":[],"categories_nodes":[],"categories_segments":[],"categories_sizes":[],"default_left":[0,0,0,0,0,0,0,0,0,0,0,0,0,0,0,0,0,0,0,0,0,0,0,0,0,0,0,0,0],"id":20,"left_children":[1,3,5,7,9,11,13,15,17,19,-1,21,23,25,27,-1,-1,-1,-1,-1,-1,-1,-1,-1,-1,-1,-1,-1,-1],"loss_changes":[7.236721E0,7.503122E0,8.395693E0,5.4233932E0,1.1757231E0,8.240546E0,8.861751E0,4.55482E0,6.2808604E0,1.9823837E-1,0E0,8.972845E0,6.2595153E0,6.621459E0,5.7404847E0,0E0,0E0,0E0,0E0,0E0,0E0,0E0,0E0,0E0,0E0,0E0,0E0,0E0,0E0],"parents":[2147483647,0,0,1,1,2,2,3,3,4,4,5,5,6,6,7,7,8,8,9,9,11,11,12,12,13,13,14,14],"right_children":[2,4,6,8,10,12,14,16,18,20,-1,22,24,26,28,-1,-1,-1,-1,-1,-1,-1,-1,-1,-1,-1,-1,-1,-1],"split_conditions":[-3.398887E-1,-1.0817166E-1,-2.3342612E-1,-6.1575226E-2,-1.8526472E-1,-5.3178288E-2,3.6783218E-1,1.3E1,3.3819623E-2,-6.4945686E-1,-3.4467306E-3,-4.0947083E-1,-2.607712E-1,2.0709708E-2,4.2245945E-1,-3.212656E-2,3.46183E-3,9.658077E-4,-2.5872186E-2,-1.4758714E-2,-5.9890177E-2,-4.6571963E-3,4.12617E-2,-4.6393923E-2,3.0388033E-2,-1.5255088E-2,3.813964E-3,7.444586E-2,9.148997E-3],"split_indices":[1,0,1,3,2,0,2,5,2,2,0,0,1,0,2,0,0,0,0,0,0,0,0,0,0,0,0,0,0],"split_type":[0,0,0,0,0,0,0,0,0,0,0,0,0,0,0,0,0,0,0,0,0,0,0,0,0,0,0,0,0],"sum_hessian":[6.7826636E2,3.010152E2,3.7725113E2,2.9221426E2,8.80093E0,6.2297527E1,3.149536E2,4.0604805E1,2.5160945E2,7.421068E0,1.3798622E0,5.2640465E1,9.657063E0,1.8061655E2,1.3433707E2,2.7795002E1,1.2809805E1,2.285171E2,2.3092346E1,1.0698051E0,6.351263E0,1.4327275E1,3.8313187E1,6.353378E0,3.3036847E0,9.272554E1,8.789101E1,2.482523E0,1.3185454E2],"tree_param":{"num_deleted":"0","num_feature":"6","num_nodes":"29","size_leaf_vector":"1"}},{"base_weights":[-1.0364085E-3,-1.9897029E-1,5.0264142E-2,-6.924226E-1,-8.832009E-2,8.1247205E-1,3.3534605E-2,-8.3462876E-1,2.6271194E-1,-4.5455888E-1,-8.3336775E-4,7.1515016E-2,1.3298609E0,-2.2867434E-3,3.2878914E-1,-2.9297978E-2,-5.454572E-2,3.5001412E-2,-2.172859E-2,3.6501817E-2,-2.8465971E-2,4.2399734E-2,-5.6634652E-3,-4.2140372E-2,2.6093572E-2,1.3385996E-2,8.678291E-2,-2.1199334E-2,1.3139285E-3,3.0847618E-2,3.1259358E-3],"categories":[],"categories_nodes":[],"categories_segments":[],"categories_sizes":[],"default_left":[0,0,0,0,0,0,0,0,0,0,0,0,0,0,0,0,0,0,0,0,0,0,0,0,0,0,0,0,0,0,0],"id":21,"left_children":[1,3,5,7,9,11,13,15,17,19,21,23,25,27,29,-1,-1,-1,-1,-1,-1,-1,-1,-1,-1,-1,-1,-1,-1,-1,-1],"loss_changes":[6.902728E0,7.5787272E0,6.8570747E0,3.6804876E0,3.6984482E0,4.3336306E0,5.599226E0,7.8959084E-1,1.5431402E0,3.4413753E0,9.084772E0,2.830891E0,2.4427671E0,5.7095737E0,4.356434E0,0E0,0E0,0E0,0E0,0E0,0E0,0E0,0E0,0E0,0E0,0E0,0E0,0E0,0E0,0E0,0E0],"parents":[2147483647,0,0,1,1,2,2,3,3,4,4,5,5,6,6,7,7,8,8,9,9,10,10,11,11,12,12,13,13,14,14],"right_children":[2,4,6,8,10,12,14,16,18,20,22,24,26,28,30,-1,-1,-1,-1,-1,-1,-1,-1,-1,-1,-1,-1,-1,-1,-1,-1],"split_conditions":[-5.1096857E-1,-6.811158E-1,-4.954074E-1,4.628295E-2,-4.253927E-2,-4.9940586E-1,9.617485E-2,-6.899531E-1,-6.8651307E-1,-7.7829665E-1,-1.5783658E-2,-4.8806027E-1,1E0,-4.344338E-1,-2.2188795E-1,-2.9297978E-2,-5.454572E-2,3.5001412E-2,-2.172859E-2,3.6501817E-2,-2.8465971E-2,4.2399734E-2,-5.6634652E-3,-4.2140372E-2,2.6093572E-2,1.3385996E-2,8.678291E-2,-2.1199334E-2,1.3139285E-3,3.0847618E-2,3.1259358E-3],"split_indices":[2,1,2,3,3,2,3,2,2,3,3,1,4,2,1,0,0,0,0,0,0,0,0,0,0,0,0,0,0,0,0],"split_type":[0,0,0,0,0,0,0,0,0,0,0,0,0,0,0,0,0,0,0,0,0,0,0,0,0,0,0,0,0,0,0],"sum_hessian":[6.7781104E2,1.3892307E2,5.38888E2,2.448275E1,1.14440315E2,1.055233E1,5.2833563E2,2.1419807E1,3.0629425E0,2.1257206E1,9.318311E1,4.806756E0,5.7455735E0,4.7205634E2,5.6279324E1,1.2539408E1,8.880401E0,1.8799536E0,1.1829889E0,1.4039366E0,1.985327E1,1.0134127E1,8.304898E1,1.2986957E0,3.5080605E0,2.0471263E0,3.6984472E0,2.9069569E1,4.4298676E2,2.6396015E1,2.988331E1],"tree_param":{"num_deleted":"0","num_feature":"6","num_nodes":"31","size_leaf_vector":"1"}},{"base_weights":[-9.138389E-4,-5.484255E-1,1.686179E-2,-7.003382E-1,5.713743E-1,-3.011263E-2,1.6566111E-1,-8.362669E-1,-1.3335888E-1,8.668958E-3,3.4554645E-2,8.175974E-3,-5.734063E-1,7.166761E-2,1.3618688E-1,-4.9276266E-2,1.2254453E-3,2.3318714E-2,-4.2829394E-2,9.27985E-4,-4.977875E-2,-5.13236E-2,-2.2148555E-2,1.8694814E-3,2.2765212E-2],"categories":[],"categories_nodes":[],"categories_segments":[],"categories_sizes":[],"default_left":[0,0,0,0,0,0,0,0,0,0,0,0,0,0,0,0,0,0,0,0,0,0,0,0,0],"id":22,"left_children":[1,3,5,7,9,11,13,15,17,-1,-1,19,21,-1,23,-1,-1,-1,-1,-1,-1,-1,-1,-1,-1],"loss_changes":[6.6112456E0,4.0338984E0,4.604211E0,1.3727074E0,2.7999163E-2,1.0425628E1,5.709631E0,1.9955959E0,2.5308883E0,0E0,0E0,4.9063444E0,1.4951563E0,0E0,4.8871E0,0E0,0E0,0E0,0E0,0E0,0E0,0E0,0E0,0E0,0E0],"parents":[2147483647,0,0,1,1,2,2,3,3,4,4,5,5,6,6,7,7,8,8,11,11,12,12,14,14],"right_children":[2,4,6,8,10,12,14,16,18,-1,-1,20,22,-1,24,-1,-1,-1,-1,-1,-1,-1,-1,-1,-1],"split_conditions":[-7.820876E-1,-5.130425E-1,3.6783218E-1,3.9806508E-2,1.2E1,1.2082205E-1,4.2245945E-1,-8.075462E-1,-8.8500124E-1,8.668958E-3,3.4554645E-2,3.2773068E0,-4.9663818E-1,7.166761E-2,2.935728E-2,-4.9276266E-2,1.2254453E-3,2.3318714E-2,-4.2829394E-2,9.27985E-4,-4.977875E-2,-5.13236E-2,-2.2148555E-2,1.8694814E-3,2.2765212E-2],"split_indices":[2,1,2,3,5,2,2,2,2,0,0,0,1,0,3,0,0,0,0,0,0,0,0,0,0],"split_type":[0,0,0,0,0,0,0,0,0,0,0,0,0,0,0,0,0,0,0,0,0,0,0,0,0],"sum_hessian":[6.7735504E2,2.0360909E1,6.5699414E2,1.8258532E1,2.1023767E0,4.9995963E2,1.5703452E2,1.43445835E1,3.9139485E0,1.0523022E0,1.0500746E0,4.6796478E2,3.1994854E1,2.4858758E0,1.5454863E2,1.2101293E1,2.24329E0,2.333805E0,1.5801435E0,4.6414474E2,3.8200316E0,5.616474E0,2.637838E1,1.1886557E2,3.5683064E1],"tree_param":{"num_deleted":"0","num_feature":"6","num_nodes":"25","size_leaf_vector":"1"}},{"base_weights":[-9.690125E-4,-3.598753E-1,2.4403865E-2,-2.1263422E-1,-8.694747E-1,1.5033407E-2,7.743558E-1,-5.393084E-1,1.615683E-1,-5.0245654E-2,-1.02410605E-2,2.9438976E-2,-8.6725277E-1,1.07759E0,-1.1582493E-2,-3.867578E-2,1.1838187E-2,2.912784E-2,-1.7304836E-2,-3.4283268E-5,2.1479232E-2,-4.9045764E-2,-6.507585E-4,-2.539639E-4,7.476345E-2],"categories":[],"categories_nodes":[],"categories_segments":[],"categories_sizes":[],"default_left":[0,0,0,0,0,0,0,0,0,0,0,0,0,0,0,0,0,0,0,0,0,0,0,0,0],"id":23,"left_children":[1,3,5,7,9,11,13,15,17,-1,-1,19,21,23,-1,-1,-1,-1,-1,-1,-1,-1,-1,-1,-1],"loss_changes":[6.1820474E0,3.1783824E0,4.44425E0,4.499972E0,6.6953135E-1,7.9980226E0,2.6305895E0,3.72823E0,3.9620516E0,0E0,0E0,7.4517393E0,9.6886826E-1,2.7996345E0,0E0,0E0,0E0,0E0,0E0,0E0,0E0,0E0,0E0,0E0,0E0],"parents":[2147483647,0,0,1,1,2,2,3,3,4,4,5,5,6,6,7,7,8,8,11,11,12,12,13,13],"right_children":[2,4,6,8,10,12,14,16,18,-1,-1,20,22,24,-1,-1,-1,-1,-1,-1,-1,-1,-1,-1,-1],"split_conditions":[-6.929774E-1,-4.2448583E-1,3.9389248E0,-6.411765E-1,4E0,3.5556667E0,4E0,-7.39057E-1,-7.5271225E-1,-5.0245654E-2,-1.02410605E-2,2.1699076E0,6.05043E-2,-2.8751555E-3,-1.1582493E-2,-3.867578E-2,1.1838187E-2,2.912784E-2,-1.7304836E-2,-3.4283268E-5,2.1479232E-2,-4.9045764E-2,-6.507585E-4,-2.539639E-4,7.476345E-2],"split_indices":[2,0,2,1,4,2,4,2,2,0,0,2,3,3,0,0,0,0,0,0,0,0,0,0,0],"split_type":[0,0,0,0,0,0,0,0,0,0,0,0,0,0,0,0,0,0,0,0,0,0,0,0,0],"sum_hessian":[6.768977E2,4.3823196E1,6.330745E2,3.50991E1,8.724096E0,6.262695E2,6.8050313E0,1.850406E1,1.6595037E1,6.822019E0,1.9020774E0,6.171594E2,9.110065E0,5.174236E0,1.6307952E0,1.4216903E1,4.287158E0,8.991328E0,7.6037097E0,5.748784E2,4.228097E1,7.9093733E0,1.2006925E0,1.715448E0,3.458788E0],"tree_param":{"num_deleted":"0","num_feature":"6","num_nodes":"25","size_leaf_vector":"1"}},{"base_weights":[-1.0061254E-3,-1.0923628E-1,7.9419665E-2,-8.401259E-2,-9.7040457E-1,2.6186964E-1,-1.8879216E-2,-1.5535992E-1,1.8321869E-1,-5.7300102E-2,-3.0594347E-3,-8.148673E-2,4.0586108E-1,-5.753426E-1,1.0776143E-1,-5.084988E-3,-3.4336586E-2,2.2031734E-2,-1.3856957E-2,-3.988951E-2,5.8322917E-3,3.294272E-2,4.0584616E-3,7.429191E-3,-4.0902372E-2,4.8972346E-2,3.5985017E-3],"categories":[],"categories_nodes":[],"categories_segments":[],"categories_sizes":[],"default_left":[0,0,0,0,0,0,0,0,0,0,0,0,0,0,0,0,0,0,0,0,0,0,0,0,0,0,0],"id":24,"left_children":[1,3,5,7,9,11,13,15,17,-1,-1,19,21,23,25,-1,-1,-1,-1,-1,-1,-1,-1,-1,-1,-1,-1],"loss_changes":[5.904949E0,6.2003317E0,6.984871E0,5.4063034E0,1.2286382E0,6.7734623E0,1.7951273E1,6.2933555E0,7.22005E0,0E0,0E0,5.9280634E0,7.8504877E0,8.418056E0,6.4074416E0,0E0,0E0,0E0,0E0,0E0,0E0,0E0,0E0,0E0,0E0,0E0,0E0],"parents":[2147483647,0,0,1,1,2,2,3,3,4,4,5,5,6,6,7,7,8,8,11,11,12,12,13,13,14,14],"right_children":[2,4,6,8,10,12,14,16,18,-1,-1,20,22,24,26,-1,-1,-1,-1,-1,-1,-1,-1,-1,-1,-1,-1],"split_conditions":[-3.5253906E-1,-1.0817166E-1,-3.6762808E-2,3.9806508E-2,-3.7172896E-1,-3.7656215E-1,-6.888378E-2,3.3819623E-2,-4.0947083E-1,-5.7300102E-2,-3.0594347E-3,-4.7707465E-1,-6.5190606E-2,-3.8700813E-1,-1.199644E-2,-5.084988E-3,-3.4336586E-2,2.2031734E-2,-1.3856957E-2,-3.988951E-2,5.8322917E-3,3.294272E-2,4.0584616E-3,7.429191E-3,-4.0902372E-2,4.8972346E-2,3.5985017E-3],"split_indices":[1,0,1,3,1,2,2,2,0,0,0,0,2,2,2,0,0,0,0,0,0,0,0,0,0,0,0],"split_type":[0,0,0,0,0,0,0,0,0,0,0,0,0,0,0,0,0,0,0,0,0,0,0,0,0,0,0],"sum_hessian":[6.7638257E2,2.881955E2,3.881871E2,2.8106076E2,7.1347356E0,1.3533371E2,2.5285338E2,2.2216435E2,5.8896416E1,5.7615705E0,1.3731655E0,4.011386E1,9.521986E1,4.6219624E1,2.0663374E2,2.0286917E2,1.9295193E1,3.7801807E1,2.1094606E1,8.035776E0,3.2078083E1,5.2940517E1,4.227934E1,1.1702337E1,3.451729E1,7.1098843E0,1.9952386E2],"tree_param":{"num_deleted":"0","num_feature":"6","num_nodes":"27","size_leaf_vector":"1"}},{"base_weights":[-1.1074683E-3,-5.190604E-1,1.5237286E-2,-6.705157E-1,5.5796444E-1,6.513628E-3,7.38689E-1,-7.364268E-1,1.2282603E-2,8.433665E-3,3.3733748E-2,1.9692313E-2,-8.387407E-1,1.0290198E0,-1.1351497E-2,-5.497262E-2,-1.977035E-2,5.98367E-4,7.1229E-2,-4.7450352E-2,-8.3678664E-4,-3.6162607E-4,7.138395E-2],"categories":[],"categories_nodes":[],"categories_segments":[],"categories_sizes":[],"default_left":[0,0,0,0,0,0,0,0,0,0,0,0,0,0,0,0,0,0,0,0,0,0,0],"id":25,"left_children":[1,3,5,7,9,11,13,15,-1,-1,-1,17,19,21,-1,-1,-1,-1,-1,-1,-1,-1,-1],"loss_changes":[5.7398825E0,3.7574077E0,4.1437063E0,1.3063726E0,2.7178228E-2,7.2627587E0,2.4270225E0,1.7487478E0,0E0,0E0,0E0,6.9449654E0,8.9137936E-1,2.5697637E0,0E0,0E0,0E0,0E0,0E0,0E0,0E0,0E0,0E0],"parents":[2147483647,0,0,1,1,2,2,3,3,4,4,5,5,6,6,7,7,11,11,12,12,13,13],"right_children":[2,4,6,8,10,12,14,16,-1,-1,-1,18,20,22,-1,-1,-1,-1,-1,-1,-1,-1,-1],"split_conditions":[-7.820876E-1,-5.130425E-1,3.9389248E0,9.9548966E-2,1.2E1,3.5556667E0,4E0,-6.126118E-1,1.2282603E-2,8.433665E-3,3.3733748E-2,3.520242E0,6.05043E-2,-2.8751555E-3,-1.1351497E-2,-5.497262E-2,-1.977035E-2,5.98367E-4,7.1229E-2,-4.7450352E-2,-8.3678664E-4,-3.6162607E-4,7.138395E-2],"split_indices":[2,1,2,3,5,2,4,0,0,0,0,2,3,3,0,0,0,0,0,0,0,0,0],"split_type":[0,0,0,0,0,0,0,0,0,0,0,0,0,0,0,0,0,0,0,0,0,0,0],"sum_hessian":[6.76073E2,1.9740927E1,6.563321E2,1.7638037E1,2.1028907E0,6.495091E2,6.8230247E0,1.6637302E1,1.0007349E0,1.0490346E0,1.053856E0,6.404995E2,9.00957E0,5.1955132E0,1.6275111E0,6.9813914E0,9.6559105E0,6.379999E2,2.4996133E0,7.807716E0,1.2018545E0,1.7162497E0,3.4792638E0],"tree_param":{"num_deleted":"0","num_feature":"6","num_nodes":"23","size_leaf_vector":"1"}},{"base_weights":[-9.7478175E-4,-1.7778394E-1,4.4243895E-2,-6.4638096E-1,-7.668639E-2,7.758712E-1,2.807403E-2,-7.866125E-1,2.4711367E-1,2.4968576E-1,-1.749661E-1,-2.3867139E-1,1.0932184E0,-5.0827665E-3,3.0006498E-1,-2.5664452E-2,-5.3085484E-2,3.3923607E-2,-2.1772632E-2,3.3485863E-2,-2.1826034E-2,-3.5303537E-2,-2.9857687E-3,-3.999147E-2,2.0200094E-2,-3.9277985E-3,6.579646E-2,3.2545314E-3,-8.248562E-3,2.867136E-2,2.3390572E-3],"categories":[],"categories_nodes":[],"categories_segments":[],"categories_sizes":[],"default_left":[0,0,0,0,0,0,0,0,0,0,0,0,0,0,0,0,0,0,0,0,0,0,0,0,0,0,0,0,0,0,0],"id":26,"left_children":[1,3,5,7,9,11,13,15,17,19,21,23,25,27,29,-1,-1,-1,-1,-1,-1,-1,-1,-1,-1,-1,-1,-1,-1,-1,-1],"loss_changes":[5.418696E0,6.4895506E0,6.363496E0,3.2466488E0,3.721859E0,4.006435E0,4.77318E0,1.0562038E0,1.4924781E0,8.060417E0,5.388424E0,1.618799E0,2.4627037E0,5.3132353E0,3.9549437E0,0E0,0E0,0E0,0E0,0E0,0E0,0E0,0E0,0E0,0E0,0E0,0E0,0E0,0E0,0E0,0E0],"parents":[2147483647,0,0,1,1,2,2,3,3,4,4,5,5,6,6,7,7,8,8,9,9,10,10,11,11,12,12,13,13,14,14],"right_children":[2,4,6,8,10,12,14,16,18,20,22,24,26,28,30,-1,-1,-1,-1,-1,-1,-1,-1,-1,-1,-1,-1,-1,-1,-1,-1],"split_conditions":[-5.1096857E-1,-6.811158E-1,-4.954074E-1,4.628295E-2,-5.9445846E-1,-3.9384782E-2,9.617485E-2,-6.899531E-1,-6.8651307E-1,3E0,-6.0118556E-1,-4.9940586E-1,1E1,1.6710741E-3,-2.2188795E-1,-2.5664452E-2,-5.3085484E-2,3.3923607E-2,-2.1772632E-2,3.3485863E-2,-2.1826034E-2,-3.5303537E-2,-2.9857687E-3,-3.999147E-2,2.0200094E-2,-3.9277985E-3,6.579646E-2,3.2545314E-3,-8.248562E-3,2.867136E-2,2.3390572E-3],"split_indices":[2,1,2,3,1,3,3,2,2,4,0,2,5,3,1,0,0,0,0,0,0,0,0,0,0,0,0,0,0,0,0],"split_type":[0,0,0,0,0,0,0,0,0,0,0,0,0,0,0,0,0,0,0,0,0,0,0,0,0,0,0,0,0,0,0],"sum_hessian":[6.757703E2,1.3703181E2,5.387385E2,2.3360405E1,1.1367141E2,1.0633402E1,5.281051E2,2.0294811E1,3.065594E0,2.5951109E1,8.77203E1,2.592674E0,8.040729E0,4.7159686E2,5.650825E1,1.1617779E1,8.677032E0,1.8821428E0,1.1834512E0,1.6112545E1,9.838565E0,1.4727206E1,7.2993095E1,1.2535696E0,1.3391044E0,1.3875452E0,6.653183E0,3.281626E2,1.4343427E2,2.6569048E1,2.9939205E1],"tree_param":{"num_deleted":"0","num_feature":"6","num_nodes":"31","size_leaf_vector":"1"}},{"base_weights":[-9.960124E-4,-9.9462315E-2,7.6735325E-2,-3.4564618E-2,-4.5571086E-1,3.788669E-1,1.54713495E-2,-9.05345E-2,6.7246383E-1,-6.4249265E-1,-6.955202E-2,5.2457124E-1,-3.9811522E-1,-1.1424551E-1,1.8853877E-1,-1.8140742E-3,-3.3176806E-2,-7.2259307E-3,5.2248187E-2,-2.4431184E-2,-5.4018803E-2,1.0574482E-2,-5.4623347E-2,-4.763782E-3,3.7493E-2,-4.566253E-2,2.7937705E-2,3.2328013E-2,-7.960969E-3,3.3966612E-2,5.404993E-3],"categories":[],"categories_nodes":[],"categories_segments":[],"categories_sizes":[],"default_left":[0,0,0,0,0,0,0,0,0,0,0,0,0,0,0,0,0,0,0,0,0,0,0,0,0,0,0,0,0,0,0],"id":27,"left_children":[1,3,5,7,9,11,13,15,17,19,21,23,25,27,29,-1,-1,-1,-1,-1,-1,-1,-1,-1,-1,-1,-1,-1,-1,-1,-1],"loss_changes":[5.185344E0,6.8940544E0,7.0020876E0,1.01081915E1,3.271247E0,7.430032E0,7.1116667E0,7.317267E0,5.8551054E0,1.5516386E0,4.8620677E0,7.632473E0,5.7555E0,6.300976E0,5.2830477E0,0E0,0E0,0E0,0E0,0E0,0E0,0E0,0E0,0E0,0E0,0E0,0E0,0E0,0E0,0E0,0E0],"parents":[2147483647,0,0,1,1,2,2,3,3,4,4,5,5,6,6,7,7,8,8,9,9,10,10,11,11,12,12,13,13,14,14],"right_children":[2,4,6,8,10,12,14,16,18,20,22,24,26,28,30,-1,-1,-1,-1,-1,-1,-1,-1,-1,-1,-1,-1,-1,-1,-1,-1],"split_conditions":[-3.398887E-1,-3.2533675E-1,-2.3342612E-1,1.0339642E-1,1.3E1,-5.3178288E-2,3.6783218E-1,3.3819623E-2,-5.724146E-1,-3.6615524E-1,-1.0817166E-1,-4.0947083E-1,-2.607712E-1,-3.9509776E-1,2.9384664E-1,-1.8140742E-3,-3.3176806E-2,-7.2259307E-3,5.2248187E-2,-2.4431184E-2,-5.4018803E-2,1.0574482E-2,-5.4623347E-2,-4.763782E-3,3.7493E-2,-4.566253E-2,2.7937705E-2,3.2328013E-2,-7.960969E-3,3.3966612E-2,5.404993E-3],"split_indices":[1,0,1,3,5,0,2,2,2,1,0,0,1,3,1,0,0,0,0,0,0,0,0,0,0,0,0,0,0,0,0],"split_type":[0,0,0,0,0,0,0,0,0,0,0,0,0,0,0,0,0,0,0,0,0,0,0,0,0,0,0,0,0,0,0],"sum_hessian":[6.754787E2,2.9787082E2,3.7760788E2,2.5289755E2,4.4973248E1,6.278601E1,3.1482187E2,2.3515419E2,1.7743359E1,2.9864323E1,1.5108928E1,5.3144836E1,9.641173E0,1.8014223E2,1.3467966E2,2.1578639E2,1.9367798E1,5.748198E0,1.199516E1,2.3664623E1,6.199699E0,1.2474781E1,2.6341467E0,1.4320717E1,3.882412E1,6.2968297E0,3.3443441E0,9.307888E0,1.7083434E2,1.7916689E1,1.1676297E2],"tree_param":{"num_deleted":"0","num_feature":"6","num_nodes":"31","size_leaf_vector":"1"}},{"base_weights":[-1.0341926E-3,-4.9498433E-1,1.4242575E-2,-6.45848E-1,5.4568887E-1,-6.2797433E-3,2.9927287E-1,4.3411266E-2,-7.5154024E-1,8.500951E-3,3.2687824E-2,1.0698898E-2,-3.9946917E-1,6.7451644E-1,-2.3985541E-1,-3.0197093E-2,2.9718954E-2,5.7287337E-3,-4.6037424E-2,-6.6146854E-4,2.4523795E-2,-5.792541E-2,-7.1349456E-3,6.1882775E-2,1.1461352E-2,2.4219943E-2,-3.7694838E-2],"categories":[],"categories_nodes":[],"categories_segments":[],"categories_sizes":[],"default_left":[0,0,0,0,0,0,0,0,0,0,0,0,0,0,0,0,0,0,0,0,0,0,0,0,0,0,0],"id":28,"left_children":[1,3,5,7,9,11,13,15,17,-1,-1,19,21,23,25,-1,-1,-1,-1,-1,-1,-1,-1,-1,-1,-1,-1],"loss_changes":[5.1075664E0,3.5404243E0,3.8427718E0,1.3579535E0,1.5229344E-2,4.099882E0,9.087909E0,1.55888E0,2.4252253E0,0E0,0E0,6.7692323E0,4.789291E0,6.3056355E0,7.381021E0,0E0,0E0,0E0,0E0,0E0,0E0,0E0,0E0,0E0,0E0,0E0,0E0],"parents":[2147483647,0,0,1,1,2,2,3,3,4,4,5,5,6,6,7,7,8,8,11,11,12,12,13,13,14,14],"right_children":[2,4,6,8,10,12,14,16,18,-1,-1,20,22,24,26,-1,-1,-1,-1,-1,-1,-1,-1,-1,-1,-1,-1],"split_conditions":[-7.820876E-1,-5.130425E-1,2.802814E0,-8.423917E-1,1.2E1,2.0710688E0,3E0,-7.2229195E-1,-9.229313E-1,8.500951E-3,3.2687824E-2,1.8645798E0,5.70463E-1,3.556841E0,2.2599032E0,-3.0197093E-2,2.9718954E-2,5.7287337E-3,-4.6037424E-2,-6.6146854E-4,2.4523795E-2,-5.792541E-2,-7.1349456E-3,6.1882775E-2,1.1461352E-2,2.4219943E-2,-3.7694838E-2],"split_indices":[2,1,1,1,5,1,4,0,2,0,0,2,2,1,2,0,0,0,0,0,0,0,0,0,0,0,0],"split_type":[0,0,0,0,0,0,0,0,0,0,0,0,0,0,0,0,0,0,0,0,0,0,0,0,0,0,0],"sum_hessian":[6.7492664E2,1.9305716E1,6.556209E2,1.7192726E1,2.1129897E0,6.124987E2,4.3122234E1,2.3641937E0,1.4828532E1,1.0469158E0,1.066074E0,5.880772E2,2.4421465E1,2.527749E1,1.7844742E1,1.0428096E0,1.3213841E0,2.476273E0,1.2352259E1,5.6106714E2,2.7010084E1,5.285409E0,1.9136055E1,1.0375979E1,1.4901512E1,7.4316483E0,1.0413094E1],"tree_param":{"num_deleted":"0","num_feature":"6","num_nodes":"27","size_leaf_vector":"1"}},{"base_weights":[-9.785587E-4,-3.210585E-1,2.099266E-2,-1.7472003E-1,-8.348501E-1,5.7575506E-1,8.662138E-3,-4.9134284E-1,1.7172612E-1,-4.874475E-2,-8.523151E-3,9.78134E-1,-4.8674527E-1,-4.4060692E-1,2.7115837E-2,-3.6138106E-2,1.1373377E-2,2.8818637E-2,-1.6152116E-2,-3.0339751E-2,6.7152254E-2,3.7562952E-3,-4.472343E-2,-4.3121263E-2,7.1130167E-3,2.5655797E-2,6.480396E-4],"categories":[],"categories_nodes":[],"categories_segments":[],"categories_sizes":[],"default_left":[0,0,0,0,0,0,0,0,0,0,0,0,0,0,0,0,0,0,0,0,0,0,0,0,0,0,0],"id":29,"left_children":[1,3,5,7,9,11,13,15,17,-1,-1,19,21,23,25,-1,-1,-1,-1,-1,-1,-1,-1,-1,-1,-1,-1],"loss_changes":[4.7573495E0,3.12121E0,4.3255024E0,3.9328897E0,7.0544434E-1,6.354484E0,5.1547823E0,3.2568269E0,3.6886518E0,0E0,0E0,6.7750273E0,1.0853902E0,6.154258E0,4.0988336E0,0E0,0E0,0E0,0E0,0E0,0E0,0E0,0E0,0E0,0E0,0E0,0E0],"parents":[2147483647,0,0,1,1,2,2,3,3,4,4,5,5,6,6,7,7,8,8,11,11,12,12,13,13,14,14],"right_children":[2,4,6,8,10,12,14,16,18,-1,-1,20,22,24,26,-1,-1,-1,-1,-1,-1,-1,-1,-1,-1,-1,-1],"split_conditions":[-6.929774E-1,-4.2448583E-1,-6.6880924E-1,-6.411765E-1,4E0,3E0,-6.189375E-1,-7.39057E-1,-7.5271225E-1,-4.874475E-2,-8.523151E-3,1E0,1.2E1,3E0,-5.9517556E-1,-3.6138106E-2,1.1373377E-2,2.8818637E-2,-1.6152116E-2,-3.0339751E-2,6.7152254E-2,3.7562952E-3,-4.472343E-2,-4.3121263E-2,7.1130167E-3,2.5655797E-2,6.480396E-4],"split_indices":[2,0,2,1,4,4,2,2,2,0,0,4,5,4,2,0,0,0,0,0,0,0,0,0,0,0,0],"split_type":[0,0,0,0,0,0,0,0,0,0,0,0,0,0,0,0,0,0,0,0,0,0,0,0,0,0,0],"sum_hessian":[6.7451764E2,4.2452385E1,6.3206525E2,3.408448E1,8.367906E0,1.274971E1,6.1931555E2,1.7590237E1,1.6494242E1,6.5251265E0,1.8427789E0,9.305161E0,3.4445486E0,2.3532122E1,5.9578345E2,1.3302146E1,4.288091E0,8.982757E0,7.511486E0,1.6174005E0,7.6877604E0,1.7914914E0,1.6530573E0,1.337388E1,1.0158241E1,1.5863836E1,5.7991956E2],"tree_param":{"num_deleted":"0","num_feature":"6","num_nodes":"27","size_leaf_vector":"1"}},{"base_weights":[-1.086078E-3,-1.3705996E-1,4.8727803E-2,-5.561646E-1,-7.180592E-2,6.1978805E-1,2.7470913E-2,-6.831989E-1,2.4609086E-1,4.9375803E-3,-4.4379446E-1,1.0162398E0,-4.7897038E-1,1.6345998E-2,6.93705E-1,-5.078535E-2,-2.4023782E-2,3.3657685E-2,-2.149706E-2,-3.1798207E-3,2.909919E-2,1.0194507E-2,-3.6420565E-2,6.2271398E-2,-1.727668E-2,-5.4883838E-2,4.587419E-2,1.7122008E-3,-4.0985655E-2,4.849532E-2,-1.1258764E-2],"categories":[],"categories_nodes":[],"categories_segments":[],"categories_sizes":[],"default_left":[0,0,0,0,0,0,0,0,0,0,0,0,0,0,0,0,0,0,0,0,0,0,0,0,0,0,0,0,0,0,0],"id":30,"left_children":[1,3,5,7,9,11,13,15,17,19,21,23,25,27,29,-1,-1,-1,-1,-1,-1,-1,-1,-1,-1,-1,-1,-1,-1,-1,-1],"loss_changes":[4.580077E0,4.918276E0,5.9905734E0,2.6422753E0,4.513358E0,8.203274E0,3.5328908E0,9.4255733E-1,1.4597914E0,5.256687E0,5.132461E0,4.5931234E0,5.652481E0,7.081378E0,2.2055216E0,0E0,0E0,0E0,0E0,0E0,0E0,0E0,0E0,0E0,0E0,0E0,0E0,0E0,0E0,0E0,0E0],"parents":[2147483647,0,0,1,1,2,2,3,3,4,4,5,5,6,6,7,7,8,8,9,9,10,10,11,11,12,12,13,13,14,14],"right_children":[2,4,6,8,10,12,14,16,18,20,22,24,26,28,30,-1,-1,-1,-1,-1,-1,-1,-1,-1,-1,-1,-1,-1,-1,-1,-1],"split_conditions":[-4.344338E-1,-6.811158E-1,-4.093159E-1,4.628295E-2,-4.7392097E-1,4E0,3.9389248E0,-8.075462E-1,-6.8651307E-1,-4.9940586E-1,2E0,4.4241864E-2,-4.16804E-1,3.5556667E0,4E0,-5.078535E-2,-2.4023782E-2,3.3657685E-2,-2.149706E-2,-3.1798207E-3,2.909919E-2,1.0194507E-2,-3.6420565E-2,6.2271398E-2,-1.727668E-2,-5.4883838E-2,4.587419E-2,1.7122008E-3,-4.0985655E-2,4.849532E-2,-1.1258764E-2],"split_indices":[2,1,2,3,2,4,2,2,2,2,4,1,2,2,4,0,0,0,0,0,0,0,0,0,0,0,0,0,0,0,0],"split_type":[0,0,0,0,0,0,0,0,0,0,0,0,0,0,0,0,0,0,0,0,0,0,0,0,0,0,0,0,0,0,0],"sum_hessian":[6.7420105E2,1.8029887E2,4.939022E2,2.3276802E1,1.5702208E2,1.6714516E1,4.7718768E2,2.022297E1,3.053834E0,1.3098567E2,2.6036411E1,1.2337887E1,4.3766284E0,4.703581E2,6.829602E0,6.140678E0,1.4082291E1,1.8741524E0,1.1796817E0,1.17875725E2,1.3109943E1,8.035091E0,1.800132E1,1.0633664E1,1.7042232E0,3.181155E0,1.1954733E0,4.614388E2,8.919255E0,5.208481E0,1.6211208E0],"tree_param":{"num_deleted":"0","num_feature":"6","num_nodes":"31","size_leaf_vector":"1"}},{"base_weights":[-1.1070876E-3,-9.471842E-2,6.7750536E-2,-7.094185E-2,-9.213045E-1,2.3546687E-1,-2.306596E-2,-3.9417636E-1,-1.7908076E-2,-5.4806557E-2,-2.181954E-3,-8.626791E-2,3.6921513E-1,-5.487631E-1,9.529542E-2,-2.9736022E-2,1.707415E-3,1.4463389E-2,-5.028674E-3,-3.82303E-2,4.9295384E-3,4.154977E-2,1.0020263E-2,7.426648E-3,-3.928101E-2,4.6137843E-2,3.0471988E-3],"categories":[],"categories_nodes":[],"categories_segments":[],"categories_sizes":[],"default_left":[0,0,0,0,0,0,0,0,0,0,0,0,0,0,0,0,0,0,0,0,0,0,0,0,0,0,0],"id":31,"left_children":[1,3,5,7,9,11,13,15,17,-1,-1,19,21,23,25,-1,-1,-1,-1,-1,-1,-1,-1,-1,-1,-1,-1],"loss_changes":[4.3557425E0,5.5631485E0,5.935918E0,4.7836185E0,1.1680412E0,5.921218E0,1.5825454E1,3.3997073E0,6.151872E0,0E0,0E0,5.2164946E0,7.3842363E0,7.835291E0,5.8493214E0,0E0,0E0,0E0,0E0,0E0,0E0,0E0,0E0,0E0,0E0,0E0,0E0],"parents":[2147483647,0,0,1,1,2,2,3,3,4,4,5,5,6,6,7,7,8,8,11,11,12,12,13,13,14,14],"right_children":[2,4,6,8,10,12,14,16,18,-1,-1,20,22,24,26,-1,-1,-1,-1,-1,-1,-1,-1,-1,-1,-1,-1],"split_conditions":[-3.5253906E-1,-1.0817166E-1,-3.6762808E-2,-6.1575226E-2,-3.7172896E-1,-3.7656215E-1,-6.888378E-2,1.3E1,-7.2308816E-3,-5.4806557E-2,-2.181954E-3,-4.7707465E-1,-2.8666633E-1,-3.8700813E-1,-1.199644E-2,-2.9736022E-2,1.707415E-3,1.4463389E-2,-5.028674E-3,-3.82303E-2,4.9295384E-3,4.154977E-2,1.0020263E-2,7.426648E-3,-3.928101E-2,4.6137843E-2,3.0471988E-3],"split_indices":[1,0,1,3,1,2,2,5,3,0,0,0,2,2,2,0,0,0,0,0,0,0,0,0,0,0,0],"split_type":[0,0,0,0,0,0,0,0,0,0,0,0,0,0,0,0,0,0,0,0,0,0,0,0,0,0,0],"sum_hessian":[6.737477E2,2.853887E2,3.88359E2,2.7846454E2,6.924148E0,1.3586186E2,2.5249713E2,3.834201E1,2.4012253E2,5.5664268E0,1.3577213E0,3.9998783E1,9.586308E1,4.573421E1,2.0676292E2,2.585028E1,1.249173E1,5.038775E1,1.8973479E2,7.8943467E0,3.210444E1,2.461258E1,7.12505E1,1.1690588E1,3.4043625E1,7.210615E0,1.995523E2],"tree_param":{"num_deleted":"0","num_feature":"6","num_nodes":"27","size_leaf_vector":"1"}},{"base_weights":[-1.1550752E-3,-4.5418867E-1,1.23183755E-2,-6.045162E-1,5.3170866E-1,-7.0555774E-3,2.810428E-1,9.139309E-2,-7.1433145E-1,8.170809E-3,3.1926792E-2,9.395127E-3,-3.887867E-1,6.3516724E-1,-2.3090582E-1,-1.0347343E-2,1.8994877E-2,6.812978E-3,-4.433203E-2,-2.627873E-4,3.6768835E-2,-5.647567E-2,-7.0544975E-3,5.833551E-2,1.06263E-2,2.2765335E-2,-3.6307696E-2],"categories":[],"categories_nodes":[],"categories_segments":[],"categories_sizes":[],"default_left":[0,0,0,0,0,0,0,0,0,0,0,0,0,0,0,0,0,0,0,0,0,0,0,0,0,0,0],"id":32,"left_children":[1,3,5,7,9,11,13,15,17,-1,-1,19,21,23,25,-1,-1,-1,-1,-1,-1,-1,-1,-1,-1,-1,-1],"loss_changes":[4.1218805E0,3.2119427E0,3.4165769E0,1.3943143E0,1.8105865E-2,3.8514664E0,8.147113E0,3.589414E-1,2.3389144E0,0E0,0E0,6.2621946E0,4.4896193E0,5.672164E0,6.712041E0,0E0,0E0,0E0,0E0,0E0,0E0,0E0,0E0,0E0,0E0,0E0,0E0],"parents":[2147483647,0,0,1,1,2,2,3,3,4,4,5,5,6,6,7,7,8,8,11,11,12,12,13,13,14,14],"right_children":[2,4,6,8,10,12,14,16,18,-1,-1,20,22,24,26,-1,-1,-1,-1,-1,-1,-1,-1,-1,-1,-1,-1],"split_conditions":[-7.820876E-1,-5.130425E-1,2.802814E0,-8.423917E-1,1.2E1,2.0710688E0,3E0,1.6710741E-3,-9.229313E-1,8.170809E-3,3.1926792E-2,1.8030592E0,5.70463E-1,3.556841E0,2.2599032E0,-1.0347343E-2,1.8994877E-2,6.812978E-3,-4.433203E-2,-2.627873E-4,3.6768835E-2,-5.647567E-2,-7.0544975E-3,5.833551E-2,1.06263E-2,2.2765335E-2,-3.6307696E-2],"split_indices":[2,1,1,1,5,1,4,3,2,0,0,1,2,1,2,0,0,0,0,0,0,0,0,0,0,0,0],"split_type":[0,0,0,0,0,0,0,0,0,0,0,0,0,0,0,0,0,0,0,0,0,0,0,0,0,0,0],"sum_hessian":[6.7336694E2,1.8503174E1,6.548638E2,1.639078E1,2.1123943E0,6.1173395E2,4.3129818E1,2.256826E0,1.4133953E1,1.0437465E0,1.0686479E0,5.8739557E2,2.4338427E1,2.5352402E1,1.7777414E1,1.2484772E0,1.0083486E0,2.4161289E0,1.1717825E1,5.767491E2,1.0646485E1,5.207012E0,1.9131414E1,1.0449661E1,1.49027405E1,7.4857955E0,1.0291619E1],"tree_param":{"num_deleted":"0","num_feature":"6","num_nodes":"27","size_leaf_vector":"1"}},{"base_weights":[-1.0610755E-3,-4.2561937E-2,1.3488634E-1,-8.561529E-3,-5.4889506E-1,6.8153076E-2,1.0654555E-1,1.0035333E-3,-9.745694E-1,-6.800332E-1,-1.7883492E-1,1.338131E-2,4.0712428E-1,-9.488415E-4,6.9140784E-2,-1.4123837E-2,-5.5041898E-2,-3.8755056E-2,3.5467844E-3,-2.8795639E-2,3.8058788E-2,6.5186643E-3,-2.7270544E-2,2.7565086E-2,-1.5835047E-2],"categories":[],"categories_nodes":[],"categories_segments":[],"categories_sizes":[],"default_left":[0,0,0,0,0,0,0,0,0,0,0,0,0,0,0,0,0,0,0,0,0,0,0,0,0],"id":33,"left_children":[1,3,5,7,9,-1,11,13,15,17,19,21,23,-1,-1,-1,-1,-1,-1,-1,-1,-1,-1,-1,-1],"loss_changes":[3.8085978E0,8.898382E0,5.350178E0,4.4881444E0,1.4568405E0,0E0,4.3463593E0,1.333012E1,1.052227E-1,1.7440548E0,4.1213827E0,7.8942747E0,4.0083833E0,0E0,0E0,0E0,0E0,0E0,0E0,0E0,0E0,0E0,0E0,0E0,0E0],"parents":[2147483647,0,0,1,1,2,2,3,3,4,4,6,6,7,7,8,8,9,9,10,10,11,11,12,12],"right_children":[2,4,6,8,10,-1,12,14,16,18,20,22,24,-1,-1,-1,-1,-1,-1,-1,-1,-1,-1,-1,-1],"split_conditions":[3.6783218E-1,1.2082205E-1,4.2245945E-1,3.2773068E0,4E0,6.8153076E-2,2.935728E-2,2.9493864E0,1.3606343E0,5.0766904E-2,3.034327E-1,8.40506E-3,2.9493864E0,-9.488415E-4,6.9140784E-2,-1.4123837E-2,-5.5041898E-2,-3.8755056E-2,3.5467844E-3,-2.8795639E-2,3.8058788E-2,6.5186643E-3,-2.7270544E-2,2.7565086E-2,-1.5835047E-2],"split_indices":[2,2,2,0,4,0,3,1,1,3,2,3,1,0,0,0,0,0,0,0,0,0,0,0,0],"split_type":[0,0,0,0,0,0,0,0,0,0,0,0,0,0,0,0,0,0,0,0,0,0,0,0,0],"sum_hessian":[6.730341E2,5.16154E2,1.5688014E2,4.84628E2,3.1525995E1,2.4762008E0,1.5440395E2,4.8086557E2,3.762397E0,2.2658777E1,8.867218E0,1.1866752E2,3.5736423E1,4.749838E2,5.881779E0,1.0799851E0,2.682412E0,2.008412E1,2.5746574E0,6.506209E0,2.3610091E0,9.875771E1,1.9909801E1,2.9999273E1,5.7371516E0],"tree_param":{"num_deleted":"0","num_feature":"6","num_nodes":"25","size_leaf_vector":"1"}},{"base_weights":[-9.839782E-4,-1.7050584E-1,3.1965714E-2,-8.494311E-2,-9.2117375E-1,2.308947E-2,6.608946E-1,-8.2031E-1,-7.700324E-3,-2.9880858E-3,-1.0473965E0,3.7601404E-2,-7.9225266E-1,9.2000383E-1,-1.0528003E-2,-1.12861935E-2,-5.422179E-2,-6.093644E-3,1.8954068E-2,-6.0105976E-2,-3.5580196E-3,1.469155E-3,6.587721E-2,-6.0999185E-2,-2.0063858E-2,-3.3688028E-3,6.584994E-2],"categories":[],"categories_nodes":[],"categories_segments":[],"categories_sizes":[],"default_left":[0,0,0,0,0,0,0,0,0,0,0,0,0,0,0,0,0,0,0,0,0,0,0,0,0,0,0],"id":34,"left_children":[1,3,5,7,9,11,13,15,17,-1,19,21,23,25,-1,-1,-1,-1,-1,-1,-1,-1,-1,-1,-1,-1,-1],"loss_changes":[3.7680964E0,6.9729223E0,3.1379776E0,5.6539907E0,1.1476994E0,6.632342E0,1.9605274E0,1.2413058E0,4.073021E0,0E0,1.3717623E0,5.738432E0,1.1499152E0,2.5259223E0,0E0,0E0,0E0,0E0,0E0,0E0,0E0,0E0,0E0,0E0,0E0,0E0,0E0],"parents":[2147483647,0,0,1,1,2,2,3,3,4,4,5,5,6,6,7,7,8,8,10,10,11,11,12,12,13,13],"right_children":[2,4,6,8,10,12,14,16,18,-1,20,22,24,26,-1,-1,-1,-1,-1,-1,-1,-1,-1,-1,-1,-1,-1],"split_conditions":[-5.6490254E-1,-5.83984E-1,3.9389248E0,-7.591743E-1,-6.5011865E-1,3.5556667E0,4E0,-8.423917E-1,-6.189375E-1,-2.9880858E-3,3.1800557E-2,3.520242E0,4.6734187E-1,-2.8751555E-3,-1.0528003E-2,-1.12861935E-2,-5.422179E-2,-6.093644E-3,1.8954068E-2,-6.0105976E-2,-3.5580196E-3,1.469155E-3,6.587721E-2,-6.0999185E-2,-2.0063858E-2,-3.3688028E-3,6.584994E-2],"split_indices":[2,2,2,1,0,2,4,1,2,0,3,2,1,3,0,0,0,0,0,0,0,0,0,0,0,0,0],"split_type":[0,0,0,0,0,0,0,0,0,0,0,0,0,0,0,0,0,0,0,0,0,0,0,0,0,0,0],"sum_hessian":[6.726221E2,1.0878137E2,5.638407E2,9.865017E1,1.0131202E1,5.570161E2,6.8246055E0,8.462791E0,9.018738E1,1.483112E0,8.648089E0,5.482126E2,8.803524E0,5.21756E0,1.6070457E0,3.1734643E0,5.289327E0,7.016157E1,2.002581E1,7.2652445E0,1.382845E0,5.4573145E2,2.4810975E0,3.1915638E0,5.61196E0,1.7343303E0,3.4832296E0],"tree_param":{"num_deleted":"0","num_feature":"6","num_nodes":"27","size_leaf_vector":"1"}},{"base_weights":[-1.0732934E-3,-8.613966E-2,6.1253622E-2,-6.3169956E-2,-8.943112E-1,2.2291878E-1,-2.6603686E-2,-1.3839681E-1,1.4734574E-1,-1.0667995E0,-2.1715676E-3,-5.6138437E-2,3.656234E-1,-5.272161E-1,8.515916E-2,-4.0883445E-3,-3.596222E-2,2.4441719E-2,-3.2692743E-3,-5.828904E-2,-1.8440431E-2,2.5344709E-2,-1.0053553E-2,5.0125893E-2,9.448256E-3,7.141564E-3,-3.7897486E-2,4.3204036E-2,2.622519E-3],"categories":[],"categories_nodes":[],"categories_segments":[],"categories_sizes":[],"default_left":[0,0,0,0,0,0,0,0,0,0,0,0,0,0,0,0,0,0,0,0,0,0,0,0,0,0,0,0,0],"id":35,"left_children":[1,3,5,7,9,11,13,15,17,19,-1,21,23,25,27,-1,-1,-1,-1,-1,-1,-1,-1,-1,-1,-1,-1,-1,-1],"loss_changes":[3.575217E0,5.236699E0,5.53376E0,4.4282455E0,1.0990705E0,5.481846E0,1.4202904E1,6.7032366E0,5.3903775E0,1.54185295E-2,0E0,3.9591513E0,1.0034781E1,7.2697763E0,5.247031E0,0E0,0E0,0E0,0E0,0E0,0E0,0E0,0E0,0E0,0E0,0E0,0E0,0E0,0E0],"parents":[2147483647,0,0,1,1,2,2,3,3,4,4,5,5,6,6,7,7,8,8,9,9,11,11,12,12,13,13,14,14],"right_children":[2,4,6,8,10,12,14,16,18,20,-1,22,24,26,28,-1,-1,-1,-1,-1,-1,-1,-1,-1,-1,-1,-1,-1,-1],"split_conditions":[-3.5253906E-1,-1.0817166E-1,-3.6762808E-2,2.5580721E-2,-3.7172896E-1,-3.5331318E-1,-6.888378E-2,3.3819623E-2,-5.265467E-1,4E0,-2.1715676E-3,-5.778635E-1,-2.8666633E-1,-3.8700813E-1,-1.199644E-2,-4.0883445E-3,-3.596222E-2,2.4441719E-2,-3.2692743E-3,-5.828904E-2,-1.8440431E-2,2.5344709E-2,-1.0053553E-2,5.0125893E-2,9.448256E-3,7.141564E-3,-3.7897486E-2,4.3204036E-2,2.622519E-3],"split_indices":[1,0,1,3,1,2,2,2,0,4,0,2,2,2,2,0,0,0,0,0,0,0,0,0,0,0,0,0,0],"split_type":[0,0,0,0,0,0,0,0,0,0,0,0,0,0,0,0,0,0,0,0,0,0,0,0,0,0,0,0,0],"sum_hessian":[6.723293E2,2.8414047E2,3.8818878E2,2.7733624E2,6.8042345E0,1.3614069E2,2.520481E2,2.0457489E2,7.276135E1,5.446394E0,1.3578405E0,4.6268932E1,8.987175E1,4.5322144E1,2.0672595E2,1.8744104E2,1.7133852E1,2.7430464E1,4.533089E1,4.183011E0,1.2633828E0,8.960773E0,3.730816E1,1.8500006E1,7.137175E1,1.170678E1,3.3615364E1,7.306753E0,1.9941919E2],"tree_param":{"num_deleted":"0","num_feature":"6","num_nodes":"29","size_leaf_vector":"1"}},{"base_weights":[-1.072598E-3,-4.2725146E-1,1.1341358E-2,-5.7648695E-1,5.2030575E-1,3.8369366E-3,6.322383E-1,-9.1433656E-1,-2.9213092E-1,7.958448E-3,3.1274106E-2,1.5580151E-2,-7.693636E-1,8.821595E-1,-1.0327138E-2,-5.0522447E-2,-1.0960164E-2,5.4986984E-2,-3.6042463E-2,-4.837357E-4,1.8243317E-2,-5.9509445E-2,-1.9413408E-2,-3.3764315E-3,6.3262E-2],"categories":[],"categories_nodes":[],"categories_segments":[],"categories_sizes":[],"default_left":[0,0,0,0,0,0,0,0,0,0,0,0,0,0,0,0,0,0,0,0,0,0,0,0,0],"id":36,"left_children":[1,3,5,7,9,11,13,15,17,-1,-1,19,21,23,-1,-1,-1,-1,-1,-1,-1,-1,-1,-1,-1],"loss_changes":[3.5648613E0,2.9968526E0,3.0487237E0,1.3613715E0,1.8972576E-2,5.895858E0,1.8202233E0,2.6471138E-1,7.1619587E0,0E0,0E0,5.642897E0,1.0958471E0,2.3446312E0,0E0,0E0,0E0,0E0,0E0,0E0,0E0,0E0,0E0,0E0,0E0],"parents":[2147483647,0,0,1,1,2,2,3,3,4,4,5,5,6,6,7,7,8,8,11,11,12,12,13,13],"right_children":[2,4,6,8,10,12,14,16,18,-1,-1,20,22,24,-1,-1,-1,-1,-1,-1,-1,-1,-1,-1,-1],"split_conditions":[-7.820876E-1,-5.130425E-1,3.9389248E0,-6.126118E-1,1.2E1,3.5556667E0,4E0,2.8289659E-2,-5.794745E-1,7.958448E-3,3.1274106E-2,2.1699076E0,4.6734187E-1,-2.8751555E-3,-1.0327138E-2,-5.0522447E-2,-1.0960164E-2,5.4986984E-2,-3.6042463E-2,-4.837357E-4,1.8243317E-2,-5.9509445E-2,-1.9413408E-2,-3.3764315E-3,6.3262E-2],"split_indices":[2,1,2,0,5,2,4,3,0,0,0,2,1,3,0,0,0,0,0,0,0,0,0,0,0],"split_type":[0,0,0,0,0,0,0,0,0,0,0,0,0,0,0,0,0,0,0,0,0,0,0,0,0],"sum_hessian":[6.718989E2,1.8071627E1,6.538273E2,1.5951027E1,2.1205995E0,6.4701337E2,6.813895E0,6.277331E0,9.6736965E0,1.0451823E0,1.0754172E0,6.382989E2,8.714506E0,5.2098618E0,1.6040335E0,5.1163197E0,1.1610107E0,1.9094201E0,7.7642765E0,5.961659E2,4.213301E1,3.1324358E0,5.5820704E0,1.7342459E0,3.4756157E0],"tree_param":{"num_deleted":"0","num_feature":"6","num_nodes":"25","size_leaf_vector":"1"}},{"base_weights":[-1.0571094E-3,-1.6115169E-1,2.9894166E-2,-7.8665294E-2,-8.9222217E-1,4.3274174E-3,2.3838778E-1,-7.985503E-1,-4.9928795E-3,-2.893786E-3,-1.0164034E0,5.6086157E-2,-1.493766E-1,-8.636569E-2,4.572666E-1,-1.0344881E-2,-5.3338457E-2,-5.6366343E-3,1.7797265E-2,-5.850881E-2,-3.2102428E-3,-7.163559E-3,6.266439E-3,4.3325927E-4,-2.4176097E-2,-4.9406167E-2,4.454902E-3,5.401935E-2,1.091894E-2],"categories":[],"categories_nodes":[],"categories_segments":[],"categories_sizes":[],"default_left":[0,0,0,0,0,0,0,0,0,0,0,0,0,0,0,0,0,0,0,0,0,0,0,0,0,0,0,0,0],"id":37,"left_children":[1,3,5,7,9,11,13,15,17,-1,19,21,23,25,27,-1,-1,-1,-1,-1,-1,-1,-1,-1,-1,-1,-1,-1,-1],"loss_changes":[3.3369853E0,6.509081E0,3.0073195E0,5.2538404E0,1.0772829E0,4.0158734E0,4.420109E0,1.2388544E0,3.5765524E0,0E0,1.3135738E0,5.2298923E0,6.7199516E0,4.147156E0,5.2678614E0,0E0,0E0,0E0,0E0,0E0,0E0,0E0,0E0,0E0,0E0,0E0,0E0,0E0,0E0],"parents":[2147483647,0,0,1,1,2,2,3,3,4,4,5,5,6,6,7,7,8,8,10,10,11,11,12,12,13,13,14,14],"right_children":[2,4,6,8,10,12,14,16,18,-1,20,22,24,26,28,-1,-1,-1,-1,-1,-1,-1,-1,-1,-1,-1,-1,-1,-1],"split_conditions":[-5.6490254E-1,-5.83984E-1,9.617485E-2,-7.591743E-1,-6.5011865E-1,8.40506E-3,1.1E1,-8.423917E-1,-6.189375E-1,-2.893786E-3,3.1800557E-2,-4.8588008E-1,3.2667857E-1,-4.6250674E-1,-4.0947083E-1,-1.0344881E-2,-5.3338457E-2,-5.6366343E-3,1.7797265E-2,-5.850881E-2,-3.2102428E-3,-7.163559E-3,6.266439E-3,4.3325927E-4,-2.4176097E-2,-4.9406167E-2,4.454902E-3,5.401935E-2,1.091894E-2],"split_indices":[2,2,3,1,0,3,5,1,2,0,3,0,0,2,0,0,0,0,0,0,0,0,0,0,0,0,0,0,0],"split_type":[0,0,0,0,0,0,0,0,0,0,0,0,0,0,0,0,0,0,0,0,0,0,0,0,0,0,0,0,0],"sum_hessian":[6.714681E2,1.08102806E2,5.633653E2,9.813758E1,9.965222E0,5.0273734E2,6.062794E1,8.197459E0,8.9940125E1,1.4809704E0,8.484252E0,3.7656638E2,1.2617096E2,2.4653955E1,3.5973988E1,3.1095684E0,5.087891E0,6.979425E1,2.014587E1,7.107522E0,1.37673E0,9.6799774E1,2.797666E2,8.631863E1,3.985233E1,3.261368E0,2.1392588E1,8.99324E0,2.6980745E1],"tree_param":{"num_deleted":"0","num_feature":"6","num_nodes":"29","size_leaf_vector":"1"}},{"base_weights":[-1.2108777E-3,-3.2411393E-2,1.4849062E-1,-2.1543289E-2,-9.0094316E-1,6.715411E-2,1.08117916E-1,-1.1296658E-2,-7.7320915E-1,-1.4438465E-2,-5.3783305E-2,-5.283131E-2,1.4067113E-1,-1.3497565E-3,4.83092E-2,-5.265478E-2,1.1499227E-2,5.954061E-2,4.9832864E-3],"categories":[],"categories_nodes":[],"categories_segments":[],"categories_sizes":[],"default_left":[0,0,0,0,0,0,0,0,0,0,0,0,0,0,0,0,0,0,0],"id":38,"left_children":[1,3,5,7,9,-1,11,13,15,-1,-1,-1,17,-1,-1,-1,-1,-1,-1],"loss_changes":[3.1443918E0,5.2389007E0,5.4546833E0,4.2366767E0,4.2313433E-1,0E0,4.4484243E0,8.386133E0,2.3194366E0,0E0,0E0,0E0,4.6698256E0,0E0,0E0,0E0,0E0,0E0,0E0],"parents":[2147483647,0,0,1,1,2,2,3,3,4,4,6,6,7,7,8,8,12,12],"right_children":[2,4,6,8,10,-1,12,14,16,-1,-1,-1,18,-1,-1,-1,-1,-1,-1],"split_conditions":[9.868919E-1,8.5685873E-1,9.974052E-1,3.2773068E0,2.4280913E-1,6.715411E-2,1.0162555E0,2.9493864E0,3.6783218E-1,-1.4438465E-2,-5.3783305E-2,-5.283131E-2,1.048414E0,-1.3497565E-3,4.83092E-2,-5.265478E-2,1.1499227E-2,5.954061E-2,4.9832864E-3],"split_indices":[2,2,2,0,1,0,2,1,2,0,0,0,2,0,0,0,0,0,0],"split_type":[0,0,0,0,0,0,0,0,0,0,0,0,0,0,0,0,0,0,0],"sum_hessian":[6.7117676E2,5.56066E2,1.1511077E2,5.5020593E2,5.8600287E0,2.7082758E0,1.124025E2,5.4380786E2,6.398103E0,1.8901759E0,3.9698527E0,2.200781E0,1.1020171E2,5.3616925E2,7.6385694E0,4.963552E0,1.4345512E0,3.087633E0,1.0711408E2],"tree_param":{"num_deleted":"0","num_feature":"6","num_nodes":"19","size_leaf_vector":"1"}},{"base_weights":[-1.1393249E-3,-4.0212098E-1,1.0286603E-2,-5.506248E-1,5.1031107E-1,3.1411399E-3,6.02334E-1,-8.926216E-1,-2.700842E-1,7.932468E-3,3.0532727E-2,1.45011395E-2,-7.500902E-1,8.442474E-1,-1.02379415E-2,-4.9600106E-2,-1.0047276E-2,5.3322256E-2,-3.4803648E-2,3.8555925E-4,6.3029E-2,-5.8293577E-2,-1.8813951E-2,-3.504013E-3,6.0781E-2],"categories":[],"categories_nodes":[],"categories_segments":[],"categories_sizes":[],"default_left":[0,0,0,0,0,0,0,0,0,0,0,0,0,0,0,0,0,0,0,0,0,0,0,0,0],"id":39,"left_children":[1,3,5,7,9,11,13,15,17,-1,-1,19,21,23,-1,-1,-1,-1,-1,-1,-1,-1,-1,-1,-1],"loss_changes":[3.0827563E0,2.8069386E0,2.766149E0,1.343276E0,1.3510525E-2,5.5514793E0,1.6953087E0,2.8236818E-1,6.723663E0,0E0,0E0,5.395694E0,1.0595136E0,2.1885805E0,0E0,0E0,0E0,0E0,0E0,0E0,0E0,0E0,0E0,0E0,0E0],"parents":[2147483647,0,0,1,1,2,2,3,3,4,4,5,5,6,6,7,7,8,8,11,11,12,12,13,13],"right_children":[2,4,6,8,10,12,14,16,18,-1,-1,20,22,24,-1,-1,-1,-1,-1,-1,-1,-1,-1,-1,-1],"split_conditions":[-7.820876E-1,-5.130425E-1,3.9389248E0,-6.126118E-1,1.2E1,3.5556667E0,4E0,2.8289659E-2,-5.794745E-1,7.932468E-3,3.0532727E-2,3.520242E0,4.6734187E-1,-2.8751555E-3,-1.02379415E-2,-4.9600106E-2,-1.0047276E-2,5.3322256E-2,-3.4803648E-2,3.8555925E-4,6.3029E-2,-5.8293577E-2,-1.8813951E-2,-3.504013E-3,6.0781E-2],"split_indices":[2,1,2,0,5,2,4,3,0,0,0,2,1,3,0,0,0,0,0,0,0,0,0,0,0],"split_type":[0,0,0,0,0,0,0,0,0,0,0,0,0,0,0,0,0,0,0,0,0,0,0,0,0],"sum_hessian":[6.7095483E2,1.7641739E1,6.533131E2,1.5513373E1,2.1283648E0,6.4651556E2,6.797537E0,6.007752E0,9.505622E0,1.0454757E0,1.0828891E0,6.378761E2,8.6395E0,5.1945252E0,1.6030118E0,4.8733463E0,1.1344061E0,1.9340689E0,7.5715528E0,6.3541986E2,2.456251E0,3.0870123E0,5.552488E0,1.7347717E0,3.4597535E0],"tree_param":{"num_deleted":"0","num_feature":"6","num_nodes":"25","size_leaf_vector":"1"}},{"base_weights":[-1.0500356E-3,-1.1083925E-1,3.8647927E-2,-4.9810058E-1,-5.338699E-2,5.00247E-1,1.3211625E-2,-6.25669E-1,2.5827262E-1,2.1531643E-2,-4.1831815E-1,7.0670956E-1,-3.2070008E-1,-3.4252048E-1,3.5052396E-2,-1.4444928E-3,-3.5365693E-2,3.3787023E-2,-2.0629723E-2,-2.1958477E-3,2.8229048E-2,1.0152051E-2,-3.4808274E-2,8.538658E-4,5.071198E-2,4.6104034E-3,-4.7517627E-2,-3.0481739E-2,1.3131184E-2,2.4650967E-2,-4.48748E-4],"categories":[],"categories_nodes":[],"categories_segments":[],"categories_sizes":[],"default_left":[0,0,0,0,0,0,0,0,0,0,0,0,0,0,0,0,0,0,0,0,0,0,0,0,0,0,0,0,0,0,0],"id":40,"left_children":[1,3,5,7,9,11,13,15,17,19,21,23,25,27,29,-1,-1,-1,-1,-1,-1,-1,-1,-1,-1,-1,-1,-1,-1,-1,-1],"loss_changes":[2.9314852E0,3.9474213E0,5.7937074E0,2.3765178E0,4.292113E0,4.5950766E0,3.657698E0,9.5085096E-1,1.4048512E0,4.678194E0,4.7565255E0,4.4165115E0,1.6130116E0,4.5625596E0,8.93662E0,0E0,0E0,0E0,0E0,0E0,0E0,0E0,0E0,0E0,0E0,0E0,0E0,0E0,0E0,0E0,0E0],"parents":[2147483647,0,0,1,1,2,2,3,3,4,4,5,5,6,6,7,7,8,8,9,9,10,10,11,11,12,12,13,13,14,14],"right_children":[2,4,6,8,10,12,14,16,18,20,22,24,26,28,30,-1,-1,-1,-1,-1,-1,-1,-1,-1,-1,-1,-1,-1,-1,-1,-1],"split_conditions":[-4.344338E-1,-6.811158E-1,-3.9977378E-1,4.628295E-2,-4.7392097E-1,-2.4515656E-1,-3.5331318E-1,-8.595428E-1,-6.8651307E-1,-4.9940586E-1,2E0,-4.7509977E-1,-4.1480926E-1,3E0,-2.8666633E-1,-1.4444928E-3,-3.5365693E-2,3.3787023E-2,-2.0629723E-2,-2.1958477E-3,2.8229048E-2,1.0152051E-2,-3.4808274E-2,8.538658E-4,5.071198E-2,4.6104034E-3,-4.7517627E-2,-3.0481739E-2,1.3131184E-2,2.4650967E-2,-4.48748E-4],"split_indices":[2,1,2,3,2,1,2,1,2,2,4,0,2,4,2,0,0,0,0,0,0,0,0,0,0,0,0,0,0,0,0],"split_type":[0,0,0,0,0,0,0,0,0,0,0,0,0,0,0,0,0,0,0,0,0,0,0,0,0,0,0,0,0,0,0],"sum_hessian":[6.706217E2,1.7761507E2,4.9300665E2,2.1955116E1,1.5565994E2,2.4773262E1,4.6823337E2,1.893447E1,3.0206473E0,1.2992746E2,2.5732489E1,1.9906155E1,4.8671083E0,2.6235727E1,4.4199765E2,2.4415946E0,1.6492876E1,1.8574975E0,1.1631497E0,1.1677303E2,1.3154419E1,8.034316E0,1.7698174E1,6.4646926E0,1.34414625E1,3.454985E0,1.4121234E0,1.8196335E1,8.0393915E0,3.787094E1,4.041267E2],"tree_param":{"num_deleted":"0","num_feature":"6","num_nodes":"31","size_leaf_vector":"1"}},{"base_weights":[-1.0378943E-3,-3.739832E-2,1.1779179E-1,-5.0292304E-3,-5.2449876E-1,6.571359E-2,9.030723E-2,-2.1127659E-1,3.592503E-2,-6.7735046E-1,-1.9666174E-1,2.2819887E-1,-1.06612876E-1,1.90531E-2,-1.6672207E-2,-2.0507942E-3,1.2470347E-2,-3.98479E-2,-3.7677349E-3,2.6996804E-2,-3.487751E-2,-4.736502E-2,1.2916952E-2,1.778218E-2,-1.134272E-2],"categories":[],"categories_nodes":[],"categories_segments":[],"categories_sizes":[],"default_left":[0,0,0,0,0,0,0,0,0,0,0,0,0,0,0,0,0,0,0,0,0,0,0,0,0],"id":41,"left_children":[1,3,5,7,9,-1,11,13,15,17,19,21,23,-1,-1,-1,-1,-1,-1,-1,-1,-1,-1,-1,-1],"loss_changes":[2.9047425E0,8.113424E0,5.06118E0,4.0931334E0,1.4735985E0,0E0,4.2345715E0,5.936352E0,6.6528068E0,1.4851294E0,4.6584864E0,3.4870043E0,3.6679535E0,0E0,0E0,0E0,0E0,0E0,0E0,0E0,0E0,0E0,0E0,0E0,0E0],"parents":[2147483647,0,0,1,1,2,2,3,3,4,4,6,6,7,7,8,8,9,9,10,10,11,11,12,12],"right_children":[2,4,6,8,10,-1,12,14,16,18,20,22,24,-1,-1,-1,-1,-1,-1,-1,-1,-1,-1,-1,-1],"split_conditions":[3.6783218E-1,1.2082205E-1,4.2245945E-1,-5.851604E-2,3.2667857E-1,6.571359E-2,1.2E1,-3.9509776E-1,-2.7936354E-2,5.0766904E-2,9.4354624E-1,-7.221225E-1,-1.9304268E-2,1.90531E-2,-1.6672207E-2,-2.0507942E-3,1.2470347E-2,-3.98479E-2,-3.7677349E-3,2.6996804E-2,-3.487751E-2,-4.736502E-2,1.2916952E-2,1.778218E-2,-1.134272E-2],"split_indices":[2,2,2,3,0,0,5,3,2,3,0,1,3,0,0,0,0,0,0,0,0,0,0,0,0],"split_type":[0,0,0,0,0,0,0,0,0,0,0,0,0,0,0,0,0,0,0,0,0,0,0,0,0],"sum_hessian":[6.702659E2,5.1375E2,1.5651591E2,4.8268466E2,3.1065325E1,2.4632938E0,1.5405263E2,7.927808E1,4.034066E2,2.0459915E1,1.0605409E1,9.051289E1,6.353973E1,1.3192771E1,6.608531E1,2.9712704E2,1.0627954E2,1.6798454E1,3.6614606E0,4.2611213E0,6.3442874E0,1.5020367E0,8.901086E1,1.2711996E1,5.0827736E1],"tree_param":{"num_deleted":"0","num_feature":"6","num_nodes":"25","size_leaf_vector":"1"}},{"base_weights":[-1.0130228E-3,-2.1462249E-2,1.9489214E-1,-1.03035495E-2,-6.497396E-1,4.1250777E-1,-1.8414128E-1,-1.6198938E-1,2.7707608E-2,1.1345338E-1,-1.0279508E0,8.0610245E-2,8.5492295E-1,7.89261E-1,-6.8648684E-1,-2.2989511E-2,2.167591E-3,2.5046593E-2,-3.0099458E-4,-2.1399135E-2,4.2369395E-2,-6.331413E-2,1.4515071E-3,2.1562982E-2,-4.2881567E-2,6.656813E-2,9.895011E-3,-1.7164875E-2,5.336411E-2,-4.3616235E-2,1.45897195E-2],"categories":[],"categories_nodes":[],"categories_segments":[],"categories_sizes":[],"default_left":[0,0,0,0,0,0,0,0,0,0,0,0,0,0,0,0,0,0,0,0,0,0,0,0,0,0,0,0,0,0,0],"id":42,"left_children":[1,3,5,7,9,11,13,15,17,19,21,23,25,27,29,-1,-1,-1,-1,-1,-1,-1,-1,-1,-1,-1,-1,-1,-1,-1,-1],"loss_changes":[2.691544E0,4.2580404E0,5.3139052E0,3.456523E0,3.1761384E0,5.900006E0,1.2205443E1,7.365073E0,7.657725E0,2.1162186E0,1.8471689E0,8.374333E0,5.1582165E0,3.0694966E0,3.2121034E0,0E0,0E0,0E0,0E0,0E0,0E0,0E0,0E0,0E0,0E0,0E0,0E0,0E0,0E0,0E0,0E0],"parents":[2147483647,0,0,1,1,2,2,3,3,4,4,5,5,6,6,7,7,8,8,9,9,10,10,11,11,12,12,13,13,14,14],"right_children":[2,4,6,8,10,12,14,16,18,20,22,24,26,28,30,-1,-1,-1,-1,-1,-1,-1,-1,-1,-1,-1,-1,-1,-1,-1,-1],"split_conditions":[2.0550156E0,3.0977848E0,3E0,-4.253927E-2,-0E0,2.6436756E0,2.6708524E0,-4.0060675E-1,-2.5538024E-2,3.6783218E-1,4.001076E0,2.1513438E0,3.8151393E0,-5.3021663E-1,3.8100684E0,-2.2989511E-2,2.167591E-3,2.5046593E-2,-3.0099458E-4,-2.1399135E-2,4.2369395E-2,-6.331413E-2,1.4515071E-3,2.1562982E-2,-4.2881567E-2,6.656813E-2,9.895011E-3,-1.7164875E-2,5.336411E-2,-4.3616235E-2,1.45897195E-2],"split_indices":[2,0,4,3,3,1,2,0,3,2,0,1,1,0,2,0,0,0,0,0,0,0,0,0,0,0,0,0,0,0,0],"split_type":[0,0,0,0,0,0,0,0,0,0,0,0,0,0,0,0,0,0,0,0,0,0,0,0,0,0,0,0,0,0,0],"sum_hessian":[6.698158E2,6.0731287E2,6.2502876E1,5.9771344E2,9.599461E0,3.9650116E1,2.285276E1,1.19115234E2,4.785982E2,3.4127972E0,6.1866636E0,2.3330158E1,1.6319958E1,7.584675E0,1.52680855E1,4.8107323E1,7.100792E1,3.0919542E1,4.4767865E2,2.2038467E0,1.2089504E0,4.8867607E0,1.2999028E0,1.7376417E1,5.953742E0,8.865088E0,7.4548697E0,1.4486414E0,6.1360335E0,1.2921736E1,2.3463504E0],"tree_param":{"num_deleted":"0","num_feature":"6","num_nodes":"31","size_leaf_vector":"1"}},{"base_weights":[-9.472227E-4,-2.4728239E-1,1.5071711E-2,-9.4933674E-2,-7.8821963E-1,5.681551E-1,2.7637074E-3,-3.9941916E-1,2.1095091E-1,-9.371259E-1,-5.712476E-3,9.409542E-1,-4.5079324E-1,-3.909128E-1,1.864415E-2,-3.160396E-2,1.1993613E-2,3.052102E-2,-1.4227961E-2,-1.7410487E-2,-5.1682305E-2,-2.9230196E-2,6.424804E-2,4.4536823E-3,-4.2798858E-2,-4.048233E-2,8.845012E-3,2.378729E-2,2.6005818E-4],"categories":[],"categories_nodes":[],"categories_segments":[],"categories_sizes":[],"default_left":[0,0,0,0,0,0,0,0,0,0,0,0,0,0,0,0,0,0,0,0,0,0,0,0,0,0,0,0,0],"id":43,"left_children":[1,3,5,7,9,11,13,15,17,19,-1,21,23,25,27,-1,-1,-1,-1,-1,-1,-1,-1,-1,-1,-1,-1,-1,-1],"loss_changes":[2.6487262E0,3.302755E0,4.2891703E0,3.168522E0,7.8305054E-1,5.634499E0,3.8683326E0,2.671406E0,3.5731494E0,4.5106888E-2,0E0,6.191351E0,1.027832E0,5.847748E0,3.6512363E0,0E0,0E0,0E0,0E0,0E0,0E0,0E0,0E0,0E0,0E0,0E0,0E0,0E0,0E0],"parents":[2147483647,0,0,1,1,2,2,3,3,4,4,5,5,6,6,7,7,8,8,9,9,11,11,12,12,13,13,14,14],"right_children":[2,4,6,8,10,12,14,16,18,20,-1,22,24,26,28,-1,-1,-1,-1,-1,-1,-1,-1,-1,-1,-1,-1,-1,-1],"split_conditions":[-6.929774E-1,-4.2448583E-1,-6.6880924E-1,-6.411765E-1,4E0,3E0,-6.189375E-1,-7.39057E-1,-7.5271225E-1,-3.9922458E-1,-5.712476E-3,1E0,1.2E1,3E0,-5.9517556E-1,-3.160396E-2,1.1993613E-2,3.052102E-2,-1.4227961E-2,-1.7410487E-2,-5.1682305E-2,-2.9230196E-2,6.424804E-2,4.4536823E-3,-4.2798858E-2,-4.048233E-2,8.845012E-3,2.378729E-2,2.6005818E-4],"split_indices":[2,0,2,1,4,4,2,2,2,0,0,4,5,4,2,0,0,0,0,0,0,0,0,0,0,0,0,0,0],"split_type":[0,0,0,0,0,0,0,0,0,0,0,0,0,0,0,0,0,0,0,0,0,0,0,0,0,0,0,0,0],"sum_hessian":[6.692943E2,3.9984577E1,6.2930975E2,3.21152E1,7.869376E0,1.2716322E1,6.165934E2,1.5941165E1,1.6174034E1,6.1255474E0,1.7438291E0,9.366117E0,3.350205E0,2.2992514E1,5.936009E2,1.1695906E1,4.2452593E0,8.826445E0,7.3475904E0,1.5114006E0,4.6141467E0,1.5947073E0,7.77141E0,1.770867E0,1.579338E0,1.298835E1,1.0004164E1,1.5976096E1,5.776248E2],"tree_param":{"num_deleted":"0","num_feature":"6","num_nodes":"29","size_leaf_vector":"1"}},{"base_weights":[-1.0611685E-3,-4.1624206E-1,8.066988E-3,-5.9560394E-1,4.3643333E-2,1.3803177E-3,5.658003E-1,-8.4720886E-1,2.5116962E-1,1.23717245E-2,-7.359865E-1,8.011652E-1,-1.0440378E-2,-4.9788285E-2,-1.969073E-2,3.0694697E-2,-1.4890258E-2,3.0284363E-4,5.959037E-2,-5.722278E-2,-1.8495334E-2,-4.016722E-3,5.822832E-2],"categories":[],"categories_nodes":[],"categories_segments":[],"categories_sizes":[],"default_left":[0,0,0,0,0,0,0,0,0,0,0,0,0,0,0,0,0,0,0,0,0,0,0],"id":44,"left_children":[1,3,5,7,-1,9,11,13,15,17,19,21,-1,-1,-1,-1,-1,-1,-1,-1,-1,-1,-1],"loss_changes":[2.5424857E0,3.856889E0,2.4477472E0,3.0387135E0,0E0,5.2753396E0,1.5849209E0,3.1199884E-1,9.414323E-1,4.7685294E0,1.0061898E0,2.0701654E0,0E0,0E0,0E0,0E0,0E0,0E0,0E0,0E0,0E0,0E0,0E0],"parents":[2147483647,0,0,1,1,2,2,3,3,5,5,6,6,7,7,8,8,9,9,10,10,11,11],"right_children":[2,4,6,8,-1,10,12,14,16,18,20,22,-1,-1,-1,-1,-1,-1,-1,-1,-1,-1,-1],"split_conditions":[-8.075462E-1,-5.428206E-1,3.9389248E0,3.9806508E-2,4.3643333E-2,3.5556667E0,4E0,-6.411765E-1,-5.1563936E-1,3.520242E0,4.6734187E-1,-2.8751555E-3,-1.0440378E-2,-4.9788285E-2,-1.969073E-2,3.0694697E-2,-1.4890258E-2,3.0284363E-4,5.959037E-2,-5.722278E-2,-1.8495334E-2,-4.016722E-3,5.822832E-2],"split_indices":[2,1,2,3,0,2,4,1,0,2,1,3,0,0,0,0,0,0,0,0,0,0,0],"split_type":[0,0,0,0,0,0,0,0,0,0,0,0,0,0,0,0,0,0,0,0,0,0,0],"sum_hessian":[6.689836E2,1.3432362E1,6.555512E2,1.226397E1,1.1683915E0,6.487755E2,6.775701E0,9.454273E0,2.8096967E0,6.402155E2,8.560019E0,5.1703906E0,1.6053103E0,6.22001E0,3.2342637E0,1.6206372E0,1.1890595E0,6.378057E2,2.4097593E0,3.0408335E0,5.519185E0,1.7366784E0,3.433712E0],"tree_param":{"num_deleted":"0","num_feature":"6","num_nodes":"23","size_leaf_vector":"1"}},{"base_weights":[-9.920163E-4,-6.997718E-2,5.251075E-2,-6.5041455E-3,-4.1901425E-1,2.2698137E-1,-3.517495E-2,-5.759547E-2,6.2318265E-1,-6.00923E-1,-4.833523E-2,-3.0458927E-1,3.264073E-1,-5.055407E-1,6.901049E-2,-3.1488482E-4,-3.0491693E-2,-5.0043636E-3,4.702845E-2,-2.2138903E-2,-5.264383E-2,1.0485073E-2,-5.1472317E-2,-2.2705486E-2,5.7460636E-2,2.2997074E-2,2.696121E-3,6.969638E-3,-3.652593E-2,4.0669966E-2,1.8729212E-3],"categories":[],"categories_nodes":[],"categories_segments":[],"categories_sizes":[],"default_left":[0,0,0,0,0,0,0,0,0,0,0,0,0,0,0,0,0,0,0,0,0,0,0,0,0,0,0,0,0,0,0],"id":45,"left_children":[1,3,5,7,9,11,13,15,17,19,21,23,25,27,29,-1,-1,-1,-1,-1,-1,-1,-1,-1,-1,-1,-1,-1,-1,-1,-1],"loss_changes":[2.4752893E0,6.487036E0,5.7865458E0,8.042579E0,3.0091953E0,6.783765E0,1.2396257E1,6.5432553E0,4.4011307E0,1.6878691E0,4.2462926E0,4.9661956E0,3.869504E0,6.75603E0,4.8403835E0,0E0,0E0,0E0,0E0,0E0,0E0,0E0,0E0,0E0,0E0,0E0,0E0,0E0,0E0,0E0,0E0],"parents":[2147483647,0,0,1,1,2,2,3,3,4,4,5,5,6,6,7,7,8,8,9,9,10,10,11,11,12,12,13,13,14,14],"right_children":[2,4,6,8,10,12,14,16,18,20,22,24,26,28,30,-1,-1,-1,-1,-1,-1,-1,-1,-1,-1,-1,-1,-1,-1,-1,-1],"split_conditions":[-3.398887E-1,-3.2533675E-1,-3.6762808E-2,1.0339642E-1,1.3E1,-4.7707465E-1,-6.888378E-2,3.3819623E-2,-5.724146E-1,-3.6615524E-1,-1.0817166E-1,2.5678957E-1,-6.5190606E-2,-3.8700813E-1,-1.199644E-2,-3.1488482E-4,-3.0491693E-2,-5.0043636E-3,4.702845E-2,-2.2138903E-2,-5.264383E-2,1.0485073E-2,-5.1472317E-2,-2.2705486E-2,5.7460636E-2,2.2997074E-2,2.696121E-3,6.969638E-3,-3.652593E-2,4.0669966E-2,1.8729212E-3],"split_indices":[1,0,1,3,5,0,2,2,2,1,0,2,2,2,2,0,0,0,0,0,0,0,0,0,0,0,0,0,0,0,0],"split_type":[0,0,0,0,0,0,0,0,0,0,0,0,0,0,0,0,0,0,0,0,0,0,0,0,0,0,0,0,0,0,0],"sum_hessian":[6.6865155E2,2.9193274E2,3.7671884E2,2.4787486E2,4.405786E1,1.25473076E2,2.5124576E2,2.301126E2,1.7762268E1,2.91376E1,1.4920263E1,1.9445614E1,1.06027466E2,4.486075E1,2.0638501E2,2.1147954E2,1.8633064E1,5.626065E0,1.2136203E1,2.3051317E1,6.086283E0,1.2435842E1,2.4844215E0,1.8255693E1,1.1899194E0,7.069478E1,3.5332687E1,1.1700344E1,3.3160404E1,7.3846173E0,1.990004E2],"tree_param":{"num_deleted":"0","num_feature":"6","num_nodes":"31","size_leaf_vector":"1"}},{"base_weights":[-1.0287593E-3,-3.4564067E-2,1.0846364E-1,-3.8410078E-3,-5.0217396E-1,6.3453965E-2,8.191652E-2,4.873992E-3,-9.1128385E-1,-6.3422346E-1,-1.3705313E-1,-6.699639E-3,3.674725E-1,-6.6970673E-4,6.1411995E-2,-1.1038388E-2,-5.234743E-2,-3.8534183E-2,-4.8340363E-3,-2.6558965E-2,3.8138583E-2,4.999223E-3,-2.607887E-2,2.5411282E-2,-1.7095918E-2],"categories":[],"categories_nodes":[],"categories_segments":[],"categories_sizes":[],"default_left":[0,0,0,0,0,0,0,0,0,0,0,0,0,0,0,0,0,0,0,0,0,0,0,0,0],"id":46,"left_children":[1,3,5,7,9,-1,11,13,15,17,19,21,23,-1,-1,-1,-1,-1,-1,-1,-1,-1,-1,-1,-1],"loss_changes":[2.4607415E0,7.3681464E0,4.737475E0,3.8193383E0,1.4376101E0,0E0,3.9168346E0,1.0716816E1,1.9923282E-1,1.608655E0,3.8360085E0,6.590673E0,3.8335524E0,0E0,0E0,0E0,0E0,0E0,0E0,0E0,0E0,0E0,0E0,0E0,0E0],"parents":[2147483647,0,0,1,1,2,2,3,3,4,4,6,6,7,7,8,8,9,9,10,10,11,11,12,12],"right_children":[2,4,6,8,10,-1,12,14,16,18,20,22,24,-1,-1,-1,-1,-1,-1,-1,-1,-1,-1,-1,-1],"split_conditions":[3.6783218E-1,1.2082205E-1,4.2245945E-1,3.2773068E0,4E0,6.3453965E-2,2.935728E-2,2.9493864E0,1.3606343E0,1.3E1,3.034327E-1,8.40506E-3,2.9493864E0,-6.6970673E-4,6.1411995E-2,-1.1038388E-2,-5.234743E-2,-3.8534183E-2,-4.8340363E-3,-2.6558965E-2,3.8138583E-2,4.999223E-3,-2.607887E-2,2.5411282E-2,-1.7095918E-2],"split_indices":[2,2,2,0,4,0,3,1,1,5,2,3,1,0,0,0,0,0,0,0,0,0,0,0,0],"split_type":[0,0,0,0,0,0,0,0,0,0,0,0,0,0,0,0,0,0,0,0,0,0,0,0,0],"sum_hessian":[6.6814087E2,5.120076E2,1.5613326E2,4.8138754E2,3.0620071E1,2.4447842E0,1.5368848E2,4.777935E2,3.5940568E0,2.1946045E1,8.674026E0,1.180353E2,3.5653175E1,4.7173822E2,6.0552626E0,1.0215913E0,2.5724654E0,1.7156893E1,4.789152E0,6.3168926E0,2.3571334E0,9.8443375E1,1.9591928E1,2.9986925E1,5.666251E0],"tree_param":{"num_deleted":"0","num_feature":"6","num_nodes":"25","size_leaf_vector":"1"}},{"base_weights":[-9.720698E-4,-1.380904E-1,2.5146887E-2,-3.4551382E-2,-7.2037196E-1,2.4201695E-3,2.0969792E-1,-8.291857E-2,1.0466812E0,-9.8586863E-1,3.5238013E-1,4.8638172E-2,-1.5212634E-1,-9.521188E-2,4.148206E-1,-3.6946062E-2,-7.1054156E-4,7.183811E-2,1.900093E-2,-5.7710875E-2,1.5815849E-3,7.117479E-2,-3.0775005E-2,1.031739E-3,1.9455647E-2,-2.5678458E-4,-2.3259794E-2,-4.819963E-2,3.6309157E-3,4.89067E-2,9.865685E-3],"categories":[],"categories_nodes":[],"categories_segments":[],"categories_sizes":[],"default_left":[0,0,0,0,0,0,0,0,0,0,0,0,0,0,0,0,0,0,0,0,0,0,0,0,0,0,0,0,0,0,0],"id":47,"left_children":[1,3,5,7,9,11,13,15,17,19,21,23,25,27,29,-1,-1,-1,-1,-1,-1,-1,-1,-1,-1,-1,-1,-1,-1,-1,-1],"loss_changes":[2.398346E0,6.4350653E0,2.3589606E0,4.899288E0,4.9403324E0,3.5922527E0,3.89648E0,4.001408E0,4.9777174E-1,2.2959251E0,4.9566345E0,3.682765E0,5.3256273E0,3.8048453E0,4.3469696E0,0E0,0E0,0E0,0E0,0E0,0E0,0E0,0E0,0E0,0E0,0E0,0E0,0E0,0E0,0E0,0E0],"parents":[2147483647,0,0,1,1,2,2,3,3,4,4,5,5,6,6,7,7,8,8,9,9,10,10,11,11,12,12,13,13,14,14],"right_children":[2,4,6,8,10,12,14,16,18,20,22,24,26,28,30,-1,-1,-1,-1,-1,-1,-1,-1,-1,-1,-1,-1,-1,-1,-1,-1],"split_conditions":[-5.6490254E-1,-5.9517556E-1,9.617485E-2,-6.000634E-1,-2.9362613E-1,1.1382221E-2,1.1E1,-7.591743E-1,-5.7105714E-1,6.232834E-2,-4.6378013E-2,2.802814E0,3.2667857E-1,-4.6250674E-1,-4.0947083E-1,-3.6946062E-2,-7.1054156E-4,7.183811E-2,1.900093E-2,-5.7710875E-2,1.5815849E-3,7.117479E-2,-3.0775005E-2,1.031739E-3,1.9455647E-2,-2.5678458E-4,-2.3259794E-2,-4.819963E-2,3.6309157E-3,4.89067E-2,9.865685E-3],"split_indices":[2,2,3,2,1,3,5,1,1,3,1,1,0,2,0,0,0,0,0,0,0,0,0,0,0,0,0,0,0,0,0],"split_type":[0,0,0,0,0,0,0,0,0,0,0,0,0,0,0,0,0,0,0,0,0,0,0,0,0,0,0,0,0,0,0],"sum_hessian":[6.676998E2,1.0615008E2,5.6154974E2,9.10239E1,1.5126176E1,5.0088135E2,6.0668407E1,8.8010216E1,3.013684E0,1.21902E1,2.9359765E0,3.8610095E2,1.1478038E2,2.4614859E1,3.6053547E1,7.4191976E0,8.059102E1,1.1724799E0,1.8412042E0,1.0344331E1,1.8458692E0,1.1702123E0,1.7657641E0,3.5773828E2,2.8362677E1,7.8799355E1,3.5981026E1,3.2171705E0,2.1397688E1,9.069012E0,2.6984537E1],"tree_param":{"num_deleted":"0","num_feature":"6","num_nodes":"31","size_leaf_vector":"1"}},{"base_weights":[-8.760035E-4,-1.3636607E-1,2.4498414E-2,-4.7414294E-1,5.628657E-2,1.9583805E-1,-1.37784965E-2,-1.0737513E0,-3.3743298E-1,-2.4652954E-2,8.5601914E-1,1.3145992E-1,9.199226E-1,1.1837295E-2,-3.466369E-1,-5.875879E-2,-1.4362185E-2,3.3097304E-3,-2.5902977E-2,4.9924523E-2,-4.441908E-3,5.0008368E-2,5.2778083E-3,2.1274915E-2,-3.022608E-3,7.704729E-2,7.7306996E-3,-7.2329794E-4,1.9729305E-2,-4.368136E-3,-3.253831E-2],"categories":[],"categories_nodes":[],"categories_segments":[],"categories_sizes":[],"default_left":[0,0,0,0,0,0,0,0,0,0,0,0,0,0,0,0,0,0,0,0,0,0,0,0,0,0,0,0,0,0,0],"id":48,"left_children":[1,3,5,7,9,11,13,15,17,19,21,23,25,27,29,-1,-1,-1,-1,-1,-1,-1,-1,-1,-1,-1,-1,-1,-1,-1,-1],"loss_changes":[2.301013E0,6.896617E0,3.699959E0,2.7895107E0,4.4306254E0,4.6808386E0,3.9410954E0,1.9535685E-1,2.4233644E0,4.2149863E0,5.74739E-1,5.429681E0,3.6798863E0,4.3318486E0,2.5474954E0,0E0,0E0,0E0,0E0,0E0,0E0,0E0,0E0,0E0,0E0,0E0,0E0,0E0,0E0,0E0,0E0],"parents":[2147483647,0,0,1,1,2,2,3,3,4,4,5,5,6,6,7,7,8,8,9,9,10,10,11,11,12,12,13,13,14,14],"right_children":[2,4,6,8,10,12,14,16,18,20,22,24,26,28,30,-1,-1,-1,-1,-1,-1,-1,-1,-1,-1,-1,-1,-1,-1,-1,-1],"split_conditions":[-5.851604E-2,-4.0060675E-1,-9.497874E-3,-2.01302E-1,5.2393615E-1,2.9493864E0,2.2048655E0,1.3E1,-1.2252454E-1,-3.886512E-1,1.1653093E0,-4.296305E-1,2.3799412E0,2.2380292E0,1.2E1,-5.875879E-2,-1.4362185E-2,3.3097304E-3,-2.5902977E-2,4.9924523E-2,-4.441908E-3,5.0008368E-2,5.2778083E-3,2.1274915E-2,-3.022608E-3,7.704729E-2,7.7306996E-3,-7.2329794E-4,1.9729305E-2,-4.368136E-3,-3.253831E-2],"split_indices":[3,0,3,3,0,1,0,5,3,0,0,1,2,2,5,0,0,0,0,0,0,0,0,0,0,0,0,0,0,0,0],"split_type":[0,0,0,0,0,0,0,0,0,0,0,0,0,0,0,0,0,0,0,0,0,0,0,0,0,0,0,0,0,0,0],"sum_hessian":[6.6732007E2,1.0457166E2,5.627484E2,3.744987E1,6.712179E1,1.0200869E2,4.6073975E2,5.680598E0,3.1769274E1,6.183296E1,5.288831E0,9.476474E1,7.243951E0,4.287118E2,3.2027946E1,4.594006E0,1.0865916E0,1.0017569E1,2.1751705E1,2.790744E0,5.9042213E1,4.157524E0,1.131307E0,3.6943916E1,5.7820824E1,3.4394512E0,3.8044994E0,4.0204468E2,2.66671E1,1.7983788E1,1.4044158E1],"tree_param":{"num_deleted":"0","num_feature":"6","num_nodes":"31","size_leaf_vector":"1"}},{"base_weights":[-7.193723E-4,-3.972049E-1,7.821914E-3,-5.7536453E-1,4.2220633E-2,1.5798666E-3,5.2968174E-1,-8.2945627E-1,2.5302857E-1,1.2292473E-2,-7.2064066E-1,7.5768477E-1,-1.0541055E-2,-4.9068205E-2,-1.9110078E-2,3.0234873E-2,-1.4376304E-2,3.1108616E-4,