{"learner":{"attributes":{"scikit_learn":"{\"_estimator_type\": \"classifier\"}"},"feature_names":[],"feature_types":[],"gradient_booster":{"model":{"cats":{"enc":[],"feature_segments":[],"sorted_idx":[]},"gbtree_model_param":{"num_parallel_tree":"1","num_trees":"100"},"iteration_indptr":[0,1,2,3,4,5,6,7,8,9,10,11,12,13,14,15,16,17,18,19,20,21,22,23,24,25,26,27,28,29,30,31,32,33,34,35,36,37,38,39,40,41,42,43,44,45,46,47,48,49,50,51,52,53,54,55,56,57,58,59,60,61,62,63,64,65,66,67,68,69,70,71,72,73,74,75,76,77,78,79,80,81,82,83,84,85,86,87,88,89,90,91,92,93,94,95,96,97,98,99,100],"tree_info":[0,0,0,0,0,0,0,0,0,0,0,0,0,0,0,0,0,0,0,0,0,0,0,0,0,0,0,0,0,0,0,0,0,0,0,0,0,0,0,0,0,0,0,0,0,0,0,0,0,0,0,0,0,0,0,0,0,0,0,0,0,0,0,0,0,0,0,0,0,0,0,0,0,0,0,0,0,0,0,0,0,0,0,0,0,0,0,0,0,0,0,0,0,0,0,0,0,0,0,0],"trees":[{"base_weights":[-1.8627026E-7,-1.1057906E-1,9.627778E-1,-5.337006E-1,1.9790673E-1,1.3040277E0,1.0099404E-2,-5.681535E-1,7.118699E-1,7.173617E-2,6.4489067E-1,1.3804376E0,-5.4516423E-2,4.9341094E-2,-1.4330073E-1,-3.2193687E-2,-3.5104342E-3,-1.7528867E-2,5.895664E-2,1.29672205E-2,-5.2592233E-3,5.7791013E-2,1.9465644E-2,7.712975E-2,3.760199E-2,-4.133992E-2,3.695537E-2,-1.3446348E-2,4.559074E-2],"categories":[],"categories_nodes":[],"categories_segments":[],"categories_sizes":[],"default_left":[0,0,0,0,0,0,0,0,0,0,0,0,0,0,0,0,0,0,0,0,0,0,0,0,0,0,0,0,0],"id":0,"left_children":[1,3,5,7,9,11,13,15,17,19,21,23,25,-1,27,-1,-1,-1,-1,-1,-1,-1,-1,-1,-1,-1,-1,-1,-1],"loss_changes":[8.29576E1,9.133615E1,2.6084679E1,1.3063171E1,2.2791836E1,6.2098923E0,3.4644976E0,1.0798546E1,4.5753264E0,1.0547022E1,1.1174423E1,4.5450516E0,3.1294212E0,0E0,2.9017549E0,0E0,0E0,0E0,0E0,0E0,0E0,0E0,0E0,0E0,0E0,0E0,0E0,0E0,0E0],"parents":[2147483647,0,0,1,1,2,2,3,3,4,4,5,5,6,6,7,7,8,8,9,9,10,10,11,11,12,12,14,14],"right_children":[2,4,6,8,10,12,14,16,18,20,22,24,26,-1,28,-1,-1,-1,-1,-1,-1,-1,-1,-1,-1,-1,-1,-1,-1],"split_conditions":[6.023876E-2,-3.5066006E-1,-4.7618978E-2,4.4036922E-1,1.0920213E0,1.5703225E0,-4.4121423E-1,2.1033043E-2,-5.707371E-1,-1.748235E-2,-3.991186E-3,4E0,2.3037748E0,4.9341094E-2,2.1311939E0,-3.2193687E-2,-3.5104342E-3,-1.7528867E-2,5.895664E-2,1.29672205E-2,-5.2592233E-3,5.7791013E-2,1.9465644E-2,7.712975E-2,3.760199E-2,-4.133992E-2,3.695537E-2,-1.3446348E-2,4.559074E-2],"split_indices":[3,2,0,1,2,1,1,3,2,1,3,4,1,0,1,0,0,0,0,0,0,0,0,0,0,0,0,0,0],"split_type":[0,0,0,0,0,0,0,0,0,0,0,0,0,0,0,0,0,0,0,0,0,0,0,0,0,0,0,0,0],"sum_hessian":[7.77216E2,6.9794E2,7.927603E1,2.9398196E2,4.0395804E2,5.8096897E1,2.1179136E1,2.8659842E2,7.383552E0,3.1593832E2,8.8019714E1,5.4988033E1,3.108864E0,2.1373441E0,1.9041792E1,2.4851482E2,3.8083584E1,2.331648E0,5.051904E0,1.5311156E2,1.6282675E2,2.817408E1,5.9845634E1,4.2552578E1,1.2435456E1,1.554432E0,1.554432E0,1.7681664E1,1.360128E0],"tree_param":{"num_deleted":"0","num_feature":"6","num_nodes":"29","size_leaf_vector":"1"}},{"base_weights":[1.4845068E-4,-1.0534985E-1,8.9711136E-1,-5.137317E-1,1.8728586E-1,1.204117E0,1.3169789E-2,-5.4742956E-1,6.711274E-1,6.803746E-2,6.043264E-1,1.3843569E0,6.379214E-1,4.6903625E-2,-1.3516538E-1,-3.107554E-2,-3.3449412E-3,-1.7016858E-2,5.519406E-2,-2.5233242E-3,1.7072352E-2,5.356703E-2,1.8338827E-2,7.669284E-2,2.9542178E-2,-1.2719916E-2,5.5682518E-2,-1.2889641E-2,4.3725356E-2],"categories":[],"categories_nodes":[],"categories_segments":[],"categories_sizes":[],"default_left":[0,0,0,0,0,0,0,0,0,0,0,0,0,0,0,0,0,0,0,0,0,0,0,0,0,0,0,0,0],"id":1,"left_children":[1,3,5,7,9,11,13,15,17,19,21,23,25,-1,27,-1,-1,-1,-1,-1,-1,-1,-1,-1,-1,-1,-1,-1,-1],"loss_changes":[7.371721E1,8.339724E1,2.2232422E1,1.1995857E1,2.0189447E1,5.3255234E0,3.164991E0,1.0059036E1,4.0976806E0,1.0303251E1,9.627945E0,4.4668884E0,7.3067718E0,0E0,2.6965544E0,0E0,0E0,0E0,0E0,0E0,0E0,0E0,0E0,0E0,0E0,0E0,0E0,0E0,0E0],"parents":[2147483647,0,0,1,1,2,2,3,3,4,4,5,5,6,6,7,7,8,8,9,9,10,10,11,11,12,12,14,14],"right_children":[2,4,6,8,10,12,14,16,18,20,22,24,26,-1,28,-1,-1,-1,-1,-1,-1,-1,-1,-1,-1,-1,-1,-1,-1],"split_conditions":[6.023876E-2,-3.5066006E-1,-4.7618978E-2,4.4036922E-1,1.0920213E0,-1.3936552E-1,-4.4121423E-1,2.1033043E-2,-5.707371E-1,3.560051E-2,-3.991186E-3,1.3E1,9.066027E-2,4.6903625E-2,2.1311939E0,-3.107554E-2,-3.3449412E-3,-1.7016858E-2,5.519406E-2,-2.5233242E-3,1.7072352E-2,5.356703E-2,1.8338827E-2,7.669284E-2,2.9542178E-2,-1.2719916E-2,5.5682518E-2,-1.2889641E-2,4.3725356E-2],"split_indices":[3,2,0,1,2,1,1,3,2,0,3,5,3,0,1,0,0,0,0,0,0,0,0,0,0,0,0,0,0],"split_type":[0,0,0,0,0,0,0,0,0,0,0,0,0,0,0,0,0,0,0,0,0,0,0,0,0,0,0,0,0],"sum_hessian":[7.770217E2,6.960382E2,8.098354E1,2.902417E2,4.0579648E2,5.983855E1,2.1144995E1,2.827385E2,7.5032196E0,3.1646872E2,8.9327774E1,4.429339E1,1.5545163E1,2.1866622E0,1.8958332E1,2.4471805E2,3.8020443E1,2.3122988E0,5.190921E0,2.2134607E2,9.512264E1,2.893422E1,6.039356E1,3.648629E1,7.8071E0,5.567503E0,9.97766E0,1.7569183E1,1.3891484E0],"tree_param":{"num_deleted":"0","num_feature":"6","num_nodes":"29","size_leaf_vector":"1"}},{"base_weights":[3.568463E-4,-3.4999046E-1,2.4522571E-1,-4.9850982E-1,8.875101E-1,1.7983085E-1,8.5094404E-1,-5.5094737E-1,2.4553388E-1,1.2277622E0,6.899574E-2,9.2051916E-2,6.673628E-1,1.248718E0,-1.0837516E-1,-3.0962292E-2,-5.53417E-3,-1.6333824E-2,3.3906415E-2,7.3835164E-2,1.4170082E-3,-4.123254E-2,1.4154918E-2,1.3831583E-2,-2.9234844E-3,4.1920193E-2,-1.41663775E-2,1.6339093E-2,7.171993E-2,5.716592E-2,-2.031854E-2],"categories":[],"categories_nodes":[],"categories_segments":[],"categories_sizes":[],"default_left":[0,0,0,0,0,0,0,0,0,0,0,0,0,0,0,0,0,0,0,0,0,0,0,0,0,0,0,0,0,0,0],"id":2,"left_children":[1,3,5,7,9,11,13,15,17,19,21,23,25,27,29,-1,-1,-1,-1,-1,-1,-1,-1,-1,-1,-1,-1,-1,-1,-1,-1],"loss_changes":[6.679331E1,5.9311703E1,1.799955E1,1.1318024E1,9.574205E0,1.7693602E1,1.7073147E1,7.991806E0,5.0637646E0,7.255127E0,2.3846517E0,9.816534E0,1.0504841E1,4.9162216E0,5.660625E0,0E0,0E0,0E0,0E0,0E0,0E0,0E0,0E0,0E0,0E0,0E0,0E0,0E0,0E0,0E0,0E0],"parents":[2147483647,0,0,1,1,2,2,3,3,4,4,5,5,6,6,7,7,8,8,9,9,10,10,11,11,12,12,13,13,14,14],"right_children":[2,4,6,8,10,12,14,16,18,20,22,24,26,28,30,-1,-1,-1,-1,-1,-1,-1,-1,-1,-1,-1,-1,-1,-1,-1,-1],"split_conditions":[-3.5066006E-1,5.8131482E-2,7.082839E-2,-4.005008E-2,-3.6624897E-1,1.9232514E0,-3.8480815E-2,2.1033043E-2,-2.8987637E-1,1.3E1,-3.5679868E-1,-5.1006608E-2,4E0,-4.6499628E-1,-2.2380614E-1,-3.0962292E-2,-5.53417E-3,-1.6333824E-2,3.3906415E-2,7.3835164E-2,1.4170082E-3,-4.123254E-2,1.4154918E-2,1.3831583E-2,-2.9234844E-3,4.1920193E-2,-1.41663775E-2,1.6339093E-2,7.171993E-2,5.716592E-2,-2.031854E-2],"split_indices":[2,3,3,1,1,2,0,3,0,5,1,1,4,1,1,0,0,0,0,0,0,0,0,0,0,0,0,0,0,0,0],"split_type":[0,0,0,0,0,0,0,0,0,0,0,0,0,0,0,0,0,0,0,0,0,0,0,0,0,0,0,0,0,0,0],"sum_hessian":[7.765749E2,3.193023E2,4.5727258E2,2.8562054E2,3.368176E1,4.1388538E2,4.3387215E1,2.6705872E2,1.8561823E1,2.3438507E1,1.0243252E1,3.5174362E2,6.214176E1,3.0456854E1,1.2930362E1,2.3084158E2,3.621714E1,8.096755E0,1.0465067E1,1.9218512E1,4.219997E0,1.4286253E0,8.814627E0,1.5762068E2,1.9412292E2,5.2766518E1,9.375244E0,5.568447E0,2.4888407E1,1.9409496E0,1.0989411E1],"tree_param":{"num_deleted":"0","num_feature":"6","num_nodes":"31","size_leaf_vector":"1"}},{"base_weights":[4.0805835E-4,-3.357373E-1,2.3198058E-1,-4.7980165E-1,8.2930386E-1,1.7018062E-1,7.974014E-1,-5.125851E-1,6.190455E-1,1.2855551E0,2.850739E-1,6.3909076E-2,5.360258E-1,1.1592308E0,-1.00896224E-1,-4.278878E-2,-2.1215018E-2,5.767081E-2,-8.004456E-3,7.581734E-2,6.191963E-3,3.3507366E-2,-1.7748348E-2,1.2461696E-2,-5.7094386E-3,4.814254E-2,1.602034E-2,7.0053905E-2,2.47199E-2,5.4297622E-2,-1.9566622E-2],"categories":[],"categories_nodes":[],"categories_segments":[],"categories_sizes":[],"default_left":[0,0,0,0,0,0,0,0,0,0,0,0,0,0,0,0,0,0,0,0,0,0,0,0,0,0,0,0,0,0,0],"id":3,"left_children":[1,3,5,7,9,11,13,15,17,19,21,23,25,27,29,-1,-1,-1,-1,-1,-1,-1,-1,-1,-1,-1,-1,-1,-1,-1,-1],"loss_changes":[6.0563423E1,5.3663795E1,1.5961479E1,1.0514572E1,8.3965435E0,1.6160824E1,1.4781818E1,7.9815445E0,3.787496E0,4.8828945E0,4.5211244E0,1.0719843E1,8.3082905E0,4.491646E0,5.207769E0,0E0,0E0,0E0,0E0,0E0,0E0,0E0,0E0,0E0,0E0,0E0,0E0,0E0,0E0,0E0,0E0],"parents":[2147483647,0,0,1,1,2,2,3,3,4,4,5,5,6,6,7,7,8,8,9,9,10,10,11,11,12,12,13,13,14,14],"right_children":[2,4,6,8,10,12,14,16,18,20,22,24,26,28,30,-1,-1,-1,-1,-1,-1,-1,-1,-1,-1,-1,-1,-1,-1,-1,-1],"split_conditions":[-3.5066006E-1,5.8131482E-2,7.082839E-2,4.4036922E-1,-4.6980232E-1,1.0920213E0,-3.8480815E-2,1E1,9.9344575E-1,1.3E1,-1.5408976E-1,-1.748235E-2,-3.991186E-3,2.9009154E-1,-2.2380614E-1,-4.278878E-2,-2.1215018E-2,5.767081E-2,-8.004456E-3,7.581734E-2,6.191963E-3,3.3507366E-2,-1.7748348E-2,1.2461696E-2,-5.7094386E-3,4.814254E-2,1.602034E-2,7.0053905E-2,2.47199E-2,5.4297622E-2,-1.9566622E-2],"split_indices":[2,3,3,1,1,2,0,5,1,5,0,1,3,1,1,0,0,0,0,0,0,0,0,0,0,0,0,0,0,0,0],"split_type":[0,0,0,0,0,0,0,0,0,0,0,0,0,0,0,0,0,0,0,0,0,0,0,0,0,0,0,0,0,0,0],"sum_hessian":[7.7602936E2,3.1635944E2,4.5966992E2,2.8206818E2,3.429126E1,4.1555154E2,4.4118397E1,2.744147E2,7.653477E0,1.7912386E1,1.6378874E1,3.2292285E2,9.262868E1,3.1243294E1,1.2875103E1,5.436964E1,2.2004506E2,4.2548804E0,3.398597E0,1.468895E1,3.2234373E0,1.0196953E1,6.181921E0,1.5805487E2,1.6486798E2,2.9925209E1,6.270347E1,2.2097454E1,9.14584E0,1.9927639E0,1.08823395E1],"tree_param":{"num_deleted":"0","num_feature":"6","num_nodes":"31","size_leaf_vector":"1"}},{"base_weights":[5.9732056E-4,-3.2187808E-1,2.1968938E-1,-4.616542E-1,7.787397E-1,1.6120064E-1,7.4929726E-1,-5.1235986E-1,2.3656552E-1,1.0005494E0,-1.6715847E-1,6.4275E-2,5.199683E-1,1.0803486E0,-9.3892634E-2,-2.9126499E-2,-4.7002165E-3,-1.5510877E-2,3.2010283E-2,6.490843E-2,1.5198215E-2,-4.917584E-2,1.8020978E-2,1.3414184E-2,-7.7752518E-3,5.505521E-2,1.1227266E-2,1.2246911E-2,6.242844E-2,5.1639177E-2,-1.8839352E-2],"categories":[],"categories_nodes":[],"categories_segments":[],"categories_sizes":[],"default_left":[0,0,0,0,0,0,0,0,0,0,0,0,0,0,0,0,0,0,0,0,0,0,0,0,0,0,0,0,0,0,0],"id":4,"left_children":[1,3,5,7,9,11,13,15,17,19,21,23,25,27,29,-1,-1,-1,-1,-1,-1,-1,-1,-1,-1,-1,-1,-1,-1,-1,-1],"loss_changes":[5.4913822E1,4.8732517E1,1.4215204E1,1.002121E1,7.6795006E0,1.4503899E1,1.2873209E1,7.6076202E0,4.5280313E0,5.6480637E0,3.6527843E0,1.4850277E1,1.4994368E1,4.32259E0,4.7938046E0,0E0,0E0,0E0,0E0,0E0,0E0,0E0,0E0,0E0,0E0,0E0,0E0,0E0,0E0,0E0,0E0],"parents":[2147483647,0,0,1,1,2,2,3,3,4,4,5,5,6,6,7,7,8,8,9,9,10,10,11,11,12,12,13,13,14,14],"right_children":[2,4,6,8,10,12,14,16,18,20,22,24,26,28,30,-1,-1,-1,-1,-1,-1,-1,-1,-1,-1,-1,-1,-1,-1,-1,-1],"split_conditions":[-3.5066006E-1,5.8131482E-2,7.082839E-2,-4.005008E-2,-3.170224E-1,1.6564655E0,-3.8480815E-2,1.9878648E-2,-2.8987637E-1,4E0,-2.4840046E-1,-5.1006608E-2,-3.991186E-3,-4.6499628E-1,-2.2380614E-1,-2.9126499E-2,-4.7002165E-3,-1.5510877E-2,3.2010283E-2,6.490843E-2,1.5198215E-2,-4.917584E-2,1.8020978E-2,1.3414184E-2,-7.7752518E-3,5.505521E-2,1.1227266E-2,1.2246911E-2,6.242844E-2,5.1639177E-2,-1.8839352E-2],"split_indices":[2,3,3,1,1,1,0,3,0,4,1,1,3,1,1,0,0,0,0,0,0,0,0,0,0,0,0,0,0,0,0],"split_type":[0,0,0,0,0,0,0,0,0,0,0,0,0,0,0,0,0,0,0,0,0,0,0,0,0,0,0,0,0,0,0],"sum_hessian":[7.752451E2,3.1343698E2,4.618081E2,2.7863187E2,3.4805107E1,4.1705396E2,4.475415E1,2.6001538E2,1.8616484E1,2.8146965E1,6.658142E0,3.292752E2,8.7778755E1,3.1934742E1,1.2819408E1,2.2233163E2,3.7683743E1,8.004626E0,1.0611856E1,1.9115969E1,9.030996E0,2.2744756E0,4.3836665E0,1.7065016E2,1.5862505E2,2.8664562E1,5.911419E1,5.7643E0,2.6170443E1,2.0407987E0,1.0778609E1],"tree_param":{"num_deleted":"0","num_feature":"6","num_nodes":"31","size_leaf_vector":"1"}},{"base_weights":[6.8713084E-4,-4.7706676E-1,1.3633911E-1,-6.3621837E-1,4.957873E-1,5.8850322E-2,7.10852E-1,-4.805154E-1,-8.7254685E-1,9.050373E-1,-4.0032315E-1,-3.2444846E-2,4.8566577E-1,9.3453616E-1,1.5910821E-2,6.1191185E-3,-3.013586E-2,-4.556432E-2,9.480695E-3,6.1006088E-2,3.4024825E-3,2.5331277E-2,-3.6368556E-2,-6.648072E-3,1.5540701E-2,4.5069586E-2,1.5496522E-2,5.666855E-2,2.4110645E-2,6.83787E-2,-8.231765E-3],"categories":[],"categories_nodes":[],"categories_segments":[],"categories_sizes":[],"default_left":[0,0,0,0,0,0,0,0,0,0,0,0,0,0,0,0,0,0,0,0,0,0,0,0,0,0,0,0,0,0,0],"id":5,"left_children":[1,3,5,7,9,11,13,15,17,19,21,23,25,27,29,-1,-1,-1,-1,-1,-1,-1,-1,-1,-1,-1,-1,-1,-1,-1,-1],"loss_changes":[5.031496E1,2.6898464E1,2.6877163E1,5.0263176E0,9.42077E0,2.0819765E1,1.1142139E1,6.8105145E0,2.5408974E0,4.469639E0,2.8711324E0,1.5248931E1,6.5982723E0,4.335243E0,4.7384057E0,0E0,0E0,0E0,0E0,0E0,0E0,0E0,0E0,0E0,0E0,0E0,0E0,0E0,0E0,0E0,0E0],"parents":[2147483647,0,0,1,1,2,2,3,3,4,4,5,5,6,6,7,7,8,8,9,9,10,10,11,11,12,12,13,13,14,14],"right_children":[2,4,6,8,10,12,14,16,18,20,22,24,26,28,30,-1,-1,-1,-1,-1,-1,-1,-1,-1,-1,-1,-1,-1,-1,-1,-1],"split_conditions":[-5.537702E-1,4.0193338E-2,6.023876E-2,3E0,-4.7577474E-1,1.0920213E0,-3.8480815E-2,-6.1394477E-1,8.239715E-1,1.3E1,1E1,1.9606155E-1,-6.974176E-3,-1.3936552E-1,-4.4121423E-1,6.1191185E-3,-3.013586E-2,-4.556432E-2,9.480695E-3,6.1006088E-2,3.4024825E-3,2.5331277E-2,-3.6368556E-2,-6.648072E-3,1.5540701E-2,4.5069586E-2,1.5496522E-2,5.666855E-2,2.4110645E-2,6.83787E-2,-8.231765E-3],"split_indices":[2,3,3,4,1,2,0,0,0,5,5,0,3,1,1,0,0,0,0,0,0,0,0,0,0,0,0,0,0,0,0],"split_type":[0,0,0,0,0,0,0,0,0,0,0,0,0,0,0,0,0,0,0,0,0,0,0,0,0,0,0,0,0,0,0],"sum_hessian":[7.7436285E2,1.7069032E2,6.0367255E2,1.469899E2,2.3700417E1,5.32899E2,7.077358E1,9.043852E1,5.6551384E1,1.6263144E1,7.437272E0,4.3975916E2,9.313982E1,5.327948E1,1.74941E1,1.5241452E1,7.519707E1,5.4698444E1,1.8529389E0,1.1482715E1,4.780429E0,1.8255861E0,5.611686E0,3.4062616E2,9.9133E1,2.6446873E1,6.669295E1,3.5964386E1,1.7315094E1,1.2866808E0,1.620742E1],"tree_param":{"num_deleted":"0","num_feature":"6","num_nodes":"31","size_leaf_vector":"1"}},{"base_weights":[7.8233785E-4,-2.992993E-1,1.9998556E-1,-4.3034706E-1,6.848012E-1,1.3823181E-1,6.051259E-1,-4.582899E-1,7.548448E-1,9.495514E-1,1.8450843E-2,4.3880098E-2,4.7728977E-1,9.37307E-1,-2.3316482E-1,-4.0693797E-2,-1.8398765E-2,8.631984E-2,-7.552696E-3,5.6972038E-2,-7.025615E-4,-4.244365E-2,1.1503111E-2,-4.204521E-3,1.6557002E-2,-1.4489591E-2,2.706529E-2,5.864517E-2,2.4807295E-2,4.1634228E-2,-2.194028E-2],"categories":[],"categories_nodes":[],"categories_segments":[],"categories_sizes":[],"default_left":[0,0,0,0,0,0,0,0,0,0,0,0,0,0,0,0,0,0,0,0,0,0,0,0,0,0,0,0,0,0,0],"id":6,"left_children":[1,3,5,7,9,11,13,15,17,19,21,23,25,27,29,-1,-1,-1,-1,-1,-1,-1,-1,-1,-1,-1,-1,-1,-1,-1,-1],"loss_changes":[4.635588E1,4.0196037E1,1.1577108E1,9.408691E0,6.464937E0,1.2958563E1,1.7302235E1,8.306347E0,6.1409073E0,4.8241596E0,2.3000777E0,1.1736285E1,4.4891605E0,4.0055695E0,4.3571053E0,0E0,0E0,0E0,0E0,0E0,0E0,0E0,0E0,0E0,0E0,0E0,0E0,0E0,0E0,0E0,0E0],"parents":[2147483647,0,0,1,1,2,2,3,3,4,4,5,5,6,6,7,7,8,8,9,9,10,10,11,11,12,12,13,13,14,14],"right_children":[2,4,6,8,10,12,14,16,18,20,22,24,26,28,30,-1,-1,-1,-1,-1,-1,-1,-1,-1,-1,-1,-1,-1,-1,-1,-1],"split_conditions":[-3.5066006E-1,5.8131482E-2,4.697997E-2,6.4059407E-1,-3.6624897E-1,1.1994251E0,-3.8480815E-2,1E1,9.9344575E-1,1.3E1,-3.5679868E-1,3.560051E-2,-4.1378388E-1,-4.005008E-2,-2.2380614E-1,-4.0693797E-2,-1.8398765E-2,8.631984E-2,-7.552696E-3,5.6972038E-2,-7.025615E-4,-4.244365E-2,1.1503111E-2,-4.204521E-3,1.6557002E-2,-1.4489591E-2,2.706529E-2,5.864517E-2,2.4807295E-2,4.1634228E-2,-2.194028E-2],"split_indices":[2,3,3,1,1,2,0,5,1,5,1,0,1,1,1,0,0,0,0,0,0,0,0,0,0,0,0,0,0,0,0],"split_type":[0,0,0,0,0,0,0,0,0,0,0,0,0,0,0,0,0,0,0,0,0,0,0,0,0,0,0,0,0,0,0],"sum_hessian":[7.734758E2,3.0839868E2,4.6507718E2,2.7265347E2,3.57452E1,4.0472754E2,6.0349636E1,2.6697247E2,5.6809945E0,2.5277212E1,1.0467988E1,3.1750336E2,8.722418E1,4.3137753E1,1.7211884E1,5.2451035E1,2.1452145E2,2.304139E0,3.3768554E0,2.0963604E1,4.313607E0,1.4624453E0,9.005543E0,2.2014081E2,9.736256E1,6.4468594E0,8.077732E1,2.703916E1,1.609859E1,2.2905576E0,1.4921327E1],"tree_param":{"num_deleted":"0","num_feature":"6","num_nodes":"31","size_leaf_vector":"1"}},{"base_weights":[8.4322423E-4,-4.4749302E-1,1.2486163E-1,-6.003673E-1,4.502776E-1,5.489218E-2,6.33544E-1,-4.4627014E-1,-8.3711624E-1,8.2585204E-1,-3.922634E-1,-1.6246822E-1,2.0406839E-1,7.9969186E-1,-6.24348E-2,6.9313087E-3,-2.8367365E-2,-4.381392E-2,9.875166E-3,5.5023808E-2,3.588541E-3,2.3923272E-2,-3.5594374E-2,-9.662947E-3,6.539173E-2,7.2805653E-3,3.2823656E-2,4.8352133E-2,1.0728537E-2,5.620395E-2,-1.1828089E-2],"categories":[],"categories_nodes":[],"categories_segments":[],"categories_sizes":[],"default_left":[0,0,0,0,0,0,0,0,0,0,0,0,0,0,0,0,0,0,0,0,0,0,0,0,0,0,0,0,0,0,0],"id":7,"left_children":[1,3,5,7,9,11,13,15,17,19,21,23,25,27,29,-1,-1,-1,-1,-1,-1,-1,-1,-1,-1,-1,-1,-1,-1,-1,-1],"loss_changes":[4.30597E1,2.3300808E1,2.1556137E1,4.8731804E0,8.231018E0,1.7359856E1,8.520945E0,6.3995686E0,2.4242477E0,3.5669193E0,2.6734638E0,1.01236105E1,8.296504E0,5.590458E0,3.3743606E0,0E0,0E0,0E0,0E0,0E0,0E0,0E0,0E0,0E0,0E0,0E0,0E0,0E0,0E0,0E0,0E0],"parents":[2147483647,0,0,1,1,2,2,3,3,4,4,5,5,6,6,7,7,8,8,9,9,10,10,11,11,12,12,13,13,14,14],"right_children":[2,4,6,8,10,12,14,16,18,20,22,24,26,28,30,-1,-1,-1,-1,-1,-1,-1,-1,-1,-1,-1,-1,-1,-1,-1,-1],"split_conditions":[-5.537702E-1,4.0193338E-2,6.023876E-2,3E0,-4.7577474E-1,-1.14025146E-1,-1.0681035E-2,-6.1394477E-1,8.239715E-1,1.3E1,1E1,1.7068554E0,2.8303866E0,4E0,-4.3308437E-1,6.9313087E-3,-2.8367365E-2,-4.381392E-2,9.875166E-3,5.5023808E-2,3.588541E-3,2.3923272E-2,-3.5594374E-2,-9.662947E-3,6.539173E-2,7.2805653E-3,3.2823656E-2,4.8352133E-2,1.0728537E-2,5.620395E-2,-1.1828089E-2],"split_indices":[2,3,3,4,1,2,0,0,0,5,5,1,2,4,1,0,0,0,0,0,0,0,0,0,0,0,0,0,0,0,0],"split_type":[0,0,0,0,0,0,0,0,0,0,0,0,0,0,0,0,0,0,0,0,0,0,0,0,0,0,0,0,0,0,0],"sum_hessian":[7.72423E2,1.6680426E2,6.056187E2,1.4281644E2,2.398782E1,5.333624E2,7.225629E1,8.825636E1,5.456007E1,1.6605495E1,7.3823237E0,2.1703615E2,3.163263E2,5.821086E1,1.4045428E1,1.51114435E1,7.314492E1,5.271766E1,1.8424127E0,1.183575E1,4.769747E0,1.8488021E0,5.5335217E0,2.13435E2,3.601144E0,2.813002E2,3.50261E1,4.4757126E1,1.3453735E1,1.0992879E0,1.294614E1],"tree_param":{"num_deleted":"0","num_feature":"6","num_nodes":"31","size_leaf_vector":"1"}},{"base_weights":[9.3465555E-4,-4.3107614E-1,1.18666455E-1,-6.06531E-1,3.031709E-1,5.2247655E-2,5.9751374E-1,-1.0036731E0,-5.034133E-1,6.1571485E-1,-3.97088E-1,-1.547821E-1,1.931249E-1,7.5112677E-1,-5.664212E-2,-8.576954E-3,-5.155113E-2,-2.777109E-2,1.06608E-2,1.37022985E-2,6.1218143E-2,2.3967307E-2,-3.2180272E-2,-9.227334E-3,6.1416417E-2,5.955242E-2,8.418752E-3,4.5294497E-2,1.0192339E-2,5.4187834E-2,-1.134275E-2],"categories":[],"categories_nodes":[],"categories_segments":[],"categories_sizes":[],"default_left":[0,0,0,0,0,0,0,0,0,0,0,0,0,0,0,0,0,0,0,0,0,0,0,0,0,0,0,0,0,0,0],"id":8,"left_children":[1,3,5,7,9,11,13,15,17,19,21,23,25,27,29,-1,-1,-1,-1,-1,-1,-1,-1,-1,-1,-1,-1,-1,-1,-1,-1],"loss_changes":[3.9334766E1,2.1520788E1,1.9297678E1,4.9829063E0,7.3817463E0,1.5627999E1,7.4718533E0,4.2891693E-1,4.1584187E0,4.4348555E0,2.6141324E0,9.1647625E0,7.670726E0,4.8924713E0,3.155515E0,0E0,0E0,0E0,0E0,0E0,0E0,0E0,0E0,0E0,0E0,0E0,0E0,0E0,0E0,0E0,0E0],"parents":[2147483647,0,0,1,1,2,2,3,3,4,4,5,5,6,6,7,7,8,8,9,9,10,10,11,11,12,12,13,13,14,14],"right_children":[2,4,6,8,10,12,14,16,18,20,22,24,26,28,30,-1,-1,-1,-1,-1,-1,-1,-1,-1,-1,-1,-1,-1,-1,-1,-1],"split_conditions":[-5.537702E-1,2.9382905E-2,6.023876E-2,1E1,-4.7577474E-1,-1.14025146E-1,-1.0681035E-2,-7.7521193E-1,5.587296E-2,-6.332875E-1,-4.4931558E-1,1.7068554E0,-7.7521193E-1,4E0,-4.3308437E-1,-8.576954E-3,-5.155113E-2,-2.777109E-2,1.06608E-2,1.37022985E-2,6.1218143E-2,2.3967307E-2,-3.2180272E-2,-9.227334E-3,6.1416417E-2,5.955242E-2,8.418752E-3,4.5294497E-2,1.0192339E-2,5.4187834E-2,-1.134275E-2],"split_indices":[2,3,3,5,1,2,0,0,0,2,0,1,0,4,1,0,0,0,0,0,0,0,0,0,0,0,0,0,0,0,0],"split_type":[0,0,0,0,0,0,0,0,0,0,0,0,0,0,0,0,0,0,0,0,0,0,0,0,0,0,0,0,0,0,0],"sum_hessian":[7.7136584E2,1.6462422E2,6.0674164E2,1.3301341E2,3.1610798E1,5.3380853E2,7.293311E1,2.5617657E1,1.0739576E2,2.19394E1,9.671398E0,2.1611398E2,3.1769452E2,5.8943413E1,1.3989703E1,1.0465815E0,2.4571075E1,1.0033876E2,7.0570016E0,1.4980336E1,6.9590635E0,1.9157901E0,7.755608E0,2.124095E2,3.7044854E0,6.5481305E0,3.111464E2,4.5438717E1,1.3504696E1,1.1198466E0,1.2869857E1],"tree_param":{"num_deleted":"0","num_feature":"6","num_nodes":"31","size_leaf_vector":"1"}},{"base_weights":[1.055014E-3,-4.1510013E-1,1.1284708E-1,-5.617126E-1,4.1055468E-1,4.9786497E-2,5.642077E-1,-4.0923786E-1,-7.992993E-1,7.420848E-1,-3.6262915E-1,-2.6159406E-2,4.131226E-1,9.2737883E-1,2.9747418E-1,7.956481E-3,-2.647633E-2,-4.4523377E-2,-1.2566728E-2,1.1670463E-2,5.6159686E-2,2.376463E-2,-3.398725E-2,-5.844246E-3,1.2135977E-2,4.626405E-2,7.292017E-3,5.799715E-2,4.5703496E-3,2.4432654E-2,-9.11046E-3],"categories":[],"categories_nodes":[],"categories_segments":[],"categories_sizes":[],"default_left":[0,0,0,0,0,0,0,0,0,0,0,0,0,0,0,0,0,0,0,0,0,0,0,0,0,0,0,0,0,0,0],"id":9,"left_children":[1,3,5,7,9,11,13,15,17,19,21,23,25,27,29,-1,-1,-1,-1,-1,-1,-1,-1,-1,-1,-1,-1,-1,-1,-1,-1],"loss_changes":[3.59306E1,2.0027166E1,1.7299545E1,4.7191772E0,6.738564E0,1.4780321E1,6.943878E0,6.025255E0,2.4440536E0,3.2258787E0,2.5141702E0,1.0850837E1,1.2540644E1,5.9379444E0,4.164667E0,0E0,0E0,0E0,0E0,0E0,0E0,0E0,0E0,0E0,0E0,0E0,0E0,0E0,0E0,0E0,0E0],"parents":[2147483647,0,0,1,1,2,2,3,3,4,4,5,5,6,6,7,7,8,8,9,9,10,10,11,11,12,12,13,13,14,14],"right_children":[2,4,6,8,10,12,14,16,18,20,22,24,26,28,30,-1,-1,-1,-1,-1,-1,-1,-1,-1,-1,-1,-1,-1,-1,-1,-1],"split_conditions":[-5.537702E-1,4.0193338E-2,6.023876E-2,3E0,-4.7577474E-1,1.6564655E0,-3.1096008E-1,-6.1394477E-1,-3.5913774E-1,-6.0669994E-1,1E1,2.3848494E-3,-3.991186E-3,4E0,-1.0681035E-2,7.956481E-3,-2.647633E-2,-4.4523377E-2,-1.2566728E-2,1.1670463E-2,5.6159686E-2,2.376463E-2,-3.398725E-2,-5.844246E-3,1.2135977E-2,4.626405E-2,7.292017E-3,5.799715E-2,4.5703496E-3,2.4432654E-2,-9.11046E-3],"split_indices":[2,3,3,4,1,1,1,0,1,1,5,0,3,4,0,0,0,0,0,0,0,0,0,0,0,0,0,0,0,0,0],"split_type":[0,0,0,0,0,0,0,0,0,0,0,0,0,0,0,0,0,0,0,0,0,0,0,0,0,0,0,0,0,0,0],"sum_hessian":[7.7031476E2,1.6253854E2,6.077762E2,1.3830011E2,2.4238434E1,5.3424585E2,7.353036E1,8.589696E1,5.2403152E1,1.6992512E1,7.245923E0,4.4264954E2,9.15963E1,3.0087673E1,4.3442684E1,1.4947367E1,7.0949585E1,4.439229E1,8.010863E0,7.9688015E0,9.023709E0,1.8524251E0,5.3934984E0,3.3139505E2,1.1125449E2,3.0565596E1,6.1030704E1,2.3235977E1,6.851696E0,3.104924E1,1.2393444E1],"tree_param":{"num_deleted":"0","num_feature":"6","num_nodes":"31","size_leaf_vector":"1"}},{"base_weights":[1.0577347E-3,-3.9975944E-1,1.0721913E-1,-5.684437E-1,2.802349E-1,-2.7181324E-1,1.794535E-1,-9.7199667E-1,-4.6530384E-1,5.8667004E-1,-3.181485E-1,-5.312595E-1,6.746036E-1,1.1852956E-1,5.33112E-1,-8.373379E-3,-4.9970638E-2,-2.5851673E-2,1.1399714E-2,1.1391762E-2,5.5599827E-2,2.2412447E-2,-3.149123E-2,-2.893698E-2,3.23832E-2,4.4541165E-2,-2.5820998E-2,2.2340251E-2,2.8453645E-4,4.3648604E-2,1.4087162E-2],"categories":[],"categories_nodes":[],"categories_segments":[],"categories_sizes":[],"default_left":[0,0,0,0,0,0,0,0,0,0,0,0,0,0,0,0,0,0,0,0,0,0,0,0,0,0,0,0,0,0,0],"id":10,"left_children":[1,3,5,7,9,11,13,15,17,19,21,23,25,27,29,-1,-1,-1,-1,-1,-1,-1,-1,-1,-1,-1,-1,-1,-1,-1,-1],"loss_changes":[3.281434E1,1.868221E1,1.6741304E1,4.9468765E0,6.1949053E0,2.4419098E1,1.0983381E1,3.9478302E-1,3.8918934E0,3.8977427E0,3.0879238E0,4.711012E0,6.0027895E0,1.6245483E1,6.1660385E0,0E0,0E0,0E0,0E0,0E0,0E0,0E0,0E0,0E0,0E0,0E0,0E0,0E0,0E0,0E0,0E0],"parents":[2147483647,0,0,1,1,2,2,3,3,4,4,5,5,6,6,7,7,8,8,9,9,10,10,11,11,12,12,13,13,14,14],"right_children":[2,4,6,8,10,12,14,16,18,20,22,24,26,28,30,-1,-1,-1,-1,-1,-1,-1,-1,-1,-1,-1,-1,-1,-1,-1,-1],"split_conditions":[-5.537702E-1,2.9382905E-2,-3.7906136E-2,1E1,-4.9229524E-1,3.560051E-2,6.023876E-2,-7.7521193E-1,5.587296E-2,7.392957E-2,1E1,3.187339E0,4E0,-3.991186E-3,-3.1096008E-1,-8.373379E-3,-4.9970638E-2,-2.5851673E-2,1.1399714E-2,1.1391762E-2,5.5599827E-2,2.2412447E-2,-3.149123E-2,-2.893698E-2,3.23832E-2,4.4541165E-2,-2.5820998E-2,2.2340251E-2,2.8453645E-4,4.3648604E-2,1.4087162E-2],"split_indices":[2,3,3,5,1,0,3,0,0,3,5,2,4,3,1,0,0,0,0,0,0,0,0,0,0,0,0,0,0,0,0],"split_type":[0,0,0,0,0,0,0,0,0,0,0,0,0,0,0,0,0,0,0,0,0,0,0,0,0,0,0,0,0,0,0],"sum_hessian":[7.6916376E2,1.6048392E2,6.086799E2,1.2871739E2,3.1766521E1,9.698927E1,5.1169058E2,2.4486319E1,1.0423107E2,2.102109E1,1.0745432E1,7.646593E1,2.0523346E1,4.3763528E2,7.4055305E1,1.0411777E0,2.344514E1,9.723057E1,7.000503E0,1.3341566E1,7.6795235E0,2.9798722E0,7.7655597E0,7.399494E1,2.4709847E0,1.7583307E1,2.94004E0,1.1119179E2,3.264435E2,3.0434214E1,4.362109E1],"tree_param":{"num_deleted":"0","num_feature":"6","num_nodes":"31","size_leaf_vector":"1"}},{"base_weights":[1.008146E-3,-2.5125167E-1,1.6007873E-1,-4.305421E-1,2.9456377E-1,-1.5628378E-1,2.1864867E-1,-8.6051494E-1,-3.2811594E-1,6.7087865E-1,9.585659E-2,-4.707499E-1,8.164606E-1,5.7095224E-1,1.1882745E-1,-4.8890054E-2,-2.0310754E-2,-1.9589193E-2,2.0451518E-2,-1.4985183E-2,4.5359876E-2,-8.2682E-3,2.3050545E-2,-2.591422E-2,2.3384204E-2,4.941268E-2,-1.6027238E-2,1.574286E-2,5.889249E-2,2.0531014E-2,-5.1053697E-3],"categories":[],"categories_nodes":[],"categories_segments":[],"categories_sizes":[],"default_left":[0,0,0,0,0,0,0,0,0,0,0,0,0,0,0,0,0,0,0,0,0,0,0,0,0,0,0,0,0,0,0],"id":11,"left_children":[1,3,5,7,9,11,13,15,17,19,21,23,25,27,29,-1,-1,-1,-1,-1,-1,-1,-1,-1,-1,-1,-1,-1,-1,-1,-1],"loss_changes":[3.0904327E1,2.9273268E1,8.78592E0,9.609226E0,5.4869413E0,2.3132618E1,1.3962261E1,1.8723392E0,8.749277E0,6.117832E0,4.821741E0,2.7775898E0,3.9369059E0,1.3278255E1,2.0164299E1,0E0,0E0,0E0,0E0,0E0,0E0,0E0,0E0,0E0,0E0,0E0,0E0,0E0,0E0,0E0,0E0],"parents":[2147483647,0,0,1,1,2,2,3,3,4,4,5,5,6,6,7,7,8,8,9,9,10,10,11,11,12,12,13,13,14,14],"right_children":[2,4,6,8,10,12,14,16,18,20,22,24,26,28,30,-1,-1,-1,-1,-1,-1,-1,-1,-1,-1,-1,-1,-1,-1,-1,-1],"split_conditions":[-3.5066006E-1,2.1033043E-2,-3.7906136E-2,1E1,-4.586963E-1,2.3582408E-2,-3.991186E-3,-4.670033E-1,3.0763695E-1,1E0,8.53151E-2,3.187339E0,4E0,1.1311224E0,-2.349846E-2,-4.8890054E-2,-2.0310754E-2,-1.9589193E-2,2.0451518E-2,-1.4985183E-2,4.5359876E-2,-8.2682E-3,2.3050545E-2,-2.591422E-2,2.3384204E-2,4.941268E-2,-1.6027238E-2,1.574286E-2,5.889249E-2,2.0531014E-2,-5.1053697E-3],"split_indices":[2,3,3,5,0,0,3,2,0,4,3,2,4,1,1,0,0,0,0,0,0,0,0,0,0,0,0,0,0,0,0],"split_type":[0,0,0,0,0,0,0,0,0,0,0,0,0,0,0,0,0,0,0,0,0,0,0,0,0,0,0,0,0,0,0],"sum_hessian":[7.681583E2,2.9683975E2,4.7131857E2,2.2360182E2,7.323794E1,7.336624E1,3.9795233E2,4.1593975E1,1.8200784E2,2.4487291E1,4.875065E1,5.583282E1,1.753342E1,8.6818855E1,3.1113348E2,3.2143257E1,9.450719E0,1.6796877E2,1.40390835E1,4.742247E0,1.9745043E1,2.873886E1,2.0011791E1,5.3567196E1,2.2656243E0,1.5345636E1,2.187783E0,6.212325E1,2.4695604E1,1.3369777E2,1.7743571E2],"tree_param":{"num_deleted":"0","num_feature":"6","num_nodes":"31","size_leaf_vector":"1"}},{"base_weights":[9.554065E-4,-4.0227446E-1,9.213692E-2,-6.032892E-1,2.1756133E-1,-2.5623384E-1,1.5732509E-1,-4.7788438E-1,-8.5134465E-1,6.0611725E-1,-7.525446E-2,-4.9362734E-1,5.959147E-1,1.00854225E-1,4.8535708E-1,-5.595267E-3,-2.9480068E-2,-5.4923214E-2,-3.2878038E-2,-8.428171E-3,4.9052205E-2,-2.192614E-2,2.0726612E-2,-2.6891625E-2,2.9914755E-2,-3.161868E-2,3.8807664E-2,2.0067697E-2,-1.5336592E-4,3.1762075E-2,-1.7804838E-3],"categories":[],"categories_nodes":[],"categories_segments":[],"categories_sizes":[],"default_left":[0,0,0,0,0,0,0,0,0,0,0,0,0,0,0,0,0,0,0,0,0,0,0,0,0,0,0,0,0,0,0],"id":12,"left_children":[1,3,5,7,9,11,13,15,17,19,21,23,25,27,29,-1,-1,-1,-1,-1,-1,-1,-1,-1,-1,-1,-1,-1,-1,-1,-1],"loss_changes":[2.8276985E1,1.7803743E1,1.4284653E1,2.9331284E0,4.0811257E0,2.037192E1,9.750141E0,2.9430313E0,9.429436E-1,4.6246595E0,3.9388294E0,4.0950375E0,5.378567E0,1.4133912E1,6.068615E0,0E0,0E0,0E0,0E0,0E0,0E0,0E0,0E0,0E0,0E0,0E0,0E0,0E0,0E0,0E0,0E0],"parents":[2147483647,0,0,1,1,2,2,3,3,4,4,5,5,6,6,7,7,8,8,9,9,10,10,11,11,12,12,13,13,14,14],"right_children":[2,4,6,8,10,12,14,16,18,20,22,24,26,28,30,-1,-1,-1,-1,-1,-1,-1,-1,-1,-1,-1,-1,-1,-1,-1,-1],"split_conditions":[-5.67238E-1,1.9878648E-2,-3.7906136E-2,-6.2882453E-1,-4.586963E-1,3.560051E-2,6.023876E-2,-5.8542454E-1,-6.0483414E-1,2E0,-6.389669E-1,3.187339E0,-4.121831E-1,-3.991186E-3,4E0,-5.595267E-3,-2.9480068E-2,-5.4923214E-2,-3.2878038E-2,-8.428171E-3,4.9052205E-2,-2.192614E-2,2.0726612E-2,-2.6891625E-2,2.9914755E-2,-3.161868E-2,3.8807664E-2,2.0067697E-2,-1.5336592E-4,3.1762075E-2,-1.7804838E-3],"split_indices":[2,3,3,2,0,0,3,0,2,4,2,2,2,3,4,0,0,0,0,0,0,0,0,0,0,0,0,0,0,0,0],"split_type":[0,0,0,0,0,0,0,0,0,0,0,0,0,0,0,0,0,0,0,0,0,0,0,0,0,0,0,0,0,0,0],"sum_hessian":[7.670756E2,1.4083823E2,6.2623737E2,1.06369095E2,3.446914E1,9.825014E1,5.2798724E2,7.259507E1,3.3774017E1,1.4353115E1,2.0116024E1,7.717208E1,2.107805E1,4.515587E2,7.642858E1,1.744566E1,5.5149414E1,1.2792326E1,2.0981693E1,4.8605556E0,9.492559E0,1.160983E1,8.506193E0,7.465713E1,2.5149589E0,2.3762007E0,1.8701849E1,1.152987E2,3.3625998E2,5.9182243E1,1.7246334E1],"tree_param":{"num_deleted":"0","num_feature":"6","num_nodes":"31","size_leaf_vector":"1"}},{"base_weights":[7.7733945E-4,-2.3448196E-1,1.4651404E-1,-4.039988E-1,2.6693964E-1,1.066714E-1,5.831265E-1,-8.3387995E-1,-3.0320463E-1,6.446994E-1,1.0059846E-1,2.7482197E-1,-2.3712736E-2,9.9182546E-1,2.808123E-1,-4.754227E-2,-1.9672297E-2,-1.961778E-2,9.874147E-3,6.7460947E-3,4.9983647E-2,-5.745026E-3,2.089586E-2,2.4727218E-2,-7.3568486E-3,-4.3996684E-3,2.6649341E-2,1.0523816E-3,7.241544E-2,3.9352402E-2,-2.1794783E-4],"categories":[],"categories_nodes":[],"categories_segments":[],"categories_sizes":[],"default_left":[0,0,0,0,0,0,0,0,0,0,0,0,0,0,0,0,0,0,0,0,0,0,0,0,0,0,0,0,0,0,0],"id":13,"left_children":[1,3,5,7,9,11,13,15,17,19,21,23,25,27,29,-1,-1,-1,-1,-1,-1,-1,-1,-1,-1,-1,-1,-1,-1,-1,-1],"loss_changes":[2.633594E1,2.5082493E1,8.188685E0,9.278942E0,4.6377397E0,9.562489E0,4.594366E0,1.7489166E0,8.101933E0,3.9718428E0,3.6820767E0,1.7729378E1,8.865136E0,7.225546E0,3.4775286E0,0E0,0E0,0E0,0E0,0E0,0E0,0E0,0E0,0E0,0E0,0E0,0E0,0E0,0E0,0E0,0E0],"parents":[2147483647,0,0,1,1,2,2,3,3,4,4,5,5,6,6,7,7,8,8,9,9,10,10,11,11,12,12,13,13,14,14],"right_children":[2,4,6,8,10,12,14,16,18,20,22,24,26,28,30,-1,-1,-1,-1,-1,-1,-1,-1,-1,-1,-1,-1,-1,-1,-1,-1],"split_conditions":[-3.5066006E-1,2.1033043E-2,2.8303866E0,1E1,-4.81151E-1,-5.1006608E-2,3.0406594E0,-4.670033E-1,-1.2734452E-1,-5.680551E-1,8.53151E-2,1.3E1,2.941991E0,-2.3833634E-1,-3.991186E-3,-4.754227E-2,-1.9672297E-2,-1.961778E-2,9.874147E-3,6.7460947E-3,4.9983647E-2,-5.745026E-3,2.089586E-2,2.4727218E-2,-7.3568486E-3,-4.3996684E-3,2.6649341E-2,1.0523816E-3,7.241544E-2,3.9352402E-2,-2.1794783E-4],"split_indices":[2,3,2,5,0,1,1,2,0,0,3,5,1,1,3,0,0,0,0,0,0,0,0,0,0,0,0,0,0,0,0],"split_type":[0,0,0,0,0,0,0,0,0,0,0,0,0,0,0,0,0,0,0,0,0,0,0,0,0,0,0,0,0,0,0],"sum_hessian":[7.6612506E2,2.9282144E2,4.7330362E2,2.1898344E2,7.383798E1,4.3486478E2,3.8438843E1,4.0211353E1,1.787721E2,2.1694391E1,5.214359E1,1.8944208E2,2.454227E2,1.5373973E1,2.306487E1,3.085765E1,9.353703E0,1.519353E2,2.683679E1,9.471893E0,1.2222498E1,3.1433933E1,2.0709656E1,1.2446083E2,6.4981255E1,2.2077261E2,2.4650095E1,5.2516623E0,1.0122311E1,7.676911E0,1.53879595E1],"tree_param":{"num_deleted":"0","num_feature":"6","num_nodes":"31","size_leaf_vector":"1"}},{"base_weights":[8.2844205E-4,-3.7773553E-1,8.448158E-2,-5.701399E-1,1.9297622E-1,-2.4713624E-1,1.458719E-1,-4.4448522E-1,-8.2131857E-1,-4.4011596E-1,3.5250708E-1,-4.761771E-1,5.5388445E-1,2.0854376E-1,-1.0937592E-1,-4.1877176E-3,-2.7820513E-2,-5.368176E-2,-3.1314895E-2,-3.495386E-2,2.0773884E-2,3.5764005E-2,9.801864E-4,-2.5925443E-2,2.7221188E-2,-3.110413E-2,3.6149707E-2,6.1933767E-2,9.547293E-3,-1.8391112E-2,6.6996255E-4],"categories":[],"categories_nodes":[],"categories_segments":[],"categories_sizes":[],"default_left":[0,0,0,0,0,0,0,0,0,0,0,0,0,0,0,0,0,0,0,0,0,0,0,0,0,0,0,0,0,0,0],"id":14,"left_children":[1,3,5,7,9,11,13,15,17,19,21,23,25,27,29,-1,-1,-1,-1,-1,-1,-1,-1,-1,-1,-1,-1,-1,-1,-1,-1],"loss_changes":[2.4291918E1,1.5354395E1,1.2825907E1,2.9198303E0,3.7657995E0,1.8336426E1,8.512929E0,2.8423414E0,9.772625E-1,1.9832319E0,3.5015178E0,3.6150646E0,4.897608E0,7.494339E0,3.345568E0,0E0,0E0,0E0,0E0,0E0,0E0,0E0,0E0,0E0,0E0,0E0,0E0,0E0,0E0,0E0,0E0],"parents":[2147483647,0,0,1,1,2,2,3,3,4,4,5,5,6,6,7,7,8,8,9,9,10,10,11,11,12,12,13,13,14,14],"right_children":[2,4,6,8,10,12,14,16,18,20,22,24,26,28,30,-1,-1,-1,-1,-1,-1,-1,-1,-1,-1,-1,-1,-1,-1,-1,-1],"split_conditions":[-5.67238E-1,1.9878648E-2,-3.7906136E-2,-6.2882453E-1,1E0,3.560051E-2,1.3E1,-5.8542454E-1,-6.0483414E-1,-1.8478572E-1,-4.586963E-1,3.187339E0,-4.121831E-1,-3.3886723E-2,-4.938635E-1,-4.1877176E-3,-2.7820513E-2,-5.368176E-2,-3.1314895E-2,-3.495386E-2,2.0773884E-2,3.5764005E-2,9.801864E-4,-2.5925443E-2,2.7221188E-2,-3.110413E-2,3.6149707E-2,6.1933767E-2,9.547293E-3,-1.8391112E-2,6.6996255E-4],"split_indices":[2,3,3,2,4,0,5,0,2,0,0,2,2,3,1,0,0,0,0,0,0,0,0,0,0,0,0,0,0,0,0],"split_type":[0,0,0,0,0,0,0,0,0,0,0,0,0,0,0,0,0,0,0,0,0,0,0,0,0,0,0,0,0,0,0],"sum_hessian":[7.6507166E2,1.3782823E2,6.2724347E2,1.0307836E2,3.4749866E1,9.750671E1,5.2973676E2,7.055308E1,3.2525288E1,6.6400933E0,2.8109772E1,7.614082E1,2.1365885E1,4.2545605E2,1.042807E2,1.7120987E1,5.343209E1,1.221559E1,2.0309698E1,5.237731E0,1.4023625E0,1.2901775E1,1.5207996E1,7.358085E1,2.5599754E0,2.3494606E0,1.9016424E1,5.9806027E0,4.1947543E2,3.2941566E1,7.133913E1],"tree_param":{"num_deleted":"0","num_feature":"6","num_nodes":"31","size_leaf_vector":"1"}},{"base_weights":[6.5422565E-4,-2.1860376E-1,1.3416742E-1,-3.7931547E-1,2.444389E-1,9.669045E-2,5.41845E-1,-8.090126E-1,-2.8015113E-1,2.96898E-1,-7.6033133E-1,2.5970563E-1,-3.0031513E-2,9.2167133E-1,2.5789556E-1,-4.6272755E-2,-1.9152423E-2,-1.8333372E-2,9.794689E-3,1.1164594E-2,6.061187E-2,-1.0496712E-2,-4.4667874E-2,2.295526E-2,-6.5410594E-3,1.0461197E-2,-8.408918E-3,6.964098E-3,7.1059E-2,3.8246892E-2,-8.029109E-5],"categories":[],"categories_nodes":[],"categories_segments":[],"categories_sizes":[],"default_left":[0,0,0,0,0,0,0,0,0,0,0,0,0,0,0,0,0,0,0,0,0,0,0,0,0,0,0,0,0,0,0],"id":15,"left_children":[1,3,5,7,9,11,13,15,17,19,21,23,25,27,29,-1,-1,-1,-1,-1,-1,-1,-1,-1,-1,-1,-1,-1,-1,-1,-1],"loss_changes":[2.2433369E1,2.1675938E1,7.2246647E0,8.964352E0,4.1966424E0,9.04368E0,4.0635605E0,1.6252861E0,7.3527365E0,4.6016364E0,1.0670972E-1,1.4965633E1,8.19906E0,6.317587E0,3.1866608E0,0E0,0E0,0E0,0E0,0E0,0E0,0E0,0E0,0E0,0E0,0E0,0E0,0E0,0E0,0E0,0E0],"parents":[2147483647,0,0,1,1,2,2,3,3,4,4,5,5,6,6,7,7,8,8,9,9,10,10,11,11,12,12,13,13,14,14],"right_children":[2,4,6,8,10,12,14,16,18,20,22,24,26,28,30,-1,-1,-1,-1,-1,-1,-1,-1,-1,-1,-1,-1,-1,-1,-1,-1],"split_conditions":[-3.5066006E-1,2.1033043E-2,2.8303866E0,1E1,5.587296E-2,-5.1006608E-2,3.0406594E0,-4.670033E-1,-1.2734452E-1,-1.10525995E-1,-5.537702E-1,1.3E1,-2.279888E-3,-1.7662488E-1,3.0630183E0,-4.6272755E-2,-1.9152423E-2,-1.8333372E-2,9.794689E-3,1.1164594E-2,6.061187E-2,-1.0496712E-2,-4.4667874E-2,2.295526E-2,-6.5410594E-3,1.0461197E-2,-8.408918E-3,6.964098E-3,7.1059E-2,3.8246892E-2,-8.029109E-5],"split_indices":[2,3,2,5,0,1,1,2,0,1,2,5,3,1,2,0,0,0,0,0,0,0,0,0,0,0,0,0,0,0,0],"split_type":[0,0,0,0,0,0,0,0,0,0,0,0,0,0,0,0,0,0,0,0,0,0,0,0,0,0,0,0,0,0,0],"sum_hessian":[7.643264E2,2.8903317E2,4.7529324E2,2.1469736E2,7.433581E1,4.3641196E2,3.8881287E1,3.8914673E1,1.7578268E2,7.1316864E1,3.0189457E0,1.9041397E2,2.4599797E2,1.5671856E1,2.320943E1,2.9639688E1,9.274985E0,1.489435E2,2.6839195E1,6.716019E1,4.156677E0,1.0894554E0,1.9294903E0,1.2593637E2,6.447761E1,8.9858406E1,1.5613957E2,6.6050644E0,9.066792E0,7.197819E0,1.601161E1],"tree_param":{"num_deleted":"0","num_feature":"6","num_nodes":"31","size_leaf_vector":"1"}},{"base_weights":[6.3238054E-4,-3.5442838E-1,7.735765E-2,-4.9385387E-1,3.4132764E-1,-2.4155931E-1,1.3587815E-1,-8.3944046E-1,-4.0629646E-1,5.982293E-1,-2.771253E-1,-4.610997E-1,5.070538E-1,8.471293E-2,4.310669E-1,-2.6651073E-2,-4.8863813E-2,7.2286045E-4,-2.5715226E-2,4.3663274E-2,-5.4065106E-3,2.0106716E-2,-2.911514E-2,-2.5115922E-2,2.5744772E-2,3.4364294E-2,-2.6153479E-2,1.8016463E-2,-5.77698E-4,2.8582154E-2,-2.9500425E-3],"categories":[],"categories_nodes":[],"categories_segments":[],"categories_sizes":[],"default_left":[0,0,0,0,0,0,0,0,0,0,0,0,0,0,0,0,0,0,0,0,0,0,0,0,0,0,0,0,0,0,0],"id":16,"left_children":[1,3,5,7,9,11,13,15,17,19,21,23,25,27,29,-1,-1,-1,-1,-1,-1,-1,-1,-1,-1,-1,-1,-1,-1,-1,-1],"loss_changes":[2.0849499E1,1.3360983E1,1.1778269E1,3.0993862E0,3.8668494E0,1.6329807E1,8.004548E0,4.1021442E-1,4.218136E0,3.353291E0,1.7930096E0,3.326212E0,4.571154E0,1.2076461E1,5.435154E0,0E0,0E0,0E0,0E0,0E0,0E0,0E0,0E0,0E0,0E0,0E0,0E0,0E0,0E0,0E0,0E0],"parents":[2147483647,0,0,1,1,2,2,3,3,4,4,5,5,6,6,7,7,8,8,9,9,10,10,11,11,12,12,13,13,14,14],"right_children":[2,4,6,8,10,12,14,16,18,20,22,24,26,28,30,-1,-1,-1,-1,-1,-1,-1,-1,-1,-1,-1,-1,-1,-1,-1,-1],"split_conditions":[-5.67238E-1,4.0193338E-2,-3.7906136E-2,1E1,-4.7577474E-1,3.560051E-2,6.023876E-2,2E0,-7.658939E-1,1.3E1,1E1,3.187339E0,4E0,-3.991186E-3,4E0,-2.6651073E-2,-4.8863813E-2,7.2286045E-4,-2.5715226E-2,4.3663274E-2,-5.4065106E-3,2.0106716E-2,-2.911514E-2,-2.5115922E-2,2.5744772E-2,3.4364294E-2,-2.6153479E-2,1.8016463E-2,-5.77698E-4,2.8582154E-2,-2.9500425E-3],"split_indices":[2,3,3,5,1,0,3,4,2,5,5,2,4,3,4,0,0,0,0,0,0,0,0,0,0,0,0,0,0,0,0],"split_type":[0,0,0,0,0,0,0,0,0,0,0,0,0,0,0,0,0,0,0,0,0,0,0,0,0,0,0,0,0,0,0],"sum_hessian":[7.633336E2,1.3499574E2,6.283379E2,1.12701256E2,2.2294487E1,9.693687E1,5.31401E2,2.104599E1,9.1655266E1,1.5774538E1,6.519948E0,7.525224E1,2.1684624E1,4.5399652E2,7.740447E1,8.039862E0,1.3006127E1,1.889898E1,7.275629E1,1.1183653E1,4.5908856E0,1.9227074E0,4.5972404E0,7.2668594E1,2.5836487E0,1.8738855E1,2.945769E0,1.16812935E2,3.371836E2,6.0020977E1,1.73835E1],"tree_param":{"num_deleted":"0","num_feature":"6","num_nodes":"31","size_leaf_vector":"1"}},{"base_weights":[4.966976E-4,-2.0430458E-1,1.2325438E-1,-3.5645854E-1,2.2415327E-1,7.303754E-2,4.0049306E-1,-7.810036E-1,-2.607425E-1,4.7457728E-1,4.9656886E-3,2.4470416E-1,-7.482845E-2,5.383282E-1,-3.4053105E-1,-4.48506E-2,-1.8538455E-2,-1.59986E-2,1.9017575E-2,-1.5360181E-2,3.309362E-2,-3.0015124E-2,9.2741065E-3,2.141877E-2,-6.581752E-3,9.172384E-3,-1.1317884E-2,-1.8492654E-2,2.9671485E-2,-2.808928E-2,3.6691796E-2],"categories":[],"categories_nodes":[],"categories_segments":[],"categories_sizes":[],"default_left":[0,0,0,0,0,0,0,0,0,0,0,0,0,0,0,0,0,0,0,0,0,0,0,0,0,0,0,0,0,0,0],"id":17,"left_children":[1,3,5,7,9,11,13,15,17,19,21,23,25,27,29,-1,-1,-1,-1,-1,-1,-1,-1,-1,-1,-1,-1,-1,-1,-1,-1],"loss_changes":[1.9212439E1,1.8750282E1,6.6226425E0,8.400055E0,4.150904E0,1.0317635E1,7.644493E0,1.4973602E0,6.739234E0,5.372918E0,4.630345E0,1.3051191E1,8.6026125E0,3.3210964E0,3.2811933E0,0E0,0E0,0E0,0E0,0E0,0E0,0E0,0E0,0E0,0E0,0E0,0E0,0E0,0E0,0E0,0E0],"parents":[2147483647,0,0,1,1,2,2,3,3,4,4,5,5,6,6,7,7,8,8,9,9,10,10,11,11,12,12,13,13,14,14],"right_children":[2,4,6,8,10,12,14,16,18,20,22,24,26,28,30,-1,-1,-1,-1,-1,-1,-1,-1,-1,-1,-1,-1,-1,-1,-1,-1],"split_conditions":[-3.5066006E-1,2.1033043E-2,1.9232514E0,1E1,-4.1052023E-1,-5.1006608E-2,4E0,-4.670033E-1,3.0763695E-1,1E0,-3.5765368E-1,1.3E1,-2.279888E-3,-3.644148E-1,3.75806E0,-4.48506E-2,-1.8538455E-2,-1.59986E-2,1.9017575E-2,-1.5360181E-2,3.309362E-2,-3.0015124E-2,9.2741065E-3,2.141877E-2,-6.581752E-3,9.172384E-3,-1.1317884E-2,-1.8492654E-2,2.9671485E-2,-2.808928E-2,3.6691796E-2],"split_indices":[2,3,2,5,0,1,4,2,0,4,0,5,3,1,2,0,0,0,0,0,0,0,0,0,0,0,0,0,0,0,0],"split_type":[0,0,0,0,0,0,0,0,0,0,0,0,0,0,0,0,0,0,0,0,0,0,0,0,0,0,0,0,0,0,0],"sum_hessian":[7.62188E2,2.8539258E2,4.7679544E2,2.1072716E2,7.46654E1,4.047463E2,7.204913E1,3.745175E1,1.7327542E2,3.4305668E1,4.0359734E1,1.8699619E2,2.1775014E2,6.0980007E1,1.1069128E1,2.8270638E1,9.181113E0,1.5907927E2,1.4196152E1,6.506586E0,2.7799082E1,8.737521E0,3.1622211E1,1.2557258E2,6.1423603E1,8.043719E1,1.3731294E2,3.1614194E0,5.781859E1,9.574468E0,1.4946597E0],"tree_param":{"num_deleted":"0","num_feature":"6","num_nodes":"31","size_leaf_vector":"1"}},{"base_weights":[3.425811E-4,-3.3346504E-1,7.0973955E-2,-5.0976026E-1,1.5601136E-1,-2.3551351E-1,1.2673526E-1,-3.814435E-1,-7.7050406E-1,-4.2728227E-1,3.0000365E-1,-4.4653073E-1,4.6821252E-1,8.4642254E-2,4.4315514E-1,-8.3499745E-4,-2.4858048E-2,-5.183489E-2,-2.84487E-2,-4.798623E-2,2.0218983E-3,3.09647E-2,9.990444E-5,-2.656362E-2,1.1788639E-3,-3.0698536E-2,3.1006558E-2,1.6699301E-2,3.977284E-5,2.9343665E-2,-8.394529E-3],"categories":[],"categories_nodes":[],"categories_segments":[],"categories_sizes":[],"default_left":[0,0,0,0,0,0,0,0,0,0,0,0,0,0,0,0,0,0,0,0,0,0,0,0,0,0,0,0,0,0,0],"id":18,"left_children":[1,3,5,7,9,11,13,15,17,19,21,23,25,27,29,-1,-1,-1,-1,-1,-1,-1,-1,-1,-1,-1,-1,-1,-1,-1,-1],"loss_changes":[1.799285E1,1.1580207E1,1.0794305E1,2.9922848E0,3.1565952E0,1.4658754E1,7.068987E0,2.8535814E0,1.0953465E0,1.9193269E0,2.8062315E0,3.015112E0,4.151343E0,9.870805E0,5.5791845E0,0E0,0E0,0E0,0E0,0E0,0E0,0E0,0E0,0E0,0E0,0E0,0E0,0E0,0E0,0E0,0E0],"parents":[2147483647,0,0,1,1,2,2,3,3,4,4,5,5,6,6,7,7,8,8,9,9,10,10,11,11,12,12,13,13,14,14],"right_children":[2,4,6,8,10,12,14,16,18,20,22,24,26,28,30,-1,-1,-1,-1,-1,-1,-1,-1,-1,-1,-1,-1,-1,-1,-1,-1],"split_conditions":[-5.67238E-1,1.9878648E-2,-3.7906136E-2,-6.2882453E-1,1E0,3.560051E-2,7.805814E-2,-5.8542454E-1,-6.0483414E-1,-6.738382E-1,-4.586963E-1,7.7494675E-1,-4.121831E-1,-3.991186E-3,-1.0681035E-2,-8.3499745E-4,-2.4858048E-2,-5.183489E-2,-2.84487E-2,-4.798623E-2,2.0218983E-3,3.09647E-2,9.990444E-5,-2.656362E-2,1.1788639E-3,-3.0698536E-2,3.1006558E-2,1.6699301E-2,3.977284E-5,2.9343665E-2,-8.394529E-3],"split_indices":[2,3,3,2,4,0,3,0,2,2,0,2,2,3,0,0,0,0,0,0,0,0,0,0,0,0,0,0,0,0,0],"split_type":[0,0,0,0,0,0,0,0,0,0,0,0,0,0,0,0,0,0,0,0,0,0,0,0,0,0,0,0,0,0,0],"sum_hessian":[7.6113934E2,1.3227579E2,6.288636E2,9.721891E1,3.5056873E1,9.6305374E1,5.325582E2,6.680559E1,3.0413324E1,6.551246E0,2.8505625E1,7.437037E1,2.1935003E1,4.7114923E2,6.1408993E1,1.6365513E1,5.0440075E1,1.1318713E1,1.909461E1,2.571728E0,3.9795182E0,1.3240889E1,1.5264736E1,6.290161E1,1.1468757E1,2.3258069E0,1.9609196E1,1.178131E2,3.5333612E2,4.9747845E1,1.166115E1],"tree_param":{"num_deleted":"0","num_feature":"6","num_nodes":"31","size_leaf_vector":"1"}},{"base_weights":[1.10957735E-4,-1.4342488E-1,1.5490937E-1,-2.5489515E-1,3.3398613E-1,6.804045E-1,1.2309997E-1,-6.077907E-1,-1.8149246E-1,4.154157E-1,-6.5055037E-1,1.2343783E0,-3.5129896E-1,4.2834796E-2,3.402432E-1,-4.2988822E-2,-1.2430069E-2,-2.554571E-2,-4.2541134E-3,4.09686E-2,1.3647708E-2,-5.1811215E-2,9.972053E-3,8.979305E-3,6.884635E-2,-4.773068E-2,1.9367974E-3,5.166612E-2,7.2212325E-4,6.515285E-2,1.4606275E-2],"categories":[],"categories_nodes":[],"categories_segments":[],"categories_sizes":[],"default_left":[0,0,0,0,0,0,0,0,0,0,0,0,0,0,0,0,0,0,0,0,0,0,0,0,0,0,0,0,0,0,0],"id":19,"left_children":[1,3,5,7,9,11,13,15,17,19,21,23,25,27,29,-1,-1,-1,-1,-1,-1,-1,-1,-1,-1,-1,-1,-1,-1,-1,-1],"loss_changes":[1.693167E1,2.1127186E1,6.044739E0,8.2078495E0,6.305375E0,1.2267543E1,6.0320125E0,4.7522926E0,8.444427E0,3.8126945E0,2.21957E0,1.8116417E0,1.9223404E0,7.140529E0,3.9503574E0,0E0,0E0,0E0,0E0,0E0,0E0,0E0,0E0,0E0,0E0,0E0,0E0,0E0,0E0,0E0,0E0],"parents":[2147483647,0,0,1,1,2,2,3,3,4,4,5,5,6,6,7,7,8,8,9,9,10,10,11,11,12,12,13,13,14,14],"right_children":[2,4,6,8,10,12,14,16,18,20,22,24,26,28,30,-1,-1,-1,-1,-1,-1,-1,-1,-1,-1,-1,-1,-1,-1,-1,-1],"split_conditions":[-1.14025146E-1,3.7684835E-2,-6.077137E-2,1E1,5.587296E-2,6.630422E-2,1.3534524E0,-4.670033E-1,-2.568716E-2,-4.81151E-1,-2.9640403E-1,-1.7029889E-1,-1.0023531E-1,-7.7521193E-1,1.4572148E0,-4.2988822E-2,-1.2430069E-2,-2.554571E-2,-4.2541134E-3,4.09686E-2,1.3647708E-2,-5.1811215E-2,9.972053E-3,8.979305E-3,6.884635E-2,-4.773068E-2,1.9367974E-3,5.166612E-2,7.2212325E-4,6.515285E-2,1.4606275E-2],"split_indices":[2,3,2,5,0,1,2,2,3,0,2,3,2,0,2,0,0,0,0,0,0,0,0,0,0,0,0,0,0,0,0],"split_type":[0,0,0,0,0,0,0,0,0,0,0,0,0,0,0,0,0,0,0,0,0,0,0,0,0,0,0,0,0,0,0],"sum_hessian":[7.600315E2,3.9440005E2,3.6563147E2,3.201213E2,7.427875E1,1.9705423E1,3.4592603E2,5.3866924E1,2.662544E2,6.9138466E1,5.1402817E0,1.2693301E1,7.0121226E0,2.5344098E2,9.248507E1,3.0838688E1,2.3028238E1,5.930775E1,2.0694662E2,1.6786898E1,5.2351566E1,3.3851905E0,1.7550911E0,1.7802355E0,1.0913065E1,2.1849246E0,4.827198E0,6.076133E0,2.4736484E2,3.1606798E0,8.932439E1],"tree_param":{"num_deleted":"0","num_feature":"6","num_nodes":"31","size_leaf_vector":"1"}},{"base_weights":[1.4829084E-4,-3.1583947E-1,6.583028E-2,-4.838004E-1,1.3760187E-1,-2.185882E-1,1.1678831E-1,-3.608731E-1,-7.560162E-1,-4.190559E-1,2.7346113E-1,-4.4562292E-1,3.8779435E-1,1.7212567E-1,-1.1113413E-1,-1.1824819E-4,-2.365992E-2,-5.4360714E-2,-2.7134815E-2,-3.3668682E-2,1.9768072E-2,2.8162062E-2,-2.9669813E-5,-3.7590604E-2,-1.5759764E-2,3.4815823E-3,4.8760872E-2,-4.9240654E-3,1.1487166E-2,1.265716E-3,-1.5867503E-2],"categories":[],"categories_nodes":[],"categories_segments":[],"categories_sizes":[],"default_left":[0,0,0,0,0,0,0,0,0,0,0,0,0,0,0,0,0,0,0,0,0,0,0,0,0,0,0,0,0,0,0],"id":20,"left_children":[1,3,5,7,9,11,13,15,17,19,21,23,25,27,29,-1,-1,-1,-1,-1,-1,-1,-1,-1,-1,-1,-1,-1,-1,-1,-1],"loss_changes":[1.5794806E1,1.0040952E1,9.157181E0,2.932499E0,2.850607E0,1.3400221E1,6.766569E0,2.7332582E0,1.4507923E0,1.8180324E0,2.3578143E0,2.5733843E0,4.9237947E0,6.740407E0,2.96588E0,0E0,0E0,0E0,0E0,0E0,0E0,0E0,0E0,0E0,0E0,0E0,0E0,0E0,0E0,0E0,0E0],"parents":[2147483647,0,0,1,1,2,2,3,3,4,4,5,5,6,6,7,7,8,8,9,9,10,10,11,11,12,12,13,13,14,14],"right_children":[2,4,6,8,10,12,14,16,18,20,22,24,26,28,30,-1,-1,-1,-1,-1,-1,-1,-1,-1,-1,-1,-1,-1,-1,-1,-1],"split_conditions":[-5.67238E-1,1.9878648E-2,-3.7906136E-2,-6.2322366E-1,1E0,-3.2016125E-2,1.3E1,-5.8542454E-1,-6.0483414E-1,-1.8478572E-1,-4.586963E-1,-1.3075502E-1,1.971002E-1,-5.4251343E-1,2.8262609E-3,-1.1824819E-4,-2.365992E-2,-5.4360714E-2,-2.7134815E-2,-3.3668682E-2,1.9768072E-2,2.8162062E-2,-2.9669813E-5,-3.7590604E-2,-1.5759764E-2,3.4815823E-3,4.8760872E-2,-4.9240654E-3,1.1487166E-2,1.265716E-3,-1.5867503E-2],"split_indices":[2,3,3,2,4,0,5,0,2,0,0,3,2,0,3,0,0,0,0,0,0,0,0,0,0,0,0,0,0,0,0],"split_type":[0,0,0,0,0,0,0,0,0,0,0,0,0,0,0,0,0,0,0,0,0,0,0,0,0,0,0,0,0,0,0],"sum_hessian":[7.590211E2,1.2996541E2,6.2905566E2,9.478776E1,3.517765E1,9.508062E1,5.3397504E2,6.690187E1,2.7885883E1,6.4922776E0,2.8685371E1,6.93722E1,2.5708424E1,4.298552E2,1.0411986E2,1.6204168E1,5.0697704E1,9.319654E0,1.8566229E1,5.0793386E0,1.4129393E0,1.34297695E1,1.5255602E1,1.929992E1,5.007228E1,1.7401749E1,8.306675E0,7.533372E1,3.5452148E2,6.318741E1,4.0932446E1],"tree_param":{"num_deleted":"0","num_feature":"6","num_nodes":"31","size_leaf_vector":"1"}},{"base_weights":[-5.8339705E-5,-1.3426377E-1,1.4294545E-1,-2.3948207E-1,3.086712E-1,9.6428335E-1,1.2423251E-1,-5.8691776E-1,-1.6820826E-1,3.8584584E-1,-6.383773E-1,1.3521593E0,-2.2691492E-2,6.112179E-1,9.4247416E-2,-4.1834187E-2,-1.2095585E-2,-2.4159042E-2,-3.8809478E-3,3.7973966E-2,1.2653316E-2,-5.097531E-2,9.229401E-3,-1.8223511E-2,9.154972E-2,5.6049615E-2,-1.7259551E-2,-4.551181E-3,1.1060864E-2],"categories":[],"categories_nodes":[],"categories_segments":[],"categories_sizes":[],"default_left":[0,0,0,0,0,0,0,0,0,0,0,0,0,0,0,0,0,0,0,0,0,0,0,0,0,0,0,0,0],"id":21,"left_children":[1,3,5,7,9,11,13,15,17,19,21,23,-1,25,27,-1,-1,-1,-1,-1,-1,-1,-1,-1,-1,-1,-1,-1,-1],"loss_changes":[1.4590199E1,1.8351324E1,5.536996E0,7.762617E0,5.780229E0,5.0419927E0,5.2138066E0,4.4195843E0,7.518779E0,3.312006E0,2.095797E0,6.070218E0,0E0,1.0506689E1,8.04747E0,0E0,0E0,0E0,0E0,0E0,0E0,0E0,0E0,0E0,0E0,0E0,0E0,0E0,0E0],"parents":[2147483647,0,0,1,1,2,2,3,3,4,4,5,5,6,6,7,7,8,8,9,9,10,10,11,11,13,13,14,14],"right_children":[2,4,6,8,10,12,14,16,18,20,22,24,-1,26,28,-1,-1,-1,-1,-1,-1,-1,-1,-1,-1,-1,-1,-1,-1],"split_conditions":[-1.14025146E-1,3.7684835E-2,-7.7521193E-1,1E1,5.587296E-2,1.971002E-1,-6.077137E-2,-4.670033E-1,-2.568716E-2,-4.81151E-1,-2.9640403E-1,-7.670086E-1,-2.2691492E-2,6.630422E-2,1.4369288E-1,-4.1834187E-2,-1.2095585E-2,-2.4159042E-2,-3.8809478E-3,3.7973966E-2,1.2653316E-2,-5.097531E-2,9.229401E-3,-1.8223511E-2,9.154972E-2,5.6049615E-2,-1.7259551E-2,-4.551181E-3,1.1060864E-2],"split_indices":[2,3,0,5,0,2,2,2,3,0,2,1,0,1,2,0,0,0,0,0,0,0,0,0,0,0,0,0,0],"split_type":[0,0,0,0,0,0,0,0,0,0,0,0,0,0,0,0,0,0,0,0,0,0,0,0,0,0,0,0,0],"sum_hessian":[7.582275E2,3.9117798E2,3.6704947E2,3.164623E2,7.471565E1,7.050771E0,3.5999872E2,5.263754E1,2.6382477E2,6.9633804E1,5.0818515E0,5.572983E0,1.4777887E0,1.975618E1,3.4024252E2,2.9706493E1,2.2931047E1,5.7961834E1,2.0586295E2,1.7020187E1,5.2613613E1,3.3100786E0,1.7717729E0,1.2675698E0,4.305413E0,1.27749405E1,6.98124E0,1.3847157E2,2.0177095E2],"tree_param":{"num_deleted":"0","num_feature":"6","num_nodes":"29","size_leaf_vector":"1"}},{"base_weights":[-9.81235E-5,-2.9895383E-1,6.093405E-2,-4.5891038E-1,1.21813715E-1,-4.0567952E-1,8.781789E-2,-2.386625E-1,-6.064246E-1,-4.0712315E-1,2.4938603E-1,-6.095276E-1,3.1297517E-1,-1.6702656E-1,1.33383E-1,1.9884259E-2,-2.283811E-2,4.6504326E-2,-3.322646E-2,-4.679669E-2,2.2981253E-3,2.3229012E-2,-2.9389344E-3,-5.2929886E-2,-1.918019E-2,-3.9275482E-2,4.21916E-2,-1.8280996E-2,2.1616435E-2,1.962502E-2,2.9958405E-3],"categories":[],"categories_nodes":[],"categories_segments":[],"categories_sizes":[],"default_left":[0,0,0,0,0,0,0,0,0,0,0,0,0,0,0,0,0,0,0,0,0,0,0,0,0,0,0,0,0,0,0],"id":22,"left_children":[1,3,5,7,9,11,13,15,17,19,21,23,25,27,29,-1,-1,-1,-1,-1,-1,-1,-1,-1,-1,-1,-1,-1,-1,-1,-1],"loss_changes":[1.3848528E1,8.721905E0,7.944729E0,2.8931332E0,2.5479882E0,5.248502E0,6.954255E0,5.6157193E0,5.559477E0,1.8220372E0,2.0055404E0,2.3570528E0,5.496903E0,1.0988396E1,9.627463E0,0E0,0E0,0E0,0E0,0E0,0E0,0E0,0E0,0E0,0E0,0E0,0E0,0E0,0E0,0E0,0E0],"parents":[2147483647,0,0,1,1,2,2,3,3,4,4,5,5,6,6,7,7,8,8,9,9,10,10,11,11,12,12,13,13,14,14],"right_children":[2,4,6,8,10,12,14,16,18,20,22,24,26,28,30,-1,-1,-1,-1,-1,-1,-1,-1,-1,-1,-1,-1,-1,-1,-1,-1],"split_conditions":[-5.67238E-1,1.9878648E-2,-6.130493E-1,-6.9621617E-1,1E0,2.261888E-2,-3.7906136E-2,-5.8542454E-1,-1.3075502E-1,-6.738382E-1,-4.1555437E-1,-2.0770183E-2,2E0,3.560051E-2,-3.991186E-3,1.9884259E-2,-2.283811E-2,4.6504326E-2,-3.322646E-2,-4.679669E-2,2.2981253E-3,2.3229012E-2,-2.9389344E-3,-5.2929886E-2,-1.918019E-2,-3.9275482E-2,4.21916E-2,-1.8280996E-2,2.1616435E-2,1.962502E-2,2.9958405E-3],"split_indices":[2,3,1,2,4,3,3,0,3,2,0,3,4,0,3,0,0,0,0,0,0,0,0,0,0,0,0,0,0,0,0],"split_type":[0,0,0,0,0,0,0,0,0,0,0,0,0,0,0,0,0,0,0,0,0,0,0,0,0,0,0,0,0,0,0],"sum_hessian":[7.5724854E2,1.2775812E2,6.294904E2,9.250233E1,3.5255795E1,3.3524647E1,5.9596576E2,3.8153976E1,5.4348347E1,6.4250627E0,2.8830732E1,2.6234905E1,7.2897425E0,8.998976E1,5.0597598E2,9.528715E0,2.8625261E1,1.4335151E0,5.2914833E1,2.4730263E0,3.9520364E0,1.667727E1,1.2153461E1,7.5473504E0,1.8687553E1,2.2187836E0,5.0709586E0,6.788604E1,2.2103722E1,1.1080854E2,3.9516745E2],"tree_param":{"num_deleted":"0","num_feature":"6","num_nodes":"31","size_leaf_vector":"1"}},{"base_weights":[-2.4119657E-4,-5.01758E-2,3.383993E-1,-2.0820037E-1,1.1243075E-1,8.0127376E-1,1.8832988E-1,-2.2769931E-1,1.037E0,9.0972996E-1,9.16891E-2,-1.2183736E-1,1.0279104E0,3.3774018E-1,-2.7325773E-1,-2.7047887E-2,-8.122825E-3,7.082228E-2,1.5427728E-2,6.361101E-2,-2.2196E-2,-1.648446E-2,6.8583935E-3,-4.265001E-2,2.9774234E-2,6.1434515E-2,1.2695407E-2,2.900207E-2,-3.7194238E-4,5.624658E-3,-4.412758E-2],"categories":[],"categories_nodes":[],"categories_segments":[],"categories_sizes":[],"default_left":[0,0,0,0,0,0,0,0,0,0,0,0,0,0,0,0,0,0,0,0,0,0,0,0,0,0,0,0,0,0,0],"id":23,"left_children":[1,3,5,7,9,11,13,15,17,19,21,23,25,27,29,-1,-1,-1,-1,-1,-1,-1,-1,-1,-1,-1,-1,-1,-1,-1,-1],"loss_changes":[1.2824385E1,1.700662E1,6.6189384E0,8.3830595E0,5.314248E0,5.0530043E0,5.258198E0,6.680855E0,1.0426426E0,4.5705676E0,6.16286E0,3.4119778E0,2.6433582E0,4.774609E0,4.5343328E0,0E0,0E0,0E0,0E0,0E0,0E0,0E0,0E0,0E0,0E0,0E0,0E0,0E0,0E0,0E0,0E0],"parents":[2147483647,0,0,1,1,2,2,3,3,4,4,5,5,6,6,7,7,8,8,9,9,10,10,11,11,12,12,13,13,14,14],"right_children":[2,4,6,8,10,12,14,16,18,20,22,24,26,28,30,-1,-1,-1,-1,-1,-1,-1,-1,-1,-1,-1,-1,-1,-1,-1,-1],"split_conditions":[5.8131482E-2,-1.14025146E-1,-4.045391E-1,1.8981569E0,-7.7521193E-1,1E0,4E0,1E1,-2.0692567E-3,1.971002E-1,-5.2863646E-1,-5.019541E-1,-3.0467522E-1,-1.6804828E-1,1.2E1,-2.7047887E-2,-8.122825E-3,7.082228E-2,1.5427728E-2,6.361101E-2,-2.2196E-2,-1.648446E-2,6.8583935E-3,-4.265001E-2,2.9774234E-2,6.1434515E-2,1.2695407E-2,2.900207E-2,-3.7194238E-4,5.624658E-3,-4.412758E-2],"split_indices":[3,2,0,1,0,4,4,5,3,2,1,1,1,1,5,0,0,0,0,0,0,0,0,0,0,0,0,0,0,0,0],"split_type":[0,0,0,0,0,0,0,0,0,0,0,0,0,0,0,0,0,0,0,0,0,0,0,0,0,0,0,0,0,0,0],"sum_hessian":[7.563919E2,6.599327E2,9.645926E1,3.3453952E2,3.2539313E2,2.2554075E1,7.390518E1,3.301862E2,4.3533435E0,7.163701E0,3.1822943E2,4.5369763E0,1.80171E1,5.6035484E1,1.7869701E1,5.565784E1,2.7452835E2,2.2413511E0,2.1119926E0,5.6980042E0,1.4656968E0,3.039147E1,2.8783798E2,2.153143E0,2.3838334E0,1.3839592E1,4.1775074E0,3.2524345E1,2.3511137E1,1.1441394E1,6.4283066E0],"tree_param":{"num_deleted":"0","num_feature":"6","num_nodes":"31","size_leaf_vector":"1"}},{"base_weights":[-9.9172314E-5,-2.8581536E-1,5.596814E-2,-4.3649068E-1,1.1074432E-1,1.42705105E-2,3.415209E-1,-3.1339425E-1,-7.278333E-1,-3.9685878E-1,2.3719496E-1,-3.1226858E-1,6.084364E-2,8.276594E-1,2.0854118E-1,-3.2546088E-2,-9.755156E-3,-4.0248223E-2,1.7492812E-4,-4.587005E-2,2.0433425E-3,1.6376318E-2,-3.0449709E-2,-3.4913566E-2,-4.015828E-3,1.4010535E-4,1.4730339E-2,-8.704144E-3,5.4353237E-2,-3.79902E-2,1.34258345E-2],"categories":[],"categories_nodes":[],"categories_segments":[],"categories_sizes":[],"default_left":[0,0,0,0,0,0,0,0,0,0,0,0,0,0,0,0,0,0,0,0,0,0,0,0,0,0,0,0,0,0,0],"id":24,"left_children":[1,3,5,7,9,11,13,15,17,19,21,23,25,27,29,-1,-1,-1,-1,-1,-1,-1,-1,-1,-1,-1,-1,-1,-1,-1,-1],"loss_changes":[1.213017E1,7.470517E0,7.532235E0,3.0073948E0,2.3406327E0,8.43496E0,5.0387325E0,2.475306E0,1.4717007E0,1.7131581E0,2.389038E0,6.143203E0,6.5817146E0,4.601062E0,3.9578154E0,0E0,0E0,0E0,0E0,0E0,0E0,0E0,0E0,0E0,0E0,0E0,0E0,0E0,0E0,0E0,0E0],"parents":[2147483647,0,0,1,1,2,2,3,3,4,4,5,5,6,6,7,7,8,8,9,9,10,10,11,11,12,12,13,13,14,14],"right_children":[2,4,6,8,10,12,14,16,18,20,22,24,26,28,30,-1,-1,-1,-1,-1,-1,-1,-1,-1,-1,-1,-1,-1,-1,-1,-1],"split_conditions":[-5.690598E-1,1.9878648E-2,6.023876E-2,-6.2322366E-1,1E0,-5.245725E-1,-4.045391E-1,-6.753433E-1,8.913774E-3,-6.738382E-1,-1.00943886E-1,-6.974176E-3,1.0920213E0,-5.8157545E-1,-3.834426E-1,-3.2546088E-2,-9.755156E-3,-4.0248223E-2,1.7492812E-4,-4.587005E-2,2.0433425E-3,1.6376318E-2,-3.0449709E-2,-3.4913566E-2,-4.015828E-3,1.4010535E-4,1.4730339E-2,-8.704144E-3,5.4353237E-2,-3.79902E-2,1.34258345E-2],"split_indices":[2,3,3,2,4,1,0,1,3,2,0,3,2,0,0,0,0,0,0,0,0,0,0,0,0,0,0,0,0,0,0],"split_type":[0,0,0,0,0,0,0,0,0,0,0,0,0,0,0,0,0,0,0,0,0,0,0,0,0,0,0,0,0,0,0],"sum_hessian":[7.5522186E2,1.2321693E2,6.3200494E2,8.921749E1,3.399944E1,5.523923E2,7.961269E1,6.417733E1,2.5040155E1,6.354103E0,2.7645336E1,6.823936E1,4.841529E2,1.5977873E1,6.363482E1,1.5486377E1,4.8690956E1,2.2560131E1,2.4800246E0,2.4019156E0,3.9521875E0,2.5532646E1,2.1126916E0,2.4859324E1,4.3380035E1,3.8866296E2,9.548994E1,3.3541405E0,1.2623733E1,3.030865E0,6.060395E1],"tree_param":{"num_deleted":"0","num_feature":"6","num_nodes":"31","size_leaf_vector":"1"}},{"base_weights":[-3.3415676E-4,-2.7549583E-1,5.3121492E-2,-4.2163807E-1,1.0332111E-1,1.3494235E-2,3.2356846E-1,-3.0144832E-1,-7.100577E-1,-3.861493E-1,2.239544E-1,-2.9962507E-1,5.7767708E-2,9.1735876E-1,2.1959919E-1,2.0823723E-3,-2.0641573E-2,-5.259074E-2,-2.3939732E-2,-3.187822E-2,1.9298503E-2,1.5506336E-2,-2.9710108E-2,-3.383293E-2,-3.827053E-3,1.331098E-4,1.3933713E-2,-2.4826972E-2,5.6384053E-2,1.8426694E-2,-1.504522E-2],"categories":[],"categories_nodes":[],"categories_segments":[],"categories_sizes":[],"default_left":[0,0,0,0,0,0,0,0,0,0,0,0,0,0,0,0,0,0,0,0,0,0,0,0,0,0,0,0,0,0,0],"id":25,"left_children":[1,3,5,7,9,11,13,15,17,19,21,23,25,27,29,-1,-1,-1,-1,-1,-1,-1,-1,-1,-1,-1,-1,-1,-1,-1,-1],"loss_changes":[1.11234665E1,6.853863E0,6.7819767E0,2.8699865E0,2.1560147E0,7.6882615E0,4.7919044E0,2.4834175E0,1.5063686E0,1.662637E0,2.2113686E0,5.7273703E0,5.9109793E0,4.0502577E0,5.5486336E0,0E0,0E0,0E0,0E0,0E0,0E0,0E0,0E0,0E0,0E0,0E0,0E0,0E0,0E0,0E0,0E0],"parents":[2147483647,0,0,1,1,2,2,3,3,4,4,5,5,6,6,7,7,8,8,9,9,10,10,11,11,12,12,13,13,14,14],"right_children":[2,4,6,8,10,12,14,16,18,20,22,24,26,28,30,-1,-1,-1,-1,-1,-1,-1,-1,-1,-1,-1,-1,-1,-1,-1,-1],"split_conditions":[-5.690598E-1,1.9878648E-2,6.023876E-2,-6.2322366E-1,1E0,-5.245725E-1,-5.2863646E-1,-5.8542454E-1,-6.0483414E-1,-1.8478572E-1,-1.00943886E-1,-6.974176E-3,1.0920213E0,1E0,4E0,2.0823723E-3,-2.0641573E-2,-5.259074E-2,-2.3939732E-2,-3.187822E-2,1.9298503E-2,1.5506336E-2,-2.9710108E-2,-3.383293E-2,-3.827053E-3,1.331098E-4,1.3933713E-2,-2.4826972E-2,5.6384053E-2,1.8426694E-2,-1.504522E-2],"split_indices":[2,3,3,2,4,1,1,0,2,0,0,3,2,4,4,0,0,0,0,0,0,0,0,0,0,0,0,0,0,0,0],"split_type":[0,0,0,0,0,0,0,0,0,0,0,0,0,0,0,0,0,0,0,0,0,0,0,0,0,0,0,0,0,0,0],"sum_hessian":[7.5424316E2,1.2201584E2,6.3222736E2,8.7966545E1,3.404929E1,5.5234485E2,7.988247E1,6.353537E1,2.443118E1,6.2972274E0,2.7752062E1,6.7709465E1,4.846354E2,1.0737125E1,6.914534E1,1.5724612E1,4.7810757E1,8.428112E0,1.6003067E1,4.8818736E0,1.415354E0,2.566938E1,2.082682E0,2.4414093E1,4.3295372E1,3.8868848E2,9.5946945E1,1.2141453E0,9.52298E0,5.3989098E1,1.5156243E1],"tree_param":{"num_deleted":"0","num_feature":"6","num_nodes":"31","size_leaf_vector":"1"}},{"base_weights":[-5.1155547E-4,-2.6244864E-1,5.1049914E-2,-3.7204948E-1,2.1702681E-1,-3.755509E-1,7.495621E-2,-2.2329631E-1,-6.1616135E-1,4.3091723E-1,-2.9938206E-1,-8.6306065E-1,-1.0746012E-1,-1.5687788E-1,1.15874596E-1,5.348587E-3,-2.4389524E-2,-3.6282066E-2,-9.191539E-4,3.3652935E-2,-8.905036E-3,1.710522E-2,-2.9406354E-2,-5.042934E-2,-2.174698E-2,-4.6385E-2,4.8967204E-3,-1.8413547E-2,1.7736215E-2,1.8400542E-2,2.2116562E-3],"categories":[],"categories_nodes":[],"categories_segments":[],"categories_sizes":[],"default_left":[0,0,0,0,0,0,0,0,0,0,0,0,0,0,0,0,0,0,0,0,0,0,0,0,0,0,0,0,0,0,0],"id":26,"left_children":[1,3,5,7,9,11,13,15,17,19,21,23,25,27,29,-1,-1,-1,-1,-1,-1,-1,-1,-1,-1,-1,-1,-1,-1,-1,-1],"loss_changes":[1.0199464E1,6.6079006E0,6.463261E0,3.5468683E0,2.751301E0,4.305209E0,5.694193E0,5.696582E0,2.4637556E0,2.65597E0,1.5984132E0,2.9631042E-1,3.940971E0,9.884376E0,9.180738E0,0E0,0E0,0E0,0E0,0E0,0E0,0E0,0E0,0E0,0E0,0E0,0E0,0E0,0E0,0E0,0E0],"parents":[2147483647,0,0,1,1,2,2,3,3,4,4,5,5,6,6,7,7,8,8,9,9,10,10,11,11,12,12,13,13,14,14],"right_children":[2,4,6,8,10,12,14,16,18,20,22,24,26,28,30,-1,-1,-1,-1,-1,-1,-1,-1,-1,-1,-1,-1,-1,-1,-1,-1],"split_conditions":[-5.67238E-1,4.0193338E-2,-6.130493E-1,3E0,-4.7577474E-1,-4.543993E-3,-3.7906136E-2,-5.7221305E-1,-3.5913774E-1,1.3E1,1E1,-2.0770183E-2,-4.9902663E-1,-3.2016125E-2,-3.991186E-3,5.348587E-3,-2.4389524E-2,-3.6282066E-2,-9.191539E-4,3.3652935E-2,-8.905036E-3,1.710522E-2,-2.9406354E-2,-5.042934E-2,-2.174698E-2,-4.6385E-2,4.8967204E-3,-1.8413547E-2,1.7736215E-2,1.8400542E-2,2.2116562E-3],"split_indices":[2,3,1,4,1,3,3,1,1,5,5,3,2,0,3,0,0,0,0,0,0,0,0,0,0,0,0,0,0,0,0],"split_type":[0,0,0,0,0,0,0,0,0,0,0,0,0,0,0,0,0,0,0,0,0,0,0,0,0,0,0,0,0,0,0],"sum_hessian":[7.5319586E2,1.2320631E2,6.2998956E2,1.0046547E2,2.2740837E1,3.2650032E1,5.9733954E2,6.3615288E1,3.6850185E1,1.6197554E1,6.543284E0,1.0796977E1,2.1853054E1,8.918787E1,5.0815167E2,2.8554932E1,3.5060356E1,3.0965178E1,5.8850074E0,1.1514364E1,4.6831884E0,1.9736823E0,4.5696015E0,7.0460515E0,3.7509255E0,3.672061E0,1.8180992E1,6.3308907E1,2.587896E1,1.1152207E2,3.966296E2],"tree_param":{"num_deleted":"0","num_feature":"6","num_nodes":"31","size_leaf_vector":"1"}},{"base_weights":[-7.281347E-4,-1.1118372E-1,1.1336888E-1,-1.8425491E-1,3.2995108E-1,5.8213264E-1,8.460549E-2,-2.031126E-1,9.791016E-1,5.1291686E-1,-1.5101582E-1,1.0571953E0,-3.4460032E-1,4.2791326E-2,3.965543E-1,-2.5752952E-2,-6.944807E-3,6.652733E-2,1.47481635E-2,3.6561668E-2,-3.1297107E-3,-4.983993E-2,7.095491E-5,-3.4266937E-4,5.8314443E-2,-4.6690892E-2,1.4969172E-3,3.7500672E-2,1.2246682E-3,3.7900668E-2,6.5780985E-3],"categories":[],"categories_nodes":[],"categories_segments":[],"categories_sizes":[],"default_left":[0,0,0,0,0,0,0,0,0,0,0,0,0,0,0,0,0,0,0,0,0,0,0,0,0,0,0,0,0,0,0],"id":27,"left_children":[1,3,5,7,9,11,13,15,17,19,21,23,25,27,29,-1,-1,-1,-1,-1,-1,-1,-1,-1,-1,-1,-1,-1,-1,-1,-1],"loss_changes":[9.507113E0,1.2416193E1,4.9540195E0,7.4269238E0,4.902279E0,9.7341585E0,4.5587053E0,6.4398136E0,9.124584E-1,5.0646563E0,2.048999E0,1.669796E0,1.786107E0,3.999064E0,3.8601632E0,0E0,0E0,0E0,0E0,0E0,0E0,0E0,0E0,0E0,0E0,0E0,0E0,0E0,0E0,0E0,0E0],"parents":[2147483647,0,0,1,1,2,2,3,3,4,4,5,5,6,6,7,7,8,8,9,9,10,10,11,11,12,12,13,13,14,14],"right_children":[2,4,6,8,10,12,14,16,18,20,22,24,26,28,30,-1,-1,-1,-1,-1,-1,-1,-1,-1,-1,-1,-1,-1,-1,-1,-1],"split_conditions":[-1.14025146E-1,5.8131482E-2,-6.077137E-2,1.8981569E0,-2.8146663E-1,6.630422E-2,2.8303866E0,1E1,-2.0692567E-3,4E0,-2.4840046E-1,1E1,-1.0023531E-1,-7.7521193E-1,3.0406594E0,-2.5752952E-2,-6.944807E-3,6.652733E-2,1.47481635E-2,3.6561668E-2,-3.1297107E-3,-4.983993E-2,7.095491E-5,-3.4266937E-4,5.8314443E-2,-4.6690892E-2,1.4969172E-3,3.7500672E-2,1.2246682E-3,3.7900668E-2,6.5780985E-3],"split_indices":[2,3,2,1,1,1,2,5,3,4,1,5,2,0,1,0,0,0,0,0,0,0,0,0,0,0,0,0,0,0,0],"split_type":[0,0,0,0,0,0,0,0,0,0,0,0,0,0,0,0,0,0,0,0,0,0,0,0,0,0,0,0,0,0,0],"sum_hessian":[7.5237396E2,3.8230032E2,3.700736E2,3.2847314E2,5.382719E1,2.0282713E1,3.497909E2,3.2404587E2,4.427288E0,3.894543E1,1.4881758E1,1.3315918E1,6.9667945E0,3.0944897E2,4.0341915E1,5.41208E1,2.6992505E2,2.3006058E0,2.126682E0,2.8038591E1,1.0906841E1,1.4266785E0,1.3455079E1,1.3254327E0,1.1990485E1,2.127151E0,4.839644E0,6.795912E0,3.0265308E2,1.6277842E1,2.4064074E1],"tree_param":{"num_deleted":"0","num_feature":"6","num_nodes":"31","size_leaf_vector":"1"}},{"base_weights":[-5.637798E-4,-2.506047E-1,4.6814185E-2,-4.0401384E-1,5.8232885E-2,-3.6633307E-1,6.9683634E-2,-2.6707754E-1,-7.346725E-1,-2.8821668E-1,2.7064404E-1,-8.4354556E-1,-1.0892706E-1,3.799604E-2,3.430483E-1,-3.1172676E-2,-7.400746E-3,-4.0669907E-2,-5.8002863E-3,-2.9137263E-2,1.6521085E-2,5.5341487E-4,5.373769E-2,-5.4344516E-2,-2.632756E-2,-4.550803E-2,4.38925E-3,-3.3885808E-4,1.1837672E-2,2.38809E-2,-1.0515912E-2],"categories":[],"categories_nodes":[],"categories_segments":[],"categories_sizes":[],"default_left":[0,0,0,0,0,0,0,0,0,0,0,0,0,0,0,0,0,0,0,0,0,0,0,0,0,0,0,0,0,0,0],"id":28,"left_children":[1,3,5,7,9,11,13,15,17,19,21,23,25,27,29,-1,-1,-1,-1,-1,-1,-1,-1,-1,-1,-1,-1,-1,-1,-1,-1],"loss_changes":[8.92368E0,5.7087116E0,6.0091825E0,3.4395828E0,3.072932E0,4.008017E0,5.1922803E0,2.38371E0,1.0231333E0,3.0992193E0,5.3617992E0,3.1839848E-1,3.6781805E0,4.803702E0,4.7394385E0,0E0,0E0,0E0,0E0,0E0,0E0,0E0,0E0,0E0,0E0,0E0,0E0,0E0,0E0,0E0,0E0],"parents":[2147483647,0,0,1,1,2,2,3,3,4,4,5,5,6,6,7,7,8,8,9,9,10,10,11,11,12,12,13,13,14,14],"right_children":[2,4,6,8,10,12,14,16,18,20,22,24,26,28,30,-1,-1,-1,-1,-1,-1,-1,-1,-1,-1,-1,-1,-1,-1,-1,-1],"split_conditions":[-5.690598E-1,1.2668986E-2,-6.130493E-1,-6.2322366E-1,2E0,-4.543993E-3,7.805814E-2,-6.753433E-1,4.8727572E-1,6.800206E-2,-4.3308437E-1,2E0,-4.9902663E-1,1.6564655E0,-1.0681035E-2,-3.1172676E-2,-7.400746E-3,-4.0669907E-2,-5.8002863E-3,-2.9137263E-2,1.6521085E-2,5.5341487E-4,5.373769E-2,-5.4344516E-2,-2.632756E-2,-4.550803E-2,4.38925E-3,-3.3885808E-4,1.1837672E-2,2.38809E-2,-1.0515912E-2],"split_indices":[2,3,1,2,4,3,3,1,0,3,1,4,2,1,0,0,0,0,0,0,0,0,0,0,0,0,0,0,0,0,0],"split_type":[0,0,0,0,0,0,0,0,0,0,0,0,0,0,0,0,0,0,0,0,0,0,0,0,0,0,0,0,0,0,0],"sum_hessian":[7.5128986E2,1.18994995E2,6.3229486E2,7.929736E1,3.9697624E1,3.2376675E1,5.999182E2,5.735326E1,2.1944107E1,1.4952585E1,2.4745039E1,1.0546714E1,2.182996E1,5.386218E2,6.1296387E1,1.3301905E1,4.4051353E1,1.9187702E1,2.7564034E0,1.0169155E1,4.7834306E0,1.9472773E1,5.2722664E0,4.592492E0,5.954222E0,3.5881395E0,1.8241821E1,4.4038428E2,9.823752E1,4.941609E1,1.1880299E1],"tree_param":{"num_deleted":"0","num_feature":"6","num_nodes":"31","size_leaf_vector":"1"}},{"base_weights":[-7.6752156E-4,-2.1172957E-1,5.066015E-2,-3.6914226E-1,8.614797E-2,9.5027834E-1,3.2706767E-2,-1.9882125E-1,-6.27621E-1,3.5379234E-1,-1.3678597E-1,-4.0575463E-1,1.399701E0,-4.9062386E-1,5.420134E-2,2.2782486E-2,-1.7759366E-2,-3.690138E-2,-1.9257505E-3,2.5182858E-3,7.437637E-2,-2.6169647E-2,1.0102051E-2,-3.3992913E-2,6.707595E-5,9.147746E-2,1.872374E-2,-4.0346276E-2,-5.096657E-3,-9.121162E-3,4.7819964E-3],"categories":[],"categories_nodes":[],"categories_segments":[],"categories_sizes":[],"default_left":[0,0,0,0,0,0,0,0,0,0,0,0,0,0,0,0,0,0,0,0,0,0,0,0,0,0,0,0,0,0,0],"id":29,"left_children":[1,3,5,7,9,11,13,15,17,19,21,23,25,27,29,-1,-1,-1,-1,-1,-1,-1,-1,-1,-1,-1,-1,-1,-1,-1,-1],"loss_changes":[8.163049E0,6.9465528E0,9.739534E0,4.1311264E0,3.1389506E0,7.759759E0,6.7100058E0,6.2751484E0,2.4388971E0,8.118211E0,3.9019039E0,4.152094E-1,3.3199215E0,2.8118238E0,5.6222677E0,0E0,0E0,0E0,0E0,0E0,0E0,0E0,0E0,0E0,0E0,0E0,0E0,0E0,0E0,0E0,0E0],"parents":[2147483647,0,0,1,1,2,2,3,3,4,4,5,5,6,6,7,7,8,8,9,9,10,10,11,11,12,12,13,13,14,14],"right_children":[2,4,6,8,10,12,14,16,18,20,22,24,26,28,30,-1,-1,-1,-1,-1,-1,-1,-1,-1,-1,-1,-1,-1,-1,-1,-1],"split_conditions":[-5.406224E-1,1.2668986E-2,-5.2645916E-1,3E0,-4.586963E-1,-5.3736734E-1,-4.9585533E-1,-6.1394477E-1,-3.5470712E-1,-4.518952E-1,-6.389669E-1,-2.279888E-3,3.9397343E-3,-3.7304395E-1,-3.7906136E-2,2.2782486E-2,-1.7759366E-2,-3.690138E-2,-1.9257505E-3,2.5182858E-3,7.437637E-2,-2.6169647E-2,1.0102051E-2,-3.3992913E-2,6.707595E-5,9.147746E-2,1.872374E-2,-4.0346276E-2,-5.096657E-3,-9.121162E-3,4.7819964E-3],"split_indices":[2,3,2,4,0,0,2,0,1,1,2,3,3,0,3,0,0,0,0,0,0,0,0,0,0,0,0,0,0,0,0],"split_type":[0,0,0,0,0,0,0,0,0,0,0,0,0,0,0,0,0,0,0,0,0,0,0,0,0,0,0,0,0,0,0],"sum_hessian":[7.504155E2,1.4646848E2,6.03947E2,9.567173E1,5.079674E1,1.0800866E1,5.931462E2,5.873699E1,3.6934734E1,2.2816866E1,2.7979876E1,2.7127903E0,8.088077E0,2.2539879E1,5.7060626E2,1.0958046E1,4.7778946E1,3.0892296E1,6.04244E0,1.8823477E1,3.9933877E0,1.2814084E1,1.5165792E1,1.2207937E0,1.4919966E0,5.1459804E0,2.9420955E0,1.1833898E1,1.0705982E1,8.452803E1,4.8607828E2],"tree_param":{"num_deleted":"0","num_feature":"6","num_nodes":"31","size_leaf_vector":"1"}},{"base_weights":[-7.2467007E-4,-3.6992483E-2,2.8553122E-1,-1.565093E-1,8.223938E-2,3.9566347E-1,-2.487481E-1,-1.7305431E-1,8.2007885E-1,6.805863E-1,5.7271805E-2,2.832578E-1,9.4372195E-1,3.50569E-2,-3.9580515E-1,-2.07222E-2,-5.5123586E-3,6.288128E-2,7.244435E-3,5.5238623E-2,-1.3872377E-2,3.8584568E-2,1.9363825E-3,-1.5142905E-2,2.1227324E-2,6.401247E-2,9.649335E-3,-4.026376E-2,5.3968583E-3],"categories":[],"categories_nodes":[],"categories_segments":[],"categories_sizes":[],"default_left":[0,0,0,0,0,0,0,0,0,0,0,0,0,0,0,0,0,0,0,0,0,0,0,0,0,0,0,0,0],"id":30,"left_children":[1,3,5,7,9,11,13,15,17,19,21,23,25,-1,27,-1,-1,-1,-1,-1,-1,-1,-1,-1,-1,-1,-1,-1,-1],"loss_changes":[7.804864E0,9.520937E0,5.0727415E0,5.5314283E0,4.9606743E0,4.0743456E0,2.381459E0,4.939646E0,1.5109153E0,5.716921E0,4.240727E0,5.0898504E0,2.6748867E0,0E0,2.9090242E0,0E0,0E0,0E0,0E0,0E0,0E0,0E0,0E0,0E0,0E0,0E0,0E0,0E0,0E0],"parents":[2147483647,0,0,1,1,2,2,3,3,4,4,5,5,6,6,7,7,8,8,9,9,10,10,11,11,12,12,14,14],"right_children":[2,4,6,8,10,12,14,16,18,20,22,24,26,-1,28,-1,-1,-1,-1,-1,-1,-1,-1,-1,-1,-1,-1,-1,-1],"split_conditions":[6.800206E-2,-1.14025146E-1,-1.0681035E-2,1.8981569E0,-8.3841264E-2,1.4369288E-1,-4.4121423E-1,-2.568716E-2,-2.0692567E-3,6.630422E-2,-7.7521193E-1,1E0,9.337217E-1,3.50569E-2,2.2580415E-1,-2.07222E-2,-5.5123586E-3,6.288128E-2,7.244435E-3,5.5238623E-2,-1.3872377E-2,3.8584568E-2,1.9363825E-3,-1.5142905E-2,2.1227324E-2,6.401247E-2,9.649335E-3,-4.026376E-2,5.3968583E-3],"split_indices":[3,2,0,1,2,2,1,3,3,1,0,4,1,0,0,0,0,0,0,0,0,0,0,0,0,0,0,0,0],"split_type":[0,0,0,0,0,0,0,0,0,0,0,0,0,0,0,0,0,0,0,0,0,0,0,0,0,0,0,0,0],"sum_hessian":[7.497605E2,6.662227E2,8.353777E1,3.3255765E2,3.3366507E2,6.947597E1,1.4061802E1,3.2782654E2,4.731124E0,1.2313509E1,3.2135156E2,5.8910408E1,1.0565563E1,1.3800228E0,1.2681779E1,6.652999E1,2.6129654E2,2.3473403E0,2.3837836E0,8.428485E0,3.8850245E0,7.1027346E0,3.142488E2,1.1220447E1,4.768996E1,6.808315E0,3.7572484E0,6.66528E0,6.0164995E0],"tree_param":{"num_deleted":"0","num_feature":"6","num_nodes":"29","size_leaf_vector":"1"}},{"base_weights":[-4.4767122E-4,-2.2656797E-1,4.147531E-2,-3.562854E-1,9.127083E-2,-3.571723E-1,6.334903E-2,-2.3703559E-1,-6.516505E-1,3.525212E-1,-1.11222744E-1,-5.399321E-1,2.4913174E-1,-1.3735253E-1,9.802045E-2,-2.9300356E-2,-5.9123724E-3,-5.106966E-2,-2.0424834E-2,-1.168692E-2,3.151754E-2,-2.1138636E-2,1.5480536E-2,-4.8618235E-2,-1.6937202E-2,-3.766638E-2,3.6204845E-2,-1.714368E-2,1.7541645E-2,1.6764153E-2,1.5197934E-3],"categories":[],"categories_nodes":[],"categories_segments":[],"categories_sizes":[],"default_left":[0,0,0,0,0,0,0,0,0,0,0,0,0,0,0,0,0,0,0,0,0,0,0,0,0,0,0,0,0,0,0],"id":31,"left_children":[1,3,5,7,9,11,13,15,17,19,21,23,25,27,29,-1,-1,-1,-1,-1,-1,-1,-1,-1,-1,-1,-1,-1,-1,-1,-1],"loss_changes":[7.116655E0,4.873522E0,5.5451403E0,2.7897358E0,1.8816395E0,3.8015227E0,4.1971817E0,2.464328E0,1.69281E0,2.663393E0,2.802968E0,1.9103651E0,4.5208235E0,9.047868E0,8.224781E0,0E0,0E0,0E0,0E0,0E0,0E0,0E0,0E0,0E0,0E0,0E0,0E0,0E0,0E0,0E0,0E0],"parents":[2147483647,0,0,1,1,2,2,3,3,4,4,5,5,6,6,7,7,8,8,9,9,10,10,11,11,12,12,13,13,14,14],"right_children":[2,4,6,8,10,12,14,16,18,20,22,24,26,28,30,-1,-1,-1,-1,-1,-1,-1,-1,-1,-1,-1,-1,-1,-1,-1,-1],"split_conditions":[-5.690598E-1,1.9878648E-2,-6.130493E-1,-6.2322366E-1,-4.6065134E-1,2.261888E-2,-3.7906136E-2,-6.753433E-1,-6.0483414E-1,2E0,-6.389669E-1,-2.0770183E-2,2E0,-3.2016125E-2,-3.991186E-3,-2.9300356E-2,-5.9123724E-3,-5.106966E-2,-2.0424834E-2,-1.168692E-2,3.151754E-2,-2.1138636E-2,1.5480536E-2,-4.8618235E-2,-1.6937202E-2,-3.766638E-2,3.6204845E-2,-1.714368E-2,1.7541645E-2,1.6764153E-2,1.5197934E-3],"split_indices":[2,3,1,2,0,3,3,1,2,4,2,3,4,0,3,0,0,0,0,0,0,0,0,0,0,0,0,0,0,0,0],"split_type":[0,0,0,0,0,0,0,0,0,0,0,0,0,0,0,0,0,0,0,0,0,0,0,0,0,0,0,0,0,0,0],"sum_hessian":[7.487394E2,1.1641681E2,6.323226E2,8.258925E1,3.3827564E1,3.209337E1,6.002292E2,6.0119358E1,2.246989E1,1.4447275E1,1.9380287E1,2.4744148E1,7.3492208E0,8.798001E1,5.122492E2,1.4268541E1,4.585082E1,7.644684E0,1.4825207E1,4.6962414E0,9.751034E0,1.1133423E1,8.246865E0,6.639698E0,1.810445E1,2.1742306E0,5.17499E0,6.212407E1,2.5855938E1,1.1274E2,3.995092E2],"tree_param":{"num_deleted":"0","num_feature":"6","num_nodes":"31","size_leaf_vector":"1"}},{"base_weights":[-6.623629E-4,-3.5061006E-2,2.697919E-1,-1.4707537E-1,7.568929E-2,3.7367582E-1,-2.3865636E-1,-1.6300005E-1,7.7755314E-1,6.405634E-1,5.192432E-2,2.6619518E-1,8.962535E-1,3.4096375E-2,-3.8281643E-1,-1.9721579E-2,-5.1775347E-3,5.938868E-2,6.9199116E-3,5.1775426E-2,-1.3492531E-2,3.660148E-2,1.7065293E-3,-1.4448009E-2,1.9965088E-2,6.0709197E-2,9.188571E-3,-3.9193496E-2,5.085879E-3],"categories":[],"categories_nodes":[],"categories_segments":[],"categories_sizes":[],"default_left":[0,0,0,0,0,0,0,0,0,0,0,0,0,0,0,0,0,0,0,0,0,0,0,0,0,0,0,0,0],"id":32,"left_children":[1,3,5,7,9,11,13,15,17,19,21,23,25,-1,27,-1,-1,-1,-1,-1,-1,-1,-1,-1,-1,-1,-1,-1,-1],"loss_changes":[6.9774203E0,8.26525E0,4.559178E0,5.0024147E0,4.4668655E0,3.7301826E0,2.247421E0,4.449211E0,1.3510191E0,5.1140227E0,3.8811595E0,4.5511975E0,2.411584E0,0E0,2.7189474E0,0E0,0E0,0E0,0E0,0E0,0E0,0E0,0E0,0E0,0E0,0E0,0E0,0E0,0E0],"parents":[2147483647,0,0,1,1,2,2,3,3,4,4,5,5,6,6,7,7,8,8,9,9,10,10,11,11,12,12,14,14],"right_children":[2,4,6,8,10,12,14,16,18,20,22,24,26,-1,28,-1,-1,-1,-1,-1,-1,-1,-1,-1,-1,-1,-1,-1,-1],"split_conditions":[6.800206E-2,-1.14025146E-1,-1.0681035E-2,1.8981569E0,-8.3841264E-2,1.4369288E-1,-4.4121423E-1,-2.568716E-2,-2.0692567E-3,6.630422E-2,-7.7521193E-1,1E0,9.337217E-1,3.4096375E-2,2.2580415E-1,-1.9721579E-2,-5.1775347E-3,5.938868E-2,6.9199116E-3,5.1775426E-2,-1.3492531E-2,3.660148E-2,1.7065293E-3,-1.4448009E-2,1.9965088E-2,6.0709197E-2,9.188571E-3,-3.9193496E-2,5.085879E-3],"split_indices":[3,2,0,1,2,2,1,3,3,1,0,4,1,0,0,0,0,0,0,0,0,0,0,0,0,0,0,0,0],"split_type":[0,0,0,0,0,0,0,0,0,0,0,0,0,0,0,0,0,0,0,0,0,0,0,0,0,0,0,0,0],"sum_hessian":[7.479806E2,6.6435297E2,8.3627625E1,3.301285E2,3.342245E2,6.966005E1,1.396757E1,3.2534882E2,4.7797008E0,1.2445717E1,3.2177875E2,5.902876E1,1.0631292E1,1.3860595E0,1.2581511E1,6.534219E1,2.6000662E2,2.3884213E0,2.3912792E0,8.584351E0,3.861366E0,7.180711E0,3.1459805E2,1.1189434E1,4.7839325E1,6.864148E0,3.7671442E0,6.545749E0,6.035761E0],"tree_param":{"num_deleted":"0","num_feature":"6","num_nodes":"29","size_leaf_vector":"1"}},{"base_weights":[-3.99746E-4,-5.813451E-2,1.4938043E-1,-3.0186954E-1,-2.5331408E-3,7.115407E-1,6.802352E-2,-4.95145E-1,3.7478814E-1,8.080083E-2,-1.2927885E-2,1.3225677E0,-8.700588E-3,4.800955E-1,-2.2385988E-2,-2.6752207E-2,2.7813686E-2,2.593181E-2,-2.5349572E-2,-3.5194673E-3,8.172962E-3,5.274085E-3,9.36521E-2,-2.7165616E-2,8.6979575E-2,4.468203E-2,-3.8212107E-3,-1.41521245E-2,1.0059929E-2],"categories":[],"categories_nodes":[],"categories_segments":[],"categories_sizes":[],"default_left":[0,0,0,0,0,0,0,0,0,0,0,0,0,0,0,0,0,0,0,0,0,0,0,0,0,0,0,0,0],"id":33,"left_children":[1,3,5,7,9,11,13,15,17,-1,19,21,23,25,27,-1,-1,-1,-1,-1,-1,-1,-1,-1,-1,-1,-1,-1,-1],"loss_changes":[6.476662E0,7.325185E0,9.481835E0,1.3316506E1,7.4434333E0,1.155868E1,6.8336053E0,3.591919E0,3.1646068E0,0E0,4.4645586E0,9.317408E0,1.31297035E1,7.66217E0,8.865339E0,0E0,0E0,0E0,0E0,0E0,0E0,0E0,0E0,0E0,0E0,0E0,0E0,0E0,0E0],"parents":[2147483647,0,0,1,1,2,2,3,3,4,4,5,5,6,6,7,7,8,8,10,10,11,11,12,12,13,13,14,14],"right_children":[2,4,6,8,10,12,14,16,18,-1,20,22,24,26,28,-1,-1,-1,-1,-1,-1,-1,-1,-1,-1,-1,-1,-1,-1],"split_conditions":[1.4369288E-1,-2.568716E-2,3.043949E-1,3.560051E-2,-2.4264187E-2,2.9009154E-1,1E0,9.813567E-3,-3.0989677E-2,8.080083E-2,3.7684835E-2,-4.6953666E-1,2.3037748E0,1.2411379E0,1.3534524E0,-2.6752207E-2,2.7813686E-2,2.593181E-2,-2.5349572E-2,-3.5194673E-3,8.172962E-3,5.274085E-3,9.36521E-2,-2.7165616E-2,8.6979575E-2,4.468203E-2,-3.8212107E-3,-1.41521245E-2,1.0059929E-2],"split_indices":[2,3,2,0,3,1,4,2,3,0,3,0,1,1,2,0,0,0,0,0,0,0,0,0,0,0,0,0,0],"split_type":[0,0,0,0,0,0,0,0,0,0,0,0,0,0,0,0,0,0,0,0,0,0,0,0,0,0,0,0,0],"sum_hessian":[7.4695734E2,5.395806E2,2.0737668E2,9.9403725E1,4.401769E2,2.5238398E1,1.8213828E2,7.752758E1,2.187615E1,1.8232079E0,4.383537E2,1.3202004E1,1.2036393E1,3.1995897E1,1.5014238E2,7.51663E1,2.3612816E0,1.916201E1,2.7141411E0,3.3109436E2,1.0725934E2,4.4826307E0,8.719374E0,9.745531E0,2.2908618E0,1.8008308E1,1.3987588E1,6.9201195E1,8.0941185E1],"tree_param":{"num_deleted":"0","num_feature":"6","num_nodes":"29","size_leaf_vector":"1"}},{"base_weights":[-7.391148E-5,-2.115131E-1,3.859407E-2,-3.4900507E-1,5.2397277E-2,-3.4406254E-1,5.934057E-2,-2.1428828E-1,-6.8536663E-1,-4.5034462E-1,1.7092751E-1,-4.735432E-2,-1.6257393E-1,4.6606702E-1,4.422636E-2,3.4504294E-2,-1.2833823E-2,-1.6385704E-2,-4.310673E-2,-4.688023E-2,1.60995E-3,1.2569317E-3,3.423032E-2,-4.5618773E-2,3.9964454E-4,4.9019177E-2,-3.9166613E-3,-9.893011E-4,8.049197E-3],"categories":[],"categories_nodes":[],"categories_segments":[],"categories_sizes":[],"default_left":[0,0,0,0,0,0,0,0,0,0,0,0,0,0,0,0,0,0,0,0,0,0,0,0,0,0,0,0,0],"id":34,"left_children":[1,3,5,7,9,11,13,15,17,19,21,-1,23,25,27,-1,-1,-1,-1,-1,-1,-1,-1,-1,-1,-1,-1,-1,-1],"loss_changes":[6.115797E0,4.2146697E0,5.040728E0,3.3044987E0,2.4893363E0,3.4214392E0,3.6721516E0,2.3177242E0,1.0657787E0,1.9108646E0,2.4903553E0,0E0,3.373258E0,6.0737224E0,4.340234E0,0E0,0E0,0E0,0E0,0E0,0E0,0E0,0E0,0E0,0E0,0E0,0E0,0E0,0E0],"parents":[2147483647,0,0,1,1,2,2,3,3,4,4,5,5,6,6,7,7,8,8,9,9,10,10,12,12,13,13,14,14],"right_children":[2,4,6,8,10,12,14,16,18,20,22,-1,24,26,28,-1,-1,-1,-1,-1,-1,-1,-1,-1,-1,-1,-1,-1,-1],"split_conditions":[-5.690598E-1,1.2668986E-2,-6.130493E-1,-6.2322366E-1,1E0,-2.0770183E-2,-5.59677E-1,-1.3075502E-1,-5.59677E-1,-6.738382E-1,-4.3308437E-1,-4.735432E-2,-4.9902663E-1,3E0,1.0676041E-1,3.4504294E-2,-1.2833823E-2,-1.6385704E-2,-4.310673E-2,-4.688023E-2,1.60995E-3,1.2569317E-3,3.423032E-2,-4.5618773E-2,3.9964454E-4,4.9019177E-2,-3.9166613E-3,-9.893011E-4,8.049197E-3],"split_indices":[2,3,1,2,4,3,1,3,1,2,1,0,2,4,2,0,0,0,0,0,0,0,0,0,0,0,0,0,0],"split_type":[0,0,0,0,0,0,0,0,0,0,0,0,0,0,0,0,0,0,0,0,0,0,0,0,0,0,0,0,0],"sum_hessian":[7.460266E2,1.1464884E2,6.3137775E2,7.516629E1,3.948255E1,3.166947E1,5.997083E2,5.48395E1,2.032679E1,6.998643E0,3.248391E1,6.350506E0,2.5318964E1,2.041805E1,5.792902E2,1.7711406E0,5.306836E1,7.6673856E0,1.2659405E1,3.0130734E0,3.9855697E0,2.6119724E1,6.3641853E0,3.886234E0,2.143273E1,1.0087315E1,1.0330736E1,3.7469443E2,2.0459583E2],"tree_param":{"num_deleted":"0","num_feature":"6","num_nodes":"29","size_leaf_vector":"1"}},{"base_weights":[-2.2916193E-4,-2.956192E-2,2.6686338E-1,-1.2676936E-1,6.674263E-2,3.7806934E-1,-2.5947514E-1,-1.3679905E-1,5.5236775E-2,6.1164266E-1,4.396665E-2,2.7687234E-1,8.178951E-1,3.2735135E-2,-4.1882443E-1,-2.3571765E-2,-5.0707054E-3,4.8879348E-2,-1.2648989E-2,3.5185672E-2,1.3405314E-3,4.1807014E-2,8.298105E-3,5.9536118E-2,1.5553943E-3,-4.456524E-2,1.2103691E-2],"categories":[],"categories_nodes":[],"categories_segments":[],"categories_sizes":[],"default_left":[0,0,0,0,0,0,0,0,0,0,0,0,0,0,0,0,0,0,0,0,0,0,0,0,0,0,0],"id":35,"left_children":[1,3,5,7,9,11,13,15,-1,17,19,21,23,-1,25,-1,-1,-1,-1,-1,-1,-1,-1,-1,-1,-1,-1],"loss_changes":[5.8564014E0,6.3137417E0,4.4276986E0,4.2955804E0,4.180216E0,2.5097113E0,2.2401366E0,3.90378E0,0E0,4.5261655E0,3.6763146E0,3.054925E0,3.1857991E0,0E0,3.9947853E0,0E0,0E0,0E0,0E0,0E0,0E0,0E0,0E0,0E0,0E0,0E0,0E0],"parents":[2147483647,0,0,1,1,2,2,3,3,4,4,5,5,6,6,7,7,9,9,10,10,11,11,12,12,14,14],"right_children":[2,4,6,8,10,12,14,16,-1,18,20,22,24,-1,26,-1,-1,-1,-1,-1,-1,-1,-1,-1,-1,-1,-1],"split_conditions":[7.805814E-2,-1.14025146E-1,-1.0681035E-2,3.4322379E0,-8.3841264E-2,9.64227E-2,-4.4121423E-1,-6.6093206E-1,5.5236775E-2,6.630422E-2,-7.7521193E-1,1E1,9.337217E-1,3.2735135E-2,2.2580415E-1,-2.3571765E-2,-5.0707054E-3,4.8879348E-2,-1.2648989E-2,3.5185672E-2,1.3405314E-3,4.1807014E-2,8.298105E-3,5.9536118E-2,1.5553943E-3,-4.456524E-2,1.2103691E-2],"split_indices":[3,2,0,1,2,2,1,1,0,1,0,5,1,0,0,0,0,0,0,0,0,0,0,0,0,0,0],"split_type":[0,0,0,0,0,0,0,0,0,0,0,0,0,0,0,0,0,0,0,0,0,0,0,0,0,0,0],"sum_hessian":[7.455016E2,6.7253186E2,7.296978E1,3.3453952E2,3.379923E2,6.0474327E1,1.2495453E1,3.327187E2,1.8208284E0,1.2523408E1,3.254689E2,5.048746E1,9.986868E0,1.3933401E0,1.1102113E1,3.0639278E1,3.0207944E2,8.707415E0,3.815993E0,7.23471E0,3.182342E2,7.273211E0,4.321425E1,6.4276576E0,3.5592098E0,6.270597E0,4.8315163E0],"tree_param":{"num_deleted":"0","num_feature":"6","num_nodes":"27","size_leaf_vector":"1"}},{"base_weights":[4.1411404E-5,-3.0260688E-2,2.3647901E-1,-2.3596162E-1,1.762319E-2,3.3077824E-1,-2.3020926E-1,-8.707999E-2,-4.7196013E-1,8.864961E-1,8.733117E-4,2.3919791E-1,8.3551544E-1,4.115247E-1,-4.298503E-1,1.4707464E-2,-1.1406981E-2,-3.0116374E-2,9.805723E-3,-2.8241111E-2,6.995981E-2,-1.4613703E-2,1.837795E-3,-1.4481182E-2,1.812375E-2,5.9655514E-2,8.040714E-3,3.3273134E-2,-1.5676856E-3,2.1681985E-2,-2.8249284E-2],"categories":[],"categories_nodes":[],"categories_segments":[],"categories_sizes":[],"default_left":[0,0,0,0,0,0,0,0,0,0,0,0,0,0,0,0,0,0,0,0,0,0,0,0,0,0,0,0,0,0,0],"id":36,"left_children":[1,3,5,7,9,11,13,15,17,19,21,23,25,27,29,-1,-1,-1,-1,-1,-1,-1,-1,-1,-1,-1,-1,-1,-1,-1,-1],"loss_changes":[5.349058E0,6.522593E0,3.80872E0,4.352049E0,7.825424E0,3.0805902E0,2.0789914E0,4.255905E0,4.3108664E0,8.357401E0,5.570853E0,4.112339E0,2.340969E0,4.745083E-1,1.6234288E0,0E0,0E0,0E0,0E0,0E0,0E0,0E0,0E0,0E0,0E0,0E0,0E0,0E0,0E0,0E0,0E0],"parents":[2147483647,0,0,1,1,2,2,3,3,4,4,5,5,6,6,7,7,8,8,9,9,10,10,11,11,12,12,13,13,14,14],"right_children":[2,4,6,8,10,12,14,16,18,20,22,24,26,28,30,-1,-1,-1,-1,-1,-1,-1,-1,-1,-1,-1,-1,-1,-1,-1,-1],"split_conditions":[6.800206E-2,-5.406224E-1,-1.0681035E-2,3E0,-5.2645916E-1,2.547811E-1,1E0,-5.5711216E-1,-3.5470712E-1,-5.3736734E-1,-5.245725E-1,1E0,9.337217E-1,1.2E1,-4.3308437E-1,1.4707464E-2,-1.1406981E-2,-3.0116374E-2,9.805723E-3,-2.8241111E-2,6.995981E-2,-1.4613703E-2,1.837795E-3,-1.4481182E-2,1.812375E-2,5.9655514E-2,8.040714E-3,3.3273134E-2,-1.5676856E-3,2.1681985E-2,-2.8249284E-2],"split_indices":[3,2,0,4,2,2,4,0,1,0,1,4,1,5,1,0,0,0,0,0,0,0,0,0,0,0,0,0,0,0,0],"split_type":[0,0,0,0,0,0,0,0,0,0,0,0,0,0,0,0,0,0,0,0,0,0,0,0,0,0,0,0,0,0,0],"sum_hessian":[7.446014E2,6.607863E2,8.381507E1,1.2403319E2,5.367531E2,6.996844E1,1.384663E1,7.689336E1,4.713983E1,9.169595E0,5.275835E2,6.047048E1,9.497957E0,3.0336912E0,1.0812939E1,2.0474224E1,5.6419132E1,3.952532E1,7.6145134E0,2.367152E0,6.8024435E0,5.6756752E1,4.7082675E2,1.1176649E1,4.9293835E1,5.705605E0,3.7923522E0,1.6087052E0,1.4249859E0,1.1643069E0,9.648632E0],"tree_param":{"num_deleted":"0","num_feature":"6","num_nodes":"31","size_leaf_vector":"1"}},{"base_weights":[1.4268077E-4,-4.555443E-2,1.4826724E-1,-1.3137822E-1,1.5982898E-1,4.2216745E-1,3.047011E-3,-4.1695932E-1,-6.191805E-2,5.6157494E-1,-7.7587165E-2,6.011823E-1,-7.365325E-3,-1.8088101E-1,1.7228006E-1,-4.277607E-2,-1.7180873E-2,-5.5078794E-3,2.37851E-2,9.631399E-3,4.9829043E-2,1.1668096E-2,-1.0596443E-2,-1.24825705E-2,4.1681357E-2,2.0744525E-2,-2.4171704E-2,-1.2706361E-2,4.026683E-2,-3.6263198E-2,1.1244553E-2],"categories":[],"categories_nodes":[],"categories_segments":[],"categories_sizes":[],"default_left":[0,0,0,0,0,0,0,0,0,0,0,0,0,0,0,0,0,0,0,0,0,0,0,0,0,0,0,0,0,0,0],"id":37,"left_children":[1,3,5,7,9,11,13,15,17,19,21,23,25,27,29,-1,-1,-1,-1,-1,-1,-1,-1,-1,-1,-1,-1,-1,-1,-1,-1],"loss_changes":[5.048212E0,1.0067653E1,6.9927373E0,7.959082E0,1.6108566E1,4.6885653E0,3.6393118E0,2.2334719E0,8.48004E0,9.868517E0,4.5085735E0,8.714255E0,4.0014963E0,4.252458E0,3.0380383E0,0E0,0E0,0E0,0E0,0E0,0E0,0E0,0E0,0E0,0E0,0E0,0E0,0E0,0E0,0E0,0E0],"parents":[2147483647,0,0,1,1,2,2,3,3,4,4,5,5,6,6,7,7,8,8,9,9,10,10,11,11,12,12,13,13,14,14],"right_children":[2,4,6,8,10,12,14,16,18,20,22,24,26,28,30,-1,-1,-1,-1,-1,-1,-1,-1,-1,-1,-1,-1,-1,-1,-1,-1],"split_conditions":[2.2992102E-2,2.3582408E-2,-4.045391E-1,-3.6670074E-2,-6.288413E-3,1.2E1,7.805814E-2,-5.67238E-1,1.7068554E0,7.7268904E-1,9.163716E-1,-6.1066264E-1,-5.223996E-1,3.0035882E0,-3.8522884E-1,-4.277607E-2,-1.7180873E-2,-5.5078794E-3,2.37851E-2,9.631399E-3,4.9829043E-2,1.1668096E-2,-1.0596443E-2,-1.24825705E-2,4.1681357E-2,2.0744525E-2,-2.4171704E-2,-1.2706361E-2,4.026683E-2,-3.6263198E-2,1.1244553E-2],"split_indices":[3,0,0,3,3,5,3,2,1,0,0,2,1,1,0,0,0,0,0,0,0,0,0,0,0,0,0,0,0,0,0],"split_type":[0,0,0,0,0,0,0,0,0,0,0,0,0,0,0,0,0,0,0,0,0,0,0,0,0,0,0,0,0,0,0],"sum_hessian":[7.438012E2,5.689653E2,1.7483595E2,4.015355E2,1.6742975E2,5.991779E1,1.1491816E2,7.757754E1,3.2395798E2,6.1684456E1,1.057453E2,4.2009865E1,1.7907923E1,5.5035233E1,5.9882923E1,9.586764E0,6.799077E1,2.9801297E2,2.594499E1,3.4157146E1,2.7527311E1,3.1680384E1,7.406491E1,8.998396E0,3.301147E1,9.558439E0,8.3494835E0,5.1921364E1,3.1138692E0,2.6078343E0,5.727509E1],"tree_param":{"num_deleted":"0","num_feature":"6","num_nodes":"31","size_leaf_vector":"1"}},{"base_weights":[1.4094717E-4,-2.4789408E-1,2.541931E-2,-3.433389E-1,2.0670629E-1,5.709719E-3,3.230462E-1,-1.640419E-1,-6.287151E-1,-6.047953E-1,5.942343E-1,-3.907807E-2,1.4793493E-1,6.8495893E-1,7.9458214E-2,1.8130321E-2,-1.9684745E-2,-3.468341E-2,1.1715596E-2,-5.192774E-2,6.3713337E-3,5.6447625E-2,-1.499753E-2,-1.0017933E-2,2.7560005E-3,1.3160402E-2,-1.748022E-2,5.0944086E-2,4.8605903E-4,1.8839395E-2,-8.305211E-3],"categories":[],"categories_nodes":[],"categories_segments":[],"categories_sizes":[],"default_left":[0,0,0,0,0,0,0,0,0,0,0,0,0,0,0,0,0,0,0,0,0,0,0,0,0,0,0,0,0,0,0],"id":38,"left_children":[1,3,5,7,9,11,13,15,17,19,21,23,25,27,29,-1,-1,-1,-1,-1,-1,-1,-1,-1,-1,-1,-1,-1,-1,-1,-1],"loss_changes":[4.669676E0,3.0597591E0,3.9629745E0,2.8290577E0,4.3145785E0,4.0502253E0,3.6447492E0,4.563019E0,1.3822603E0,1.5807848E0,4.6497307E0,7.3589296E0,8.824997E0,3.7666826E0,1.9763744E0,0E0,0E0,0E0,0E0,0E0,0E0,0E0,0E0,0E0,0E0,0E0,0E0,0E0,0E0,0E0,0E0],"parents":[2147483647,0,0,1,1,2,2,3,3,4,4,5,5,6,6,7,7,8,8,9,9,10,10,11,11,12,12,13,13,14,14],"right_children":[2,4,6,8,10,12,14,16,18,20,22,24,26,28,30,-1,-1,-1,-1,-1,-1,-1,-1,-1,-1,-1,-1,-1,-1,-1,-1],"split_conditions":[-6.130493E-1,4.1860953E-2,2.8303866E0,3E0,2E0,2.2992102E-2,1.1E1,-6.9621617E-1,-3.3265004E-1,-4.5079115E-1,-4.4547817E-1,1.1E1,-1.0681035E-2,3.5144358E0,3.0406594E0,1.8130321E-2,-1.9684745E-2,-3.468341E-2,1.1715596E-2,-5.192774E-2,6.3713337E-3,5.6447625E-2,-1.499753E-2,-1.0017933E-2,2.7560005E-3,1.3160402E-2,-1.748022E-2,5.0944086E-2,4.8605903E-4,1.8839395E-2,-8.305211E-3],"split_indices":[1,3,2,4,4,3,5,2,0,0,0,5,0,1,1,0,0,0,0,0,0,0,0,0,0,0,0,0,0,0,0],"split_type":[0,0,0,0,0,0,0,0,0,0,0,0,0,0,0,0,0,0,0,0,0,0,0,0,0,0,0,0,0,0,0],"sum_hessian":[7.427694E2,6.788317E1,6.748862E2,5.630624E1,1.1576933E1,6.339253E2,4.0960922E1,3.5547302E1,2.0758938E1,3.5604777E0,8.016455E0,4.8265793E2,1.512674E2,1.574931E1,2.5211615E1,1.0618242E1,2.492906E1,1.9488438E1,1.2705E0,1.9732107E0,1.5872669E0,4.8522706E0,3.164184E0,1.775463E2,3.0511163E2,1.2319562E2,2.8071774E1,1.019747E1,5.5518394E0,1.116207E1,1.4049544E1],"tree_param":{"num_deleted":"0","num_feature":"6","num_nodes":"31","size_leaf_vector":"1"}},{"base_weights":[1.2868864E-4,-1.0597449E-1,5.7236023E-2,-4.4119138E-1,-4.313805E-2,2.219889E-1,-5.887795E-2,-5.7822883E-1,3.100168E-1,6.722942E-2,-6.29715E-2,4.0072584E-1,-1.3521451E-1,-1.8711329E-1,1.706755E-1,-4.22602E-2,-1.9422827E-2,6.952664E-2,-1.5688261E-2,-5.357708E-3,1.7670786E-2,1.50391925E-2,4.79758E-2,-4.4389278E-2,-3.500764E-3,-1.733621E-2,2.4577882E-3,1.4389182E-2,-1.8861203E-2],"categories":[],"categories_nodes":[],"categories_segments":[],"categories_sizes":[],"default_left":[0,0,0,0,0,0,0,0,0,0,0,0,0,0,0,0,0,0,0,0,0,0,0,0,0,0,0,0,0],"id":39,"left_children":[1,3,5,7,9,11,13,15,17,-1,19,21,23,25,27,-1,-1,-1,-1,-1,-1,-1,-1,-1,-1,-1,-1,-1,-1],"loss_changes":[4.5084E0,5.464799E0,9.266412E0,4.3988466E0,6.1495667E0,1.2834748E1,8.407485E0,1.4456682E0,5.13733E0,0E0,4.0521975E0,7.17651E0,3.2502582E0,6.9191484E0,6.685324E0,0E0,0E0,0E0,0E0,0E0,0E0,0E0,0E0,0E0,0E0,0E0,0E0,0E0,0E0],"parents":[2147483647,0,0,1,1,2,2,3,3,4,4,5,5,6,6,7,7,8,8,10,10,11,11,12,12,13,13,14,14],"right_children":[2,4,6,8,10,12,14,16,18,-1,20,22,24,26,28,-1,-1,-1,-1,-1,-1,-1,-1,-1,-1,-1,-1,-1,-1],"split_conditions":[-3.5066006E-1,-2.568716E-2,-5.1006608E-2,8.150352E-2,-2.3488618E-2,1.3E1,1.6564655E0,-5.67238E-1,-4.9585533E-1,6.722942E-2,-1.17207356E-1,-1.5910387E-1,-3.086511E-1,1.9606155E-1,4E0,-4.22602E-2,-1.9422827E-2,6.952664E-2,-1.5688261E-2,-5.357708E-3,1.7670786E-2,1.50391925E-2,4.79758E-2,-4.4389278E-2,-3.500764E-3,-1.733621E-2,2.4577882E-3,1.4389182E-2,-1.8861203E-2],"split_indices":[2,3,1,0,3,5,1,2,2,0,1,1,2,0,4,0,0,0,0,0,0,0,0,0,0,0,0,0,0],"split_type":[0,0,0,0,0,0,0,0,0,0,0,0,0,0,0,0,0,0,0,0,0,0,0,0,0,0,0,0,0],"sum_hessian":[7.42049E2,2.593434E2,4.827056E2,3.9989273E1,2.1935416E2,1.9917975E2,2.8352585E2,3.401452E1,5.974754E0,2.149674E0,2.1720448E2,1.3267178E2,6.6507965E1,1.8202576E2,1.01500084E2,1.2697565E1,2.1316954E1,1.7368988E0,4.237855E0,1.9703938E2,2.01651E1,1.13847885E2,1.88239E1,4.2966604E0,6.2211304E1,1.083576E2,7.366817E1,8.401702E1,1.7483063E1],"tree_param":{"num_deleted":"0","num_feature":"6","num_nodes":"29","size_leaf_vector":"1"}},{"base_weights":[1.5303757E-4,-4.771743E-2,1.221955E-1,-2.671124E-1,1.1416639E-3,6.62082E-1,4.3672986E-2,-4.4851455E-1,3.317453E-1,7.4090324E-2,-8.819038E-3,-4.0315637E-1,1.0103498E0,4.2500296E-1,-4.0758472E-2,-2.4419423E-2,2.710243E-2,2.3485363E-2,-2.5789961E-2,2.3374946E-3,-8.937833E-3,1.7308947E-2,-4.3821227E-2,7.978883E-2,1.5675796E-2,4.077704E-2,-5.148595E-3,-1.4002897E-2,8.093997E-3],"categories":[],"categories_nodes":[],"categories_segments":[],"categories_sizes":[],"default_left":[0,0,0,0,0,0,0,0,0,0,0,0,0,0,0,0,0,0,0,0,0,0,0,0,0,0,0,0,0],"id":40,"left_children":[1,3,5,7,9,11,13,15,17,-1,19,21,23,25,27,-1,-1,-1,-1,-1,-1,-1,-1,-1,-1,-1,-1,-1,-1],"loss_changes":[4.342911E0,5.723793E0,8.849582E0,1.0713873E1,6.4681973E0,1.0246678E1,5.9385304E0,3.2297592E0,2.9533079E0,0E0,4.123263E0,2.8743105E0,7.7697964E0,6.976221E0,7.3909793E0,0E0,0E0,0E0,0E0,0E0,0E0,0E0,0E0,0E0,0E0,0E0,0E0,0E0,0E0],"parents":[2147483647,0,0,1,1,2,2,3,3,4,4,5,5,6,6,7,7,8,8,10,10,11,11,12,12,13,13,14,14],"right_children":[2,4,6,8,10,12,14,16,18,-1,20,22,24,26,28,-1,-1,-1,-1,-1,-1,-1,-1,-1,-1,-1,-1,-1,-1],"split_conditions":[1.4369288E-1,-2.568716E-2,3.043949E-1,3.560051E-2,-2.4264187E-2,-4.8968896E-1,1E0,9.813567E-3,-3.0989677E-2,7.4090324E-2,-5.1006608E-2,-2.349846E-2,2.9009154E-1,1.2411379E0,1.3534524E0,-2.4419423E-2,2.710243E-2,2.3485363E-2,-2.5789961E-2,2.3374946E-3,-8.937833E-3,1.7308947E-2,-4.3821227E-2,7.978883E-2,1.5675796E-2,4.077704E-2,-5.148595E-3,-1.4002897E-2,8.093997E-3],"split_indices":[2,3,2,0,3,0,4,2,3,0,1,1,1,1,2,0,0,0,0,0,0,0,0,0,0,0,0,0,0],"split_type":[0,0,0,0,0,0,0,0,0,0,0,0,0,0,0,0,0,0,0,0,0,0,0,0,0,0,0,0,0],"sum_hessian":[7.4136725E2,5.3293536E2,2.0843187E2,9.625384E1,4.3668152E2,2.5522E1,1.8290988E2,7.406853E1,2.2185314E1,1.9306048E0,4.3475092E2,6.249425E0,1.9272573E1,3.242599E1,1.5048389E2,7.1689705E1,2.378823E0,1.9462965E1,2.7223485E0,3.2816663E2,1.0658429E2,2.5230937E0,3.7263312E0,9.772459E0,9.500114E0,1.8325869E1,1.4100123E1,6.882505E1,8.165884E1],"tree_param":{"num_deleted":"0","num_feature":"6","num_nodes":"29","size_leaf_vector":"1"}},{"base_weights":[3.1387102E-4,-2.0080109E-1,2.852194E-2,-1.17363036E-1,-8.4105045E-1,-1.9693641E-1,5.7524845E-2,-1.8175825E-1,4.5333934E-1,-5.1584937E-2,1.1454872E-2,1.124157E-1,-5.7874846E-1,1.0141199E-1,-1.21370345E-1,6.050484E-3,-1.917913E-2,5.9941836E-2,-2.0067513E-3,9.82323E-4,5.5999707E-2,-3.8380917E-2,1.1036366E-2,1.22639565E-2,-1.2440003E-3,-9.7276486E-4,-2.820757E-2],"categories":[],"categories_nodes":[],"categories_segments":[],"categories_sizes":[],"default_left":[0,0,0,0,0,0,0,0,0,0,0,0,0,0,0,0,0,0,0,0,0,0,0,0,0,0,0],"id":41,"left_children":[1,3,5,7,9,11,13,15,17,-1,-1,19,21,23,25,-1,-1,-1,-1,-1,-1,-1,-1,-1,-1,-1,-1],"loss_changes":[4.213666E0,4.781994E0,4.27065E0,3.0956142E0,2.3523836E0,8.860865E0,4.5495844E0,4.5921817E0,3.211776E0,0E0,0E0,3.9015117E0,5.2268276E0,8.44769E0,5.146962E0,0E0,0E0,0E0,0E0,0E0,0E0,0E0,0E0,0E0,0E0,0E0,0E0],"parents":[2147483647,0,0,1,1,2,2,3,3,4,4,5,5,6,6,7,7,8,8,11,11,12,12,13,13,14,14],"right_children":[2,4,6,8,10,12,14,16,18,-1,-1,20,22,24,26,-1,-1,-1,-1,-1,-1,-1,-1,-1,-1,-1,-1],"split_conditions":[-6.0483414E-1,-6.2322366E-1,-5.912068E-1,7.392957E-2,5.8131482E-2,-6.5376693E-1,1.3E1,-5.155761E-1,-7.0425373E-1,-5.1584937E-2,1.1454872E-2,1.8338656E0,1.8398257E-2,-5.1006608E-2,4E0,6.050484E-3,-1.917913E-2,5.9941836E-2,-2.0067513E-3,9.82323E-4,5.5999707E-2,-3.8380917E-2,1.1036366E-2,1.22639565E-2,-1.2440003E-3,-9.7276486E-4,-2.820757E-2],"split_indices":[2,2,0,3,3,0,5,0,2,0,0,1,3,1,4,0,0,0,0,0,0,0,0,0,0,0,0],"split_type":[0,0,0,0,0,0,0,0,0,0,0,0,0,0,0,0,0,0,0,0,0,0,0,0,0,0,0],"sum_hessian":[7.407399E2,9.036271E1,6.503772E2,8.099115E1,9.371555E0,7.346854E1,5.769087E2,7.339153E1,7.599618E0,7.9849544E0,1.3866009E0,4.0975166E1,3.2493366E1,4.63608E2,1.1330068E2,2.9514942E1,4.387659E1,2.4575655E0,5.142052E0,3.8454136E1,2.5210304E0,2.6316217E1,6.1771507E0,2.162836E2,2.473244E2,9.295024E1,2.0350447E1],"tree_param":{"num_deleted":"0","num_feature":"6","num_nodes":"27","size_leaf_vector":"1"}},{"base_weights":[2.7378483E-4,-4.607508E-2,1.1812244E-1,-3.032188E-1,-7.198569E-3,6.269423E-1,4.3388598E-2,-4.704046E-1,2.7640253E-1,-1.1694703E-1,6.915957E-2,-3.8736033E-1,9.501707E-1,4.0205017E-1,-3.670986E-2,-2.5750017E-2,2.392953E-2,2.4588326E-2,-4.4601515E-2,-8.2197115E-3,4.2600006E-2,8.603173E-3,-4.09083E-3,1.6614782E-2,-4.263908E-2,7.432728E-2,1.4972168E-2,3.8352467E-2,-4.900051E-3,-1.3266933E-2,7.759622E-3],"categories":[],"categories_nodes":[],"categories_segments":[],"categories_sizes":[],"default_left":[0,0,0,0,0,0,0,0,0,0,0,0,0,0,0,0,0,0,0,0,0,0,0,0,0,0,0,0,0,0,0],"id":42,"left_children":[1,3,5,7,9,11,13,15,17,19,21,23,25,27,29,-1,-1,-1,-1,-1,-1,-1,-1,-1,-1,-1,-1,-1,-1,-1,-1],"loss_changes":[4.0542927E0,5.32351E0,7.9399652E0,6.907553E0,3.894792E0,9.140714E0,5.293877E0,2.559454E0,4.537169E0,8.905614E0,4.273015E0,2.6871781E0,6.7384224E0,6.213322E0,6.6719255E0,0E0,0E0,0E0,0E0,0E0,0E0,0E0,0E0,0E0,0E0,0E0,0E0,0E0,0E0,0E0,0E0],"parents":[2147483647,0,0,1,1,2,2,3,3,4,4,5,5,6,6,7,7,8,8,9,9,10,10,11,11,12,12,13,13,14,14],"right_children":[2,4,6,8,10,12,14,16,18,20,22,24,26,28,30,-1,-1,-1,-1,-1,-1,-1,-1,-1,-1,-1,-1,-1,-1,-1,-1],"split_conditions":[1.4369288E-1,-4.0753853E-2,3.043949E-1,3.560051E-2,2E0,-4.8968896E-1,1E0,9.813567E-3,4E0,1.5703225E0,-3.213181E-1,-2.349846E-2,2.9009154E-1,1.2411379E0,1.3534524E0,-2.5750017E-2,2.392953E-2,2.4588326E-2,-4.4601515E-2,-8.2197115E-3,4.2600006E-2,8.603173E-3,-4.09083E-3,1.6614782E-2,-4.263908E-2,7.432728E-2,1.4972168E-2,3.8352467E-2,-4.900051E-3,-1.3266933E-2,7.759622E-3],"split_indices":[2,3,2,0,4,0,4,2,4,1,0,1,1,1,2,0,0,0,0,0,0,0,0,0,0,0,0,0,0,0,0],"split_type":[0,0,0,0,0,0,0,0,0,0,0,0,0,0,0,0,0,0,0,0,0,0,0,0,0,0,0,0,0,0,0],"sum_hessian":[7.402557E2,5.3173706E2,2.0851859E2,6.894035E1,4.627967E2,2.575802E1,1.8276057E2,5.36531E1,1.5287255E1,1.8966391E2,2.7313278E2,6.176748E0,1.9581272E1,3.2630337E1,1.5013023E2,5.1681763E1,1.9713383E0,1.3397052E1,1.8902037E0,1.8160162E2,8.062293E0,1.6234222E2,1.10790565E2,2.5381596E0,3.638588E0,1.00296755E1,9.551597E0,1.855365E1,1.4076688E1,6.833478E1,8.179545E1],"tree_param":{"num_deleted":"0","num_feature":"6","num_nodes":"31","size_leaf_vector":"1"}},{"base_weights":[3.5271267E-4,-2.3647784E-1,2.3227038E-2,-7.1576315E-1,-1.2007031E-1,5.1885444E-1,1.2236532E-2,-9.691035E-1,1.6429195E-1,8.307563E-4,-8.022192E-1,3.2791775E-2,9.428849E-1,-2.6048493E-1,3.8555685E-2,1.8840615E-3,-5.6218266E-2,3.9625578E-2,-3.3501375E-2,-6.598612E-3,2.826169E-2,-4.9509756E-2,1.8520395E-3,-2.8020078E-2,3.3038955E-2,7.5101845E-2,-1.8219955E-2,2.3523418E-3,-2.4802731E-2,-8.56088E-3,3.6137518E-3],"categories":[],"categories_nodes":[],"categories_segments":[],"categories_sizes":[],"default_left":[0,0,0,0,0,0,0,0,0,0,0,0,0,0,0,0,0,0,0,0,0,0,0,0,0,0,0,0,0,0,0],"id":43,"left_children":[1,3,5,7,9,11,13,15,17,19,21,23,25,27,29,-1,-1,-1,-1,-1,-1,-1,-1,-1,-1,-1,-1,-1,-1,-1,-1],"loss_changes":[4.017636E0,3.5584807E0,3.6775362E0,2.9602222E0,4.43422E0,2.9879484E0,4.766361E0,1.5898848E0,2.4510238E0,3.5722315E0,1.3136582E0,3.2984614E0,6.2392235E0,4.257719E0,4.2931633E0,0E0,0E0,0E0,0E0,0E0,0E0,0E0,0E0,0E0,0E0,0E0,0E0,0E0,0E0,0E0,0E0],"parents":[2147483647,0,0,1,1,2,2,3,3,4,4,5,5,6,6,7,7,8,8,9,9,10,10,11,11,12,12,13,13,14,14],"right_children":[2,4,6,8,10,12,14,16,18,20,22,24,26,28,30,-1,-1,-1,-1,-1,-1,-1,-1,-1,-1,-1,-1,-1,-1,-1,-1],"split_conditions":[-6.181558E-1,1E0,-7.5833994E-1,-6.5357596E-1,-6.324472E-1,-1.317151E-1,-5.912068E-1,-8.23861E-1,-4.8968896E-1,4.1860953E-2,-3.8208586E-1,-8.520104E-1,1.971002E-1,-6.5376693E-1,-5.4784083E-1,1.8840615E-3,-5.6218266E-2,3.9625578E-2,-3.3501375E-2,-6.598612E-3,2.826169E-2,-4.9509756E-2,1.8520395E-3,-2.8020078E-2,3.3038955E-2,7.5101845E-2,-1.8219955E-2,2.3523418E-3,-2.4802731E-2,-8.56088E-3,3.6137518E-3],"split_indices":[1,4,0,1,1,2,0,0,0,3,0,0,2,0,2,0,0,0,0,0,0,0,0,0,0,0,0,0,0,0,0],"split_type":[0,0,0,0,0,0,0,0,0,0,0,0,0,0,0,0,0,0,0,0,0,0,0,0,0,0,0,0,0,0,0],"sum_hessian":[7.3961145E2,6.432112E1,6.752903E2,1.1563186E1,5.2757935E1,1.3647203E1,6.616431E2,8.899976E0,2.6632097E0,4.5663517E1,7.0944185E0,6.8604546E0,6.786749E0,5.7449455E1,6.0419366E2,1.2903156E0,7.60966E0,1.5478394E0,1.1153702E0,3.7585815E1,8.0777E0,5.649264E0,1.4451548E0,3.5833063E0,3.2771482E0,4.649212E0,2.1375372E0,2.5265764E1,3.218369E1,8.310526E1,5.210884E2],"tree_param":{"num_deleted":"0","num_feature":"6","num_nodes":"31","size_leaf_vector":"1"}},{"base_weights":[2.4702275E-4,-2.3565654E-2,2.1490516E-1,-1.0267679E-1,5.5872425E-2,3.413782E-1,-1.4584637E-1,-3.4961668E-1,-5.1680923E-2,1.0105352E0,3.2295406E-2,2.5446782E-1,6.360661E-2,-2.593966E-1,3.6660995E-2,-2.5686784E-2,1.8731145E-2,-1.5906608E-2,5.629607E-4,8.0989376E-2,1.2030273E-2,8.309377E-3,-2.3498193E-3,1.7494915E-2,-2.6077492E-2,7.7487524E-3,-3.0463962E-2],"categories":[],"categories_nodes":[],"categories_segments":[],"categories_sizes":[],"default_left":[0,0,0,0,0,0,0,0,0,0,0,0,0,0,0,0,0,0,0,0,0,0,0,0,0,0,0],"id":44,"left_children":[1,3,5,7,9,11,13,15,17,19,21,23,-1,25,-1,-1,-1,-1,-1,-1,-1,-1,-1,-1,-1,-1,-1],"loss_changes":[3.7883406E0,4.198284E0,3.4263282E0,4.195597E0,7.4743924E0,4.1330233E0,2.1776729E0,6.9793315E0,4.6742787E0,3.3654747E0,3.4743268E0,4.0067015E0,0E0,2.7580125E0,0E0,0E0,0E0,0E0,0E0,0E0,0E0,0E0,0E0,0E0,0E0,0E0,0E0],"parents":[2147483647,0,0,1,1,2,2,3,3,4,4,5,5,6,6,7,7,8,8,9,9,10,10,11,11,13,13],"right_children":[2,4,6,8,10,12,14,16,18,20,22,24,-1,26,-1,-1,-1,-1,-1,-1,-1,-1,-1,-1,-1,-1,-1],"split_conditions":[7.805814E-2,-1.0023531E-1,-4.7618978E-2,1E1,-8.3841264E-2,4.2956293E-1,1.3534524E0,3.5564296E-2,-2.568716E-2,3E0,-3.991186E-3,-1.0859278E-1,6.360661E-2,-1.14025146E-1,3.6660995E-2,-2.5686784E-2,1.8731145E-2,-1.5906608E-2,5.629607E-4,8.0989376E-2,1.2030273E-2,8.309377E-3,-2.3498193E-3,1.7494915E-2,-2.6077492E-2,7.7487524E-3,-3.0463962E-2],"split_indices":[3,2,0,5,2,3,2,3,3,4,3,0,0,2,0,0,0,0,0,0,0,0,0,0,0,0,0],"split_type":[0,0,0,0,0,0,0,0,0,0,0,0,0,0,0,0,0,0,0,0,0,0,0,0,0,0,0],"sum_hessian":[7.391376E2,6.661318E2,7.300579E1,3.3360614E2,3.3252563E2,5.409482E1,1.8910976E1,5.6099045E1,2.7750708E2,7.0054445E0,3.2552017E2,5.063967E1,3.4551466E0,1.7371935E1,1.5390401E0,4.597204E1,1.0127006E1,5.2251343E1,2.2525574E2,3.2945921E0,3.7108524E0,1.2066662E2,2.0485356E2,4.5583206E1,5.0564647E0,8.20806E0,9.163876E0],"tree_param":{"num_deleted":"0","num_feature":"6","num_nodes":"27","size_leaf_vector":"1"}},{"base_weights":[4.0142826E-4,-2.2729109E-1,2.2206536E-2,-6.978068E-1,-1.144709E-1,4.970193E-1,1.16307195E-2,-9.514531E-1,1.5748793E-1,1.5814131E-1,-4.0010512E-1,1.9194351E-1,1.1709415E0,-2.4825223E-1,3.6534477E-2,1.7834858E-3,-5.5424012E-2,3.794213E-2,-3.297228E-2,1.3573395E-2,-4.4424728E-2,-3.444028E-2,9.719876E-3,7.2812475E-2,-7.900315E-3,8.3207555E-2,1.0544656E-2,2.3528372E-3,-2.3863325E-2,-8.077729E-3,3.4047775E-3],"categories":[],"categories_nodes":[],"categories_segments":[],"categories_sizes":[],"default_left":[0,0,0,0,0,0,0,0,0,0,0,0,0,0,0,0,0,0,0,0,0,0,0,0,0,0,0,0,0,0,0],"id":45,"left_children":[1,3,5,7,9,11,13,15,17,19,21,23,25,27,29,-1,-1,-1,-1,-1,-1,-1,-1,-1,-1,-1,-1,-1,-1,-1,-1],"loss_changes":[3.6753862E0,3.354513E0,3.386594E0,2.8218436E0,4.219917E0,2.7966008E0,4.292734E0,1.5340185E0,2.3058937E0,3.5658648E0,4.6566453E0,5.235081E0,1.7245836E0,3.9454627E0,3.7925482E0,0E0,0E0,0E0,0E0,0E0,0E0,0E0,0E0,0E0,0E0,0E0,0E0,0E0,0E0,0E0,0E0],"parents":[2147483647,0,0,1,1,2,2,3,3,4,4,5,5,6,6,7,7,8,8,9,9,10,10,11,11,12,12,13,13,14,14],"right_children":[2,4,6,8,10,12,14,16,18,20,22,24,26,28,30,-1,-1,-1,-1,-1,-1,-1,-1,-1,-1,-1,-1,-1,-1,-1,-1],"split_conditions":[-6.181558E-1,1E0,-7.5833994E-1,-6.5357596E-1,3E0,3.0745545E-3,-5.912068E-1,-8.23861E-1,-4.8968896E-1,-6.2848896E-1,2.0453954E-2,-5.628882E-1,3E0,-6.5376693E-1,-5.4784083E-1,1.7834858E-3,-5.5424012E-2,3.794213E-2,-3.297228E-2,1.3573395E-2,-4.4424728E-2,-3.444028E-2,9.719876E-3,7.2812475E-2,-7.900315E-3,8.3207555E-2,1.0544656E-2,2.3528372E-3,-2.3863325E-2,-8.077729E-3,3.4047775E-3],"split_indices":[1,4,0,1,4,3,0,0,0,1,3,1,4,0,2,0,0,0,0,0,0,0,0,0,0,0,0,0,0,0,0],"split_type":[0,0,0,0,0,0,0,0,0,0,0,0,0,0,0,0,0,0,0,0,0,0,0,0,0,0,0,0,0,0,0],"sum_hessian":[7.382634E2,6.3697704E1,6.7456573E2,1.1316638E1,5.2381065E1,1.3695498E1,6.6087024E2,8.641489E0,2.6751482E0,2.7029852E1,2.5351215E1,1.0312141E1,3.3833568E0,5.7006886E1,6.0386334E2,1.2920558E0,7.3494334E0,1.581843E0,1.0933053E0,2.5057346E1,1.9725056E0,1.6957664E1,8.393552E0,1.5502081E0,8.761933E0,1.7506068E0,1.63275E0,2.524654E1,3.1760344E1,8.242357E1,5.2143976E2],"tree_param":{"num_deleted":"0","num_feature":"6","num_nodes":"31","size_leaf_vector":"1"}},{"base_weights":[3.8113963E-4,-2.1941881E-1,2.1273492E-2,-6.803115E-1,-1.1046769E-1,2.9718277E-1,2.7729252E-3,-9.338325E-1,1.5018182E-1,3.3558577E-3,-7.722493E-1,1.7406273E-1,8.144479E-2,-2.7108076E-1,3.3036117E-2,1.7325877E-3,-5.463065E-2,3.6292557E-2,-3.2448024E-2,