{"learner":{"attributes":{"scikit_learn":"{\"_estimator_type\": \"classifier\"}"},"feature_names":[],"feature_types":[],"gradient_booster":{"model":{"cats":{"enc":[],"feature_segments":[],"sorted_idx":[]},"gbtree_model_param":{"num_parallel_tree":"1","num_trees":"100"},"iteration_indptr":[0,1,2,3,4,5,6,7,8,9,10,11,12,13,14,15,16,17,18,19,20,21,22,23,24,25,26,27,28,29,30,31,32,33,34,35,36,37,38,39,40,41,42,43,44,45,46,47,48,49,50,51,52,53,54,55,56,57,58,59,60,61,62,63,64,65,66,67,68,69,70,71,72,73,74,75,76,77,78,79,80,81,82,83,84,85,86,87,88,89,90,91,92,93,94,95,96,97,98,99,100],"tree_info":[0,0,0,0,0,0,0,0,0,0,0,0,0,0,0,0,0,0,0,0,0,0,0,0,0,0,0,0,0,0,0,0,0,0,0,0,0,0,0,0,0,0,0,0,0,0,0,0,0,0,0,0,0,0,0,0,0,0,0,0,0,0,0,0,0,0,0,0,0,0,0,0,0,0,0,0,0,0,0,0,0,0,0,0,0,0,0,0,0,0,0,0,0,0,0,0,0,0,0,0],"trees":[{"base_weights":[2.6459247E-8,-1.9778408E-1,7.5306255E-1,-4.257754E-1,3.1042674E-1,1.0095751E0,-8.5417904E-2,-4.867896E-1,6.226458E-1,9.919434E-1,-3.629854E-2,4.6494177E-1,1.2319229E0,-8.690852E-1,5.832404E-1,-3.9194923E-2,-1.823815E-2,7.232328E-2,6.320444E-3,6.965276E-2,3.569544E-2,-1.6527345E-2,2.1003718E-2,7.148435E-2,-3.3877153E-4,3.9726492E-2,7.592711E-2,-1.1841216E-2,-4.902039E-2,3.9533228E-2,-2.467175E-2],"categories":[],"categories_nodes":[],"categories_segments":[],"categories_sizes":[],"default_left":[0,0,0,0,0,0,0,0,0,0,0,0,0,0,0,0,0,0,0,0,0,0,0,0,0,0,0,0,0,0,0],"id":0,"left_children":[1,3,5,7,9,11,13,15,17,19,21,23,25,27,29,-1,-1,-1,-1,-1,-1,-1,-1,-1,-1,-1,-1,-1,-1,-1,-1],"loss_changes":[1.08859085E2,6.720166E1,3.2784508E1,2.5890999E1,4.2531696E1,1.3534172E1,1.9651937E1,1.3439178E1,8.989807E0,5.772396E0,1.6274958E1,1.6109383E1,9.087799E0,9.8005104E-1,4.9266195E0,0E0,0E0,0E0,0E0,0E0,0E0,0E0,0E0,0E0,0E0,0E0,0E0,0E0,0E0,0E0,0E0],"parents":[2147483647,0,0,1,1,2,2,3,3,4,4,5,5,6,6,7,7,8,8,9,9,10,10,11,11,12,12,13,13,14,14],"right_children":[2,4,6,8,10,12,14,16,18,20,22,24,26,28,30,-1,-1,-1,-1,-1,-1,-1,-1,-1,-1,-1,-1,-1,-1,-1,-1],"split_conditions":[3.024279E-2,-1.6317131E-2,-2.6895663E-2,1.5623469E0,-8.215866E-3,5.3998824E-2,-2.6816899E-2,-1.6606126E-2,-5.0989765E-1,-3.157358E-1,2.2253644E-1,-5.460527E-1,2E0,7.399499E-2,1.3E1,-3.9194923E-2,-1.823815E-2,7.232328E-2,6.320444E-3,6.965276E-2,3.569544E-2,-1.6527345E-2,2.1003718E-2,7.148435E-2,-3.3877153E-4,3.9726492E-2,7.592711E-2,-1.1841216E-2,-4.902039E-2,3.9533228E-2,-2.467175E-2],"split_indices":[3,0,0,2,3,3,2,3,0,2,2,1,4,0,5,0,0,0,0,0,0,0,0,0,0,0,0,0,0,0,0],"split_type":[0,0,0,0,0,0,0,0,0,0,0,0,0,0,0,0,0,0,0,0,0,0,0,0,0,0,0,0,0,0,0],"sum_hessian":[7.288736E2,5.778457E2,1.5102786E2,3.990071E2,1.7883862E2,1.1549189E2,3.5535965E1,3.7756964E2,2.1437458E1,5.967725E1,1.1916137E2,3.4377186E1,8.111471E1,1.6222942E1,1.9313026E1,1.0834607E2,2.6922357E2,7.3389497E0,1.4098509E1,2.278937E1,3.688788E1,7.2616974E1,4.654439E1,1.0622164E1,2.3755022E1,3.3604664E1,4.7510044E1,2.8969538E0,1.3325988E1,1.641607E1,2.8969538E0],"tree_param":{"num_deleted":"0","num_feature":"6","num_nodes":"31","size_leaf_vector":"1"}},{"base_weights":[6.85584E-5,-1.8879507E-1,7.0350033E-1,-4.2621776E-1,2.6086268E-1,9.383195E-1,-8.292686E-2,-4.791177E-1,5.3223366E-1,8.034653E-1,-9.570507E-3,4.3895555E-1,1.1385046E0,-8.4583914E-1,5.471317E-1,-3.6970716E-2,-1.8577939E-2,6.707691E-2,-3.0299532E-3,-3.2107238E-2,4.6790298E-2,-1.3235305E-2,2.0041868E-2,6.612869E-2,-3.2256797E-4,3.7101466E-2,6.970451E-2,-1.1450498E-2,-4.7815077E-2,3.8207654E-2,-1.9769464E-2],"categories":[],"categories_nodes":[],"categories_segments":[],"categories_sizes":[],"default_left":[0,0,0,0,0,0,0,0,0,0,0,0,0,0,0,0,0,0,0,0,0,0,0,0,0,0,0,0,0,0,0],"id":1,"left_children":[1,3,5,7,9,11,13,15,17,19,21,23,25,27,29,-1,-1,-1,-1,-1,-1,-1,-1,-1,-1,-1,-1,-1,-1,-1,-1],"loss_changes":[9.7070984E1,6.160578E1,2.863733E1,1.9387405E1,2.930586E1,1.1413528E1,1.7997389E1,9.752144E0,9.7783985E0,1.3308731E1,1.4162263E1,1.4071085E1,7.522499E0,9.3200016E-1,4.5129843E0,0E0,0E0,0E0,0E0,0E0,0E0,0E0,0E0,0E0,0E0,0E0,0E0,0E0,0E0,0E0,0E0],"parents":[2147483647,0,0,1,1,2,2,3,3,4,4,5,5,6,6,7,7,8,8,9,9,10,10,11,11,12,12,13,13,14,14],"right_children":[2,4,6,8,10,12,14,16,18,20,22,24,26,28,30,-1,-1,-1,-1,-1,-1,-1,-1,-1,-1,-1,-1,-1,-1,-1,-1],"split_conditions":[3.024279E-2,-1.2063444E-1,-2.6895663E-2,1.5623469E0,-8.215866E-3,5.3998824E-2,-2.6816899E-2,-1.6606126E-2,-5.0989765E-1,0E0,2.2253644E-1,-5.460527E-1,2E0,7.399499E-2,3.115574E0,-3.6970716E-2,-1.8577939E-2,6.707691E-2,-3.0299532E-3,-3.2107238E-2,4.6790298E-2,-1.3235305E-2,2.0041868E-2,6.612869E-2,-3.2256797E-4,3.7101466E-2,6.970451E-2,-1.1450498E-2,-4.7815077E-2,3.8207654E-2,-1.9769464E-2],"split_indices":[3,0,0,2,3,3,2,3,0,0,2,1,4,0,2,0,0,0,0,0,0,0,0,0,0,0,0,0,0,0,0],"split_type":[0,0,0,0,0,0,0,0,0,0,0,0,0,0,0,0,0,0,0,0,0,0,0,0,0,0,0,0,0,0,0],"sum_hessian":[7.286666E2,5.750135E2,1.5365314E2,3.7634998E2,1.986635E2,1.1817434E2,3.5478794E1,3.571385E2,1.9211473E1,6.542415E1,1.3323935E2,3.4730785E1,8.344356E1,1.5892607E1,1.9586187E1,1.0270767E2,2.5443083E2,7.588762E0,1.1622711E1,5.163959E0,6.0260185E1,8.2381065E1,5.0858288E1,1.09796E1,2.3751184E1,3.4236954E1,4.92066E1,2.8805614E0,1.3012045E1,1.6074238E1,3.5119486E0],"tree_param":{"num_deleted":"0","num_feature":"6","num_nodes":"31","size_leaf_vector":"1"}},{"base_weights":[2.5510513E-5,-1.8036433E-1,6.5868276E-1,-4.0935192E-1,2.463151E-1,8.7456626E-1,-8.042931E-2,-4.6084026E-1,5.032365E-1,7.433046E-1,-1.2475321E-2,1.3918189E0,6.958899E-1,-8.2339436E-1,5.14136E-1,-3.5804763E-2,-1.7816855E-2,6.2436026E-2,-2.8943878E-3,-3.1180982E-2,4.3109376E-2,-1.3376148E-2,1.9542899E-2,2.8526692E-2,8.041357E-2,-7.609628E-4,4.671E-2,-1.1072072E-2,-4.6654172E-2,3.5156075E-2,-2.451489E-2],"categories":[],"categories_nodes":[],"categories_segments":[],"categories_sizes":[],"default_left":[0,0,0,0,0,0,0,0,0,0,0,0,0,0,0,0,0,0,0,0,0,0,0,0,0,0,0,0,0,0,0],"id":2,"left_children":[1,3,5,7,9,11,13,15,17,19,21,23,25,27,29,-1,-1,-1,-1,-1,-1,-1,-1,-1,-1,-1,-1,-1,-1,-1,-1],"loss_changes":[8.675647E1,5.61046E1,2.511908E1,1.7776485E1,2.5836632E1,1.0268059E1,1.650412E1,9.18689E0,8.613927E0,1.1714165E1,1.3789551E1,4.4537964E0,1.5666916E1,8.872242E-1,4.3000255E0,0E0,0E0,0E0,0E0,0E0,0E0,0E0,0E0,0E0,0E0,0E0,0E0,0E0,0E0,0E0,0E0],"parents":[2147483647,0,0,1,1,2,2,3,3,4,4,5,5,6,6,7,7,8,8,9,9,10,10,11,11,12,12,13,13,14,14],"right_children":[2,4,6,8,10,12,14,16,18,20,22,24,26,28,30,-1,-1,-1,-1,-1,-1,-1,-1,-1,-1,-1,-1,-1,-1,-1,-1],"split_conditions":[3.024279E-2,-1.2063444E-1,-2.6895663E-2,1.5623469E0,-0E0,-5.417945E-1,-2.6816899E-2,-1.6606126E-2,-5.0989765E-1,0E0,2.2253644E-1,1E0,5.3998824E-2,7.399499E-2,1.3E1,-3.5804763E-2,-1.7816855E-2,6.2436026E-2,-2.8943878E-3,-3.1180982E-2,4.3109376E-2,-1.3376148E-2,1.9542899E-2,2.8526692E-2,8.041357E-2,-7.609628E-4,4.671E-2,-1.1072072E-2,-4.6654172E-2,3.5156075E-2,-2.451489E-2],"split_indices":[3,0,0,2,3,1,2,3,0,0,2,4,3,0,5,0,0,0,0,0,0,0,0,0,0,0,0,0,0,0,0],"split_type":[0,0,0,0,0,0,0,0,0,0,0,0,0,0,0,0,0,0,0,0,0,0,0,0,0,0,0,0,0,0,0],"sum_hessian":[7.281808E2,5.7219653E2,1.5598422E2,3.723869E2,1.9980963E2,1.20581055E2,3.5403168E1,3.5296747E2,1.9419445E1,6.777675E1,1.3203288E2,2.9215399E1,9.1365654E1,1.5566502E1,1.9836668E1,1.008306E2,2.5213687E2,7.813455E0,1.160599E1,5.083271E0,6.269348E1,8.109145E1,5.094143E1,6.8521504E0,2.2363247E1,2.316832E1,6.8197334E1,2.864651E0,1.270185E1,1.6947886E1,2.888783E0],"tree_param":{"num_deleted":"0","num_feature":"6","num_nodes":"31","size_leaf_vector":"1"}},{"base_weights":[-2.6729755E-5,-1.7231949E-1,6.177494E-1,-3.9308825E-1,2.3272958E-1,8.169814E-1,-7.8231014E-2,-4.4316152E-1,4.7634438E-1,7.1672076E-1,-1.5264156E-3,1.2894326E0,6.5175295E-1,-7.7141297E-1,5.09419E-1,-3.467238E-2,-1.7082645E-2,5.8297675E-2,-2.7647498E-3,-9.049397E-4,4.7776353E-2,-1.1764525E-2,1.7868174E-2,2.6980972E-2,7.414163E-2,-7.24745E-4,4.3533362E-2,-1.3379185E-2,-4.5200225E-2,7.011696E-2,1.2183046E-2],"categories":[],"categories_nodes":[],"categories_segments":[],"categories_sizes":[],"default_left":[0,0,0,0,0,0,0,0,0,0,0,0,0,0,0,0,0,0,0,0,0,0,0,0,0,0,0,0,0,0,0],"id":3,"left_children":[1,3,5,7,9,11,13,15,17,19,21,23,25,27,29,-1,-1,-1,-1,-1,-1,-1,-1,-1,-1,-1,-1,-1,-1,-1,-1],"loss_changes":[7.7639496E1,5.1094513E1,2.2120728E1,1.6298641E1,2.2884583E1,8.820251E0,1.5185402E1,8.653297E0,7.6188383E0,1.1569141E1,1.1578087E1,3.7016563E0,1.3680542E1,8.976822E-1,4.464894E0,0E0,0E0,0E0,0E0,0E0,0E0,0E0,0E0,0E0,0E0,0E0,0E0,0E0,0E0,0E0,0E0],"parents":[2147483647,0,0,1,1,2,2,3,3,4,4,5,5,6,6,7,7,8,8,9,9,10,10,11,11,12,12,13,13,14,14],"right_children":[2,4,6,8,10,12,14,16,18,20,22,24,26,28,30,-1,-1,-1,-1,-1,-1,-1,-1,-1,-1,-1,-1,-1,-1,-1,-1],"split_conditions":[3.024279E-2,-1.2063444E-1,-2.6895663E-2,1.5623469E0,-1.05416905E-2,-5.417945E-1,1.922981E-2,-1.6606126E-2,-5.0989765E-1,1.9722162E-1,2.2253644E-1,1E0,5.3998824E-2,1.0716128E-1,1E1,-3.467238E-2,-1.7082645E-2,5.8297675E-2,-2.7647498E-3,-9.049397E-4,4.7776353E-2,-1.1764525E-2,1.7868174E-2,2.6980972E-2,7.414163E-2,-7.24745E-4,4.3533362E-2,-1.3379185E-2,-4.5200225E-2,7.011696E-2,1.2183046E-2],"split_indices":[3,0,0,2,3,1,2,3,0,0,2,4,3,0,5,0,0,0,0,0,0,0,0,0,0,0,0,0,0,0,0],"split_type":[0,0,0,0,0,0,0,0,0,0,0,0,0,0,0,0,0,0,0,0,0,0,0,0,0,0,0,0,0,0,0],"sum_hessian":[7.274315E2,5.693621E2,1.5806941E2,3.6852826E2,2.0083386E2,1.2275547E2,3.5313946E1,3.48923E2,1.9605253E1,6.483015E1,1.3600371E2,3.0044062E1,9.271141E1,1.6058685E1,1.925526E1,9.899741E1,2.4992558E2,8.015248E0,1.1590004E1,1.6127918E1,4.8702232E1,8.25675E1,5.3436214E1,6.937497E0,2.3106565E1,2.3159906E1,6.95515E1,3.9744473E0,1.2084239E1,3.4355183E0,1.5819742E1],"tree_param":{"num_deleted":"0","num_feature":"6","num_nodes":"31","size_leaf_vector":"1"}},{"base_weights":[8.035699E-5,-1.6457057E-1,5.808601E-1,-3.7740177E-1,2.202107E-1,7.6482433E-1,-7.422318E-2,-4.2606047E-1,4.5133463E-1,6.522089E-1,-1.1704705E-2,4.5661318E-1,9.8590165E-1,-7.813009E-1,4.5976216E-1,-3.3571456E-2,-1.6374514E-2,5.458113E-2,-2.6407884E-3,-3.0255541E-2,3.7846114E-2,-1.2291698E-2,1.7400026E-2,6.4850055E-2,1.380534E-2,2.828087E-2,6.0479105E-2,-1.0261946E-2,-4.450084E-2,3.2886308E-2,-2.0564457E-2],"categories":[],"categories_nodes":[],"categories_segments":[],"categories_sizes":[],"default_left":[0,0,0,0,0,0,0,0,0,0,0,0,0,0,0,0,0,0,0,0,0,0,0,0,0,0,0,0,0,0,0],"id":4,"left_children":[1,3,5,7,9,11,13,15,17,19,21,23,25,27,29,-1,-1,-1,-1,-1,-1,-1,-1,-1,-1,-1,-1,-1,-1,-1,-1],"loss_changes":[6.965558E1,4.655967E1,1.9446281E1,1.4942341E1,2.0320295E1,8.115189E0,1.4022655E1,8.148636E0,6.7625375E0,9.784742E0,1.1278641E1,7.889287E0,6.116188E0,8.156624E-1,3.9342928E0,0E0,0E0,0E0,0E0,0E0,0E0,0E0,0E0,0E0,0E0,0E0,0E0,0E0,0E0,0E0,0E0],"parents":[2147483647,0,0,1,1,2,2,3,3,4,4,5,5,6,6,7,7,8,8,9,9,10,10,11,11,12,12,13,13,14,14],"right_children":[2,4,6,8,10,12,14,16,18,20,22,24,26,28,30,-1,-1,-1,-1,-1,-1,-1,-1,-1,-1,-1,-1,-1,-1,-1,-1],"split_conditions":[3.024279E-2,-1.2063444E-1,-2.6895663E-2,1.5623469E0,-0E0,2E0,-2.6816899E-2,-1.6606126E-2,-5.0989765E-1,0E0,2.2253644E-1,-6.9133455E-1,6.2715985E-2,7.399499E-2,3.115574E0,-3.3571456E-2,-1.6374514E-2,5.458113E-2,-2.6407884E-3,-3.0255541E-2,3.7846114E-2,-1.2291698E-2,1.7400026E-2,6.4850055E-2,1.380534E-2,2.828087E-2,6.0479105E-2,-1.0261946E-2,-4.450084E-2,3.2886308E-2,-2.0564457E-2],"split_indices":[3,0,0,2,3,4,2,3,0,0,2,2,3,0,2,0,0,0,0,0,0,0,0,0,0,0,0,0,0,0,0],"split_type":[0,0,0,0,0,0,0,0,0,0,0,0,0,0,0,0,0,0,0,0,0,0,0,0,0,0,0,0,0,0,0],"sum_hessian":[7.264177E2,5.665247E2,1.5989299E2,3.647773E2,2.0174738E2,1.2470508E2,3.518792E1,3.450064E2,1.977092E1,6.9840454E1,1.3190692E2,5.3368156E1,7.1336914E1,1.4940836E1,2.0247086E1,9.721056E1,2.4779584E2,8.196199E0,1.157472E1,5.0019555E0,6.48385E1,8.009215E1,5.181477E1,8.342487E0,4.502567E1,2.600449E1,4.5332428E1,2.8304963E0,1.2110339E1,1.6697214E1,3.5498717E0],"tree_param":{"num_deleted":"0","num_feature":"6","num_nodes":"31","size_leaf_vector":"1"}},{"base_weights":[8.786711E-5,-1.57233E-1,5.465632E-1,-3.6226988E-1,2.0828983E-1,7.173852E-1,-7.2201006E-2,-4.09518E-1,4.2801583E-1,6.310066E-1,-2.0253747E-3,1.1424681E0,5.6760454E-1,-6.342438E-1,5.57815E-1,-3.2500166E-2,-1.5691716E-2,5.122223E-2,-2.5222516E-3,-1.6533573E-3,4.2056326E-2,-1.0764006E-2,1.5832867E-2,6.829296E-2,2.6300251E-2,-1.7660487E-3,3.8087334E-2,-3.7365183E-2,2.945277E-2,3.9033882E-2,-3.1959396E-2],"categories":[],"categories_nodes":[],"categories_segments":[],"categories_sizes":[],"default_left":[0,0,0,0,0,0,0,0,0,0,0,0,0,0,0,0,0,0,0,0,0,0,0,0,0,0,0,0,0,0,0],"id":5,"left_children":[1,3,5,7,9,11,13,15,17,19,21,23,25,27,29,-1,-1,-1,-1,-1,-1,-1,-1,-1,-1,-1,-1,-1,-1,-1,-1],"loss_changes":[6.252503E1,4.2397575E1,1.7235039E1,1.36972885E1,1.8099201E1,7.468666E0,1.3129294E1,7.670635E0,6.0210905E0,9.465328E0,9.37416E0,3.7200127E0,1.1294371E1,3.142179E0,5.1789007E0,0E0,0E0,0E0,0E0,0E0,0E0,0E0,0E0,0E0,0E0,0E0,0E0,0E0,0E0,0E0,0E0],"parents":[2147483647,0,0,1,1,2,2,3,3,4,4,5,5,6,6,7,7,8,8,9,9,10,10,11,11,12,12,13,13,14,14],"right_children":[2,4,6,8,10,12,14,16,18,20,22,24,26,28,30,-1,-1,-1,-1,-1,-1,-1,-1,-1,-1,-1,-1,-1,-1,-1,-1],"split_conditions":[3.024279E-2,-1.2063444E-1,-2.6895663E-2,1.5623469E0,-1.05416905E-2,-5.417945E-1,2.0139177E-1,-1.6606126E-2,-5.0989765E-1,1.9722162E-1,2.2253644E-1,1.3E1,5.3998824E-2,1.7777815E0,1.3E1,-3.2500166E-2,-1.5691716E-2,5.122223E-2,-2.5222516E-3,-1.6533573E-3,4.2056326E-2,-1.0764006E-2,1.5832867E-2,6.829296E-2,2.6300251E-2,-1.7660487E-3,3.8087334E-2,-3.7365183E-2,2.945277E-2,3.9033882E-2,-3.1959396E-2],"split_indices":[3,0,0,2,3,1,2,3,0,0,2,5,3,1,5,0,0,0,0,0,0,0,0,0,0,0,0,0,0,0,0],"split_type":[0,0,0,0,0,0,0,0,0,0,0,0,0,0,0,0,0,0,0,0,0,0,0,0,0,0,0,0,0,0,0],"sum_hessian":[7.252726E2,5.637041E2,1.6156845E2,3.6113657E2,2.0256755E2,1.2648924E2,3.5079212E1,3.4121826E2,1.9918314E1,6.663541E1,1.3593214E2,3.1229937E1,9.52593E1,1.8536198E1,1.6543015E1,9.5471954E1,2.457463E2,8.358208E0,1.1560107E1,1.621892E1,5.041649E1,8.163108E1,5.4301064E1,2.2030859E1,9.1990795E0,2.3401613E1,7.185769E1,1.732417E1,1.2120281E0,1.4239632E1,2.3033826E0],"tree_param":{"num_deleted":"0","num_feature":"6","num_nodes":"31","size_leaf_vector":"1"}},{"base_weights":[1.6220858E-4,-1.5015672E-1,5.1510227E-1,-3.4767184E-1,1.9728209E-1,6.7225134E-1,-7.581135E-2,-3.9351672E-1,4.0622264E-1,5.75596E-1,-1.0955815E-2,3.9284676E-1,8.6990494E-1,-6.0671157E-1,5.112739E-1,-3.1456962E-2,-1.5033518E-2,4.7840558E-2,-3.534135E-3,-2.9334763E-2,3.3441924E-2,-1.1288045E-2,1.5533196E-2,7.808616E-2,1.3907154E-2,2.5094217E-2,5.3034928E-2,-3.5987362E-2,2.844475E-2,3.8925644E-2,-2.0577138E-2],"categories":[],"categories_nodes":[],"categories_segments":[],"categories_sizes":[],"default_left":[0,0,0,0,0,0,0,0,0,0,0,0,0,0,0,0,0,0,0,0,0,0,0,0,0,0,0,0,0,0,0],"id":6,"left_children":[1,3,5,7,9,11,13,15,17,19,21,23,25,27,29,-1,-1,-1,-1,-1,-1,-1,-1,-1,-1,-1,-1,-1,-1,-1,-1],"loss_changes":[5.6190907E1,3.8628937E1,1.5282875E1,1.2554127E1,1.610065E1,6.819401E0,1.1330345E1,7.217373E0,5.594689E0,8.254805E0,9.241135E0,7.013262E0,4.7424736E0,2.9374976E0,4.594843E0,0E0,0E0,0E0,0E0,0E0,0E0,0E0,0E0,0E0,0E0,0E0,0E0,0E0,0E0,0E0,0E0],"parents":[2147483647,0,0,1,1,2,2,3,3,4,4,5,5,6,6,7,7,8,8,9,9,10,10,11,11,12,12,13,13,14,14],"right_children":[2,4,6,8,10,12,14,16,18,20,22,24,26,28,30,-1,-1,-1,-1,-1,-1,-1,-1,-1,-1,-1,-1,-1,-1,-1,-1],"split_conditions":[3.024279E-2,-1.2063444E-1,-1.6317131E-2,1.5623469E0,-0E0,2E0,2.0139177E-1,-1.6606126E-2,3E0,0E0,2.2253644E-1,-9.466466E-1,6.2715985E-2,1.7777815E0,3.115574E0,-3.1456962E-2,-1.5033518E-2,4.7840558E-2,-3.534135E-3,-2.9334763E-2,3.3441924E-2,-1.1288045E-2,1.5533196E-2,7.808616E-2,1.3907154E-2,2.5094217E-2,5.3034928E-2,-3.5987362E-2,2.844475E-2,3.8925644E-2,-2.0577138E-2],"split_indices":[3,0,0,2,3,4,2,3,4,0,2,2,3,1,2,0,0,0,0,0,0,0,0,0,0,0,0,0,0,0,0],"split_type":[0,0,0,0,0,0,0,0,0,0,0,0,0,0,0,0,0,0,0,0,0,0,0,0,0,0,0,0,0,0,0],"sum_hessian":[7.239324E2,5.609042E2,1.6302817E2,3.5760757E2,2.0329662E2,1.2867133E2,3.435684E1,3.375584E2,2.0049158E1,7.1548164E1,1.3174846E2,5.4548584E1,7.412275E1,1.8024174E1,1.6332663E1,9.378297E1,2.4377544E2,8.838637E0,1.1210521E1,4.920518E0,6.662765E1,7.917002E1,5.2578438E1,3.7472577E0,5.0801327E1,2.6546967E1,4.757578E1,1.6796902E1,1.227273E0,1.2786257E1,3.546405E0],"tree_param":{"num_deleted":"0","num_feature":"6","num_nodes":"31","size_leaf_vector":"1"}},{"base_weights":[2.6707622E-4,-1.4344811E-1,4.8633993E-1,-3.335598E-1,1.8676154E-1,6.343084E-1,-6.658381E-2,-3.7804046E-1,3.8500774E-1,5.585043E-1,-2.4176328E-3,1.0210587E0,4.9731147E-1,-7.223805E-1,3.9069074E-1,-3.0440483E-2,-1.4399226E-2,4.0032208E-2,-1.0471561E-2,-2.2545806E-3,3.7267294E-2,-9.838672E-3,1.4055873E-2,6.124834E-2,2.282816E-2,-2.6134986E-3,3.3577748E-2,-7.6722363E-3,-4.176822E-2,2.8229645E-2,-1.9925134E-2],"categories":[],"categories_nodes":[],"categories_segments":[],"categories_sizes":[],"default_left":[0,0,0,0,0,0,0,0,0,0,0,0,0,0,0,0,0,0,0,0,0,0,0,0,0,0,0,0,0,0,0],"id":7,"left_children":[1,3,5,7,9,11,13,15,17,19,21,23,25,27,29,-1,-1,-1,-1,-1,-1,-1,-1,-1,-1,-1,-1,-1,-1,-1,-1],"loss_changes":[5.0611286E1,3.5165764E1,1.3568741E1,1.1499508E1,1.4414702E1,6.407707E0,1.1020458E1,6.7872353E0,5.4062996E0,7.829521E0,7.5952153E0,3.2611885E0,9.4513035E0,8.400078E-1,3.2095454E0,0E0,0E0,0E0,0E0,0E0,0E0,0E0,0E0,0E0,0E0,0E0,0E0,0E0,0E0,0E0,0E0],"parents":[2147483647,0,0,1,1,2,2,3,3,4,4,5,5,6,6,7,7,8,8,9,9,10,10,11,11,12,12,13,13,14,14],"right_children":[2,4,6,8,10,12,14,16,18,20,22,24,26,28,30,-1,-1,-1,-1,-1,-1,-1,-1,-1,-1,-1,-1,-1,-1,-1,-1],"split_conditions":[3.024279E-2,-1.2063444E-1,-2.6895663E-2,1.5623469E0,-1.05416905E-2,-5.417945E-1,-2.6816899E-2,-1.6606126E-2,1.2E1,1.9722162E-1,2.2253644E-1,1.3E1,5.3998824E-2,7.399499E-2,3.115574E0,-3.0440483E-2,-1.4399226E-2,4.0032208E-2,-1.0471561E-2,-2.2545806E-3,3.7267294E-2,-9.838672E-3,1.4055873E-2,6.124834E-2,2.282816E-2,-2.6134986E-3,3.3577748E-2,-7.6722363E-3,-4.176822E-2,2.8229645E-2,-1.9925134E-2],"split_indices":[3,0,0,2,3,1,2,3,5,0,2,5,3,0,2,0,0,0,0,0,0,0,0,0,0,0,0,0,0,0,0],"split_type":[0,0,0,0,0,0,0,0,0,0,0,0,0,0,0,0,0,0,0,0,0,0,0,0,0,0,0,0,0,0,0],"sum_hessian":[7.225095E2,5.581797E2,1.6432985E2,3.5422913E2,2.0395058E2,1.2952133E2,3.480853E1,3.3402618E2,2.0202934E1,6.812691E1,1.3582367E2,3.2191036E1,9.733029E1,1.4061947E1,2.0746582E1,9.214456E1,2.4188162E2,1.1685471E1,8.517464E0,1.6282997E1,5.184391E1,8.0766426E1,5.5057247E1,2.2789097E1,9.4019375E0,2.3598442E1,7.373185E1,2.7205584E0,1.1341389E1,1.7233665E1,3.5129168E0],"tree_param":{"num_deleted":"0","num_feature":"6","num_nodes":"31","size_leaf_vector":"1"}},{"base_weights":[2.5869318E-4,-1.3699405E-1,4.590224E-1,-3.1997955E-1,1.7703223E-1,5.9735006E-1,-6.4885855E-2,-3.6307448E-1,3.6451086E-1,5.259164E-1,-2.2985882E-3,3.3917728E-1,7.807371E-1,-5.816332E-1,4.737648E-1,-2.9449606E-2,-1.3788166E-2,4.5569323E-2,-3.8813595E-3,-3.2722708E-2,3.0476192E-2,-9.400475E-3,1.3285785E-2,7.095676E-2,1.1614515E-2,4.385891E-2,5.6566303E-3,-3.464076E-2,2.6877005E-2,3.3807527E-2,-3.184346E-2],"categories":[],"categories_nodes":[],"categories_segments":[],"categories_sizes":[],"default_left":[0,0,0,0,0,0,0,0,0,0,0,0,0,0,0,0,0,0,0,0,0,0,0,0,0,0,0,0,0,0,0],"id":8,"left_children":[1,3,5,7,9,11,13,15,17,19,21,23,25,27,29,-1,-1,-1,-1,-1,-1,-1,-1,-1,-1,-1,-1,-1,-1,-1,-1],"loss_changes":[4.5523975E1,3.2034157E1,1.210458E1,1.0514675E1,1.28603115E1,5.9759483E0,1.0206609E1,6.37883E0,5.232096E0,7.28557E0,6.8563027E0,6.1937456E0,4.8133507E0,2.694129E0,4.4811482E0,0E0,0E0,0E0,0E0,0E0,0E0,0E0,0E0,0E0,0E0,0E0,0E0,0E0,0E0,0E0,0E0],"parents":[2147483647,0,0,1,1,2,2,3,3,4,4,5,5,6,6,7,7,8,8,9,9,10,10,11,11,12,12,13,13,14,14],"right_children":[2,4,6,8,10,12,14,16,18,20,22,24,26,28,30,-1,-1,-1,-1,-1,-1,-1,-1,-1,-1,-1,-1,-1,-1,-1,-1],"split_conditions":[3.024279E-2,-1.2063444E-1,-2.6895663E-2,1.5623469E0,-1.05416905E-2,2E0,2.0139177E-1,-1.6606126E-2,-5.0989765E-1,-1.6317131E-2,2.2253644E-1,-9.466466E-1,6.7992234E-1,1.7777815E0,1.3E1,-2.9449606E-2,-1.3788166E-2,4.5569323E-2,-3.8813595E-3,-3.2722708E-2,3.0476192E-2,-9.400475E-3,1.3285785E-2,7.095676E-2,1.1614515E-2,4.385891E-2,5.6566303E-3,-3.464076E-2,2.6877005E-2,3.3807527E-2,-3.184346E-2],"split_indices":[3,0,0,2,3,4,2,3,0,0,2,2,1,1,5,0,0,0,0,0,0,0,0,0,0,0,0,0,0,0,0],"split_type":[0,0,0,0,0,0,0,0,0,0,0,0,0,0,0,0,0,0,0,0,0,0,0,0,0,0,0,0,0,0,0],"sum_hessian":[7.209877E2,5.55496E2,1.6549168E2,3.509663E2,2.0452966E2,1.3081293E2,3.4678764E1,3.306203E2,2.0346006E1,6.878239E1,1.3574728E2,5.5512203E1,7.530072E1,1.765851E1,1.7020252E1,9.055733E1,2.4006297E2,8.621211E0,1.1724795E1,4.0980697E0,6.468432E1,8.036189E1,5.538539E1,3.8937557E0,5.161845E1,6.5521645E1,9.779077E0,1.6409319E1,1.2491924E0,1.4727695E1,2.2925572E0],"tree_param":{"num_deleted":"0","num_feature":"6","num_nodes":"31","size_leaf_vector":"1"}},{"base_weights":[3.0228542E-4,-1.3086468E-1,4.3386886E-1,-3.0686942E-1,1.6768438E-1,5.6175053E-1,-6.7904584E-2,-3.4860492E-1,3.4657508E-1,4.8121223E-1,-1.0048779E-2,9.134385E-1,4.3736172E-1,-6.7648137E-1,3.3848473E-1,-2.8483335E-2,-1.319969E-2,3.2906447E-2,-1.8697048E-2,-3.1869147E-2,2.7704421E-2,-9.944764E-3,1.3172477E-2,5.5018585E-2,1.975958E-2,-3.724343E-3,2.9867744E-2,-3.0440642E-3,-4.0000115E-2,4.975465E-2,6.457872E-3],"categories":[],"categories_nodes":[],"categories_segments":[],"categories_sizes":[],"default_left":[0,0,0,0,0,0,0,0,0,0,0,0,0,0,0,0,0,0,0,0,0,0,0,0,0,0,0,0,0,0,0],"id":9,"left_children":[1,3,5,7,9,11,13,15,17,19,21,23,25,27,29,-1,-1,-1,-1,-1,-1,-1,-1,-1,-1,-1,-1,-1,-1,-1,-1],"loss_changes":[4.1024895E1,2.9153328E1,1.0789518E1,9.632679E0,1.1487147E1,5.4462776E0,8.865729E0,5.990963E0,5.059085E0,6.43198E0,6.895219E0,2.8585892E0,8.285624E0,1.0398726E0,2.8410714E0,0E0,0E0,0E0,0E0,0E0,0E0,0E0,0E0,0E0,0E0,0E0,0E0,0E0,0E0,0E0,0E0],"parents":[2147483647,0,0,1,1,2,2,3,3,4,4,5,5,6,6,7,7,8,8,9,9,10,10,11,11,12,12,13,13,14,14],"right_children":[2,4,6,8,10,12,14,16,18,20,22,24,26,28,30,-1,-1,-1,-1,-1,-1,-1,-1,-1,-1,-1,-1,-1,-1,-1,-1],"split_conditions":[3.024279E-2,-1.2063444E-1,-1.6317131E-2,1.5623469E0,-0E0,-5.417945E-1,-2.6816899E-2,-1.6606126E-2,4E0,-1.6317131E-2,2.2253644E-1,1.3E1,5.3998824E-2,7.399499E-2,1E1,-2.8483335E-2,-1.319969E-2,3.2906447E-2,-1.8697048E-2,-3.1869147E-2,2.7704421E-2,-9.944764E-3,1.3172477E-2,5.5018585E-2,1.975958E-2,-3.724343E-3,2.9867744E-2,-3.0440642E-3,-4.0000115E-2,4.975465E-2,6.457872E-3],"split_indices":[3,0,0,2,3,1,2,3,4,0,2,5,3,0,5,0,0,0,0,0,0,0,0,0,0,0,0,0,0,0,0],"split_type":[0,0,0,0,0,0,0,0,0,0,0,0,0,0,0,0,0,0,0,0,0,0,0,0,0,0,0,0,0,0,0],"sum_hessian":[7.1938684E2,5.528356E2,1.6655127E2,3.477798E2,2.0505579E2,1.3262978E2,3.3921486E1,3.2733914E2,2.0440632E1,7.356931E1,1.3148648E2,3.2995968E1,9.9633804E1,1.331595E1,2.0605536E1,8.902156E1,2.3831758E2,1.4330609E1,6.1100225E0,4.0260677E0,6.954324E1,7.794168E1,5.3544796E1,2.3423708E1,9.57226E0,2.3854183E1,7.5779625E1,2.4748333E0,1.0841118E1,4.07367E0,1.6531866E1],"tree_param":{"num_deleted":"0","num_feature":"6","num_nodes":"31","size_leaf_vector":"1"}},{"base_weights":[2.997406E-4,-1.2504143E-1,4.1049957E-1,-2.9426345E-1,1.5886907E-1,5.514404E-1,2.7293407E-3,-3.3461848E-1,3.2779735E-1,4.675789E-1,-2.5562695E-3,2.7608332E-1,7.527823E-1,-1.0520474E0,2.378037E-1,-2.7540838E-2,-1.2633144E-2,4.9406193E-2,-3.0192678E-4,1.8016327E-3,3.365465E-2,-8.577698E-3,1.1820833E-2,4.8568483E-2,5.747383E-3,2.2341125E-2,5.361721E-2,-5.76274E-2,-1.4783891E-2,4.340255E-2,4.0470213E-3],"categories":[],"categories_nodes":[],"categories_segments":[],"categories_sizes":[],"default_left":[0,0,0,0,0,0,0,0,0,0,0,0,0,0,0,0,0,0,0,0,0,0,0,0,0,0,0,0,0,0,0],"id":10,"left_children":[1,3,5,7,9,11,13,15,17,19,21,23,25,27,29,-1,-1,-1,-1,-1,-1,-1,-1,-1,-1,-1,-1,-1,-1,-1,-1],"loss_changes":[3.7004063E1,2.653191E1,9.679335E0,8.789129E0,1.0292867E1,6.731949E0,1.1227388E1,5.6225967E0,4.760551E0,6.26523E0,5.5574493E0,5.9885197E0,6.5336914E0,2.8656197E-1,3.5895205E0,0E0,0E0,0E0,0E0,0E0,0E0,0E0,0E0,0E0,0E0,0E0,0E0,0E0,0E0,0E0,0E0],"parents":[2147483647,0,0,1,1,2,2,3,3,4,4,5,5,6,6,7,7,8,8,9,9,10,10,11,11,12,12,13,13,14,14],"right_children":[2,4,6,8,10,12,14,16,18,20,22,24,26,28,30,-1,-1,-1,-1,-1,-1,-1,-1,-1,-1,-1,-1,-1,-1,-1,-1],"split_conditions":[3.024279E-2,-1.2063444E-1,-1.4153656E-1,1.5623469E0,-1.05416905E-2,2E0,-4.9611756E-1,-1.6606126E-2,-5.921446E-1,3.168183E-1,2.2253644E-1,-6.9133455E-1,7.354466E-2,1.0283824E-1,-3.1909987E-1,-2.7540838E-2,-1.2633144E-2,4.9406193E-2,-3.0192678E-4,1.8016327E-3,3.365465E-2,-8.577698E-3,1.1820833E-2,4.8568483E-2,5.747383E-3,2.2341125E-2,5.361721E-2,-5.76274E-2,-1.4783891E-2,4.340255E-2,4.0470213E-3],"split_indices":[3,0,0,2,3,4,2,3,0,0,2,2,3,1,2,0,0,0,0,0,0,0,0,0,0,0,0,0,0,0,0],"split_type":[0,0,0,0,0,0,0,0,0,0,0,0,0,0,0,0,0,0,0,0,0,0,0,0,0,0,0,0,0,0,0],"sum_hessian":[7.1771594E2,5.5026996E2,1.67446E2,3.447492E2,2.0552077E2,1.2417432E2,4.3271687E1,3.2418066E2,2.056854E1,6.991629E1,1.3560448E2,5.344864E1,7.072568E1,7.252846E0,3.601884E1,8.753722E1,2.3664343E2,6.2487063E0,1.4319834E1,2.293398E1,4.698231E1,7.9596954E1,5.600752E1,9.110283E0,4.4338356E1,3.7357E1,3.336868E1,5.939819E0,1.3130271E0,6.2746534E0,2.9744188E1],"tree_param":{"num_deleted":"0","num_feature":"6","num_nodes":"31","size_leaf_vector":"1"}},{"base_weights":[4.0206854E-4,-1.1933263E-1,3.8834524E-1,-2.8203067E-1,1.5075727E-1,5.015613E-1,-6.467864E-2,-3.21103E-1,3.1244978E-1,4.6562326E-1,7.869356E-3,8.2644683E-1,3.864688E-1,-5.3932256E-1,4.1399303E-1,-2.662142E-2,-1.2087914E-2,3.4376603E-2,-1.15617355E-2,6.3585527E-3,3.8887795E-2,-4.337345E-3,2.279976E-2,2.805449E-2,6.027886E-2,-4.27682E-3,2.6630616E-2,-3.2513168E-2,2.5601968E-2,6.475839E-2,7.030878E-3],"categories":[],"categories_nodes":[],"categories_segments":[],"categories_sizes":[],"default_left":[0,0,0,0,0,0,0,0,0,0,0,0,0,0,0,0,0,0,0,0,0,0,0,0,0,0,0,0,0,0,0],"id":11,"left_children":[1,3,5,7,9,11,13,15,17,19,21,23,25,27,29,-1,-1,-1,-1,-1,-1,-1,-1,-1,-1,-1,-1,-1,-1,-1,-1],"loss_changes":[3.335489E1,2.4155111E1,8.718672E0,8.062563E0,9.3063755E0,4.7512894E0,8.117875E0,5.2728233E0,4.5734367E0,6.723139E0,6.117857E0,2.8040104E0,7.082531E0,2.418634E0,4.1216726E0,0E0,0E0,0E0,0E0,0E0,0E0,0E0,0E0,0E0,0E0,0E0,0E0,0E0,0E0,0E0,0E0],"parents":[2147483647,0,0,1,1,2,2,3,3,4,4,5,5,6,6,7,7,8,8,9,9,10,10,11,11,12,12,13,13,14,14],"right_children":[2,4,6,8,10,12,14,16,18,20,22,24,26,28,30,-1,-1,-1,-1,-1,-1,-1,-1,-1,-1,-1,-1,-1,-1,-1,-1],"split_conditions":[3.024279E-2,-1.2063444E-1,-1.6317131E-2,1.5623469E0,-1.6606126E-2,-5.417945E-1,2.0139177E-1,-1.6606126E-2,1.2E1,4.5179588E-1,1.8312484E0,-6.3475716E-1,5.3998824E-2,1.7777815E0,1E1,-2.662142E-2,-1.2087914E-2,3.4376603E-2,-1.15617355E-2,6.3585527E-3,3.8887795E-2,-4.337345E-3,2.279976E-2,2.805449E-2,6.027886E-2,-4.27682E-3,2.6630616E-2,-3.2513168E-2,2.5601968E-2,6.475839E-2,7.030878E-3],"split_indices":[3,0,0,2,3,1,2,3,5,0,2,1,3,1,5,0,0,0,0,0,0,0,0,0,0,0,0,0,0,0,0],"split_type":[0,0,0,0,0,0,0,0,0,0,0,0,0,0,0,0,0,0,0,0,0,0,0,0,0,0,0,0,0,0,0],"sum_hessian":[7.160799E2,5.4772314E2,1.6835675E2,3.4178992E2,2.0593324E2,1.3460918E2,3.3747574E1,3.211426E2,2.0647293E1,6.3577034E1,1.4235622E2,3.3595203E1,1.0101397E2,1.6881456E1,1.6866116E1,8.610408E1,2.3503853E2,1.2061564E1,8.585728E0,3.1177746E1,3.239929E1,1.18205086E2,2.4151125E1,2.1221798E1,1.2373406E1,2.3979898E1,7.703407E1,1.5615227E1,1.2662308E0,3.108561E0,1.3757554E1],"tree_param":{"num_deleted":"0","num_feature":"6","num_nodes":"31","size_leaf_vector":"1"}},{"base_weights":[6.068403E-4,-1.1385351E-1,3.6837265E-1,-2.702872E-1,1.4319497E-1,4.9369335E-1,-6.044363E-5,-3.080464E-1,2.9637715E-1,4.069132E-1,-9.591611E-3,2.3682615E-1,6.8115383E-1,-1.0293533E0,2.21017E-1,-2.829655E-2,-1.2162552E-2,2.9262349E-2,-1.8981649E-2,-3.1250965E-2,2.362245E-2,-8.927504E-3,1.1459961E-2,6.089265E-2,6.7247935E-3,2.0090168E-2,4.8546467E-2,-5.657527E-2,-1.3922269E-2,4.1258164E-2,3.4810395E-3],"categories":[],"categories_nodes":[],"categories_segments":[],"categories_sizes":[],"default_left":[0,0,0,0,0,0,0,0,0,0,0,0,0,0,0,0,0,0,0,0,0,0,0,0,0,0,0,0,0,0,0],"id":12,"left_children":[1,3,5,7,9,11,13,15,17,19,21,23,25,27,29,-1,-1,-1,-1,-1,-1,-1,-1,-1,-1,-1,-1,-1,-1,-1,-1],"loss_changes":[3.015386E1,2.2006458E1,7.850603E0,7.365574E0,8.3582115E0,5.947916E0,1.0275123E1,5.196453E0,4.4691215E0,5.4406023E0,5.3770094E0,5.363632E0,5.503975E0,2.9734802E-1,3.342432E0,0E0,0E0,0E0,0E0,0E0,0E0,0E0,0E0,0E0,0E0,0E0,0E0,0E0,0E0,0E0,0E0],"parents":[2147483647,0,0,1,1,2,2,3,3,4,4,5,5,6,6,7,7,8,8,9,9,10,10,11,11,12,12,13,13,14,14],"right_children":[2,4,6,8,10,12,14,16,18,20,22,24,26,28,30,-1,-1,-1,-1,-1,-1,-1,-1,-1,-1,-1,-1,-1,-1,-1,-1],"split_conditions":[3.024279E-2,-1.2063444E-1,-1.4153656E-1,1.5623469E0,-0E0,2E0,-4.9611756E-1,1E0,4E0,-1.6317131E-2,2.2253644E-1,-9.466466E-1,7.354466E-2,1.0283824E-1,-3.1909987E-1,-2.829655E-2,-1.2162552E-2,2.9262349E-2,-1.8981649E-2,-3.1250965E-2,2.362245E-2,-8.927504E-3,1.1459961E-2,6.089265E-2,6.7247935E-3,2.0090168E-2,4.8546467E-2,-5.657527E-2,-1.3922269E-2,4.1258164E-2,3.4810395E-3],"split_indices":[3,0,0,2,3,4,2,4,4,0,2,2,3,1,2,0,0,0,0,0,0,0,0,0,0,0,0,0,0,0,0],"split_type":[0,0,0,0,0,0,0,0,0,0,0,0,0,0,0,0,0,0,0,0,0,0,0,0,0,0,0,0,0,0,0],"sum_hessian":[7.1433923E2,5.4531146E2,1.6902776E2,3.3897046E2,2.06341E2,1.2587277E2,4.315498E1,3.1822238E2,2.0748085E1,7.508199E1,1.3125902E2,5.4060234E1,7.181254E1,6.9837847E0,3.6171196E1,6.2347202E1,2.5587518E2,1.4630504E1,6.1175823E0,3.9737585E0,7.110823E1,7.701715E1,5.4241863E1,4.076658E0,4.9983578E1,3.777914E1,3.4033398E1,5.7013364E0,1.2824485E0,6.356248E0,2.9814949E1],"tree_param":{"num_deleted":"0","num_feature":"6","num_nodes":"31","size_leaf_vector":"1"}},{"base_weights":[6.029347E-4,-1.0875579E-1,3.4903583E-1,-2.5895774E-1,1.3574776E-1,4.6729678E-1,-8.067929E-4,-2.9538855E-1,2.806339E-1,4.176971E-1,6.193444E-3,7.35327E-1,2.9432917E-1,-1.0100187E0,2.1021636E-1,-2.521008E-2,-1.0892468E-2,3.7046656E-2,-6.3537136E-3,5.2017653E-3,3.5223003E-2,-4.6826047E-3,1.8424146E-2,-2.1884723E-2,3.8989432E-2,-1.7251097E-2,2.062819E-2,-5.5607498E-2,-1.3594024E-2,3.88501E-2,3.3080631E-3],"categories":[],"categories_nodes":[],"categories_segments":[],"categories_sizes":[],"default_left":[0,0,0,0,0,0,0,0,0,0,0,0,0,0,0,0,0,0,0,0,0,0,0,0,0,0,0,0,0,0,0],"id":13,"left_children":[1,3,5,7,9,11,13,15,17,19,21,23,25,27,29,-1,-1,-1,-1,-1,-1,-1,-1,-1,-1,-1,-1,-1,-1,-1,-1],"loss_changes":[2.7233921E1,2.0013197E1,7.064142E0,6.713936E0,7.5830474E0,5.6992893E0,9.611085E0,5.0142994E0,4.1941366E0,5.806093E0,5.2181845E0,2.916729E0,6.130987E0,2.8597736E-1,2.996369E0,0E0,0E0,0E0,0E0,0E0,0E0,0E0,0E0,0E0,0E0,0E0,0E0,0E0,0E0,0E0,0E0],"parents":[2147483647,0,0,1,1,2,2,3,3,4,4,5,5,6,6,7,7,8,8,9,9,10,10,11,11,12,12,13,13,14,14],"right_children":[2,4,6,8,10,12,14,16,18,20,22,24,26,28,30,-1,-1,-1,-1,-1,-1,-1,-1,-1,-1,-1,-1,-1,-1,-1,-1],"split_conditions":[3.024279E-2,-1.2063444E-1,-1.4153656E-1,1.5623469E0,-1.6606126E-2,-5.243635E-1,-4.9611756E-1,-1.6606126E-2,3E0,4.5179588E-1,1.5623469E0,3.177098E-2,-4.4349527E-1,1.0283824E-1,-3.1909987E-1,-2.521008E-2,-1.0892468E-2,3.7046656E-2,-6.3537136E-3,5.2017653E-3,3.5223003E-2,-4.6826047E-3,1.8424146E-2,-2.1884723E-2,3.8989432E-2,-1.7251097E-2,2.062819E-2,-5.5607498E-2,-1.3594024E-2,3.88501E-2,3.3080631E-3],"split_indices":[3,0,0,2,3,2,2,3,4,0,2,3,2,1,2,0,0,0,0,0,0,0,0,0,0,0,0,0,0,0,0],"split_type":[0,0,0,0,0,0,0,0,0,0,0,0,0,0,0,0,0,0,0,0,0,0,0,0,0,0,0,0,0,0,0],"sum_hessian":[7.1272656E2,5.429917E2,1.6973485E2,3.3632404E2,2.0666766E2,1.2660238E2,4.3132465E1,3.15477E2,2.0847033E1,6.436527E1,1.423024E2,4.838063E1,7.822175E1,6.804388E0,3.632808E1,8.393569E1,2.315413E2,9.408076E0,1.1438955E1,3.1391733E1,3.297354E1,1.1213887E2,3.0163527E1,1.4438384E0,4.6936794E1,1.1908529E1,6.631322E1,5.5322337E0,1.2721546E0,6.47163E0,2.985645E1],"tree_param":{"num_deleted":"0","num_feature":"6","num_nodes":"31","size_leaf_vector":"1"}},{"base_weights":[5.5648165E-4,-1.03728086E-1,3.299843E-1,-2.480218E-1,1.2898463E-1,4.2517143E-1,-6.015212E-2,-2.6748464E-1,6.817156E-1,3.9517698E-1,5.963537E-3,1.0378232E0,3.7058353E-1,-6.318686E-1,2.9885662E-1,-1.4333476E-2,2.8839508E-2,6.587113E-2,-2.0212838E-2,-4.539398E-3,2.801683E-2,-1.1177729E-2,7.772372E-3,1.0799418E-2,6.59874E-2,6.420437E-3,2.7078027E-2,-1.3699251E-3,-3.7940536E-2,2.3218647E-2,-2.1408591E-2],"categories":[],"categories_nodes":[],"categories_segments":[],"categories_sizes":[],"default_left":[0,0,0,0,0,0,0,0,0,0,0,0,0,0,0,0,0,0,0,0,0,0,0,0,0,0,0,0,0,0,0],"id":14,"left_children":[1,3,5,7,9,11,13,15,17,19,21,23,25,27,29,-1,-1,-1,-1,-1,-1,-1,-1,-1,-1,-1,-1,-1,-1,-1,-1],"loss_changes":[2.450069E1,1.8221762E1,6.393675E0,6.23913E0,6.808618E0,4.229643E0,7.2718062E0,5.487303E0,5.465167E0,5.326009E0,4.949963E0,2.2015743E0,5.240389E0,1.0252442E0,2.8313537E0,0E0,0E0,0E0,0E0,0E0,0E0,0E0,0E0,0E0,0E0,0E0,0E0,0E0,0E0,0E0,0E0],"parents":[2147483647,0,0,1,1,2,2,3,3,4,4,5,5,6,6,7,7,8,8,9,9,10,10,11,11,12,12,13,13,14,14],"right_children":[2,4,6,8,10,12,14,16,18,20,22,24,26,28,30,-1,-1,-1,-1,-1,-1,-1,-1,-1,-1,-1,-1,-1,-1,-1,-1],"split_conditions":[3.024279E-2,-1.2063444E-1,-1.6317131E-2,2.930405E0,-1.6606126E-2,-9.466466E-1,-2.6816899E-2,1.4524839E-2,1.2E1,1.9722162E-1,-1.9406104E-1,-9.685203E-1,2E0,7.399499E-2,3.115574E0,-1.4333476E-2,2.8839508E-2,6.587113E-2,-2.0212838E-2,-4.539398E-3,2.801683E-2,-1.1177729E-2,7.772372E-3,1.0799418E-2,6.59874E-2,6.420437E-3,2.7078027E-2,-1.3699251E-3,-3.7940536E-2,2.3218647E-2,-2.1408591E-2],"split_indices":[3,0,0,2,3,2,2,3,5,0,2,1,4,0,2,0,0,0,0,0,0,0,0,0,0,0,0,0,0,0,0],"split_type":[0,0,0,0,0,0,0,0,0,0,0,0,0,0,0,0,0,0,0,0,0,0,0,0,0,0,0,0,0,0,0],"sum_hessian":[7.1118176E2,5.407011E2,1.7048068E2,3.3371503E2,2.0698607E2,1.3697191E2,3.3508778E1,3.2757007E2,6.144953E0,6.472412E1,1.4226195E2,9.73229E0,1.2723962E2,1.2632175E1,2.0876602E1,3.209377E2,6.6323757E0,3.741579E0,2.403374E0,1.6531681E1,4.8192436E1,5.5914745E1,8.6347206E1,2.9369504E0,6.79534E0,5.3380943E1,7.385867E1,2.403427E0,1.0228748E1,1.7299456E1,3.5771458E0],"tree_param":{"num_deleted":"0","num_feature":"6","num_nodes":"31","size_leaf_vector":"1"}},{"base_weights":[6.7991234E-4,-9.88441E-2,3.1286496E-1,-2.3723447E-1,1.2243216E-1,4.1889882E-1,-4.937952E-3,-2.719669E-1,2.6715997E-1,3.4657797E-1,-9.5335655E-3,4.8728615E-1,-1.7709571E-1,-9.8982453E-1,1.9361529E-1,-2.642051E-2,-1.0408317E-2,4.377485E-2,-2.0147655E-3,-3.045336E-2,2.0290805E-2,4.4505675E-3,-1.9799387E-2,1.2036289E-2,3.37976E-2,-3.5538748E-2,4.7049098E-2,-5.4719448E-2,-1.2692762E-2,1.5263401E-2,-2.295729E-2],"categories":[],"categories_nodes":[],"categories_segments":[],"categories_sizes":[],"default_left":[0,0,0,0,0,0,0,0,0,0,0,0,0,0,0,0,0,0,0,0,0,0,0,0,0,0,0,0,0,0,0],"id":15,"left_children":[1,3,5,7,9,11,13,15,17,19,21,23,25,27,29,-1,-1,-1,-1,-1,-1,-1,-1,-1,-1,-1,-1,-1,-1,-1,-1],"loss_changes":[2.2107468E1,1.6551157E1,5.798191E0,5.8938293E0,6.163579E0,5.343462E0,8.799729E0,4.9843864E0,4.133458E0,4.617676E0,5.064431E0,5.2320633E0,9.028634E0,3.031273E-1,2.8710945E0,0E0,0E0,0E0,0E0,0E0,0E0,0E0,0E0,0E0,0E0,0E0,0E0,0E0,0E0,0E0,0E0],"parents":[2147483647,0,0,1,1,2,2,3,3,4,4,5,5,6,6,7,7,8,8,9,9,10,10,11,11,12,12,13,13,14,14],"right_children":[2,4,6,8,10,12,14,16,18,20,22,24,26,28,30,-1,-1,-1,-1,-1,-1,-1,-1,-1,-1,-1,-1,-1,-1,-1,-1],"split_conditions":[3.024279E-2,-1.2063444E-1,-1.4153656E-1,1.5623469E0,-0E0,6.7992234E-1,-4.9611756E-1,1E0,-5.921446E-1,-1.6317131E-2,4E0,2E0,1.4016101E0,1.0283824E-1,1.3E1,-2.642051E-2,-1.0408317E-2,4.377485E-2,-2.0147655E-3,-3.045336E-2,2.0290805E-2,4.4505675E-3,-1.9799387E-2,1.2036289E-2,3.37976E-2,-3.5538748E-2,4.7049098E-2,-5.4719448E-2,-1.2692762E-2,1.5263401E-2,-2.295729E-2],"split_indices":[3,0,0,2,3,1,2,4,0,0,4,4,2,1,5,0,0,0,0,0,0,0,0,0,0,0,0,0,0,0,0],"split_type":[0,0,0,0,0,0,0,0,0,0,0,0,0,0,0,0,0,0,0,0,0,0,0,0,0,0,0,0,0,0,0],"sum_hessian":[7.095442E2,5.3854156E2,1.7100267E2,3.312804E2,2.0726115E2,1.2798335E2,4.3019318E1,3.1036926E2,2.0911127E1,7.6202965E1,1.3105818E2,1.1497316E2,1.3010188E1,6.549006E0,3.6470314E1,6.038252E1,2.4998674E2,6.4001355E0,1.4510992E1,3.9061546E0,7.2296814E1,1.0504231E2,2.6015873E1,5.0826206E1,6.414696E1,9.05321E0,3.9569774E0,5.3078737E0,1.2411319E0,3.159793E1,4.8723826E0],"tree_param":{"num_deleted":"0","num_feature":"6","num_nodes":"31","size_leaf_vector":"1"}},{"base_weights":[5.261089E-4,-7.623861E-2,3.66951E-1,-1.3778172E-1,4.0447542E-1,5.830134E-1,4.705106E-2,-2.1745865E-1,4.309819E-2,1.0596907E0,1.5069017E-1,1.1353747E0,4.781283E-1,-5.327919E-1,1.2164059E-1,-2.4867712E-2,-6.530543E-3,2.17723E-2,-5.69331E-3,6.390881E-2,-1.0568428E-2,3.5942346E-2,-5.987817E-3,-2.959388E-2,7.286455E-2,7.51607E-3,3.4574367E-2,4.6923004E-2,-5.4731198E-2,1.942185E-2,-7.495048E-3],"categories":[],"categories_nodes":[],"categories_segments":[],"categories_sizes":[],"default_left":[0,0,0,0,0,0,0,0,0,0,0,0,0,0,0,0,0,0,0,0,0,0,0,0,0,0,0,0,0,0,0],"id":16,"left_children":[1,3,5,7,9,11,13,15,17,19,21,23,25,27,29,-1,-1,-1,-1,-1,-1,-1,-1,-1,-1,-1,-1,-1,-1,-1,-1],"loss_changes":[1.99724E1,1.7423717E1,8.473145E0,7.5205765E0,1.0961751E1,3.7048283E0,2.2561688E0,8.7339325E0,9.9159565E0,5.409752E0,7.6728535E0,6.9638243E0,4.326499E0,5.9543476E0,3.3694823E0,0E0,0E0,0E0,0E0,0E0,0E0,0E0,0E0,0E0,0E0,0E0,0E0,0E0,0E0,0E0,0E0],"parents":[2147483647,0,0,1,1,2,2,3,3,4,4,5,5,6,6,7,7,8,8,9,9,10,10,11,11,12,12,13,13,14,14],"right_children":[2,4,6,8,10,12,14,16,18,20,22,24,26,28,30,-1,-1,-1,-1,-1,-1,-1,-1,-1,-1,-1,-1,-1,-1,-1,-1],"split_conditions":[5.3998824E-2,1.5623469E0,-2.6604578E-1,-1.6317131E-2,2E0,-5.4370147E-1,-2.4604261E-1,-1.6606126E-2,-2.6704563E-2,3.7909718E0,1.7777815E0,-8.0192286E-1,2E0,1E1,-1.6317131E-2,-2.4867712E-2,-6.530543E-3,2.17723E-2,-5.69331E-3,6.390881E-2,-1.0568428E-2,3.5942346E-2,-5.987817E-3,-2.959388E-2,7.286455E-2,7.51607E-3,3.4574367E-2,4.6923004E-2,-5.4731198E-2,1.942185E-2,-7.495048E-3],"split_indices":[3,2,0,0,4,0,0,3,3,1,1,0,4,5,0,0,0,0,0,0,0,0,0,0,0,0,0,0,0,0,0],"split_type":[0,0,0,0,0,0,0,0,0,0,0,0,0,0,0,0,0,0,0,0,0,0,0,0,0,0,0,0,0,0,0],"sum_hessian":[7.080468E2,5.8606104E2,1.2198579E2,5.2017883E2,6.588219E1,7.2318756E1,4.966703E1,3.609705E2,1.5920837E2,1.7507166E1,4.837502E1,9.97293E0,6.2345825E1,4.960692E0,4.470634E1,8.4361404E1,2.7660907E2,4.498637E1,1.1422201E2,1.4934448E1,2.5727174E0,1.506607E1,3.3308952E1,1.4349661E0,8.537964E0,2.5252375E1,3.709345E1,1.1856114E0,3.7750807E0,2.233306E1,2.237328E1],"tree_param":{"num_deleted":"0","num_feature":"6","num_nodes":"31","size_leaf_vector":"1"}},{"base_weights":[6.554309E-4,-9.058975E-2,2.833157E-1,-2.1940555E-1,1.1231262E-1,3.8067102E-1,-1.0574217E-2,-6.6223425E-1,-1.8142073E-1,1.6207717E-1,-3.6953747E-1,6.268877E-1,2.221294E-1,-9.7390085E-1,1.784225E-1,3.2457423E-3,-3.947754E-2,-1.01196235E-2,4.361577E-2,3.5785013E-3,3.0204212E-2,-3.903755E-2,2.703624E-2,2.589052E-2,6.1342336E-2,-1.8977424E-2,1.665606E-2,-5.3955216E-2,-1.235708E-2,3.639492E-2,1.9526257E-3],"categories":[],"categories_nodes":[],"categories_segments":[],"categories_sizes":[],"default_left":[0,0,0,0,0,0,0,0,0,0,0,0,0,0,0,0,0,0,0,0,0,0,0,0,0,0,0,0,0,0,0],"id":17,"left_children":[1,3,5,7,9,11,13,15,17,19,21,23,25,27,29,-1,-1,-1,-1,-1,-1,-1,-1,-1,-1,-1,-1,-1,-1,-1,-1],"loss_changes":[1.827305E1,1.4023737E1,4.950861E0,5.396261E0,5.06317E0,4.931471E0,8.183792E0,2.4148884E0,6.881749E0,7.550283E0,7.847337E0,2.6585693E0,5.5068483E0,2.9685116E-1,2.8528838E0,0E0,0E0,0E0,0E0,0E0,0E0,0E0,0E0,0E0,0E0,0E0,0E0,0E0,0E0,0E0,0E0],"parents":[2147483647,0,0,1,1,2,2,3,3,4,4,5,5,6,6,7,7,8,8,9,9,10,10,11,11,12,12,13,13,14,14],"right_children":[2,4,6,8,10,12,14,16,18,20,22,24,26,28,30,-1,-1,-1,-1,-1,-1,-1,-1,-1,-1,-1,-1,-1,-1,-1,-1],"split_conditions":[3.024279E-2,-1.2063444E-1,-1.4153656E-1,-8.001955E-1,1.0541637E-2,-5.243635E-1,-4.9611756E-1,-1.2642072E0,1.4524839E-2,1.5623469E0,3.3852515E0,1.487198E-1,-4.4349527E-1,1.0283824E-1,-3.1909987E-1,3.2457423E-3,-3.947754E-2,-1.01196235E-2,4.361577E-2,3.5785013E-3,3.0204212E-2,-3.903755E-2,2.703624E-2,2.589052E-2,6.1342336E-2,-1.8977424E-2,1.665606E-2,-5.3955216E-2,-1.235708E-2,3.639492E-2,1.9526257E-3],"split_indices":[3,0,0,1,3,2,2,1,3,2,1,3,2,1,2,0,0,0,0,0,0,0,0,0,0,0,0,0,0,0,0],"split_type":[0,0,0,0,0,0,0,0,0,0,0,0,0,0,0,0,0,0,0,0,0,0,0,0,0,0,0,0,0,0,0],"sum_hessian":[7.0649915E2,5.346039E2,1.7189526E2,3.2695193E2,2.0765198E2,1.2889998E2,4.299528E1,2.4531258E1,3.024207E2,1.8881514E2,1.8836826E1,4.9332317E1,7.956766E1,6.370662E0,3.662462E1,3.728221E0,2.0803038E1,2.9731143E2,5.109246E0,1.5768819E2,3.1126951E1,1.30732355E1,5.7635913E0,4.3319557E1,6.012759E0,1.2015102E1,6.755255E1,5.141568E0,1.229094E0,6.555667E0,3.0068953E1],"tree_param":{"num_deleted":"0","num_feature":"6","num_nodes":"31","size_leaf_vector":"1"}},{"base_weights":[6.671053E-4,-6.979102E-2,3.332509E-1,-1.2711738E-1,3.701467E-1,5.3339016E-1,3.5043906E-2,-3.6548316E-1,-6.9006845E-2,9.789492E-1,1.3146318E-1,1.0507219E0,4.3484598E-1,-5.2348036E-1,1.0675558E-1,-2.3434158E-2,5.233528E-2,-1.3563753E-3,-3.573738E-2,5.910781E-2,-1.091971E-2,3.34699E-2,-6.3518817E-3,-2.9421896E-2,6.769454E-2,6.3426206E-3,3.1775955E-2,4.481896E-2,-5.3614717E-2,1.7511029E-2,-7.1852836E-3],"categories":[],"categories_nodes":[],"categories_segments":[],"categories_sizes":[],"default_left":[0,0,0,0,0,0,0,0,0,0,0,0,0,0,0,0,0,0,0,0,0,0,0,0,0,0,0,0,0,0,0],"id":18,"left_children":[1,3,5,7,9,11,13,15,17,19,21,23,25,27,29,-1,-1,-1,-1,-1,-1,-1,-1,-1,-1,-1,-1,-1,-1,-1,-1],"loss_changes":[1.6573654E1,1.4766397E1,7.3606215E0,7.137388E0,9.685527E0,3.311346E0,2.0875888E0,1.52276535E1,1.1257009E1,4.8485527E0,6.992383E0,6.3231783E0,3.8623095E0,5.5908303E0,2.8422022E0,0E0,0E0,0E0,0E0,0E0,0E0,0E0,0E0,0E0,0E0,0E0,0E0,0E0,0E0,0E0,0E0],"parents":[2147483647,0,0,1,1,2,2,3,3,4,4,5,5,6,6,7,7,8,8,9,9,10,10,11,11,12,12,13,13,14,14],"right_children":[2,4,6,8,10,12,14,16,18,20,22,24,26,28,30,-1,-1,-1,-1,-1,-1,-1,-1,-1,-1,-1,-1,-1,-1,-1,-1],"split_conditions":[5.3998824E-2,1.5623469E0,-2.6604578E-1,1E0,2E0,-5.4370147E-1,-2.4604261E-1,2.6752475E-1,7.929613E-1,3.7909718E0,1.7777815E0,-8.0192286E-1,2E0,1E1,-1.6317131E-2,-2.3434158E-2,5.233528E-2,-1.3563753E-3,-3.573738E-2,5.910781E-2,-1.091971E-2,3.34699E-2,-6.3518817E-3,-2.9421896E-2,6.769454E-2,6.3426206E-3,3.1775955E-2,4.481896E-2,-5.3614717E-2,1.7511029E-2,-7.1852836E-3],"split_indices":[3,2,0,4,4,0,0,2,2,1,1,0,4,5,0,0,0,0,0,0,0,0,0,0,0,0,0,0,0,0,0],"split_type":[0,0,0,0,0,0,0,0,0,0,0,0,0,0,0,0,0,0,0,0,0,0,0,0,0,0,0,0,0,0,0],"sum_hessian":[7.05279E2,5.82637E2,1.2264194E2,5.1609766E2,6.653938E1,7.291617E1,4.9725765E1,1.00120445E2,4.1597723E2,1.7866476E1,4.8672905E1,1.0121008E1,6.2795162E1,4.941243E0,4.4784523E1,9.392472E1,6.1957197E0,3.916208E2,2.4356447E1,1.5285058E1,2.581418E0,1.5281949E1,3.3390957E1,1.4328704E0,8.688138E0,2.5417086E1,3.737808E1,1.2009398E0,3.7403033E0,2.2507465E1,2.2277056E1],"tree_param":{"num_deleted":"0","num_feature":"6","num_nodes":"31","size_leaf_vector":"1"}},{"base_weights":[7.7800493E-4,-8.284708E-2,2.5738996E-1,-2.0654958E-1,1.1020895E-1,8.619197E-1,2.1465355E-1,-6.394852E-1,-1.6994633E-1,3.2010627E-1,-3.9182804E-3,1.2705003E0,3.6438668E-1,1.5036398E-1,6.2796015E-1,3.4468572E-3,-3.833176E-2,-9.513484E-3,4.1245308E-2,-2.6030237E-2,1.9193476E-2,3.437249E-2,-2.6331139E-3,1.7149087E-2,7.247757E-2,-1.0742703E-2,3.4716863E-2,1.1436128E-2,-2.9995501E-2,4.395569E-2,-2.0859769E-2],"categories":[],"categories_nodes":[],"categories_segments":[],"categories_sizes":[],"default_left":[0,0,0,0,0,0,0,0,0,0,0,0,0,0,0,0,0,0,0,0,0,0,0,0,0,0,0,0,0,0,0],"id":19,"left_children":[1,3,5,7,9,11,13,15,17,19,21,23,25,27,29,-1,-1,-1,-1,-1,-1,-1,-1,-1,-1,-1,-1,-1,-1,-1,-1],"loss_changes":[1.51548605E1,1.2743181E1,4.2994184E0,5.0412683E0,4.999817E0,1.799367E0,4.248598E0,2.30225E0,6.2429953E0,4.1403213E0,4.6247053E0,4.5087624E-1,1.3762455E0,8.53018E0,6.0594826E0,0E0,0E0,0E0,0E0,0E0,0E0,0E0,0E0,0E0,0E0,0E0,0E0,0E0,0E0,0E0,0E0],"parents":[2147483647,0,0,1,1,2,2,3,3,4,4,5,5,6,6,7,7,8,8,9,9,10,10,11,11,12,12,13,13,14,14],"right_children":[2,4,6,8,10,12,14,16,18,20,22,24,26,28,30,-1,-1,-1,-1,-1,-1,-1,-1,-1,-1,-1,-1,-1,-1,-1,-1],"split_conditions":[3.024279E-2,-1.2063444E-1,-9.466466E-1,-8.001955E-1,-1.05416905E-2,1.1E1,1.4016101E0,-1.2642072E0,1.4524839E-2,0E0,-6.4942844E-2,-6.6085935E-1,1.2E1,7.9651463E-1,1.3E1,3.4468572E-3,-3.833176E-2,-9.513484E-3,4.1245308E-2,-2.6030237E-2,1.9193476E-2,3.437249E-2,-2.6331139E-3,1.7149087E-2,7.247757E-2,-1.0742703E-2,3.4716863E-2,1.1436128E-2,-2.9995501E-2,4.395569E-2,-2.0859769E-2],"split_indices":[3,0,2,1,3,5,2,1,3,0,0,0,5,1,5,0,0,0,0,0,0,0,0,0,0,0,0,0,0,0,0],"split_type":[0,0,0,0,0,0,0,0,0,0,0,0,0,0,0,0,0,0,0,0,0,0,0,0,0,0,0,0,0,0,0],"sum_hessian":[7.042238E2,5.3164703E2,1.7257678E2,3.2398236E2,2.0766469E2,1.0128956E1,1.6244781E2,2.3972294E1,3.0001007E2,7.250752E1,1.3515717E2,4.7085958E0,5.42036E0,1.4176082E2,2.0686996E1,3.7175586E0,2.0254734E1,2.9479657E2,5.213506E0,4.606513E0,6.790101E1,8.038505E0,1.2711867E2,1.2336428E0,3.474953E0,2.0936708E0,3.3266892E0,1.289848E2,1.2776018E1,1.680708E1,3.879918E0],"tree_param":{"num_deleted":"0","num_feature":"6","num_nodes":"31","size_leaf_vector":"1"}},{"base_weights":[8.8891387E-4,-6.397518E-2,3.042546E-1,-1.1829658E-1,3.481141E-1,4.9250033E-1,2.3006383E-2,-3.4845594E-1,-6.265318E-2,9.1357106E-1,1.2369134E-1,9.79906E-1,3.995109E-1,-5.592426E-1,9.275443E-2,-2.2464609E-2,4.9240384E-2,-1.1167213E-3,-3.4621116E-2,5.515312E-2,-1.0891659E-2,3.609329E-2,-4.3860553E-3,-2.8876154E-2,6.329062E-2,4.272313E-2,1.3238451E-2,-6.2330277E-3,-4.4871163E-2,3.4389347E-2,-2.7623987E-3],"categories":[],"categories_nodes":[],"categories_segments":[],"categories_sizes":[],"default_left":[0,0,0,0,0,0,0,0,0,0,0,0,0,0,0,0,0,0,0,0,0,0,0,0,0,0,0,0,0,0,0],"id":20,"left_children":[1,3,5,7,9,11,13,15,17,19,21,23,25,27,29,-1,-1,-1,-1,-1,-1,-1,-1,-1,-1,-1,-1,-1,-1,-1,-1],"loss_changes":[1.3872254E1,1.3042713E1,6.5633516E0,6.559724E0,8.503412E0,2.9779568E0,2.1165414E0,1.3864353E1,1.0523902E1,4.342642E0,6.356501E0,5.7281837E0,3.7043467E0,7.083471E-1,4.1119E0,0E0,0E0,0E0,0E0,0E0,0E0,0E0,0E0,0E0,0E0,0E0,0E0,0E0,0E0,0E0,0E0],"parents":[2147483647,0,0,1,1,2,2,3,3,4,4,5,5,6,6,7,7,8,8,9,9,10,10,11,11,12,12,13,13,14,14],"right_children":[2,4,6,8,10,12,14,16,18,20,22,24,26,28,30,-1,-1,-1,-1,-1,-1,-1,-1,-1,-1,-1,-1,-1,-1,-1,-1],"split_conditions":[5.3998824E-2,1.5623469E0,-2.6604578E-1,1E0,2E0,-5.4370147E-1,-5.317237E-1,2.6752475E-1,7.929613E-1,3.7909718E0,1.016343E0,-8.0192286E-1,-6.5036327E-1,-1.8457624E-1,-3.5019398E-1,-2.2464609E-2,4.9240384E-2,-1.1167213E-3,-3.4621116E-2,5.515312E-2,-1.0891659E-2,3.609329E-2,-4.3860553E-3,-2.8876154E-2,6.329062E-2,4.272313E-2,1.3238451E-2,-6.2330277E-3,-4.4871163E-2,3.4389347E-2,-2.7623987E-3],"split_indices":[3,2,0,4,4,0,1,2,2,1,1,0,2,0,1,0,0,0,0,0,0,0,0,0,0,0,0,0,0,0,0],"split_type":[0,0,0,0,0,0,0,0,0,0,0,0,0,0,0,0,0,0,0,0,0,0,0,0,0,0,0,0,0,0,0],"sum_hessian":[7.0298987E2,5.7980756E2,1.2318235E2,5.1290906E2,6.6898476E1,7.3341866E1,4.9840485E1,9.883456E1,4.1407452E2,1.8134903E1,4.8763577E1,1.0222525E1,6.3119343E1,4.5809746E0,4.525951E1,9.250157E1,6.3329864E0,3.901331E2,2.3941433E1,1.5554787E1,2.5801167E0,1.2103423E1,3.6660152E1,1.4273401E0,8.795185E0,1.320194E1,4.9917404E1,2.6036947E0,1.9772801E0,8.288617E0,3.697089E1],"tree_param":{"num_deleted":"0","num_feature":"6","num_nodes":"31","size_leaf_vector":"1"}},{"base_weights":[9.872508E-4,-7.572437E-2,2.3417115E-1,-1.9449331E-1,1.0812818E-1,7.3830247E-1,1.8097034E-1,-2.1236806E-1,6.132118E-1,3.327321E-1,9.981618E-3,9.9133575E-1,-1.0607307E-1,-1.8439285E-1,2.9204637E-1,-3.0877104E-2,-8.889734E-3,6.0791265E-2,-2.083652E-2,2.275625E-3,3.1065945E-2,-9.870612E-3,7.252009E-3,-7.986775E-3,5.9078712E-2,-4.71777E-2,3.994375E-2,-1.6455159E-2,2.4319327E-2,5.6122243E-2,1.1158745E-2],"categories":[],"categories_nodes":[],"categories_segments":[],"categories_sizes":[],"default_left":[0,0,0,0,0,0,0,0,0,0,0,0,0,0,0,0,0,0,0,0,0,0,0,0,0,0,0,0,0,0,0],"id":21,"left_children":[1,3,5,7,9,11,13,15,17,19,21,23,25,27,29,-1,-1,-1,-1,-1,-1,-1,-1,-1,-1,-1,-1,-1,-1,-1,-1],"loss_changes":[1.2592527E1,1.1587929E1,4.540064E0,4.781683E0,4.5937414E0,3.5897512E0,6.504535E0,4.316045E0,4.995736E0,5.225538E0,4.1224713E0,2.957841E0,4.288418E0,3.8166735E0,6.742773E0,0E0,0E0,0E0,0E0,0E0,0E0,0E0,0E0,0E0,0E0,0E0,0E0,0E0,0E0,0E0,0E0],"parents":[2147483647,0,0,1,1,2,2,3,3,4,4,5,5,6,6,7,7,8,8,9,9,10,10,11,11,12,12,13,13,14,14],"right_children":[2,4,6,8,10,12,14,16,18,20,22,24,26,28,30,-1,-1,-1,-1,-1,-1,-1,-1,-1,-1,-1,-1,-1,-1,-1,-1],"split_conditions":[3.024279E-2,-1.2063444E-1,-7.411335E-1,2.930405E0,-1.9167146E-2,-3.06998E-1,5.3998824E-2,-8.001955E-1,1.2E1,4.5179588E-1,-1.9406104E-1,1E0,-1.4957935E-1,1.4901471E0,-5.4370147E-1,-3.0877104E-2,-8.889734E-3,6.0791265E-2,-2.083652E-2,2.275625E-3,3.1065945E-2,-9.870612E-3,7.252009E-3,-7.986775E-3,5.9078712E-2,-4.71777E-2,3.994375E-2,-1.6455159E-2,2.4319327E-2,5.6122243E-2,1.1158745E-2],"split_indices":[3,0,0,2,3,2,3,1,5,0,2,4,2,2,0,0,0,0,0,0,0,0,0,0,0,0,0,0,0,0,0],"split_type":[0,0,0,0,0,0,0,0,0,0,0,0,0,0,0,0,0,0,0,0,0,0,0,0,0,0,0,0,0,0,0],"sum_hessian":[7.0197705E2,5.287176E2,1.7325949E2,3.2117822E2,2.0753934E2,1.5309443E1,1.5795004E2,3.1494547E2,6.2327623E0,6.238468E1,1.4515466E2,1.1645577E1,3.663866E0,3.6670254E1,1.2127979E2,2.343565E1,2.9150983E2,3.8182476E0,2.4145148E0,3.1846628E1,3.0538054E1,5.7064938E1,8.808972E1,1.674438E0,9.97114E0,1.8807094E0,1.7831566E0,3.0582024E1,6.0882287E0,8.116745E0,1.1316305E2],"tree_param":{"num_deleted":"0","num_feature":"6","num_nodes":"31","size_leaf_vector":"1"}},{"base_weights":[1.1083256E-3,-7.215344E-2,2.2266115E-1,-1.8591742E-1,1.0274885E-1,6.983087E-1,1.7214158E-1,-4.595749E-1,-1.3330387E-1,1.4882097E-1,-3.4994924E-1,9.3502223E-1,-1.02906734E-1,-1.756852E-1,2.7718168E-1,-3.3509731E-3,-2.8902665E-2,-7.777562E-3,4.2692106E-2,3.5335512E-3,2.6080787E-2,-3.757437E-2,2.5558367E-2,-7.7521517E-3,5.5631913E-2,-4.6214804E-2,3.837359E-2,-1.5752843E-2,2.3136262E-2,5.337603E-2,1.0576529E-2],"categories":[],"categories_nodes":[],"categories_segments":[],"categories_sizes":[],"default_left":[0,0,0,0,0,0,0,0,0,0,0,0,0,0,0,0,0,0,0,0,0,0,0,0,0,0,0,0,0,0,0],"id":22,"left_children":[1,3,5,7,9,11,13,15,17,19,21,23,25,27,29,-1,-1,-1,-1,-1,-1,-1,-1,-1,-1,-1,-1,-1,-1,-1,-1],"loss_changes":[1.1403838E1,1.052503E1,4.0751266E0,4.5500164E0,4.405512E0,3.213461E0,5.863542E0,2.3442717E0,6.0631166E0,5.5029745E0,7.1540127E0,2.6481886E0,4.0332603E0,3.4848166E0,6.136924E0,0E0,0E0,0E0,0E0,0E0,0E0,0E0,0E0,0E0,0E0,0E0,0E0,0E0,0E0,0E0,0E0],"parents":[2147483647,0,0,1,1,2,2,3,3,4,4,5,5,6,6,7,7,8,8,9,9,10,10,11,11,12,12,13,13,14,14],"right_children":[2,4,6,8,10,12,14,16,18,20,22,24,26,28,30,-1,-1,-1,-1,-1,-1,-1,-1,-1,-1,-1,-1,-1,-1,-1,-1],"split_conditions":[3.024279E-2,-1.2063444E-1,-7.411335E-1,-6.3475716E-1,1.0541637E-2,-3.06998E-1,5.3998824E-2,-9.466466E-1,1.4524839E-2,1.5623469E0,3.3852515E0,1E0,-1.4957935E-1,1.4901471E0,-5.4370147E-1,-3.3509731E-3,-2.8902665E-2,-7.777562E-3,4.2692106E-2,3.5335512E-3,2.6080787E-2,-3.757437E-2,2.5558367E-2,-7.7521517E-3,5.5631913E-2,-4.6214804E-2,3.837359E-2,-1.5752843E-2,2.3136262E-2,5.337603E-2,1.0576529E-2],"split_indices":[3,0,0,1,3,2,3,2,3,2,1,4,2,2,0,0,0,0,0,0,0,0,0,0,0,0,0,0,0,0,0],"split_type":[0,0,0,0,0,0,0,0,0,0,0,0,0,0,0,0,0,0,0,0,0,0,0,0,0,0,0,0,0,0,0],"sum_hessian":[7.005912E2,5.2700024E2,1.7359096E2,3.1927017E2,2.0773006E2,1.5436068E1,1.5815489E2,5.02373E1,2.6903287E2,1.8915099E2,1.8579067E1,1.1786749E1,3.6493182E0,3.6527206E1,1.21627686E2,1.2010029E1,3.8227272E1,2.6392715E2,5.10572E0,1.5735402E2,3.1796959E1,1.2757544E1,5.821524E0,1.669259E0,1.011749E1,1.845626E0,1.8036923E0,3.0397593E1,6.129613E0,8.1579485E0,1.13469734E2],"tree_param":{"num_deleted":"0","num_feature":"6","num_nodes":"31","size_leaf_vector":"1"}},{"base_weights":[1.1937505E-3,-6.874591E-2,2.1177943E-1,-1.7764442E-1,9.751302E-2,2.9773593E-1,-4.7289338E-2,-1.9497418E-1,5.9272516E-1,3.235225E-1,1.0253438E-2,3.6007494E-1,-2.4530092E-1,-9.6731967E-1,1.2887385E-1,-1.9260315E-2,-6.317194E-3,5.8058795E-2,-2.0002207E-2,1.8424917E-3,3.3536233E-2,3.236703E-2,-1.5233689E-3,7.8419885E-3,2.580059E-2,-2.6900113E-2,6.738065E-2,-5.36572E-2,-1.2183053E-2,-1.9989777E-2,1.292892E-2],"categories":[],"categories_nodes":[],"categories_segments":[],"categories_sizes":[],"default_left":[0,0,0,0,0,0,0,0,0,0,0,0,0,0,0,0,0,0,0,0,0,0,0,0,0,0,0,0,0,0,0],"id":23,"left_children":[1,3,5,7,9,11,13,15,17,19,21,23,25,27,29,-1,-1,-1,-1,-1,-1,-1,-1,-1,-1,-1,-1,-1,-1,-1,-1],"loss_changes":[1.0330323E1,9.550461E0,3.9081469E0,4.367708E0,4.119109E0,4.5378733E0,7.3253365E0,4.0279703E0,4.558688E0,5.7673464E0,3.9588633E0,3.6685295E0,7.313056E0,2.9428768E-1,2.7207658E0,0E0,0E0,0E0,0E0,0E0,0E0,0E0,0E0,0E0,0E0,0E0,0E0,0E0,0E0,0E0,0E0],"parents":[2147483647,0,0,1,1,2,2,3,3,4,4,5,5,6,6,7,7,8,8,9,9,10,10,11,11,12,12,13,13,14,14],"right_children":[2,4,6,8,10,12,14,16,18,20,22,24,26,28,30,-1,-1,-1,-1,-1,-1,-1,-1,-1,-1,-1,-1,-1,-1,-1,-1],"split_conditions":[3.024279E-2,-1.2063444E-1,-1.4153656E-1,2.930405E0,-2.4525482E-2,6.7992234E-1,-4.9611756E-1,-1.6606126E-2,1.2E1,4.5179588E-1,-6.4942844E-2,2E0,3.5362606E0,1.0283824E-1,1E0,-1.9260315E-2,-6.317194E-3,5.8058795E-2,-2.0002207E-2,1.8424917E-3,3.3536233E-2,3.236703E-2,-1.5233689E-3,7.8419885E-3,2.580059E-2,-2.6900113E-2,6.738065E-2,-5.36572E-2,-1.2183053E-2,-1.9989777E-2,1.292892E-2],"split_indices":[3,0,0,2,3,1,2,3,5,0,0,4,1,1,4,0,0,0,0,0,0,0,0,0,0,0,0,0,0,0,0],"split_type":[0,0,0,0,0,0,0,0,0,0,0,0,0,0,0,0,0,0,0,0,0,0,0,0,0,0,0,0,0,0,0],"sum_hessian":[6.994048E2,5.255371E2,1.7386769E2,3.1750494E2,2.0803215E2,1.3043977E2,4.3427906E1,3.1125015E2,6.254782E0,5.7192165E1,1.5084E2,1.1730988E2,1.31299E1,6.257328E0,3.7170578E1,8.129653E1,2.2995363E2,3.8695054E0,2.3852768E0,3.1932636E1,2.5259527E1,8.167074E0,1.4267291E2,5.180167E1,6.550821E1,1.16512165E1,1.478683E0,5.0376973E0,1.2196306E0,6.9126396E0,3.025794E1],"tree_param":{"num_deleted":"0","num_feature":"6","num_nodes":"31","size_leaf_vector":"1"}},{"base_weights":[1.2086594E-3,-4.4926483E-2,3.1278616E-1,-1.1895316E-1,1.5497164E-1,7.229874E-1,8.923248E-2,-3.3006397E-1,-3.3556778E-2,2.5044107E-1,-3.3357084E-1,1.4330667E0,-2.3591505E-1,-5.575161E-1,2.5678453E-1,-3.7919078E-2,-1.1009002E-2,3.687928E-5,-3.9499436E-2,1.5097334E-2,-3.1004677E-2,-2.8968323E-2,3.2153957E-2,9.5617406E-2,1.9909032E-2,2.1622194E-2,-3.0783562E-2,-4.548707E-2,2.8122524E-2,2.5274634E-2,-1.52475005E-2],"categories":[],"categories_nodes":[],"categories_segments":[],"categories_sizes":[],"default_left":[0,0,0,0,0,0,0,0,0,0,0,0,0,0,0,0,0,0,0,0,0,0,0,0,0,0,0,0,0,0,0],"id":24,"left_children":[1,3,5,7,9,11,13,15,17,19,21,23,25,27,29,-1,-1,-1,-1,-1,-1,-1,-1,-1,-1,-1,-1,-1,-1,-1,-1],"loss_changes":[1.0062205E1,9.041214E0,8.214321E0,8.020901E0,7.7892027E0,2.1925854E1,6.5989347E0,5.8668585E0,8.258333E0,6.4095993E0,6.958864E0,8.343742E0,3.907885E0,5.4717164E0,6.86031E0,0E0,0E0,0E0,0E0,0E0,0E0,0E0,0E0,0E0,0E0,0E0,0E0,0E0,0E0,0E0,0E0],"parents":[2147483647,0,0,1,1,2,2,3,3,4,4,5,5,6,6,7,7,8,8,9,9,10,10,11,11,12,12,13,13,14,14],"right_children":[2,4,6,8,10,12,14,16,18,20,22,24,26,28,30,-1,-1,-1,-1,-1,-1,-1,-1,-1,-1,-1,-1,-1,-1,-1,-1],"split_conditions":[1.4016101E0,1.721002E-2,1.7777815E0,-5.2624816E-1,-2.6895663E-2,1.3E1,1.8312484E0,1E0,9.251721E-1,7.9651463E-1,1.1814516E0,1.016343E0,1.9542928E0,3.6727958E0,4E0,-3.7919078E-2,-1.1009002E-2,3.687928E-5,-3.9499436E-2,1.5097334E-2,-3.1004677E-2,-2.8968323E-2,3.2153957E-2,9.5617406E-2,1.9909032E-2,2.1622194E-2,-3.0783562E-2,-4.548707E-2,2.8122524E-2,2.5274634E-2,-1.52475005E-2],"split_indices":[2,3,1,0,0,5,2,4,2,1,1,1,2,1,4,0,0,0,0,0,0,0,0,0,0,0,0,0,0,0,0],"split_type":[0,0,0,0,0,0,0,0,0,0,0,0,0,0,0,0,0,0,0,0,0,0,0,0,0,0,0,0,0,0,0],"sum_hessian":[6.980179E2,6.0873816E2,8.927977E1,4.4452548E2,1.6421265E2,3.070491E1,5.857486E1,1.27201645E2,3.1732385E2,1.3777621E2,2.6436422E1,1.7357199E1,1.3347712E1,1.1573579E1,4.700128E1,2.4765665E1,1.02435974E2,3.0451697E2,1.2806865E1,1.3069664E2,7.0795813E0,2.1445875E1,4.990548E0,1.1283601E1,6.0735974E0,4.7859135E0,8.561798E0,8.9473715E0,2.6262076E0,3.2646954E1,1.4354329E1],"tree_param":{"num_deleted":"0","num_feature":"6","num_nodes":"31","size_leaf_vector":"1"}},{"base_weights":[1.0749422E-3,-4.2993054E-2,2.9722074E-1,-2.010085E-2,-6.3640565E-1,6.851952E-1,8.448202E-2,-9.0101264E-2,1.6622427E-1,3.2611609E-1,-8.792259E-1,1.3470725E0,-2.258376E-1,-5.370172E-1,2.4326068E-1,-1.5667873E-2,7.20381E-5,1.243725E-2,-1.4087831E-2,-1.7804328E-2,6.9961965E-2,-5.087775E-2,-1.1743829E-2,8.949131E-2,1.8942375E-2,2.0616902E-2,-2.9696235E-2,-4.4157784E-2,2.6919493E-2,2.3877008E-2,-1.4606646E-2],"categories":[],"categories_nodes":[],"categories_segments":[],"categories_sizes":[],"default_left":[0,0,0,0,0,0,0,0,0,0,0,0,0,0,0,0,0,0,0,0,0,0,0,0,0,0,0,0,0,0,0],"id":25,"left_children":[1,3,5,7,9,11,13,15,17,19,21,23,25,27,29,-1,-1,-1,-1,-1,-1,-1,-1,-1,-1,-1,-1,-1,-1,-1,-1],"loss_changes":[9.120181E0,8.25116E0,7.4133673E0,7.6681533E0,5.5602875E0,1.9549547E1,6.012353E0,8.730828E0,6.006888E0,4.3599777E0,1.3911066E0,7.3081665E0,3.6009204E0,5.1063166E0,6.180673E0,0E0,0E0,0E0,0E0,0E0,0E0,0E0,0E0,0E0,0E0,0E0,0E0,0E0,0E0,0E0,0E0],"parents":[2147483647,0,0,1,1,2,2,3,3,4,4,5,5,6,6,7,7,8,8,9,9,10,10,11,11,12,12,13,13,14,14],"right_children":[2,4,6,8,10,12,14,16,18,20,22,24,26,28,30,-1,-1,-1,-1,-1,-1,-1,-1,-1,-1,-1,-1,-1,-1,-1,-1],"split_conditions":[1.4016101E0,7.929613E-1,1.7777815E0,1.721002E-2,1E1,1.3E1,1.8312484E0,-5.2624816E-1,-2.6895663E-2,1.8497095E0,1.0781673E0,1.016343E0,1.9542928E0,3.6727958E0,4E0,-1.5667873E-2,7.20381E-5,1.243725E-2,-1.4087831E-2,-1.7804328E-2,6.9961965E-2,-5.087775E-2,-1.1743829E-2,8.949131E-2,1.8942375E-2,2.0616902E-2,-2.9696235E-2,-4.4157784E-2,2.6919493E-2,2.3877008E-2,-1.4606646E-2],"split_indices":[2,2,1,3,5,5,2,0,0,1,0,1,2,1,4,0,0,0,0,0,0,0,0,0,0,0,0,0,0,0,0],"split_type":[0,0,0,0,0,0,0,0,0,0,0,0,0,0,0,0,0,0,0,0,0,0,0,0,0,0,0,0,0,0,0],"sum_hessian":[6.9685583E2,6.0733594E2,8.9519844E1,5.857724E2,2.1563591E1,3.0916386E1,5.860346E1,4.261781E2,1.5959427E2,4.274954E0,1.7288637E1,1.7629616E1,1.3286769E1,1.1440462E1,4.7162994E1,1.2322623E2,3.0295187E2,1.3514458E2,2.4449692E1,3.0219967E0,1.2529572E0,1.3756245E1,3.5323923E0,1.1515294E1,6.1143227E0,4.816274E0,8.470494E0,8.790014E0,2.650448E0,3.2882298E1,1.4280698E1],"tree_param":{"num_deleted":"0","num_feature":"6","num_nodes":"31","size_leaf_vector":"1"}},{"base_weights":[1.0574566E-3,-4.1015863E-2,2.8267282E-1,-1.9179583E-2,-6.146219E-1,6.5060395E-1,7.999658E-2,-2.4235639E-1,3.600287E-2,3.1881654E-1,-8.553379E-1,1.2703979E0,-2.1623364E-1,2.6707414E-1,-4.031189E-1,-1.4111678E-2,9.9134706E-2,-4.3240163E-4,1.5446735E-2,-1.7226785E-2,6.705963E-2,-4.9643E-2,-1.1328828E-2,8.414993E-2,1.8029347E-2,1.9665277E-2,-2.8648278E-2,-1.792097E-2,2.2571176E-2,-3.8800847E-2,8.907499E-3],"categories":[],"categories_nodes":[],"categories_segments":[],"categories_sizes":[],"default_left":[0,0,0,0,0,0,0,0,0,0,0,0,0,0,0,0,0,0,0,0,0,0,0,0,0,0,0,0,0,0,0],"id":26,"left_children":[1,3,5,7,9,11,13,15,17,19,21,23,25,27,29,-1,-1,-1,-1,-1,-1,-1,-1,-1,-1,-1,-1,-1,-1,-1,-1],"loss_changes":[8.266267E0,7.5911803E0,6.7102275E0,7.222804E0,5.267192E0,1.750447E1,5.4954724E0,1.0874697E1,5.736742E0,4.0466833E0,1.3265066E0,6.4672947E0,3.3184118E0,5.186287E0,3.8314774E0,0E0,0E0,0E0,0E0,0E0,0E0,0E0,0E0,0E0,0E0,0E0,0E0,0E0,0E0,0E0,0E0],"parents":[2147483647,0,0,1,1,2,2,3,3,4,4,5,5,6,6,7,7,8,8,9,9,10,10,11,11,12,12,13,13,14,14],"right_children":[2,4,6,8,10,12,14,16,18,20,22,24,26,28,30,-1,-1,-1,-1,-1,-1,-1,-1,-1,-1,-1,-1,-1,-1,-1,-1],"split_conditions":[1.4016101E0,7.929613E-1,1.7777815E0,1E0,1E1,1.3E1,4E0,6.2289166E-1,6.891844E-2,1.8497095E0,1.0781673E0,1.016343E0,1.9542928E0,1.8312484E0,3.6210837E0,-1.4111678E-2,9.9134706E-2,-4.3240163E-4,1.5446735E-2,-1.7226785E-2,6.705963E-2,-4.9643E-2,-1.1328828E-2,8.414993E-2,1.8029347E-2,1.9665277E-2,-2.8648278E-2,-1.792097E-2,2.2571176E-2,-3.8800847E-2,8.907499E-3],"split_indices":[2,2,1,4,5,5,4,2,3,1,0,1,2,2,2,0,0,0,0,0,0,0,0,0,0,0,0,0,0,0,0],"split_type":[0,0,0,0,0,0,0,0,0,0,0,0,0,0,0,0,0,0,0,0,0,0,0,0,0,0,0,0,0,0,0],"sum_hessian":[6.956855E2,6.0600305E2,8.9682465E1,5.84775E2,2.122803E1,3.1069658E1,5.861281E1,1.15254456E2,4.6952054E2,4.2854896E0,1.694254E1,1.7844898E1,1.3224761E1,4.2573997E1,1.603881E1,1.1408302E2,1.1714312E0,4.0433994E2,6.51806E1,3.0012083E0,1.2842811E0,1.3426775E1,3.5157645E0,1.1692498E1,6.1523995E0,4.844521E0,8.3802395E0,9.476429E0,3.309757E1,9.566581E0,6.472231E0],"tree_param":{"num_deleted":"0","num_feature":"6","num_nodes":"31","size_leaf_vector":"1"}},{"base_weights":[1.185638E-3,-4.7824968E-2,2.246242E-1,-8.9923166E-2,2.6015794E-1,4.3201578E-1,3.252561E-2,-3.0298436E-1,-3.939484E-2,6.670318E-1,2.3438133E-2,2.6040578E-1,7.4733067E-1,9.049541E-1,-2.0803569E-2,-2.0099694E-2,4.7227398E-2,-1.6319909E-4,-3.135317E-2,5.0854784E-2,1.03113425E-5,1.2616123E-2,-2.3211129E-2,2.2522494E-2,-1.1931739E-2,5.7228416E-2,1.7648622E-2,6.2897526E-2,4.1450333E-4,-3.6938723E-2,3.5400204E-3],"categories":[],"categories_nodes":[],"categories_segments":[],"categories_sizes":[],"default_left":[0,0,0,0,0,0,0,0,0,0,0,0,0,0,0,0,0,0,0,0,0,0,0,0,0,0,0,0,0,0,0],"id":27,"left_children":[1,3,5,7,9,11,13,15,17,19,21,23,25,27,29,-1,-1,-1,-1,-1,-1,-1,-1,-1,-1,-1,-1,-1,-1,-1,-1],"loss_changes":[7.630696E0,7.4329786E0,4.979765E0,5.4086018E0,6.628115E0,3.0625238E0,3.0967298E0,1.2282955E1,8.6638775E0,5.9137354E0,5.100257E0,3.949811E0,2.8355255E0,1.2029083E0,4.216881E0,0E0,0E0,0E0,0E0,0E0,0E0,0E0,0E0,0E0,0E0,0E0,0E0,0E0,0E0,0E0,0E0],"parents":[2147483647,0,0,1,1,2,2,3,3,4,4,5,5,6,6,7,7,8,8,9,9,10,10,11,11,12,12,13,13,14,14],"right_children":[2,4,6,8,10,12,14,16,18,20,22,24,26,28,30,-1,-1,-1,-1,-1,-1,-1,-1,-1,-1,-1,-1,-1,-1,-1,-1],"split_conditions":[5.3998824E-2,1.5623469E0,-3.2838064E-1,1E0,1.8999581E0,8.4373206E-2,-9.466466E-1,2.6752475E-1,7.929613E-1,1.3E1,4E0,-4.2928177E-1,-4.5700735E-1,3E0,-5.317237E-1,-2.0099694E-2,4.7227398E-2,-1.6319909E-4,-3.135317E-2,5.0854784E-2,1.03113425E-5,1.2616123E-2,-2.3211129E-2,2.2522494E-2,-1.1931739E-2,5.7228416E-2,1.7648622E-2,6.2897526E-2,4.1450333E-4,-3.6938723E-2,3.5400204E-3],"split_indices":[3,2,0,4,1,3,2,2,2,5,4,0,2,4,1,0,0,0,0,0,0,0,0,0,0,0,0,0,0,0,0],"split_type":[0,0,0,0,0,0,0,0,0,0,0,0,0,0,0,0,0,0,0,0,0,0,0,0,0,0,0,0,0,0,0],"sum_hessian":[6.9483154E2,5.704836E2,1.2434797E2,5.0250427E2,6.79793E1,5.919333E1,6.515464E1,9.5368904E1,4.0713535E2,2.4334818E1,4.364448E1,3.9513813E1,1.9679516E1,2.833375E0,6.2321262E1,8.898448E1,6.3844223E0,3.8450113E2,2.2634228E1,1.5613112E1,8.721705E0,3.0031662E1,1.3612821E1,2.868673E1,1.0827084E1,8.856247E0,1.082327E1,1.7439127E0,1.0894622E0,6.2523E0,5.6068962E1],"tree_param":{"num_deleted":"0","num_feature":"6","num_nodes":"31","size_leaf_vector":"1"}},{"base_weights":[1.3068835E-3,-3.759951E-2,2.6041988E-1,-1.7315187E-2,-5.822064E-1,5.988424E-1,7.3059715E-2,-8.005247E-2,1.4844188E-1,3.287256E-1,-8.232713E-1,1.1654724E0,-2.0723471E-1,-4.990891E-1,2.1534072E-1,-1.4782272E-2,3.7046717E-4,3.0406093E-2,3.759178E-3,-1.5994329E-2,6.486461E-2,-4.8147626E-2,-1.007132E-2,7.7388845E-2,1.6111402E-2,1.8862536E-2,-2.7673746E-2,-4.2113487E-2,2.6445553E-2,2.7110515E-2,-5.9385523E-3],"categories":[],"categories_nodes":[],"categories_segments":[],"categories_sizes":[],"default_left":[0,0,0,0,0,0,0,0,0,0,0,0,0,0,0,0,0,0,0,0,0,0,0,0,0,0,0,0,0,0,0],"id":28,"left_children":[1,3,5,7,9,11,13,15,17,19,21,23,25,27,29,-1,-1,-1,-1,-1,-1,-1,-1,-1,-1,-1,-1,-1,-1,-1,-1],"loss_changes":[7.014446E0,6.6732445E0,5.71586E0,6.0880795E0,5.034408E0,1.4962464E1,4.9597373E0,8.006958E0,5.3686028E0,3.7158084E0,1.3208208E0,5.651205E0,3.072973E0,4.7396784E0,5.3538885E0,0E0,0E0,0E0,0E0,0E0,0E0,0E0,0E0,0E0,0E0,0E0,0E0,0E0,0E0,0E0,0E0],"parents":[2147483647,0,0,1,1,2,2,3,3,4,4,5,5,6,6,7,7,8,8,9,9,10,10,11,11,12,12,13,13,14,14],"right_children":[2,4,6,8,10,12,14,16,18,20,22,24,26,28,30,-1,-1,-1,-1,-1,-1,-1,-1,-1,-1,-1,-1,-1,-1,-1,-1],"split_conditions":[1.4016101E0,7.929613E-1,1.7777815E0,1.721002E-2,1E1,1.3E1,1.8312484E0,-5.2624816E-1,-7.411335E-1,1.8497095E0,1.0781673E0,1.016343E0,1.9542928E0,3.6727958E0,1.1E1,-1.4782272E-2,3.7046717E-4,3.0406093E-2,3.759178E-3,-1.5994329E-2,6.486461E-2,-4.8147626E-2,-1.007132E-2,7.7388845E-2,1.6111402E-2,1.8862536E-2,-2.7673746E-2,-4.2113487E-2,2.6445553E-2,2.7110515E-2,-5.9385523E-3],"split_indices":[2,2,1,3,5,5,2,0,0,1,0,1,2,1,5,0,0,0,0,0,0,0,0,0,0,0,0,0,0,0,0],"split_type":[0,0,0,0,0,0,0,0,0,0,0,0,0,0,0,0,0,0,0,0,0,0,0,0,0,0,0,0,0,0,0],"sum_hessian":[6.938267E2,6.03991E2,8.983571E1,5.832974E2,2.0693592E1,3.1229921E1,5.860579E1,4.2351758E2,1.5977985E2,4.254211E0,1.643938E1,1.8076927E1,1.3152992E1,1.1172101E1,4.743369E1,1.2154051E2,3.0197705E2,2.0959911E1,1.3881993E2,2.949066E0,1.3051451E0,1.2976098E1,3.4632828E0,1.1863041E1,6.213887E0,4.8597393E0,8.293253E0,8.511388E0,2.6607132E0,2.3661871E1,2.3771816E1],"tree_param":{"num_deleted":"0","num_feature":"6","num_nodes":"31","size_leaf_vector":"1"}},{"base_weights":[1.3441017E-3,-4.4522233E-2,2.0936383E-1,-1.2952723E-1,9.147616E-2,3.6582717E-1,-2.5076108E-2,-3.4174898E-1,-6.531629E-2,3.1621915E-1,1.0504262E-2,-3.2867238E-2,3.9486545E-1,-5.6186634E-1,4.4890944E-2,-2.7592555E-2,-3.985692E-4,1.14640705E-2,-6.9121504E-3,1.9238841E-3,3.253861E-2,3.0940393E-2,-1.3042039E-3,5.1022775E-2,1.4655835E-2,4.022249E-2,-5.422313E-2,1.8995663E-2,-4.8844907E-3],"categories":[],"categories_nodes":[],"categories_segments":[],"categories_sizes":[],"default_left":[0,0,0,0,0,0,0,0,0,0,0,0,0,0,0,0,0,0,0,0,0,0,0,0,0,0,0,0,0],"id":29,"left_children":[1,3,5,7,9,11,13,15,17,19,21,-1,23,25,27,-1,-1,-1,-1,-1,-1,-1,-1,-1,-1,-1,-1,-1,-1],"loss_changes":[6.6289697E0,6.5931187E0,4.6132545E0,4.757132E0,3.9920616E0,2.4980278E0,1.9472333E0,5.6923237E0,5.8431563E0,5.375096E0,3.631446E0,0E0,4.403981E0,5.138827E0,2.2439756E0,0E0,0E0,0E0,0E0,0E0,0E0,0E0,0E0,0E0,0E0,0E0,0E0,0E0,0E0],"parents":[2147483647,0,0,1,1,2,2,3,3,4,4,5,5,6,6,7,7,8,8,9,9,10,10,12,12,13,13,14,14],"right_children":[2,4,6,8,10,12,14,16,18,20,22,-1,24,26,28,-1,-1,-1,-1,-1,-1,-1,-1,-1,-1,-1,-1,-1,-1],"split_conditions":[5.3998824E-2,-1.2063444E-1,-2.6604578E-1,-1.6606126E-2,-2.4525482E-2,-8.0192286E-1,-2.4604261E-1,-3.3338606E-1,-7.411335E-1,4.5179588E-1,-6.4942844E-2,-3.2867238E-2,-5.4370147E-1,1E1,-1.4153656E-1,-2.7592555E-2,-3.985692E-4,1.14640705E-2,-6.9121504E-3,1.9238841E-3,3.253861E-2,3.0940393E-2,-1.3042039E-3,5.1022775E-2,1.4655835E-2,4.022249E-2,-5.422313E-2,1.8995663E-2,-4.8844907E-3],"split_indices":[3,0,0,3,3,0,0,2,0,0,0,0,0,5,0,0,0,0,0,0,0,0,0,0,0,0,0,0,0],"split_type":[0,0,0,0,0,0,0,0,0,0,0,0,0,0,0,0,0,0,0,0,0,0,0,0,0,0,0,0,0],"sum_hessian":[6.928033E2,5.682874E2,1.245159E2,3.4973514E2,2.1855228E2,7.434093E1,5.017497E1,8.0233925E1,2.695012E2,5.7116436E1,1.6143584E2,1.454487E0,7.2886444E1,4.975128E0,4.519984E1,4.8838398E1,3.1395527E1,5.3050854E1,2.1645035E2,3.1817219E1,2.5299217E1,8.256344E0,1.5317949E2,8.933113E0,6.3953327E1,1.2272301E0,3.747898E0,1.2996764E1,3.2203075E1],"tree_param":{"num_deleted":"0","num_feature":"6","num_nodes":"29","size_leaf_vector":"1"}},{"base_weights":[1.3504802E-3,-3.5607297E-2,2.465584E-1,-1.6111119E-2,-5.651689E-1,3.8812095E-1,-1.627014E-1,-2.2128056E-1,3.3953916E-2,3.1534198E-1,-8.0312353E-1,6.9645363E-1,2.1052308E-1,3.0215114E-1,-3.803838E-1,-1.3007456E-2,9.222886E-2,6.708825E-4,2.6360814E-2,-1.5718034E-2,6.2158804E-2,-4.712079E-2,-9.742956E-3,6.0736742E-2,-4.1193236E-3,-1.6377596E-2,1.8101173E-2,4.5970783E-2,-2.1923581E-2,-3.7173003E-2,8.696715E-3],"categories":[],"categories_nodes":[],"categories_segments":[],"categories_sizes":[],"default_left":[0,0,0,0,0,0,0,0,0,0,0,0,0,0,0,0,0,0,0,0,0,0,0,0,0,0,0,0,0,0,0],"id":30,"left_children":[1,3,5,7,9,11,13,15,17,19,21,23,25,27,29,-1,-1,-1,-1,-1,-1,-1,-1,-1,-1,-1,-1,-1,-1,-1,-1],"loss_changes":[6.285464E0,6.214131E0,5.3262625E0,5.989758E0,4.7315745E0,3.5656252E0,2.5487278E0,9.663544E0,4.744016E0,3.467166E0,1.265914E0,9.9265E0,3.7419748E0,4.1647267E0,3.5152092E0,0E0,0E0,0E0,0E0,0E0,0E0,0E0,0E0,0E0,0E0,0E0,0E0,0E0,0E0,0E0,0E0],"parents":[2147483647,0,0,1,1,2,2,3,3,4,4,5,5,6,6,7,7,8,8,9,9,10,10,11,11,12,12,13,13,14,14],"right_children":[2,4,6,8,10,12,14,16,18,20,22,24,26,28,30,-1,-1,-1,-1,-1,-1,-1,-1,-1,-1,-1,-1,-1,-1,-1,-1],"split_conditions":[1.4016101E0,7.929613E-1,4E0,1E0,1E1,1.669418E0,1.7777815E0,6.2289166E-1,1.4291743E0,1.8497095E0,1.0781673E0,1.3E1,1.8312484E0,1.3E1,3.6210837E0,-1.3007456E-2,9.222886E-2,6.708825E-4,2.6360814E-2,-1.5718034E-2,6.2158804E-2,-4.712079E-2,-9.742956E-3,6.0736742E-2,-4.1193236E-3,-1.6377596E-2,1.8101173E-2,4.5970783E-2,-2.1923581E-2,-3.7173003E-2,8.696715E-3],"split_indices":[2,2,4,4,5,1,1,2,1,1,0,5,2,5,2,0,0,0,0,0,0,0,0,0,0,0,0,0,0,0,0],"split_type":[0,0,0,0,0,0,0,0,0,0,0,0,0,0,0,0,0,0,0,0,0,0,0,0,0,0,0,0,0,0,0],"sum_hessian":[6.9161194E2,6.017681E2,8.98438E1,5.813941E2,2.0374004E1,6.679212E1,2.3051676E1,1.1337145E2,4.6802267E2,4.2653985E0,1.6108606E1,2.3343426E1,4.34487E1,7.2281656E0,1.5823511E1,1.1213572E2,1.2357326E0,4.503022E2,1.7720482E1,2.934798E0,1.3306005E0,1.2660098E1,3.4485085E0,1.3680218E1,9.663209E0,9.290416E0,3.4158283E1,3.8107367E0,3.4174287E0,9.354882E0,6.468629E0],"tree_param":{"num_deleted":"0","num_feature":"6","num_nodes":"31","size_leaf_vector":"1"}},{"base_weights":[1.4633376E-3,-4.2511158E-2,2.0036654E-1,-1.2295357E-1,8.542026E-2,3.4949645E-1,-2.3747385E-2,-3.2929116E-1,-6.1091587E-2,2.890691E-1,2.2210057E-3,6.1312234E-1,2.1738014E-1,-3.314563E-1,9.775744E-2,-2.6683915E-2,-5.163617E-4,1.0875672E-2,-6.5338253E-3,2.9903982E-2,2.2913446E-3,-9.86158E-3,6.123104E-3,4.4978004E-2,2.3002245E-3,-1.6048979E-2,2.500906E-2,3.8481813E-2,-2.6194533E-2,1.905905E-2,-8.827416E-3],"categories":[],"categories_nodes":[],"categories_segments":[],"categories_sizes":[],"default_left":[0,0,0,0,0,0,0,0,0,0,0,0,0,0,0,0,0,0,0,0,0,0,0,0,0,0,0,0,0,0,0],"id":31,"left_children":[1,3,5,7,9,11,13,15,17,19,21,23,25,27,29,-1,-1,-1,-1,-1,-1,-1,-1,-1,-1,-1,-1,-1,-1,-1,-1],"loss_changes":[6.061138E0,5.850989E0,4.2015815E0,4.432687E0,3.7215438E0,2.492797E0,1.9416552E0,5.2252045E0,5.2552495E0,4.761358E0,3.7887316E0,3.9583282E0,8.043449E0,3.51453E0,2.9735463E0,0E0,0E0,0E0,0E0,0E0,0E0,0E0,0E0,0E0,0E0,0E0,0E0,0E0,0E0,0E0,0E0],"parents":[2147483647,0,0,1,1,2,2,3,3,4,4,5,5,6,6,7,7,8,8,9,9,10,10,11,11,12,12,13,13,14,14],"right_children":[2,4,6,8,10,12,14,16,18,20,22,24,26,28,30,-1,-1,-1,-1,-1,-1,-1,-1,-1,-1,-1,-1,-1,-1,-1,-1],"split_conditions":[5.3998824E-2,-1.2063444E-1,-2.6604578E-1,-1.6606126E-2,-1.9167146E-2,-4.7525743E-1,-4.4349527E-1,-3.3338606E-1,-7.411335E-1,-3.157358E-1,-1.9406104E-1,1.3E1,-3.0656976E-1,-9.466466E-1,1.1E1,-2.6683915E-2,-5.163617E-4,1.0875672E-2,-6.5338253E-3,2.9903982E-2,2.2913446E-3,-9.86158E-3,6.123104E-3,4.4978004E-2,2.3002245E-3,-1.6048979E-2,2.500906E-2,3.8481813E-2,-2.6194533E-2,1.905905E-2,-8.827416E-3],"split_indices":[3,0,0,3,3,1,2,2,0,2,2,5,1,2,5,0,0,0,0,0,0,0,0,0,0,0,0,0,0,0,0],"split_type":[0,0,0,0,0,0,0,0,0,0,0,0,0,0,0,0,0,0,0,0,0,0,0,0,0,0,0,0,0,0,0],"sum_hessian":[6.909916E2,5.665272E2,1.2446435E2,3.4784412E2,2.1868314E2,7.4398575E1,5.0065765E1,7.92354E1,2.686087E2,6.271056E1,1.5597256E2,2.3622095E1,5.077648E1,1.3683812E1,3.6381954E1,4.7880898E1,3.1354496E1,5.3255955E1,2.1535277E2,2.697862E1,3.573194E1,5.8422546E1,9.7550026E1,1.530547E1,8.316625E0,1.7440512E1,3.333597E1,1.589479E0,1.2094333E1,1.7701963E1,1.867999E1],"tree_param":{"num_deleted":"0","num_feature":"6","num_nodes":"31","size_leaf_vector":"1"}},{"base_weights":[1.4778548E-3,-3.328515E-2,2.3114927E-1,-1.4500848E-2,-5.4943484E-1,3.6501846E-1,-1.585378E-1,-2.1126162E-1,3.3220865E-2,3.001342E-1,-7.8370166E-1,6.5930253E-1,1.9562839E-1,2.897538E-1,-3.694642E-1,-1.24673E-2,8.80972E-2,6.9111853E-4,2.464104E-2,-1.5554502E-2,5.957097E-2,-4.608873E-2,-9.625587E-3,5.737118E-2,-3.9722463E-3,-1.582486E-2,1.6924215E-2,-3.340767E-2,3.591506E-2,-4.0307216E-2,3.8357233E-3],"categories":[],"categories_nodes":[],"categories_segments":[],"categories_sizes":[],"default_left":[0,0,0,0,0,0,0,0,0,0,0,0,0,0,0,0,0,0,0,0,0,0,0,0,0,0,0,0,0,0,0],"id":32,"left_children":[1,3,5,7,9,11,13,15,17,19,21,23,25,27,29,-1,-1,-1,-1,-1,-1,-1,-1,-1,-1,-1,-1,-1,-1,-1,-1],"loss_changes":[5.5230823E0,5.8176746E0,4.8019195E0,5.460475E0,4.429126E0,3.2602339E0,2.3716547E0,8.96886E0,4.1682043E0,3.2458262E0,1.1934319E0,8.895605E0,3.3681417E0,3.8557596E0,3.3207295E0,0E0,0E0,0E0,0E0,0E0,0E0,0E0,0E0,0E0,0E0,0E0,0E0,0E0,0E0,0E0,0E0],"parents":[2147483647,0,0,1,1,2,2,3,3,4,4,5,5,6,6,7,7,8,8,9,9,10,10,11,11,12,12,13,13,14,14],"right_children":[2,4,6,8,10,12,14,16,18,20,22,24,26,28,30,-1,-1,-1,-1,-1,-1,-1,-1,-1,-1,-1,-1,-1,-1,-1,-1],"split_conditions":[1.4016101E0,7.929613E-1,4E0,1E0,1E1,1.669418E0,1.7777815E0,6.2289166E-1,1.4291743E0,1.8497095E0,1.0781673E0,1.3E1,1.8312484E0,-2.5739288E-1,2.930405E0,-1.24673E-2,8.80972E-2,6.9111853E-4,2.464104E-2,-1.5554502E-2,5.957097E-2,-4.608873E-2,-9.625587E-3,5.737118E-2,-3.9722463E-3,-1.582486E-2,1.6924215E-2,-3.340767E-2,3.591506E-2,-4.0307216E-2,3.8357233E-3],"split_indices":[2,2,4,4,5,1,1,2,1,1,0,5,2,1,2,0,0,0,0,0,0,0,0,0,0,0,0,0,0,0,0],"split_type":[0,0,0,0,0,0,0,0,0,0,0,0,0,0,0,0,0,0,0,0,0,0,0,0,0,0,0,0,0,0,0],"sum_hessian":[6.8979926E2,5.9985974E2,8.993954E1,5.7978754E2,2.007219E1,6.698983E1,2.2949707E1,1.12502594E2,4.6728494E2,4.277752E0,1.5794437E1,2.3416225E1,4.35736E1,7.2235155E0,1.57261915E1,1.11229416E2,1.2731786E0,4.4934918E2,1.7935762E1,2.9237032E0,1.3540485E0,1.2350729E1,3.4437084E0,1.3766757E1,9.649469E0,9.23859E0,3.433501E1,2.05994E0,5.1635756E0,7.539966E0,8.186225E0],"tree_param":{"num_deleted":"0","num_feature":"6","num_nodes":"31","size_leaf_vector":"1"}},{"base_weights":[1.5307126E-3,-4.069135E-2,1.920227E-1,-1.1673253E-1,7.957905E-2,3.7515455E-1,2.1670002E-2,-3.1728864E-1,-5.713797E-2,2.5568536E-1,-1.0009744E-2,2.0979135E-1,6.808516E-1,8.3810186E-1,-2.816156E-2,-2.6088024E-2,-1.0325019E-3,1.0325066E-2,-6.176919E-3,-3.0174768E-2,1.555414E-2,2.936837E-2,-2.5178425E-3,1.9450692E-2,-1.2933715E-2,5.2976873E-2,1.5421179E-2,5.9456713E-2,-9.867492E-4,-3.5911005E-2,2.9516483E-3],"categories":[],"categories_nodes":[],"categories_segments":[],"categories_sizes":[],"default_left":[0,0,0,0,0,0,0,0,0,0,0,0,0,0,0,0,0,0,0,0,0,0,0,0,0,0,0,0,0,0,0],"id":33,"left_children":[1,3,5,7,9,11,13,15,17,19,21,23,25,27,29,-1,-1,-1,-1,-1,-1,-1,-1,-1,-1,-1,-1,-1,-1,-1,-1],"loss_changes":[5.5588956E0,5.183654E0,3.9038553E0,4.1296196E0,3.4695907E0,2.9089365E0,2.7098112E0,4.797742E0,4.7302656E0,3.71627E0,3.5633738E0,3.5113063E0,2.5992641E0,1.1769819E0,3.844824E0,0E0,0E0,0E0,0E0,0E0,0E0,0E0,0E0,0E0,0E0,0E0,0E0,0E0,0E0,0E0,0E0],"parents":[2147483647,0,0,1,1,2,2,3,3,4,4,5,5,6,6,7,7,8,8,9,9,10,10,11,11,12,12,13,13,14,14],"right_children":[2,4,6,8,10,12,14,16,18,20,22,24,26,28,30,-1,-1,-1,-1,-1,-1,-1,-1,-1,-1,-1,-1,-1,-1,-1,-1],"split_conditions":[5.3998824E-2,-1.2063444E-1,-3.2838064E-1,-1.6606126E-2,-1.05416905E-2,8.4373206E-2,-9.466466E-1,-3.470834E-1,-7.411335E-1,-1.6317131E-2,-6.4942844E-2,-4.2928177E-1,-4.5700735E-1,3E0,-5.317237E-1,-2.6088024E-2,-1.0325019E-3,1.0325066E-2,-6.176919E-3,-3.0174768E-2,1.555414E-2,2.936837E-2,-2.5178425E-3,1.9450692E-2,-1.2933715E-2,5.2976873E-2,1.5421179E-2,5.9456713E-2,-9.867492E-4,-3.5911005E-2,2.9516483E-3],"split_indices":[3,0,0,3,3,3,2,2,0,0,0,0,2,4,1,0,0,0,0,0,0,0,0,0,0,0,0,0,0,0,0],"split_type":[0,0,0,0,0,0,0,0,0,0,0,0,0,0,0,0,0,0,0,0,0,0,0,0,0,0,0,0,0,0,0],"sum_hessian":[6.891785E2,5.6478235E2,1.2439618E2,3.4603226E2,2.1875012E2,5.9370125E1,6.5026054E1,7.827751E1,2.6775473E2,7.313444E1,1.4561568E2,3.962287E1,1.9747255E1,2.8306396E0,6.2195415E1,4.5888107E1,3.238941E1,5.3444855E1,2.1430989E2,3.830578E0,6.930386E1,8.354944E0,1.3726074E2,2.8781454E1,1.0841416E1,8.876579E0,1.0870677E1,1.7346207E0,1.0960188E0,6.165397E0,5.6030018E1],"tree_param":{"num_deleted":"0","num_feature":"6","num_nodes":"31","size_leaf_vector":"1"}},{"base_weights":[1.5565974E-3,-3.5403654E-2,2.0012534E-1,-9.1563895E-2,1.283246E-1,1.1431811E0,1.4396861E-1,-3.1504443E-1,-3.611031E-2,4.2159364E-1,-2.3607146E-2,-1.0499167E-2,7.698368E-2,1.15053914E-1,5.985638E-2,-1.834069E-2,6.2171917E-2,-2.7282227E-5,-3.0331582E-2,4.4157173E-2,-1.9177534E-2,4.5902864E-3,-1.8808272E-2,1.008565E-2,-2.0248922E-2],"categories":[],"categories_nodes":[],"categories_segments":[],"categories_sizes":[],"default_left":[0,0,0,0,0,0,0,0,0,0,0,0,0,0,0,0,0,0,0,0,0,0,0,0,0],"id":34,"left_children":[1,3,5,7,9,11,13,15,17,19,21,-1,-1,23,-1,-1,-1,-1,-1,-1,-1,-1,-1,-1,-1],"loss_changes":[5.0639954E0,5.3610044E0,5.5696125E0,5.364087E0,6.6488705E0,3.5108504E0,3.0090032E0,7.403098E0,7.073984E0,1.9254333E1,4.06679E0,0E0,0E0,4.6639595E0,0E0,0E0,0E0,0E0,0E0,0E0,0E0,0E0,0E0,0E0,0E0],"parents":[2147483647,0,0,1,1,2,2,3,3,4,4,5,5,6,6,7,7,8,8,9,9,10,10,13,13],"right_children":[2,4,6,8,10,12,14,16,18,20,22,-1,-1,24,-1,-1,-1,-1,-1,-1,-1,-1,-1,-1,-1],"split_conditions":[6.2715985E-2,1.6641368E-1,-5.378254E-1,1E0,7.2598284E-1,-7.958661E-1,3.7909718E0,5.7943575E-2,1.7579999E-2,1.3E1,4E0,-1.0499167E-2,7.698368E-2,8.2583636E-1,5.985638E-2,-1.834069E-2,6.2171917E-2,-2.7282227E-5,-3.0331582E-2,4.4157173E-2,-1.9177534E-2,4.5902864E-3,-1.8808272E-2,1.008565E-2,-2.0248922E-2],"split_indices":[3,2,0,4,1,0,1,3,2,5,4,0,0,1,0,0,0,0,0,0,0,0,0,0,0],"split_type":[0,0,0,0,0,0,0,0,0,0,0,0,0,0,0,0,0,0,0,0,0,0,0,0,0],"sum_hessian":[6.8803204E2,5.8075574E2,1.0727627E2,4.3275702E2,1.4799873E2,4.941151E0,1.0233512E2,8.510374E1,3.476533E2,4.990118E1,9.809755E1,1.2263198E0,3.7148314E0,1.0068017E2,1.6549484E0,8.310772E1,1.9960196E0,3.2819547E2,1.945781E1,3.1656933E1,1.8244247E1,7.446155E1,2.3636003E1,8.6823814E1,1.3856355E1],"tree_param":{"num_deleted":"0","num_feature":"6","num_nodes":"25","size_leaf_vector":"1"}},{"base_weights":[1.6434876E-3,-2.9360134E-2,2.3132396E-1,-6.7889124E-2,1.7343447E-1,3.7755397E-1,-1.4368927E-1,-4.8764862E-2,-4.369579E-1,6.62961E-1,6.242685E-2,4.2351478E-1,-3.433227E-2,2.743516E-1,-3.430018E-1,-4.360487E-3,1.2633755E-2,-2.5635397E-2,3.054564E-2,-9.741834E-3,3.8352463E-2,4.1602828E-2,6.591548E-4,1.0254699E-4,2.6860375E-2,-3.245851E-2,3.4078628E-2,-3.8586657E-2,4.297676E-3],"categories":[],"categories_nodes":[],"categories_segments":[],"categories_sizes":[],"default_left":[0,0,0,0,0,0,0,0,0,0,0,0,0,0,0,0,0,0,0,0,0,0,0,0,0,0,0,0,0],"id":35,"left_children":[1,3,5,7,9,11,13,15,17,19,21,23,-1,25,27,-1,-1,-1,-1,-1,-1,-1,-1,-1,-1,-1,-1,-1,-1],"loss_changes":[4.9076085E0,4.756604E0,4.549048E0,3.5856109E0,5.2424793E0,3.188612E0,2.070371E0,5.6655316E0,2.301601E0,1.7449799E0,3.0348308E0,2.7499132E0,0E0,3.5312595E0,3.1018171E0,0E0,0E0,0E0,0E0,0E0,0E0,0E0,0E0,0E0,0E0,0E0,0E0,0E0,0E0],"parents":[2147483647,0,0,1,1,2,2,3,3,4,4,5,5,6,6,7,7,8,8,9,9,10,10,11,11,13,13,14,14],"right_children":[2,4,6,8,10,12,14,16,18,20,22,24,-1,26,28,-1,-1,-1,-1,-1,-1,-1,-1,-1,-1,-1,-1,-1,-1],"split_conditions":[1.5623469E0,6.2715985E-2,4E0,7.929613E-1,-4.4580433E-1,4.1764627E0,1.7777815E0,1.6641368E-1,3.3852515E0,-8.767865E-1,-9.466466E-1,1E0,-3.433227E-2,-2.5739288E-1,2.930405E0,-4.360487E-3,1.2633755E-2,-2.5635397E-2,3.054564E-2,-9.741834E-3,3.8352463E-2,4.1602828E-2,6.591548E-4,1.0254699E-4,2.6860375E-2,-3.245851E-2,3.4078628E-2,-3.8586657E-2,4.297676E-3],"split_indices":[2,3,4,2,0,1,1,2,1,2,2,4,0,1,2,0,0,0,0,0,0,0,0,0,0,0,0,0,0],"split_type":[0,0,0,0,0,0,0,0,0,0,0,0,0,0,0,0,0,0,0,0,0,0,0,0,0,0,0,0,0],"sum_hessian":[6.8722736E2,6.0626263E2,8.096473E1,5.1002762E2,9.623502E1,5.8245945E1,2.2718786E1,4.8597754E2,2.4050068E1,1.686976E1,7.9365265E1,5.6411663E1,1.8342828E0,7.21321E0,1.5505576E1,4.316382E2,5.433934E1,2.2904991E1,1.1450758E0,1.7311782E0,1.5138583E1,3.816745E0,7.554852E1,1.2200797E1,4.4210865E1,2.0255013E0,5.187709E0,7.3551598E0,8.150417E0],"tree_param":{"num_deleted":"0","num_feature":"6","num_nodes":"29","size_leaf_vector":"1"}},{"base_weights":[1.6044055E-3,-2.9730542E-2,2.0762748E-1,-1.2186951E-2,-5.213018E-1,5.005592E-1,5.708123E-2,-1.930993E-1,3.1144252E-2,3.0400813E-1,-7.549164E-1,1.0178069E0,-1.9083467E-1,2.777191E-1,-1.6108015E-1,-1.1514933E-2,8.34442E-2,6.268388E-4,2.3378232E-2,-1.4690568E-2,5.7763286E-2,-4.4744827E-2,-8.618988E-3,6.5424554E-2,9.737963E-3,1.5848156E-2,-2.8404117E-2,-2.3615243E-2,2.327843E-2,7.630694E-3,-2.133677E-2],"categories":[],"categories_nodes":[],"categories_segments":[],"categories_sizes":[],"default_left":[0,0,0,0,0,0,0,0,0,0,0,0,0,0,0,0,0,0,0,0,0,0,0,0,0,0,0,0,0,0,0],"id":36,"left_children":[1,3,5,7,9,11,13,15,17,19,21,23,25,27,29,-1,-1,-1,-1,-1,-1,-1,-1,-1,-1,-1,-1,-1,-1,-1,-1],"loss_changes":[4.444099E0,5.1469827E0,3.9791322E0,4.5370045E0,4.195001E0,1.118089E1,2.9884918E0,8.129953E0,3.787866E0,3.0113502E0,1.1762886E0,3.9874477E0,2.8599842E0,4.555528E0,2.6804805E0,0E0,0E0,0E0,0E0,0E0,0E0,0E0,0E0,0E0,0E0,0E0,0E0,0E0,0E0,0E0,0E0],"parents":[2147483647,0,0,1,1,2,2,3,3,4,4,5,5,6,6,7,7,8,8,9,9,10,10,11,11,12,12,13,13,14,14],"right_children":[2,4,6,8,10,12,14,16,18,20,22,24,26,28,30,-1,-1,-1,-1,-1,-1,-1,-1,-1,-1,-1,-1,-1,-1,-1,-1],"split_conditions":[1.4016101E0,7.929613E-1,1.669418E0,1E0,1E1,1.3E1,1.1E1,6.2289166E-1,1.4291743E0,1.8497095E0,1.0781673E0,1.016343E0,2.1122825E0,1.8312484E0,3E0,-1.1514933E-2,8.34442E-2,6.268388E-4,2.3378232E-2,-1.4690568E-2,5.7763286E-2,-4.4744827E-2,-8.618988E-3,6.5424554E-2,9.737963E-3,1.5848156E-2,-2.8404117E-2,-2.3615243E-2,2.327843E-2,7.630694E-3,-2.133677E-2],"split_indices":[2,2,1,4,5,5,5,2,1,1,0,1,2,2,4,0,0,0,0,0,0,0,0,0,0,0,0,0,0,0,0],"split_type":[0,0,0,0,0,0,0,0,0,0,0,0,0,0,0,0,0,0,0,0,0,0,0,0,0,0,0,0,0,0,0],"sum_hessian":[6.864407E2,5.9656256E2,8.987811E1,5.769951E2,1.9567472E1,2.972143E1,6.0156685E1,1.1082648E2,4.6616864E2,4.2504005E0,1.5317073E1,1.6731844E1,1.2989587E1,2.9772858E1,3.0383827E1,1.0951487E2,1.3116101E0,4.4809225E2,1.8076397E1,2.8815804E0,1.3688203E0,1.1917228E1,3.3998454E0,1.1928958E1,4.802886E0,5.6048827E0,7.384704E0,5.6599965E0,2.411286E1,1.412734E1,1.6256487E1],"tree_param":{"num_deleted":"0","num_feature":"6","num_nodes":"31","size_leaf_vector":"1"}},{"base_weights":[1.6945882E-3,-3.0899324E-2,1.9817548E-1,-6.11973E-2,1.9004251E-1,4.6476182E-1,3.5204474E-2,-4.3180935E-2,-4.1986132E-1,6.014003E-1,2.2687858E-2,1.2340986E-1,6.730825E-1,-1.4580061E-2,5.706313E-2,-3.9214673E-3,1.170163E-2,-3.046898E-2,3.0616126E-3,4.5349125E-2,-5.9780325E-3,3.3139948E-2,-2.7443038E-3,-3.0794018E-3,4.6531882E-2,3.9215725E-2,-1.3316894E-2,3.753408E-3,-1.9612633E-2],"categories":[],"categories_nodes":[],"categories_segments":[],"categories_sizes":[],"default_left":[0,0,0,0,0,0,0,0,0,0,0,0,0,0,0,0,0,0,0,0,0,0,0,0,0,0,0,0,0],"id":37,"left_children":[1,3,5,7,9,11,13,15,17,19,21,23,25,27,-1,-1,-1,-1,-1,-1,-1,-1,-1,-1,-1,-1,-1,-1,-1],"loss_changes":[4.404015E0,3.9603813E0,4.2346697E0,3.3388245E0,4.900358E0,2.5509005E0,3.4199781E0,4.8627195E0,2.2923684E0,4.647511E0,2.6074321E0,2.3365426E0,2.5890388E0,2.0653605E0,0E0,0E0,0E0,0E0,0E0,0E0,0E0,0E0,0E0,0E0,0E0,0E0,0E0,0E0,0E0],"parents":[2147483647,0,0,1,1,2,2,3,3,4,4,5,5,6,6,7,7,8,8,9,9,10,10,11,11,12,12,13,13],"right_children":[2,4,6,8,10,12,14,16,18,20,22,24,26,28,-1,-1,-1,-1,-1,-1,-1,-1,-1,-1,-1,-1,-1,-1,-1],"split_conditions":[6.891844E-2,1.5623469E0,-3.2838064E-1,7.929613E-1,2E0,2E0,3.7909718E0,1.6641368E-1,2.3128428E0,2.713417E0,-6.103389E-1,6.8055056E-2,7.689071E-1,8.2583636E-1,5.706313E-2,-3.9214673E-3,1.170163E-2,-3.046898E-2,3.0616126E-3,4.5349125E-2,-5.9780325E-3,3.3139948E-2,-2.7443038E-3,-3.0794018E-3,4.6531882E-2,3.9215725E-2,-1.3316894E-2,3.753408E-3,-1.9612633E-2],"split_indices":[3,2,0,2,4,4,1,2,1,2,0,2,1,1,0,0,0,0,0,0,0,0,0,0,0,0,0,0,0],"split_type":[0,0,0,0,0,0,0,0,0,0,0,0,0,0,0,0,0,0,0,0,0,0,0,0,0,0,0,0,0],"sum_hessian":[6.857328E2,5.888861E2,9.684668E1,5.1850586E2,7.038021E1,3.6040375E1,6.08063E1,4.947729E2,2.3732975E1,1.9602846E1,5.0777367E1,1.4262463E1,2.1777914E1,5.913156E1,1.6747394E0,4.3959442E2,5.5178482E1,1.683462E1,6.8983545E0,1.3586244E1,6.0166025E0,4.6730456E0,4.610432E1,1.2354746E1,1.907717E0,1.9619926E1,2.1579876E0,4.8435623E1,1.0695939E1],"tree_param":{"num_deleted":"0","num_feature":"6","num_nodes":"29","size_leaf_vector":"1"}},{"base_weights":[1.8301208E-3,-2.9325973E-2,1.8942145E-1,-2.5680202E-1,-1.8843309E-3,3.819282E-1,-1.6777914E-2,1.7423646E-1,-4.0873617E-1,1.4664458E-1,-4.914002E-2,4.310061E-2,5.960124E-1,-7.100626E-2,5.1430017E-2,-1.22182295E-2,3.8257264E-2,3.9110675E-2,-2.5040513E-2,1.708316E-3,3.28022E-2,-4.6585156E-3,1.1118125E-2,4.3790445E-2,-9.432329E-3,3.3791453E-2,-2.0918157E-3,-3.067793E-2,6.304497E-4],"categories":[],"categories_nodes":[],"categories_segments":[],"categories_sizes":[],"default_left":[0,0,0,0,0,0,0,0,0,0,0,0,0,0,0,0,0,0,0,0,0,0,0,0,0,0,0,0,0],"id":38,"left_children":[1,3,5,7,9,11,13,15,17,19,21,23,25,27,-1,-1,-1,-1,-1,-1,-1,-1,-1,-1,-1,-1,-1,-1,-1],"loss_changes":[4.0143976E0,3.6767204E0,3.8896296E0,4.2236524E0,3.7038212E0,3.647286E0,2.8049784E0,4.447916E0,5.5653067E0,7.2754936E0,4.8060308E0,4.156711E0,1.6040564E0,2.1286E0,0E0,0E0,0E0,0E0,0E0,0E0,0E0,0E0,0E0,0E0,0E0,0E0,0E0,0E0,0E0],"parents":[2147483647,0,0,1,1,2,2,3,3,4,4,5,5,6,6,7,7,8,8,9,9,10,10,11,11,12,12,13,13],"right_children":[2,4,6,8,10,12,14,16,18,20,22,24,26,28,-1,-1,-1,-1,-1,-1,-1,-1,-1,-1,-1,-1,-1,-1,-1],"split_conditions":[6.891844E-2,-6.3475716E-1,-2.6604578E-1,-9.466466E-1,-3.8800472E-1,2E0,3.7909718E0,-1.0477667E0,-1.2642072E0,-4.1675872E-1,1.8312484E0,-6.5036327E-1,7.689071E-1,9.8141246E-2,5.1430017E-2,-1.22182295E-2,3.8257264E-2,3.9110675E-2,-2.5040513E-2,1.708316E-3,3.28022E-2,-4.6585156E-3,1.1118125E-2,4.3790445E-2,-9.432329E-3,3.3791453E-2,-2.0918157E-3,-3.067793E-2,6.304497E-4],"split_indices":[3,1,0,2,1,4,1,2,1,1,2,2,1,3,0,0,0,0,0,0,0,0,0,0,0,0,0,0,0],"split_type":[0,0,0,0,0,0,0,0,0,0,0,0,0,0,0,0,0,0,0,0,0,0,0,0,0,0,0,0,0],"sum_hessian":[6.8490393E2,5.8807684E2,9.682704E1,6.240616E1,5.256707E2,4.9635418E1,4.7191624E1,1.6226017E1,4.618014E1,1.2637125E2,3.9929947E2,1.968369E1,2.9951729E1,4.5750423E1,1.441199E0,9.841053E0,6.384964E0,2.7761407E0,4.3404003E1,1.0438871E2,2.198254E1,3.4414532E2,5.5154125E1,3.6803584E0,1.600333E1,2.6567661E1,3.384067E0,5.2629523E0,4.0487473E1],"tree_param":{"num_deleted":"0","num_feature":"6","num_nodes":"29","size_leaf_vector":"1"}},{"base_weights":[1.9557367E-3,-2.7785704E-2,1.8099044E-1,-8.848367E-2,7.298735E-2,4.259641E-1,3.1314496E-2,-3.0144906E-1,-3.1212464E-2,1.0407004E-1,-4.8827332E-1,1.1951813E-1,6.1283493E-1,-1.5803585E-2,5.3385556E-2,-2.4815975E-2,-1.2265239E-3,-2.1669476E-3,4.8805278E-2,2.0909845E-3,2.245413E-2,-4.3389317E-2,1.4261152E-2,-3.044143E-3,4.5130666E-2,3.58096E-2,-1.2810889E-2,4.3902006E-2,-2.568479E-3],"categories":[],"categories_nodes":[],"categories_segments":[],"categories_sizes":[],"default_left":[0,0,0,0,0,0,0,0,0,0,0,0,0,0,0,0,0,0,0,0,0,0,0,0,0,0,0,0,0],"id":39,"left_children":[1,3,5,7,9,11,13,15,17,19,21,23,25,27,-1,-1,-1,-1,-1,-1,-1,-1,-1,-1,-1,-1,-1,-1,-1],"loss_changes":[3.6534245E0,3.6057572E0,3.5704873E0,4.4752436E0,3.919262E0,2.045022E0,3.032344E0,4.186666E0,3.5954938E0,4.511466E0,3.7148173E0,2.2099462E0,2.22569E0,1.9541444E0,0E0,0E0,0E0,0E0,0E0,0E0,0E0,0E0,0E0,0E0,0E0,0E0,0E0,0E0,0E0],"parents":[2147483647,0,0,1,1,2,2,3,3,4,4,5,5,6,6,7,7,8,8,9,9,10,10,11,11,12,12,13,13],"right_children":[2,4,6,8,10,12,14,16,18,20,22,24,26,28,-1,-1,-1,-1,-1,-1,-1,-1,-1,-1,-1,-1,-1,-1,-1],"split_conditions":[6.891844E-2,-1.2063444E-1,-3.2838064E-1,-1.6606126E-2,3.9715383E0,2E0,3.7909718E0,-3.470834E-1,3.9010732E0,1.8312484E0,3.9795604E0,6.8055056E-2,7.689071E-1,-1.0108696E0,5.3385556E-2,-2.4815975E-2,-1.2265239E-3,-2.1669476E-3,4.8805278E-2,2.0909845E-3,2.245413E-2,-4.3389317E-2,1.4261152E-2,-3.044143E-3,4.5130666E-2,3.58096E-2,-1.2810889E-2,4.3902006E-2,-2.568479E-3],"split_indices":[3,0,0,3,1,4,1,2,2,2,0,2,1,2,0,0,0,0,0,0,0,0,0,0,0,0,0,0,0],"split_type":[0,0,0,0,0,0,0,0,0,0,0,0,0,0,0,0,0,0,0,0,0,0,0,0,0,0,0,0,0],"sum_hessian":[6.841769E2,5.8743616E2,9.674073E1,3.6669135E2,2.2074483E2,3.5990086E1,6.075065E1,7.680927E1,2.8988208E2,2.0993327E2,1.0811554E1,1.4254302E1,2.1735783E1,5.9050755E1,1.6998948E0,4.4618496E1,3.2190777E1,2.8737946E2,2.5026095E0,1.787947E2,3.1138578E1,7.171154E0,3.6404002E0,1.2334961E1,1.9193412E0,1.9582695E1,2.1530888E0,1.3532511E0,5.7697502E1],"tree_param":{"num_deleted":"0","num_feature":"6","num_nodes":"29","size_leaf_vector":"1"}},{"base_weights":[2.096492E-3,-1.5153275E-1,3.6568925E-2,-5.265817E-2,-8.149693E-2,1.24001265E-1,-5.1439356E-2,-2.997387E-2,-7.630093E-1,8.992699E-2,9.121446E-1,-2.0304587E-1,6.964216E-2,-6.9864057E-3,4.0382296E-2,2.9753428E-3,-4.9874097E-2,1.6325861E-2,-3.2306076E-3,7.0156E-2,2.4626149E-2,-7.0144096E-3,-4.1678783E-2,5.1356144E-2,1.9952923E-3],"categories":[],"categories_nodes":[],"categories_segments":[],"categories_sizes":[],"default_left":[0,0,0,0,0,0,0,0,0,0,0,0,0,0,0,0,0,0,0,0,0,0,0,0,0],"id":40,"left_children":[1,3,5,-1,7,9,11,13,15,17,19,21,23,-1,-1,-1,-1,-1,-1,-1,-1,-1,-1,-1,-1],"loss_changes":[3.629291E0,7.844903E0,4.3127832E0,0E0,4.1073356E0,7.465381E0,5.1469603E0,1.02619505E1,1.645916E0,9.911282E0,1.6859131E0,4.8061404E0,4.4063935E0,0E0,0E0,0E0,0E0,0E0,0E0,0E0,0E0,0E0,0E0,0E0,0E0],"parents":[2147483647,0,0,1,1,2,2,4,4,5,5,6,6,7,7,8,8,9,9,10,10,11,11,12,12],"right_children":[2,4,6,-1,8,10,12,14,16,18,20,22,24,-1,-1,-1,-1,-1,-1,-1,-1,-1,-1,-1,-1],"split_conditions":[1E0,-7.016011E-1,3E0,-5.265817E-2,2.4814343E0,3.3852515E0,-2.4445562E-1,3.5226056E-1,1E1,-3.4073064E-1,2.528737E0,-2.92768E-1,-2.3322216E-1,-6.9864057E-3,4.0382296E-2,2.9753428E-3,-4.9874097E-2,1.6325861E-2,-3.2306076E-3,7.0156E-2,2.4626149E-2,-7.0144096E-3,-4.1678783E-2,5.1356144E-2,1.9952923E-3],"split_indices":[4,1,4,0,1,1,1,2,5,1,2,1,1,0,0,0,0,0,0,0,0,0,0,0,0],"split_type":[0,0,0,0,0,0,0,0,0,0,0,0,0,0,0,0,0,0,0,0,0,0,0,0,0],"sum_hessian":[6.8324615E2,1.24592705E2,5.5865344E2,7.968604E0,1.166241E2,2.8003854E2,2.7861493E2,1.09397514E2,7.226587E0,2.6950113E2,1.0537408E1,1.2341264E2,1.5520227E2,9.7460365E1,1.1937154E1,1.7686114E0,5.4579754E0,1.060429E2,1.6345824E2,3.7757926E0,6.761615E0,1.1335293E2,1.0059715E1,3.6646004E0,1.5153767E2],"tree_param":{"num_deleted":"0","num_feature":"6","num_nodes":"25","size_leaf_vector":"1"}},{"base_weights":[2.0195788E-3,-2.65335E-2,1.7374906E-1,-8.43001E-2,6.899412E-2,6.18548E-1,9.42783E-2,-2.9051203E-1,-2.9314674E-2,1.2430968E-1,-2.494449E-1,3.4828255E-1,9.349622E-1,-2.552569E-1,1.8237093E-1,-2.3775224E-2,-8.3579606E-4,1.3635515E-2,-3.3206658E-3,1.9718366E-2,3.020895E-3,-3.0626586E-2,1.8344533E-3,1.4069217E-3,4.25486E-2,5.6602743E-2,3.917219E-3,5.9364565E-2,-2.3773832E-2,-4.1962466E-3,1.706749E-2],"categories":[],"categories_nodes":[],"categories_segments":[],"categories_sizes":[],"default_left":[0,0,0,0,0,0,0,0,0,0,0,0,0,0,0,0,0,0,0,0,0,0,0,0,0,0,0,0,0,0,0],"id":41,"left_children":[1,3,5,7,9,11,13,15,17,19,21,23,25,27,29,-1,-1,-1,-1,-1,-1,-1,-1,-1,-1,-1,-1,-1,-1,-1,-1],"loss_changes":[3.3583674E0,3.246848E0,3.393157E0,4.146529E0,3.9392366E0,9.246955E-1,2.6336584E0,3.8936462E0,3.2721803E0,3.2494147E0,3.4685402E0,1.5015714E0,9.4824743E-1,6.069768E0,2.8943574E0,0E0,0E0,0E0,0E0,0E0,0E0,0E0,0E0,0E0,0E0,0E0,0E0,0E0,0E0,0E0,0E0],"parents":[2147483647,0,0,1,1,2,2,3,3,4,4,5,5,6,6,7,7,8,8,9,9,10,10,11,11,12,12,13,13,14,14],"right_children":[2,4,6,8,10,12,14,16,18,20,22,24,26,28,30,-1,-1,-1,-1,-1,-1,-1,-1,-1,-1,-1,-1,-1,-1,-1,-1],"split_conditions":[6.891844E-2,-1.2063444E-1,-4.3560594E-1,-1.6606126E-2,1.0541637E-2,3E0,1E0,-3.3338606E-1,-8.162711E-1,-3.019159E-1,1.1814516E0,-4.574136E-1,-4.5043206E-1,-6.5036327E-1,-4.2747748E-1,-2.3775224E-2,-8.3579606E-4,1.3635515E-2,-3.3206658E-3,1.9718366E-2,3.020895E-3,-3.0626586E-2,1.8344533E-3,1.4069217E-3,4.25486E-2,5.6602743E-2,3.917219E-3,5.9364565E-2,-2.3773832E-2,-4.1962466E-3,1.706749E-2],"split_indices":[3,0,0,3,3,4,4,2,0,1,1,0,0,2,2,0,0,0,0,0,0,0,0,0,0,0,0,0,0,0,0],"split_type":[0,0,0,0,0,0,0,0,0,0,0,0,0,0,0,0,0,0,0,0,0,0,0,0,0,0,0,0,0,0,0],"sum_hessian":[6.8296497E2,5.8632367E2,9.6641235E1,3.6544974E2,2.2087395E2,1.3620996E1,8.302024E1,7.603019E1,2.8941956E2,1.8870407E2,3.2169872E1,8.479199E0,5.141797E0,1.6329645E1,6.66906E1,4.493369E1,3.1096498E1,3.0966465E1,2.584531E2,3.5113598E1,1.5359048E2,1.3675617E1,1.8494255E1,5.825275E0,2.6539245E0,3.9186463E0,1.223151E0,1.5811214E0,1.4748523E1,2.5107183E1,4.1583412E1],"tree_param":{"num_deleted":"0","num_feature":"6","num_nodes":"31","size_leaf_vector":"1"}},{"base_weights":[2.0855328E-3,-1.4316438E-1,3.448858E-2,-5.1626272E-2,-7.56691E-2,1.1819116E-1,-5.0024316E-2,-2.5968663E-2,-7.377414E-1,8.205336E-2,7.9267496E-1,-1.951694E-1,6.516297E-2,-6.5565393E-3,3.8347404E-2,2.8714102E-3,-4.83846E-2,1.1991556E-2,-7.899722E-3,6.1009377E-2,1.7894717E-2,-6.732372E-3,-4.056507E-2,4.8490766E-2,1.830485E-3],"categories":[],"categories_nodes":[],"categories_segments":[],"categories_sizes":[],"default_left":[0,0,0,0,0,0,0,0,0,0,0,0,0,0,0,0,0,0,0,0,0,0,0,0,0],"id":42,"left_children":[1,3,5,-1,7,9,11,13,15,17,19,21,23,-1,-1,-1,-1,-1,-1,-1,-1,-1,-1,-1,-1],"loss_changes":[3.2207005E0,7.414308E0,3.9633455E0,0E0,3.8337586E0,6.793019E0,4.67852E0,9.268862E0,1.5438871E0,1.0194647E1,2.2014036E0,4.5045953E0,4.0029826E0,0E0,0E0,0E0,0E0,0E0,0E0,0E0,0E0,0E0,0E0,0E0,0E0],"parents":[2147483647,0,0,1,1,2,2,4,4,5,5,6,6,7,7,8,8,9,9,10,10,11,11,12,12],"right_children":[2,4,6,-1,8,10,12,14,16,18,20,22,24,-1,-1,-1,-1,-1,-1,-1,-1,-1,-1,-1,-1],"split_conditions":[1E0,-7.016011E-1,3E0,-5.1626272E-2,2.4814343E0,3.2380054E0,-2.4445562E-1,3.5226056E-1,1E1,-2.779989E-1,8.7638766E-1,-2.92768E-1,-2.3322216E-1,-6.5565393E-3,3.8347404E-2,2.8714102E-3,-4.83846E-2,1.1991556E-2,-7.899722E-3,6.1009377E-2,1.7894717E-2,-6.732372E-3,-4.056507E-2,4.8490766E-2,1.830485E-3],"split_indices":[4,1,4,0,1,1,1,2,5,2,0,1,1,0,0,0,0,0,0,0,0,0,0,0,0],"split_type":[0,0,0,0,0,0,0,0,0,0,0,0,0,0,0,0,0,0,0,0,0,0,0,0,0],"sum_hessian":[6.8225415E2,1.23816414E2,5.5843774E2,7.7252917E0,1.16091125E2,2.803637E2,2.7807404E2,1.0895158E2,7.1395526E0,2.6717075E2,1.3192943E1,1.2273007E2,1.5534396E2,9.693059E1,1.2020985E1,1.7698084E0,5.3697443E0,1.6121129E2,1.0595947E2,5.741236E0,7.4517064E0,1.12862274E2,9.8678E0,3.744423E0,1.5159955E2],"tree_param":{"num_deleted":"0","num_feature":"6","num_nodes":"25","size_leaf_vector":"1"}},{"base_weights":[1.973333E-3,-3.772825E-2,1.1757629E-1,-3.1248575E-1,-7.193253E-5,5.5207425E-1,7.1094066E-2,7.820307E-3,-4.9852532E-1,1.4657295E-1,-5.623045E-2,7.670736E-1,-1.7014354E-1,-3.0848736E-1,1.312389E-1,-6.3005798E-3,5.729097E-2,-1.1743103E-2,-3.7499797E-2,1.8972872E-2,-1.0825059E-2,-1.6466057E-2,-4.3167303E-5,-7.082272E-3,4.5548882E-2,-4.5913164E-2,3.1644672E-2,-3.2145574E-3,-3.9330807E-2,3.3862647E-2,4.794706E-3],"categories":[],"categories_nodes":[],"categories_segments":[],"categories_sizes":[],"default_left":[0,0,0,0,0,0,0,0,0,0,0,0,0,0,0,0,0,0,0,0,0,0,0,0,0,0,0,0,0,0,0],"id":43,"left_children":[1,3,5,7,9,11,13,15,17,19,21,23,25,27,29,-1,-1,-1,-1,-1,-1,-1,-1,-1,-1,-1,-1,-1,-1,-1,-1],"loss_changes":[3.139202E0,5.2679896E0,3.492018E0,3.6609902E0,3.7042272E0,2.7313013E0,3.6726396E0,3.728532E0,2.3989487E0,1.0613691E1,4.9174404E0,1.8406119E0,3.381225E0,2.5250173E0,2.5990012E0,0E0,0E0,0E0,0E0,0E0,0E0,0E0,0E0,0E0,0E0,0E0,0E0,0E0,0E0,0E0,0E0],"parents":[2147483647,0,0,1,1,2,2,3,3,4,4,5,5,6,6,7,7,8,8,9,9,10,10,11,11,12,12,13,13,14,14],"right_children":[2,4,6,8,10,12,14,16,18,20,22,24,26,28,30,-1,-1,-1,-1,-1,-1,-1,-1,-1,-1,-1,-1,-1,-1,-1,-1],"split_conditions":[3.024279E-2,-5.901742E-1,-7.411335E-1,-8.004354E-1,-3.4073064E-1,-3.06998E-1,4.605534E-2,-6.2554604E-1,-5.630711E-1,3E0,-2.1794377E-1,1E0,-1.4957935E-1,4.081916E-2,-9.466466E-1,-6.3005798E-3,5.729097E-2,-1.1743103E-2,-3.7499797E-2,1.8972872E-2,-1.0825059E-2,-1.6466057E-2,-4.3167303E-5,-7.082272E-3,4.5548882E-2,-4.5913164E-2,3.1644672E-2,-3.2145574E-3,-3.9330807E-2,3.3862647E-2,4.794706E-3],"split_indices":[3,1,0,2,1,2,3,1,0,4,1,4,2,3,2,0,0,0,0,0,0,0,0,0,0,0,0,0,0,0,0],"split_type":[0,0,0,0,0,0,0,0,0,0,0,0,0,0,0,0,0,0,0,0,0,0,0,0,0,0,0,0,0,0,0],"sum_hessian":[6.820121E2,5.0816602E2,1.7384607E2,6.037131E1,4.477947E2,1.5749422E1,1.5809665E2,2.2533367E1,3.7837944E1,1.2355351E2,3.2424118E2,1.2088615E1,3.6608067E0,2.1059359E1,1.370373E2,2.0957926E1,1.5754418E0,1.9415268E1,1.8422674E1,7.524466E1,4.8308857E1,5.382226E1,2.7041895E2,1.6547794E0,1.0433836E1,1.8209231E0,1.8398836E0,1.46907625E1,6.3685956E0,7.2272806E0,1.2981001E2],"tree_param":{"num_deleted":"0","num_feature":"6","num_nodes":"31","size_leaf_vector":"1"}},{"base_weights":[1.855717E-3,-1.3918167E-1,3.321664E-2,-5.065244E-2,-7.477371E-2,7.798202E-2,-1.0230759E-1,-2.1273077E-1,1.546098E-1,3.7585538E-2,4.0401193E-1,-5.2854717E-2,-5.9035253E-2,-1.847793E-2,1.9002767E-2,5.0385416E-2,-3.6830844E-3,2.6557744E-2,5.866733E-4,4.919516E-2,1.0099902E-2,2.0814082E-2,-7.7731507E-3],"categories":[],"categories_nodes":[],"categories_segments":[],"categories_sizes":[],"default_left":[0,0,0,0,0,0,0,0,0,0,0,0,0,0,0,0,0,0,0,0,0,0,0],"id":44,"left_children":[1,3,5,-1,7,9,11,13,15,17,19,-1,21,-1,-1,-1,-1,-1,-1,-1,-1,-1,-1],"loss_changes":[3.0232952E0,6.922786E0,3.4001734E0,0E0,3.7317996E0,5.5279427E0,5.6914744E0,6.965083E0,8.735575E0,4.7860765E0,5.2247233E0,0E0,6.2195816E0,0E0,0E0,0E0,0E0,0E0,0E0,0E0,0E0,0E0,0E0],"parents":[2147483647,0,0,1,1,2,2,4,4,5,5,6,6,7,7,8,8,9,9,10,10,12,12],"right_children":[2,4,6,-1,8,10,12,14,16,18,20,-1,22,-1,-1,-1,-1,-1,-1,-1,-1,-1,-1],"split_conditions":[1E0,-7.016011E-1,4E0,-5.065244E-2,-1.740864E-1,1.6318752E0,-8.98369E-1,4.7586102E-2,-2.7552688E-1,-8.3461845E-1,2E0,-5.2854717E-2,-6.5308404E-1,-1.847793E-2,1.9002767E-2,5.0385416E-2,-3.6830844E-3,2.6557744E-2,5.866733E-4,4.919516E-2,1.0099902E-2,2.0814082E-2,-7.7731507E-3],"split_indices":[4,1,4,0,2,2,0,3,1,0,4,0,2,0,0,0,0,0,0,0,0,0,0],"split_type":[0,0,0,0,0,0,0,0,0,0,0,0,0,0,0,0,0,0,0,0,0,0,0],"sum_hessian":[6.8148456E2,1.2334322E2,5.581413E2,7.4558578E0,1.1588737E2,4.198756E2,1.382657E2,7.241047E1,4.34769E1,3.7457898E2,4.5296642E1,4.9789214E0,1.3328677E2,5.755916E1,1.4851309E1,8.456956E0,3.501994E1,1.7670315E1,3.5690866E2,1.0702912E1,3.4593727E1,2.1920086E1,1.11366684E2],"tree_param":{"num_deleted":"0","num_feature":"6","num_nodes":"23","size_leaf_vector":"1"}},{"base_weights":[1.786294E-3,-1.3309576E-1,3.1609133E-2,-4.974505E-2,-7.099213E-2,6.9219925E-5,2.2445956E-1,-2.324083E-2,-7.11501E-1,8.103648E-2,-8.2867675E-2,4.6591395E-1,1.2148257E-3,-6.099706E-3,3.5475623E-2,-5.0905187E-2,-3.615255E-3,1.1650159E-2,-6.1368514E-3,-1.0348941E-2,2.3941407E-3,3.7098274E-2,1.1804029E-2,-2.5738621E-2,1.1098738E-2],"categories":[],"categories_nodes":[],"categories_segments":[],"categories_sizes":[],"default_left":[0,0,0,0,0,0,0,0,0,0,0,0,0,0,0,0,0,0,0,0,0,0,0,0,0],"id":45,"left_children":[1,3,5,-1,7,9,11,13,15,17,19,21,23,-1,-1,-1,-1,-1,-1,-1,-1,-1,-1,-1,-1],"loss_changes":[2.7473805E0,6.548382E0,3.4017696E0,0E0,3.5446336E0,3.241179E0,4.2368064E0,8.00223E0,1.5029283E0,7.591683E0,3.8791008E0,2.220706E0,4.88115E0,0E0,0E0,0E0,0E0,0E0,0E0,0E0,0E0,0E0,0E0,0E0,0E0],"parents":[2147483647,0,0,1,1,2,2,4,4,5,5,6,6,7,7,8,8,9,9,10,10,11,11,12,12],"right_children":[2,4,6,-1,8,10,12,14,16,18,20,22,24,-1,-1,-1,-1,-1,-1,-1,-1,-1,-1,-1,-1],"split_conditions":[1E0,-7.016011E-1,6.891844E-2,-4.974505E-2,2.4814343E0,3E0,-2.763492E-1,3.5226056E-1,1.6646185E0,-2.779989E-1,-1.4416501E-1,1.1E1,-4.3321532E-1,-6.099706E-3,3.5475623E-2,-5.0905187E-2,-3.615255E-3,1.1650159E-2,-6.1368514E-3,-1.0348941E-2,2.3941407E-3,3.7098274E-2,1.1804029E-2,-2.5738621E-2,1.1098738E-2],"split_indices":[4,1,3,0,1,4,0,2,0,2,1,5,2,0,0,0,0,0,0,0,0,0,0,0,0],"split_type":[0,0,0,0,0,0,0,0,0,0,0,0,0,0,0,0,0,0,0,0,0,0,0,0,0],"sum_hessian":[6.809462E2,1.2267077E2,5.5827545E2,7.2361073E0,1.1543466E2,4.8066498E2,7.7610466E1,1.0839023E2,7.0444374E0,2.4323215E2,2.3743282E2,3.676241E1,4.084806E1,9.6251854E1,1.2138368E1,4.360196E0,2.684241E0,1.3924498E2,1.0398717E2,1.2150997E2,1.1592285E2,1.568953E1,2.1072878E1,1.1840701E1,2.900736E1],"tree_param":{"num_deleted":"0","num_feature":"6","num_nodes":"25","size_leaf_vector":"1"}},{"base_weights":[1.6058484E-3,-3.477988E-2,1.0575569E-1,-4.907768E-3,-5.002724E-1,3.9079833E-1,-5.784297E-2,-1.8489029E-1,3.7163857E-2,-9.087147E-1,-2.4925913E-1,8.521658E-1,-3.7453526E-1,-1.8934162E-1,2.5920072E-1,-1.687382E-2,1.9519147E-2,1.2803077E-3,4.755004E-2,-5.3340733E-2,-2.2745697E-2,4.8283327E-2,-2.7504748E-2,-2.0296218E-2,4.9488343E-2,-2.8294628E-2,2.0400165E-2,-3.0613959E-2,-4.7821426E-4,2.656937E-2,-6.1192424E-3],"categories":[],"categories_nodes":[],"categories_segments":[],"categories_sizes":[],"default_left":[0,0,0,0,0,0,0,0,0,0,0,0,0,0,0,0,0,0,0,0,0,0,0,0,0,0,0,0,0,0,0],"id":46,"left_children":[1,3,5,7,9,11,13,15,17,19,21,23,25,27,29,-1,-1,-1,-1,-1,-1,-1,-1,-1,-1,-1,-1,-1,-1,-1,-1],"loss_changes":[2.5859814E0,7.0301332E0,8.261343E0,3.613204E0,2.8993125E0,2.3113014E1,4.765137E0,8.067175E0,4.0616055E0,3.2018948E-1,7.9366255E0,7.426754E0,3.9705348E0,6.1175537E0,3.553292E0,0E0,0E0,0E0,0E0,0E0,0E0,0E0,0E0,0E0,0E0,0E0,0E0,0E0,0E0,0E0,0E0],"parents":[2147483647,0,0,1,1,2,2,3,3,4,4,5,5,6,6,7,7,8,8,9,9,10,10,11,11,12,12,13,13,14,14],"right_children":[2,4,6,8,10,12,14,16,18,20,22,24,26,28,30,-1,-1,-1,-1,-1,-1,-1,-1,-1,-1,-1,-1,-1,-1,-1,-1],