{"learner":{"attributes":{"scikit_learn":"{\"_estimator_type\": \"classifier\"}"},"feature_names":[],"feature_types":[],"gradient_booster":{"model":{"cats":{"enc":[],"feature_segments":[],"sorted_idx":[]},"gbtree_model_param":{"num_parallel_tree":"1","num_trees":"100"},"iteration_indptr":[0,1,2,3,4,5,6,7,8,9,10,11,12,13,14,15,16,17,18,19,20,21,22,23,24,25,26,27,28,29,30,31,32,33,34,35,36,37,38,39,40,41,42,43,44,45,46,47,48,49,50,51,52,53,54,55,56,57,58,59,60,61,62,63,64,65,66,67,68,69,70,71,72,73,74,75,76,77,78,79,80,81,82,83,84,85,86,87,88,89,90,91,92,93,94,95,96,97,98,99,100],"tree_info":[0,0,0,0,0,0,0,0,0,0,0,0,0,0,0,0,0,0,0,0,0,0,0,0,0,0,0,0,0,0,0,0,0,0,0,0,0,0,0,0,0,0,0,0,0,0,0,0,0,0,0,0,0,0,0,0,0,0,0,0,0,0,0,0,0,0,0,0,0,0,0,0,0,0,0,0,0,0,0,0,0,0,0,0,0,0,0,0,0,0,0,0,0,0,0,0,0,0,0,0],"trees":[{"base_weights":[-8.899688E-8,-1.7414297E-1,1.8177482E-1,3.076503E-1,-4.152981E-1,1.3633381E0,1.0703144E-1,1.6819976E-1,1.5565002E0,-5.14833E-1,-1.3688199E-1,-6.3947606E-1,1.8144753E0,-4.6049246E-1,1.8984757E-1,7.330757E-2,5.8388454E-3,-3.8096365E-2,9.435432E-2,-1.41225485E-2,-3.8695857E-2,2.8220063E-2,-1.5309937E-2,-4.8550498E-2,1.1332712E-2,1.3444287E-1,2.0762596E-2,-3.3145264E-2,1.0811647E-3,2.9999483E-2,-3.1576871E-3],"categories":[],"categories_nodes":[],"categories_segments":[],"categories_sizes":[],"default_left":[0,0,0,0,0,0,0,0,0,0,0,0,0,0,0,0,0,0,0,0,0,0,0,0,0,0,0,0,0,0,0],"id":0,"left_children":[1,3,5,7,9,11,13,15,17,19,21,23,25,27,29,-1,-1,-1,-1,-1,-1,-1,-1,-1,-1,-1,-1,-1,-1,-1,-1],"loss_changes":[2.3977558E1,4.507539E1,3.2584457E1,2.231166E1,7.0858345E0,2.1006004E1,1.6520987E1,7.6859407E0,1.1323862E1,1.1212654E1,8.409745E0,1.5919062E0,2.1134361E1,4.387887E0,3.177301E1,0E0,0E0,0E0,0E0,0E0,0E0,0E0,0E0,0E0,0E0,0E0,0E0,0E0,0E0,0E0,0E0],"parents":[2147483647,0,0,1,1,2,2,3,3,4,4,5,5,6,6,7,7,8,8,9,9,10,10,11,11,12,12,13,13,14,14],"right_children":[2,4,6,8,10,12,14,16,18,20,22,24,26,28,30,-1,-1,-1,-1,-1,-1,-1,-1,-1,-1,-1,-1,-1,-1,-1,-1],"split_conditions":[-2.3442335E-1,-5.078484E-1,-1.8608408E-1,-5.240305E-1,-1.6295543E-1,1E0,-4.6472988E-1,-9.801228E-1,-8.1295526E-1,-4.3123096E-1,-5.8708304E-1,1.1936476E-1,3E0,6.010962E-2,1.1936476E-1,7.330757E-2,5.8388454E-3,-3.8096365E-2,9.435432E-2,-1.41225485E-2,-3.8695857E-2,2.8220063E-2,-1.5309937E-2,-4.8550498E-2,1.1332712E-2,1.3444287E-1,2.0762596E-2,-3.3145264E-2,1.0811647E-3,2.9999483E-2,-3.1576871E-3],"split_indices":[2,1,2,1,0,4,1,2,2,0,2,1,4,2,1,0,0,0,0,0,0,0,0,0,0,0,0,0,0,0,0],"split_type":[0,0,0,0,0,0,0,0,0,0,0,0,0,0,0,0,0,0,0,0,0,0,0,0,0,0,0,0,0,0,0],"sum_hessian":[7.554697E2,3.8585617E2,3.6961356E2,1.2861873E2,2.5723746E2,2.0964285E1,3.486493E2,1.1672008E2,1.1898648E1,1.8886743E2,6.837001E1,3.7773488E0,1.7186937E1,4.3817245E1,3.0483203E2,3.3996139E0,1.1332046E2,1.322072E0,1.0576576E1,1.0066634E2,8.8201096E1,1.2842985E1,5.5527027E1,2.644144E0,1.1332046E0,1.00099745E1,7.1769624E0,3.0596525E1,1.322072E1,1.15775734E2,1.890563E2],"tree_param":{"num_deleted":"0","num_feature":"6","num_nodes":"31","size_leaf_vector":"1"}},{"base_weights":[7.251129E-5,-1.6612037E-1,1.7203617E-1,2.9104543E-1,-3.9893913E-1,1.2601715E0,1.01300284E-1,1.5980665E-1,1.4300735E0,-4.958366E-1,-1.3039076E-1,-6.231273E-1,1.6635644E0,6.367428E-2,1.2745774E0,6.8526E-2,5.533216E-3,-3.7425462E-2,8.631871E-2,-1.2453686E-2,-3.6431488E-2,2.6559396E-2,-1.46701485E-2,-4.7645353E-2,1.0998168E-2,1.2097936E-1,1.9670011E-2,7.978342E-3,-2.0536322E-2,1.22141235E-1,3.4071416E-2],"categories":[],"categories_nodes":[],"categories_segments":[],"categories_sizes":[],"default_left":[0,0,0,0,0,0,0,0,0,0,0,0,0,0,0,0,0,0,0,0,0,0,0,0,0,0,0,0,0,0,0],"id":1,"left_children":[1,3,5,7,9,11,13,15,17,19,21,23,25,27,29,-1,-1,-1,-1,-1,-1,-1,-1,-1,-1,-1,-1,-1,-1,-1,-1],"loss_changes":[2.1643604E1,4.110738E1,2.8520561E1,1.9283516E1,6.586338E0,1.8229664E1,1.5394907E1,6.879059E0,9.916225E0,1.0587517E1,7.6109123E0,1.5218772E0,1.7208107E1,1.5565725E1,5.847252E0,0E0,0E0,0E0,0E0,0E0,0E0,0E0,0E0,0E0,0E0,0E0,0E0,0E0,0E0,0E0,0E0],"parents":[2147483647,0,0,1,1,2,2,3,3,4,4,5,5,6,6,7,7,8,8,9,9,10,10,11,11,12,12,13,13,14,14],"right_children":[2,4,6,8,10,12,14,16,18,20,22,24,26,28,30,-1,-1,-1,-1,-1,-1,-1,-1,-1,-1,-1,-1,-1,-1,-1,-1],"split_conditions":[-2.3442335E-1,-5.078484E-1,-1.8608408E-1,-5.240305E-1,-1.6295543E-1,1E0,4.0017138E0,-9.801228E-1,-8.1295526E-1,-4.5053613E-1,-5.8708304E-1,1.1936476E-1,3E0,2.2472794E0,1E0,6.8526E-2,5.533216E-3,-3.7425462E-2,8.631871E-2,-1.2453686E-2,-3.6431488E-2,2.6559396E-2,-1.46701485E-2,-4.7645353E-2,1.0998168E-2,1.2097936E-1,1.9670011E-2,7.978342E-3,-2.0536322E-2,1.22141235E-1,3.4071416E-2],"split_indices":[2,1,2,1,0,4,2,2,2,0,2,1,4,1,4,0,0,0,0,0,0,0,0,0,0,0,0,0,0,0,0],"split_type":[0,0,0,0,0,0,0,0,0,0,0,0,0,0,0,0,0,0,0,0,0,0,0,0,0,0,0,0,0,0,0],"sum_hessian":[7.553219E2,3.841232E2,3.7119873E2,1.2952878E2,2.545944E2,2.1631083E1,3.4956763E2,1.1716889E2,1.2359896E1,1.864671E2,6.81273E1,3.7198246E0,1.7911257E1,3.3972714E2,9.840491E0,3.521494E0,1.1364739E2,1.2970458E0,1.106285E1,9.1522446E1,9.494466E1,1.3021495E1,5.5105804E1,2.580279E0,1.1395453E0,1.066082E1,7.2504373E0,2.8315543E2,5.6571716E1,2.2636607E0,7.5768304E0],"tree_param":{"num_deleted":"0","num_feature":"6","num_nodes":"31","size_leaf_vector":"1"}},{"base_weights":[3.4969422E-4,-1.5847863E-1,1.6335179E-1,2.755126E-1,-3.8315448E-1,1.1709834E0,9.636792E-2,1.7794542E-1,1.6259654E0,2.816959E-1,-4.1992846E-1,-6.0741884E-1,1.535561E0,-4.5012295E-1,1.7507893E-1,3.3542037E-3,3.480182E-2,1.08991146E-1,2.199953E-2,-2.7152896E-2,4.6923287E-2,-6.1379415E-3,-2.6839858E-2,-4.6776537E-2,1.06738955E-2,1.1009263E-1,1.8645225E-2,-3.232516E-2,4.9977726E-4,2.7558882E-2,-3.0738844E-3],"categories":[],"categories_nodes":[],"categories_segments":[],"categories_sizes":[],"default_left":[0,0,0,0,0,0,0,0,0,0,0,0,0,0,0,0,0,0,0,0,0,0,0,0,0,0,0,0,0,0,0],"id":2,"left_children":[1,3,5,7,9,11,13,15,17,19,21,23,25,27,29,-1,-1,-1,-1,-1,-1,-1,-1,-1,-1,-1,-1,-1,-1,-1,-1],"loss_changes":[1.959642E1,3.7487377E1,2.5100311E1,1.7017761E1,6.304447E0,1.5971642E1,1.5192526E1,7.0539017E0,4.77376E0,8.017236E0,8.274853E0,1.4555832E0,1.4310101E1,4.028781E0,2.7422459E1,0E0,0E0,0E0,0E0,0E0,0E0,0E0,0E0,0E0,0E0,0E0,0E0,0E0,0E0,0E0,0E0],"parents":[2147483647,0,0,1,1,2,2,3,3,4,4,5,5,6,6,7,7,8,8,9,9,10,10,11,11,12,12,13,13,14,14],"right_children":[2,4,6,8,10,12,14,16,18,20,22,24,26,28,30,-1,-1,-1,-1,-1,-1,-1,-1,-1,-1,-1,-1,-1,-1,-1,-1],"split_conditions":[-2.3442335E-1,-5.078484E-1,-1.8608408E-1,-5.1746356E-1,-7.18966E-1,1E0,-4.6472988E-1,-3.592836E-1,6.2262095E-3,-7.956872E-1,-5.464825E-1,1.1936476E-1,3E0,6.010962E-2,1.1936476E-1,3.3542037E-3,3.480182E-2,1.08991146E-1,2.199953E-2,-2.7152896E-2,4.6923287E-2,-6.1379415E-3,-2.6839858E-2,-4.6776537E-2,1.06738955E-2,1.1009263E-1,1.8645225E-2,-3.232516E-2,4.9977726E-4,2.7558882E-2,-3.0738844E-3],"split_indices":[2,1,2,1,0,4,1,0,3,0,2,1,4,2,1,0,0,0,0,0,0,0,0,0,0,0,0,0,0,0,0],"split_type":[0,0,0,0,0,0,0,0,0,0,0,0,0,0,0,0,0,0,0,0,0,0,0,0,0,0,0,0,0,0,0],"sum_hessian":[7.549299E2,3.8237427E2,3.725556E2,1.303533E2,2.5202097E2,2.2195116E1,3.503605E2,1.2262564E2,7.727661E0,1.2860002E1,2.3916096E2,3.662657E0,1.853246E1,4.3515255E1,3.0684525E2,1.01941605E2,2.068403E1,4.696408E0,3.0312533E0,5.777682E0,7.0823197E0,6.808562E1,1.7107535E2,2.5169778E0,1.1456792E0,1.12128315E1,7.3196273E0,3.021451E1,1.3300744E1,1.1796462E2,1.8888062E2],"tree_param":{"num_deleted":"0","num_feature":"6","num_nodes":"31","size_leaf_vector":"1"}},{"base_weights":[5.0161174E-4,-1.509726E-1,1.5474088E-1,2.6138783E-1,-3.6779958E-1,1.0929433E0,9.124251E-2,1.43082E-1,1.2456875E0,-4.6371496E-1,-1.04307696E-1,-5.9230804E-1,1.4253814E0,5.5243168E-2,1.1904719E0,6.392611E-2,4.809556E-3,-3.7275832E-2,7.528424E-2,-1.22093195E-2,-3.575797E-2,2.5374426E-2,-1.2989919E-2,-4.594106E-2,1.03595415E-2,1.0108995E-1,1.768284E-2,-2.9185895E-2,5.973513E-3,1.1024578E-1,2.9745286E-2],"categories":[],"categories_nodes":[],"categories_segments":[],"categories_sizes":[],"default_left":[0,0,0,0,0,0,0,0,0,0,0,0,0,0,0,0,0,0,0,0,0,0,0,0,0,0,0,0,0,0,0],"id":3,"left_children":[1,3,5,7,9,11,13,15,17,19,21,23,25,27,29,-1,-1,-1,-1,-1,-1,-1,-1,-1,-1,-1,-1,-1,-1,-1,-1],"loss_changes":[1.7673162E1,3.4219604E1,2.2228903E1,1.5205283E1,6.2835617E0,1.4103996E1,1.3868754E1,6.216044E0,8.393587E0,9.948322E0,6.6151085E0,1.3927547E0,1.2108429E1,1.41056385E1,5.4053774E0,0E0,0E0,0E0,0E0,0E0,0E0,0E0,0E0,0E0,0E0,0E0,0E0,0E0,0E0,0E0,0E0],"parents":[2147483647,0,0,1,1,2,2,3,3,4,4,5,5,6,6,7,7,8,8,9,9,10,10,11,11,12,12,13,13,14,14],"right_children":[2,4,6,8,10,12,14,16,18,20,22,24,26,28,30,-1,-1,-1,-1,-1,-1,-1,-1,-1,-1,-1,-1,-1,-1,-1,-1],"split_conditions":[-2.3442335E-1,-5.078484E-1,-1.8608408E-1,-5.240305E-1,-1.6295543E-1,1E0,4.0017138E0,-9.801228E-1,-8.1295526E-1,-4.3123096E-1,-5.8708304E-1,1.1936476E-1,3E0,-5.107599E-1,-3.0411428E-1,6.392611E-2,4.809556E-3,-3.7275832E-2,7.528424E-2,-1.22093195E-2,-3.575797E-2,2.5374426E-2,-1.2989919E-2,-4.594106E-2,1.03595415E-2,1.0108995E-1,1.768284E-2,-2.9185895E-2,5.973513E-3,1.1024578E-1,2.9745286E-2],"split_indices":[2,1,2,1,0,4,2,2,2,0,2,1,4,1,0,0,0,0,0,0,0,0,0,0,0,0,0,0,0,0,0],"split_type":[0,0,0,0,0,0,0,0,0,0,0,0,0,0,0,0,0,0,0,0,0,0,0,0,0,0,0,0,0,0,0],"sum_hessian":[7.544507E2,3.806479E2,3.7380283E2,1.3110588E2,2.49542E2,2.2667875E1,3.5113495E2,1.1806113E2,1.3044746E1,1.8238939E2,6.715261E1,3.606004E0,1.906187E1,3.4101703E2,1.011792E1,3.6405697E0,1.14420555E2,1.2909021E0,1.1753844E1,9.842694E1,8.3962456E1,1.3149721E1,5.400289E1,2.454391E0,1.151613E0,1.1677065E1,7.3848057E0,3.0408703E1,3.1060834E2,2.743177E0,7.374743E0],"tree_param":{"num_deleted":"0","num_feature":"6","num_nodes":"31","size_leaf_vector":"1"}},{"base_weights":[7.112289E-4,-1.440303E-1,1.470052E-1,2.4770527E-1,-3.5309902E-1,1.0239366E0,8.678942E-2,1.5918675E-1,1.423736E0,-4.220527E-1,-6.956867E-3,-5.777562E-1,1.3293424E0,-4.1973898E-1,1.5775186E-1,5.4702368E-3,5.9519317E-2,9.562048E-2,1.8312743E-2,-2.5688766E-3,-2.626646E-2,8.0364786E-2,-1.1363006E-2,-4.513621E-2,1.0054791E-2,9.3505815E-2,1.6777998E-2,-3.066324E-2,1.2407677E-3,2.9855726E-2,-1.2215382E-3],"categories":[],"categories_nodes":[],"categories_segments":[],"categories_sizes":[],"default_left":[0,0,0,0,0,0,0,0,0,0,0,0,0,0,0,0,0,0,0,0,0,0,0,0,0,0,0,0,0,0,0],"id":4,"left_children":[1,3,5,7,9,11,13,15,17,19,21,23,25,27,29,-1,-1,-1,-1,-1,-1,-1,-1,-1,-1,-1,-1,-1,-1,-1,-1],"loss_changes":[1.600409E1,3.1202961E1,1.9759815E1,1.3597238E1,5.919346E0,1.2537218E1,1.2748364E1,6.267358E0,4.0381203E0,7.893326E0,1.538498E1,1.3331488E0,1.0394596E1,3.7687106E0,2.4844097E1,0E0,0E0,0E0,0E0,0E0,0E0,0E0,0E0,0E0,0E0,0E0,0E0,0E0,0E0,0E0,0E0],"parents":[2147483647,0,0,1,1,2,2,3,3,4,4,5,5,6,6,7,7,8,8,9,9,10,10,11,11,12,12,13,13,14,14],"right_children":[2,4,6,8,10,12,14,16,18,20,22,24,26,28,30,-1,-1,-1,-1,-1,-1,-1,-1,-1,-1,-1,-1,-1,-1,-1,-1],"split_conditions":[-2.3442335E-1,-5.078484E-1,-1.8608408E-1,-5.1746356E-1,-3.9922748E-2,1E0,-4.6472988E-1,1.6505545E-1,6.2262095E-3,1E0,-5.8708304E-1,1.1936476E-1,3E0,6.010962E-2,-7.431657E-2,5.4702368E-3,5.9519317E-2,9.562048E-2,1.8312743E-2,-2.5688766E-3,-2.626646E-2,8.0364786E-2,-1.1363006E-2,-4.513621E-2,1.0054791E-2,9.3505815E-2,1.6777998E-2,-3.066324E-2,1.2407677E-3,2.9855726E-2,-1.2215382E-3],"split_indices":[2,1,2,1,1,4,1,3,3,4,2,1,4,2,1,0,0,0,0,0,0,0,0,0,0,0,0,0,0,0,0],"split_type":[0,0,0,0,0,0,0,0,0,0,0,0,0,0,0,0,0,0,0,0,0,0,0,0,0,0,0,0,0,0,0],"sum_hessian":[7.5380786E2,3.789222E2,3.7488568E2,1.3179358E2,2.4712862E2,2.3059675E1,3.5182602E2,1.2362391E2,8.169673E0,2.0589395E2,4.1234665E1,3.5500028E0,1.9509672E1,4.2628647E1,3.0919736E2,1.1898586E2,4.6380463E0,5.034649E0,3.1350245E0,4.5191643E1,1.6070232E2,4.195641E0,3.703902E1,2.39265E0,1.1573529E0,1.2063445E1,7.446227E0,2.9435236E1,1.3193411E1,8.9962E1,2.1923537E2],"tree_param":{"num_deleted":"0","num_feature":"6","num_nodes":"31","size_leaf_vector":"1"}},{"base_weights":[9.426132E-4,-1.369994E-1,1.3937871E-1,2.3546201E-1,-3.3861786E-1,9.6235317E-1,8.222262E-2,1.2813096E-1,1.1025676E0,-4.3027878E-1,-8.0006294E-2,-5.637295E-1,1.2447106E0,4.773812E-2,1.1159539E0,5.9767038E-2,4.1688145E-3,-3.7036024E-2,6.680125E-2,-9.9123055E-3,-3.2559972E-2,2.698125E-2,-1.1678945E-2,-4.4359613E-2,9.759316E-3,8.7015934E-2,1.592636E-2,6.786505E-3,-1.97964E-2,1.0940323E-1,2.8761698E-2],"categories":[],"categories_nodes":[],"categories_segments":[],"categories_sizes":[],"default_left":[0,0,0,0,0,0,0,0,0,0,0,0,0,0,0,0,0,0,0,0,0,0,0,0,0,0,0,0,0,0,0],"id":5,"left_children":[1,3,5,7,9,11,13,15,17,19,21,23,25,27,29,-1,-1,-1,-1,-1,-1,-1,-1,-1,-1,-1,-1,-1,-1,-1,-1],"loss_changes":[1.44189005E1,2.8481638E1,1.7647423E1,1.2275695E1,5.7920036E0,1.12069435E1,1.2547335E1,5.6249237E0,7.257025E0,9.161655E0,6.36356E0,1.2765484E0,9.032379E0,1.34484215E1,5.330554E0,0E0,0E0,0E0,0E0,0E0,0E0,0E0,0E0,0E0,0E0,0E0,0E0,0E0,0E0,0E0,0E0],"parents":[2147483647,0,0,1,1,2,2,3,3,4,4,5,5,6,6,7,7,8,8,9,9,10,10,11,11,12,12,13,13,14,14],"right_children":[2,4,6,8,10,12,14,16,18,20,22,24,26,28,30,-1,-1,-1,-1,-1,-1,-1,-1,-1,-1,-1,-1,-1,-1,-1,-1],"split_conditions":[-2.3442335E-1,-5.078484E-1,-1.8608408E-1,-5.240305E-1,-1.4597654E-1,1E0,4.0017138E0,-9.801228E-1,-8.1295526E-1,-4.5053613E-1,-5.8708304E-1,1.1936476E-1,3E0,2.2472794E0,1E0,5.9767038E-2,4.1688145E-3,-3.7036024E-2,6.680125E-2,-9.9123055E-3,-3.2559972E-2,2.698125E-2,-1.1678945E-2,-4.4359613E-2,9.759316E-3,8.7015934E-2,1.592636E-2,6.786505E-3,-1.97964E-2,1.0940323E-1,2.8761698E-2],"split_indices":[2,1,2,1,0,4,2,2,2,0,2,1,4,1,4,0,0,0,0,0,0,0,0,0,0,0,0,0,0,0,0],"split_type":[0,0,0,0,0,0,0,0,0,0,0,0,0,0,0,0,0,0,0,0,0,0,0,0,0,0,0,0,0,0,0],"sum_hessian":[7.530684E2,3.7721255E2,3.7585583E2,1.3241916E2,2.447934E2,2.3379778E1,3.5247607E2,1.18854965E2,1.3564199E1,1.8024463E2,6.454876E1,3.4947693E0,1.988501E1,3.4210974E2,1.0366342E1,3.7489755E0,1.1510599E2,1.280562E0,1.2283637E1,8.8836815E1,9.1407814E1,1.232129E1,5.2227474E1,2.3318639E0,1.1629055E0,1.2380881E1,7.504128E0,2.860681E2,5.6041615E1,2.4540353E0,7.9123063E0],"tree_param":{"num_deleted":"0","num_feature":"6","num_nodes":"31","size_leaf_vector":"1"}},{"base_weights":[1.1417689E-3,-1.3067646E-1,1.3254689E-1,2.233364E-1,-3.2491416E-1,9.0694594E-1,7.828862E-2,1.428259E-1,1.262422E0,3.0918443E-1,-3.6110693E-1,-5.5019665E-1,1.1694167E0,-4.0998268E-1,1.4590435E-1,-5.883056E-3,1.6080087E-2,8.5240655E-2,1.5185465E-2,-2.6337152E-2,4.8552286E-2,-2.3677187E-2,-4.0183384E-3,-4.3609094E-2,9.472832E-3,8.138748E-2,1.5124018E-2,-4.397646E-4,-3.1432625E-2,2.755042E-2,-1.244929E-3],"categories":[],"categories_nodes":[],"categories_segments":[],"categories_sizes":[],"default_left":[0,0,0,0,0,0,0,0,0,0,0,0,0,0,0,0,0,0,0,0,0,0,0,0,0,0,0,0,0,0,0],"id":6,"left_children":[1,3,5,7,9,11,13,15,17,19,21,23,25,27,29,-1,-1,-1,-1,-1,-1,-1,-1,-1,-1,-1,-1,-1,-1,-1,-1],"loss_changes":[1.3064476E1,2.5963615E1,1.5799143E1,1.1029045E1,5.700758E0,1.0065817E1,1.1749257E1,5.881455E0,3.5147314E0,8.084971E0,7.2487793E0,1.2227556E0,7.9298115E0,3.795672E0,2.158371E1,0E0,0E0,0E0,0E0,0E0,0E0,0E0,0E0,0E0,0E0,0E0,0E0,0E0,0E0,0E0,0E0],"parents":[2147483647,0,0,1,1,2,2,3,3,4,4,5,5,6,6,7,7,8,8,9,9,10,10,11,11,12,12,13,13,14,14],"right_children":[2,4,6,8,10,12,14,16,18,20,22,24,26,28,30,-1,-1,-1,-1,-1,-1,-1,-1,-1,-1,-1,-1,-1,-1,-1,-1],"split_conditions":[-2.3442335E-1,-5.078484E-1,-1.8608408E-1,-5.1746356E-1,-7.18966E-1,1E0,-4.6472988E-1,-6.6435844E-1,6.2262095E-3,-5.1784766E-1,-1.6295543E-1,1.1936476E-1,3E0,-5.539988E-3,-7.431657E-2,-5.883056E-3,1.6080087E-2,8.5240655E-2,1.5185465E-2,-2.6337152E-2,4.8552286E-2,-2.3677187E-2,-4.0183384E-3,-4.3609094E-2,9.472832E-3,8.138748E-2,1.5124018E-2,-4.397646E-4,-3.1432625E-2,2.755042E-2,-1.244929E-3],"split_indices":[2,1,2,1,0,4,1,2,3,2,0,1,4,3,1,0,0,0,0,0,0,0,0,0,0,0,0,0,0,0,0],"split_type":[0,0,0,0,0,0,0,0,0,0,0,0,0,0,0,0,0,0,0,0,0,0,0,0,0,0,0,0,0,0,0],"sum_hessian":[7.522308E2,3.7552783E2,3.767029E2,1.3299132E2,2.4253653E2,2.3636497E1,3.5306644E2,1.2448353E2,8.507788E0,1.2688627E1,2.298479E2,3.4404023E0,2.0196095E1,4.2329597E1,3.1073682E2,5.0802746E1,7.3680786E1,5.28899E0,3.2187977E0,5.697218E0,6.9914093E0,1.6362793E2,6.621997E1,2.2721257E0,1.1682765E0,1.2637365E1,7.5587287E0,1.5299767E1,2.7029829E1,9.149838E1,2.1923845E2],"tree_param":{"num_deleted":"0","num_feature":"6","num_nodes":"31","size_leaf_vector":"1"}},{"base_weights":[1.2034086E-3,-1.5185243E-2,1.0505618E0,-4.0119626E-2,5.150427E-1,1.0238969E-1,5.4054064E-1,-1.9525269E-2,-6.4005214E-1,8.905553E-2,2.536556E-1,-2.914691E-1,7.828572E-2,-1.7656088E-3,1.2789522E-1,-4.695959E-2,-1.75773E-2,-1.1868558E-2,3.1057736E-2,3.3655908E-2,-5.0165724E-2],"categories":[],"categories_nodes":[],"categories_segments":[],"categories_sizes":[],"default_left":[0,0,0,0,0,0,0,0,0,0,0,0,0,0,0,0,0,0,0,0,0],"id":7,"left_children":[1,3,5,7,9,-1,11,13,15,-1,17,19,-1,-1,-1,-1,-1,-1,-1,-1,-1],"loss_changes":[1.2955217E1,9.827998E0,4.7849197E0,8.752492E0,1.0597913E1,0E0,8.152558E0,2.8040146E1,1.6990852E0,0E0,5.351988E0,4.6741796E0,0E0,0E0,0E0,0E0,0E0,0E0,0E0,0E0,0E0],"parents":[2147483647,0,0,1,1,2,2,3,3,4,4,6,6,7,7,8,8,10,10,11,11],"right_children":[2,4,6,8,10,-1,12,14,16,-1,18,20,-1,-1,-1,-1,-1,-1,-1,-1,-1],"split_conditions":[4.0017138E0,1.5430412E-1,1E0,2.8660727E0,-3.2900998E-1,1.0238969E-1,4E0,2.7409503E0,2E0,8.905553E-2,-2.2557178E-1,6.0804643E-2,7.828572E-2,-1.7656088E-3,1.2789522E-1,-4.695959E-2,-1.75773E-2,-1.1868558E-2,3.1057736E-2,3.3655908E-2,-5.0165724E-2],"split_indices":[2,3,4,2,0,0,4,2,4,0,2,1,0,0,0,0,0,0,0,0,0],"split_type":[0,0,0,0,0,0,0,0,0,0,0,0,0,0,0,0,0,0,0,0,0],"sum_hessian":[7.513892E2,7.4080505E2,1.0584205E1,7.084156E2,3.2389458E1,2.561212E0,8.022992E0,6.859026E2,2.2512974E1,4.547736E0,2.7841722E1,4.823791E0,3.1992013E0,6.827073E2,3.195322E0,9.945526E0,1.2567447E1,1.206945E1,1.5772272E1,2.071375E0,2.7524161E0],"tree_param":{"num_deleted":"0","num_feature":"6","num_nodes":"21","size_leaf_vector":"1"}},{"base_weights":[1.529285E-3,-1.4248296E-2,9.966087E-1,-1.23301335E-1,9.6899256E-2,9.359402E-2,4.777126E-1,2.1241108E-1,-3.100628E-1,8.578994E-1,4.167741E-2,7.9762004E-2,-3.303707E-2,5.7285256E-3,4.9352303E-2,-1.8852582E-2,1.0172598E-3,-2.6808752E-2,5.5143118E-2,6.1643263E-3,-1.8848388E-2,-3.4324452E-2,5.1946532E-2],"categories":[],"categories_nodes":[],"categories_segments":[],"categories_sizes":[],"default_left":[0,0,0,0,0,0,0,0,0,0,0,0,0,0,0,0,0,0,0,0,0,0,0],"id":8,"left_children":[1,3,5,7,9,-1,11,13,15,17,19,-1,21,-1,-1,-1,-1,-1,-1,-1,-1,-1,-1],"loss_changes":[1.1823218E1,8.99863E0,4.4441767E0,2.3557217E1,1.5418157E1,0E0,5.0309906E0,1.0082502E1,5.3452263E0,9.070223E0,1.179635E1,0E0,5.592619E0,0E0,0E0,0E0,0E0,0E0,0E0,0E0,0E0,0E0,0E0],"parents":[2147483647,0,0,1,1,2,2,3,3,4,4,6,6,7,7,8,8,9,9,10,10,12,12],"right_children":[2,4,6,8,10,-1,12,14,16,18,20,-1,22,-1,-1,-1,-1,-1,-1,-1,-1,-1,-1],"split_conditions":[4.0017138E0,-2.3442335E-1,-3.0411428E-1,-5.078484E-1,-1.8608408E-1,9.359402E-2,1E0,-5.240305E-1,-3.9922748E-2,1E0,2.2472794E0,7.9762004E-2,4E0,5.7285256E-3,4.9352303E-2,-1.8852582E-2,1.0172598E-3,-2.6808752E-2,5.5143118E-2,6.1643263E-3,-1.8848388E-2,-3.4324452E-2,5.1946532E-2],"split_indices":[2,2,0,1,2,0,4,1,1,4,1,0,4,0,0,0,0,0,0,0,0,0,0],"split_type":[0,0,0,0,0,0,0,0,0,0,0,0,0,0,0,0,0,0,0,0,0,0,0],"sum_hessian":[7.511695E2,7.404154E2,1.0754049E1,3.7367386E2,3.6674155E2,3.0320952E0,7.721954E0,1.335229E2,2.4015097E2,2.382865E1,3.429129E2,1.7561476E0,5.9658065E0,1.1956864E2,1.3954261E1,1.9955154E2,4.0599422E1,3.383647E0,2.0445004E1,2.8756213E2,5.535077E1,3.9298441E0,2.035962E0],"tree_param":{"num_deleted":"0","num_feature":"6","num_nodes":"23","size_leaf_vector":"1"}},{"base_weights":[1.7109446E-3,-1.3538431E-2,9.518895E-1,-3.7434954E-2,4.8882827E-1,8.786456E-2,4.6295288E-1,1.2302836E0,-4.644542E-2,8.252176E-2,2.4174227E-1,7.589072E-2,-2.9251328E-2,1.0385795E-1,9.119737E-3,-1.3591255E-3,-3.0700415E-2,-1.1026207E-2,2.894469E-2,-3.3390623E-2,4.9453594E-2],"categories":[],"categories_nodes":[],"categories_segments":[],"categories_sizes":[],"default_left":[0,0,0,0,0,0,0,0,0,0,0,0,0,0,0,0,0,0,0,0,0],"id":9,"left_children":[1,3,5,7,9,-1,11,13,15,-1,17,-1,19,-1,-1,-1,-1,-1,-1,-1,-1],"loss_changes":[1.0899987E1,8.907741E0,3.8655863E0,8.142086E0,9.272116E0,0E0,4.588201E0,4.0863433E0,7.6774845E0,0E0,4.640666E0,0E0,5.178676E0,0E0,0E0,0E0,0E0,0E0,0E0,0E0,0E0],"parents":[2147483647,0,0,1,1,2,2,3,3,4,4,6,6,7,7,8,8,10,10,12,12],"right_children":[2,4,6,8,10,-1,12,14,16,-1,18,-1,20,-1,-1,-1,-1,-1,-1,-1,-1],"split_conditions":[4.0017138E0,1.5430412E-1,-3.0411428E-1,-9.801228E-1,-3.2900998E-1,8.786456E-2,1E0,1E0,2.8660727E0,8.252176E-2,-2.2557178E-1,7.589072E-2,4E0,1.0385795E-1,9.119737E-3,-1.3591255E-3,-3.0700415E-2,-1.1026207E-2,2.894469E-2,-3.3390623E-2,4.9453594E-2],"split_indices":[2,3,0,2,0,0,4,4,2,0,2,0,4,0,0,0,0,0,0,0,0],"split_type":[0,0,0,0,0,0,0,0,0,0,0,0,0,0,0,0,0,0,0,0,0],"sum_hessian":[7.503718E2,7.394895E2,1.0882284E1,7.067943E2,3.269523E1,3.1308606E0,7.751424E0,4.0316095E0,7.027627E2,4.7385664E0,2.7956661E1,1.8032029E0,5.948221E0,1.6864412E0,2.345168E0,6.807076E2,2.205511E1,1.1936507E1,1.6020155E1,3.8673322E0,2.080889E0],"tree_param":{"num_deleted":"0","num_feature":"6","num_nodes":"21","size_leaf_vector":"1"}},{"base_weights":[2.070754E-3,-1.1726812E-1,1.1954042E-1,1.9988708E-1,-2.9611793E-1,8.08385E-1,7.054163E-2,1.259277E-1,1.1375693E0,3.1329918E-1,-3.3159727E-1,-5.2093244E-1,1.0359664E0,-4.950041E-1,1.24189794E-1,1.2908347E-3,2.9325956E-2,7.745651E-2,1.2605726E-2,-2.4919303E-2,4.662126E-2,-2.214231E-3,-2.2366194E-2,-4.239029E-2,1.0073798E-2,7.331135E-2,1.17465705E-2,-6.845257E-3,-3.565977E-2,1.9311348E-2,-3.2145008E-3],"categories":[],"categories_nodes":[],"categories_segments":[],"categories_sizes":[],"default_left":[0,0,0,0,0,0,0,0,0,0,0,0,0,0,0,0,0,0,0,0,0,0,0,0,0,0,0,0,0,0,0],"id":10,"left_children":[1,3,5,7,9,11,13,15,17,19,21,23,25,27,29,-1,-1,-1,-1,-1,-1,-1,-1,-1,-1,-1,-1,-1,-1,-1,-1],"loss_changes":[1.0542924E1,2.1220976E1,1.2734862E1,9.227327E0,5.270441E0,8.124775E0,1.0829855E1,5.8116045E0,3.1639318E0,7.3294764E0,7.504328E0,1.1933745E0,7.1490097E0,2.3207135E0,1.6074505E1,0E0,0E0,0E0,0E0,0E0,0E0,0E0,0E0,0E0,0E0,0E0,0E0,0E0,0E0,0E0,0E0],"parents":[2147483647,0,0,1,1,2,2,3,3,4,4,5,5,6,6,7,7,8,8,9,9,10,10,11,11,12,12,13,13,14,14],"right_children":[2,4,6,8,10,12,14,16,18,20,22,24,26,28,30,-1,-1,-1,-1,-1,-1,-1,-1,-1,-1,-1,-1,-1,-1,-1,-1],"split_conditions":[-2.3442335E-1,-5.078484E-1,-1.8608408E-1,-5.1746356E-1,-7.18966E-1,1E0,-5.107599E-1,-3.592836E-1,6.2262095E-3,-5.1784766E-1,-5.464825E-1,1.1936476E-1,3E0,-6.699273E-1,1.1936476E-1,1.2908347E-3,2.9325956E-2,7.745651E-2,1.2605726E-2,-2.4919303E-2,4.662126E-2,-2.214231E-3,-2.2366194E-2,-4.239029E-2,1.0073798E-2,7.331135E-2,1.17465705E-2,-6.845257E-3,-3.565977E-2,1.9311348E-2,-3.2145008E-3],"split_indices":[2,1,2,1,0,4,1,0,3,2,2,1,4,1,1,0,0,0,0,0,0,0,0,0,0,0,0,0,0,0,0],"split_type":[0,0,0,0,0,0,0,0,0,0,0,0,0,0,0,0,0,0,0,0,0,0,0,0,0,0,0,0,0,0,0],"sum_hessian":[7.500616E2,3.720714E2,3.779902E2,1.3411934E2,2.3795207E2,2.4072422E1,3.539178E2,1.2536548E2,8.753864E0,1.2660266E1,2.2529181E2,3.3303926E0,2.0742031E1,2.9951338E1,3.2396643E2,1.0384951E2,2.151597E1,5.4644485E0,3.2894156E0,5.562607E0,7.097659E0,6.5086136E1,1.6020567E2,2.173397E0,1.1569954E0,1.2953754E1,7.788276E0,1.195616E1,1.799518E1,1.3509677E2,1.8886967E2],"tree_param":{"num_deleted":"0","num_feature":"6","num_nodes":"31","size_leaf_vector":"1"}},{"base_weights":[2.0831826E-3,-1.2634692E-2,9.0896344E-1,-3.5358462E-2,4.5935792E-1,8.694848E-2,4.6861875E-1,1.170148E0,-4.4083323E-2,7.684939E-2,2.249417E-1,-2.7276945E-1,1.3129025E0,9.806062E-2,8.633208E-3,2.0271655E-2,-3.3264838E-3,-1.0416618E-2,2.6681522E-2,2.996811E-2,-4.7854837E-2,7.905922E-2,1.153115E-2],"categories":[],"categories_nodes":[],"categories_segments":[],"categories_sizes":[],"default_left":[0,0,0,0,0,0,0,0,0,0,0,0,0,0,0,0,0,0,0,0,0,0,0],"id":11,"left_children":[1,3,5,7,9,-1,11,13,15,-1,17,19,21,-1,-1,-1,-1,-1,-1,-1,-1,-1,-1],"loss_changes":[1.0023711E1,7.943801E0,3.5684748E0,7.4783964E0,8.248727E0,0E0,6.119836E0,3.693602E0,7.1101875E0,0E0,4.0052133E0,3.9928918E0,9.3491936E-1,0E0,0E0,0E0,0E0,0E0,0E0,0E0,0E0,0E0,0E0],"parents":[2147483647,0,0,1,1,2,2,3,3,4,4,6,6,7,7,8,8,10,10,11,11,12,12],"right_children":[2,4,6,8,10,-1,12,14,16,-1,18,20,22,-1,-1,-1,-1,-1,-1,-1,-1,-1,-1],"split_conditions":[4.0017138E0,1.5430412E-1,1E0,-9.801228E-1,-3.2900998E-1,8.694848E-2,4E0,1E0,-1.4873752E-1,7.684939E-2,-2.2557178E-1,6.0804643E-2,9.423967E-1,9.806062E-2,8.633208E-3,2.0271655E-2,-3.3264838E-3,-1.0416618E-2,2.6681522E-2,2.996811E-2,-4.7854837E-2,7.905922E-2,1.153115E-2],"split_indices":[2,3,4,2,0,0,4,4,3,0,2,1,0,0,0,0,0,0,0,0,0,0,0],"split_type":[0,0,0,0,0,0,0,0,0,0,0,0,0,0,0,0,0,0,0,0,0,0,0],"sum_hessian":[7.491285E2,7.3813525E2,1.0993223E1,7.0511316E2,3.3022114E1,2.7883496E0,8.204873E0,4.110083E0,7.0100305E2,4.9071045E0,2.8115011E1,4.729071E0,3.4758024E0,1.7533846E0,2.3566988E0,3.252794E1,6.684751E2,1.1832324E1,1.6282686E1,2.1338165E0,2.5952547E0,2.4159467E0,1.0598555E0],"tree_param":{"num_deleted":"0","num_feature":"6","num_nodes":"23","size_leaf_vector":"1"}},{"base_weights":[2.450294E-3,-1.1033906E-1,1.1274614E-1,1.900654E-1,-2.818944E-1,7.6708186E-1,6.607231E-2,1.1921294E-1,1.0823942E0,-3.7194577E-1,-4.2587202E-2,-5.076355E-1,9.808787E-1,-3.9036372E-1,1.2799112E-1,-6.3587436E-3,1.4341409E-2,6.774075E-2,1.8444224E-4,-8.059732E-3,-3.110434E-2,3.0763004E-2,-8.250252E-3,-4.1647285E-2,9.759479E-3,6.9269694E-2,1.1215982E-2,-5.2458487E-5,-3.028582E-2,2.4191773E-2,-1.2913907E-3],"categories":[],"categories_nodes":[],"categories_segments":[],"categories_sizes":[],"default_left":[0,0,0,0,0,0,0,0,0,0,0,0,0,0,0,0,0,0,0,0,0,0,0,0,0,0,0,0,0,0,0],"id":12,"left_children":[1,3,5,7,9,11,13,15,17,19,21,23,25,27,29,-1,-1,-1,-1,-1,-1,-1,-1,-1,-1,-1,-1,-1,-1,-1,-1],"loss_changes":[9.339729E0,1.9183752E1,1.1541517E1,8.439481E0,5.0844536E0,7.359661E0,1.0094045E1,5.2682047E0,2.88828E0,8.958389E0,5.403698E0,1.140067E0,6.3922825E0,3.5792804E0,1.7182652E1,0E0,0E0,0E0,0E0,0E0,0E0,0E0,0E0,0E0,0E0,0E0,0E0,0E0,0E0,0E0,0E0],"parents":[2147483647,0,0,1,1,2,2,3,3,4,4,5,5,6,6,7,7,8,8,9,9,10,10,11,11,12,12,13,13,14,14],"right_children":[2,4,6,8,10,12,14,16,18,20,22,24,26,28,30,-1,-1,-1,-1,-1,-1,-1,-1,-1,-1,-1,-1,-1,-1,-1,-1],"split_conditions":[-2.3442335E-1,-5.078484E-1,-1.8608408E-1,-5.1746356E-1,-1.6295543E-1,1E0,-4.6472988E-1,-6.6435844E-1,2.5016306E-2,-4.3123096E-1,-3.9481196E-1,1.1936476E-1,3E0,-5.539988E-3,-7.431657E-2,-6.3587436E-3,1.4341409E-2,6.774075E-2,1.8444224E-4,-8.059732E-3,-3.110434E-2,3.0763004E-2,-8.250252E-3,-4.1647285E-2,9.759479E-3,6.9269694E-2,1.1215982E-2,-5.2458487E-5,-3.028582E-2,2.4191773E-2,-1.2913907E-3],"split_indices":[2,1,2,1,0,4,1,2,3,0,1,1,4,3,1,0,0,0,0,0,0,0,0,0,0,0,0,0,0,0,0],"split_type":[0,0,0,0,0,0,0,0,0,0,0,0,0,0,0,0,0,0,0,0,0,0,0,0,0,0,0,0,0,0,0],"sum_hessian":[7.4877014E2,3.7020026E2,3.7856992E2,1.3452696E2,2.3567328E2,2.4177845E1,3.5439206E2,1.2568125E2,8.845711E0,1.708341E2,6.483919E1,3.2752855E0,2.090256E1,4.169941E1,3.1269266E2,5.098159E1,7.469966E1,6.85784E0,1.9878713E0,9.360964E1,7.7224464E1,9.541157E0,5.5298027E1,2.112399E0,1.1628864E0,1.3078567E1,7.8239927E0,1.520916E1,2.6490248E1,9.37247E1,2.1896796E2],"tree_param":{"num_deleted":"0","num_feature":"6","num_nodes":"31","size_leaf_vector":"1"}},{"base_weights":[2.3890825E-3,-1.180994E-2,8.6907387E-1,6.6892602E-3,-5.7548934E-1,8.259421E-2,4.490648E-1,-8.792051E-3,1.2033551E-1,-3.6938432E-1,-5.4623585E-2,-2.671193E-1,1.2477082E0,5.1102706E-4,-3.601929E-2,-3.421647E-2,7.377052E-2,2.8356513E-2,-4.6954356E-2,7.4793644E-2,1.1244166E-2],"categories":[],"categories_nodes":[],"categories_segments":[],"categories_sizes":[],"default_left":[0,0,0,0,0,0,0,0,0,0,0,0,0,0,0,0,0,0,0,0,0],"id":13,"left_children":[1,3,5,7,9,-1,11,13,-1,15,-1,17,19,-1,-1,-1,-1,-1,-1,-1,-1],"loss_changes":[9.224878E0,7.6963296E0,3.230979E0,2.6596607E1,2.0953941E0,0E0,5.6167407E0,9.635612E0,0E0,1.1629718E1,0E0,3.7243965E0,8.1688166E-1,0E0,0E0,0E0,0E0,0E0,0E0,0E0,0E0],"parents":[2147483647,0,0,1,1,2,2,3,3,4,4,6,6,7,7,9,9,11,11,12,12],"right_children":[2,4,6,8,10,-1,12,14,-1,16,-1,18,20,-1,-1,-1,-1,-1,-1,-1,-1],"split_conditions":[4.0017138E0,2.8660727E0,1E0,2.7409503E0,3.7852323E0,8.259421E-2,4E0,1.9189818E0,1.2033551E-1,3.7092369E0,-5.4623585E-2,6.0804643E-2,9.423967E-1,5.1102706E-4,-3.601929E-2,-3.421647E-2,7.377052E-2,2.8356513E-2,-4.6954356E-2,7.4793644E-2,1.1244166E-2],"split_indices":[2,2,4,2,1,0,4,2,0,1,0,1,0,0,0,0,0,0,0,0,0],"split_type":[0,0,0,0,0,0,0,0,0,0,0,0,0,0,0,0,0,0,0,0,0],"sum_hessian":[7.477857E2,7.367026E2,1.1083132E1,7.1424994E2,2.2452593E1,2.8459308E0,8.237201E0,7.106622E2,3.5877826E0,1.7278633E1,5.1739593E0,4.6936765E0,3.5435243E0,6.931286E2,1.7533594E1,1.5296286E1,1.9823475E0,2.1635902E0,2.5300863E0,2.4794514E0,1.064073E0],"tree_param":{"num_deleted":"0","num_feature":"6","num_nodes":"21","size_leaf_vector":"1"}},{"base_weights":[2.5175596E-3,-1.0565001E-1,1.0786526E-1,1.7994316E-1,-2.705789E-1,7.2774297E-1,6.3519135E-2,9.370146E-2,8.502902E-1,-3.368133E-1,5.1680125E-2,-4.960447E-1,9.2949915E-1,-3.7563682E-1,1.22385606E-1,1.08487075E-2,-1.2910125E-2,-3.8143575E-2,5.2765768E-2,1.774371E-3,-2.212455E-2,7.603335E-2,-8.160279E-3,-4.0987503E-2,9.457997E-3,6.560688E-2,1.0648468E-2,-2.8316338E-2,2.6274952E-3,1.9644937E-2,-2.935483E-3],"categories":[],"categories_nodes":[],"categories_segments":[],"categories_sizes":[],"default_left":[0,0,0,0,0,0,0,0,0,0,0,0,0,0,0,0,0,0,0,0,0,0,0,0,0,0,0,0,0,0,0],"id":14,"left_children":[1,3,5,7,9,11,13,15,17,19,21,23,25,27,29,-1,-1,-1,-1,-1,-1,-1,-1,-1,-1,-1,-1,-1,-1,-1,-1],"loss_changes":[8.541245E0,1.7468906E1,1.0391727E1,7.782253E0,5.030073E0,6.6967945E0,9.235067E0,5.3316593E0,5.8910036E0,7.685341E0,1.3160641E1,1.0924991E0,5.760273E0,3.4803925E0,1.5415068E1,0E0,0E0,0E0,0E0,0E0,0E0,0E0,0E0,0E0,0E0,0E0,0E0,0E0,0E0,0E0,0E0],"parents":[2147483647,0,0,1,1,2,2,3,3,4,4,5,5,6,6,7,7,8,8,9,9,10,10,11,11,12,12,13,13,14,14],"right_children":[2,4,6,8,10,12,14,16,18,20,22,24,26,28,30,-1,-1,-1,-1,-1,-1,-1,-1,-1,-1,-1,-1,-1,-1,-1,-1],"split_conditions":[-2.3442335E-1,-5.078484E-1,-1.8608408E-1,-5.240305E-1,-3.9922748E-2,1E0,-4.6472988E-1,-5.701314E-1,-8.1295526E-1,1E0,-5.8708304E-1,1.1936476E-1,3E0,6.010962E-2,1.1936476E-1,1.08487075E-2,-1.2910125E-2,-3.8143575E-2,5.2765768E-2,1.774371E-3,-2.212455E-2,7.603335E-2,-8.160279E-3,-4.0987503E-2,9.457997E-3,6.560688E-2,1.0648468E-2,-2.8316338E-2,2.6274952E-3,1.9644937E-2,-2.935483E-3],"split_indices":[2,1,2,1,1,4,1,1,2,4,2,1,4,2,1,0,0,0,0,0,0,0,0,0,0,0,0,0,0,0,0],"split_type":[0,0,0,0,0,0,0,0,0,0,0,0,0,0,0,0,0,0,0,0,0,0,0,0,0,0,0,0,0,0,0],"sum_hessian":[7.4754724E2,3.6883585E2,3.7871143E2,1.3499156E2,2.3384428E2,2.4255362E1,3.5445605E2,1.2061406E2,1.4377497E1,1.9393861E2,3.9905674E1,3.2264042E0,2.1028955E1,4.126081E1,3.1319525E2,8.960771E1,3.1006344E1,1.3144428E0,1.3063054E1,4.3025314E1,1.509133E2,4.3170595E0,3.558861E1,2.0578663E0,1.168538E0,1.3166562E1,7.862394E0,2.8324211E1,1.29366E1,1.2512251E2,1.8807274E2],"tree_param":{"num_deleted":"0","num_feature":"6","num_nodes":"31","size_leaf_vector":"1"}},{"base_weights":[2.4487393E-3,-1.1224332E-2,8.304041E-1,6.41409E-3,-5.5610067E-1,7.861381E-2,4.2894453E-1,-8.463824E-3,1.10913865E-1,-3.5355368E-1,-5.3635985E-2,-2.650628E-1,1.1900076E0,4.8307338E-4,-3.4910228E-2,-3.3223428E-2,6.965939E-2,2.6400814E-2,-4.6060085E-2,7.103431E-2,1.1011527E-2],"categories":[],"categories_nodes":[],"categories_segments":[],"categories_sizes":[],"default_left":[0,0,0,0,0,0,0,0,0,0,0,0,0,0,0,0,0,0,0,0,0],"id":15,"left_children":[1,3,5,7,9,-1,11,13,-1,15,-1,17,19,-1,-1,-1,-1,-1,-1,-1,-1],"loss_changes":[8.471374E0,7.080242E0,2.94631E0,2.3522541E1,2.0379105E0,0E0,5.2082233E0,8.88865E0,0E0,1.074785E1,0E0,3.4332685E0,7.162714E-1,0E0,0E0,0E0,0E0,0E0,0E0,0E0,0E0],"parents":[2147483647,0,0,1,1,2,2,3,3,4,4,6,6,7,7,9,9,11,11,12,12],"right_children":[2,4,6,8,10,-1,12,14,-1,16,-1,18,20,-1,-1,-1,-1,-1,-1,-1,-1],"split_conditions":[4.0017138E0,2.8660727E0,1E0,2.7409503E0,3.7852323E0,7.861381E-2,4E0,1.9189818E0,1.10913865E-1,3.7092369E0,-5.3635985E-2,6.0804643E-2,9.423967E-1,4.8307338E-4,-3.4910228E-2,-3.3223428E-2,6.965939E-2,2.6400814E-2,-4.6060085E-2,7.103431E-2,1.1011527E-2],"split_indices":[2,2,4,2,1,0,4,2,0,1,0,1,0,0,0,0,0,0,0,0,0],"split_type":[0,0,0,0,0,0,0,0,0,0,0,0,0,0,0,0,0,0,0,0,0],"sum_hessian":[7.464855E2,7.353285E2,1.1156964E1,7.132285E2,2.2099995E1,2.8935199E0,8.263444E0,7.0945264E2,3.7759008E0,1.7085695E1,5.014299E0,4.6630063E0,3.6004379E0,6.9224744E2,1.7205172E1,1.5029996E1,2.0556998E0,2.199602E0,2.4634047E0,2.5329654E0,1.0674726E0],"tree_param":{"num_deleted":"0","num_feature":"6","num_nodes":"21","size_leaf_vector":"1"}},{"base_weights":[2.5546975E-3,-2.0843204E-2,4.8013654E-1,-1.044387E-1,1.0748906E-1,7.141224E-2,2.7150467E-1,1.3579234E-1,-2.1570116E-1,-5.039567E-1,1.5782025E-1,-1.9024727E-1,5.784255E-1,3.564984E-3,4.671555E-2,-9.068078E-3,-6.1159283E-2,-5.88483E-3,-4.155942E-2,2.2409635E-2,-2.8666176E-3,1.9423598E-2,-4.629165E-2,-3.7480698E-3,4.296481E-2],"categories":[],"categories_nodes":[],"categories_segments":[],"categories_sizes":[],"default_left":[0,0,0,0,0,0,0,0,0,0,0,0,0,0,0,0,0,0,0,0,0,0,0,0,0],"id":16,"left_children":[1,3,5,7,9,-1,11,13,15,17,19,21,23,-1,-1,-1,-1,-1,-1,-1,-1,-1,-1,-1,-1],"loss_changes":[8.359542E0,7.6631E0,6.5233755E0,1.158734E1,8.753134E0,0E0,4.3435616E0,7.0140843E0,1.0016265E1,2.641665E0,1.6341955E1,5.757525E0,3.4029741E0,0E0,0E0,0E0,0E0,0E0,0E0,0E0,0E0,0E0,0E0,0E0,0E0],"parents":[2147483647,0,0,1,1,2,2,3,3,4,4,6,6,7,7,8,8,9,9,10,10,11,11,12,12],"right_children":[2,4,6,8,10,-1,12,14,16,18,20,22,24,-1,-1,-1,-1,-1,-1,-1,-1,-1,-1,-1,-1],"split_conditions":[1.5430412E-1,0E0,-3.2900998E-1,-5.078484E-1,-5.593528E-1,7.141224E-2,-2.2557178E-1,-5.1746356E-1,-3.986921E-2,-6.699273E-1,3.260606E-1,1.2E1,2.260453E-1,3.564984E-3,4.671555E-2,-9.068078E-3,-6.1159283E-2,-5.88483E-3,-4.155942E-2,2.2409635E-2,-2.8666176E-3,1.9423598E-2,-4.629165E-2,-3.7480698E-3,4.296481E-2],"split_indices":[3,2,0,1,1,0,2,1,2,1,1,5,3,0,0,0,0,0,0,0,0,0,0,0,0],"split_type":[0,0,0,0,0,0,0,0,0,0,0,0,0,0,0,0,0,0,0,0,0,0,0,0,0],"sum_hessian":[7.462011E2,7.12262E2,3.39391E1,4.31421E2,2.80841E2,5.066968E0,2.8872131E1,1.3649309E2,2.9492792E2,2.0673794E1,2.601672E2,1.1680046E1,1.7192085E1,1.2730087E2,9.192214E0,2.863479E2,8.580009E0,1.0105301E1,1.0568492E1,1.1026677E2,1.4990044E2,6.8011527E0,4.8788934E0,5.3889427E0,1.18031435E1],"tree_param":{"num_deleted":"0","num_feature":"6","num_nodes":"25","size_leaf_vector":"1"}},{"base_weights":[2.4146452E-3,-1.0698153E-2,7.915013E-1,6.184683E-3,-5.3930956E-1,7.5086646E-2,4.0579033E-1,-8.079888E-3,2.054629E0,-8.7181264E-1,-2.4490812E-1,-2.6530948E-1,1.1307511E0,4.624811E-4,-3.3912484E-2,3.169167E-2,1.14966966E-1,1.0021489E-2,-5.146491E-2,-4.4386264E-2,7.985712E-3,2.436245E-2,-4.5201104E-2,6.7196146E-2,1.0783652E-2],"categories":[],"categories_nodes":[],"categories_segments":[],"categories_sizes":[],"default_left":[0,0,0,0,0,0,0,0,0,0,0,0,0,0,0,0,0,0,0,0,0,0,0,0,0],"id":17,"left_children":[1,3,5,7,9,-1,11,13,15,17,19,21,23,-1,-1,-1,-1,-1,-1,-1,-1,-1,-1,-1,-1],"loss_changes":[7.735332E0,6.5676665E0,2.7382026E0,2.0873022E1,2.0160275E0,0E0,4.8195324E0,8.25001E0,2.6014137E-1,1.9464779E0,3.6455302E0,3.1485238E0,6.183119E-1,0E0,0E0,0E0,0E0,0E0,0E0,0E0,0E0,0E0,0E0,0E0,0E0],"parents":[2147483647,0,0,1,1,2,2,3,3,4,4,6,6,7,7,8,8,9,9,10,10,11,11,12,12],"right_children":[2,4,6,8,10,-1,12,14,16,18,20,22,24,-1,-1,-1,-1,-1,-1,-1,-1,-1,-1,-1,-1],"split_conditions":[4.0017138E0,2.8660727E0,1E0,2.7409503E0,2E0,7.5086646E-2,4E0,1.9189818E0,9.1918156E-2,-2.3569362E-1,7.834295E-2,6.0804643E-2,9.423967E-1,4.624811E-4,-3.3912484E-2,3.169167E-2,1.14966966E-1,1.0021489E-2,-5.146491E-2,-4.4386264E-2,7.985712E-3,2.436245E-2,-4.5201104E-2,6.7196146E-2,1.0783652E-2],"split_indices":[2,2,4,2,4,0,4,2,0,1,0,1,0,0,0,0,0,0,0,0,0,0,0,0,0],"split_type":[0,0,0,0,0,0,0,0,0,0,0,0,0,0,0,0,0,0,0,0,0,0,0,0,0],"sum_hessian":[7.457638E2,7.345438E2,1.1219979E1,7.127677E2,2.1776134E1,2.930488E0,8.289492E0,7.0882776E2,3.9399457E0,9.305267E0,1.2470866E1,4.633902E0,3.6555896E0,6.9192194E2,1.6905788E1,1.1063838E0,2.833562E0,1.1567605E0,8.148506E0,4.356231E0,8.114635E0,2.2362251E0,2.397677E0,2.5848048E0,1.0707849E0],"tree_param":{"num_deleted":"0","num_feature":"6","num_nodes":"25","size_leaf_vector":"1"}},{"base_weights":[2.486694E-3,-1.9870952E-2,4.5475796E-1,-1.0004067E-1,1.02762535E-1,6.698479E-2,2.5674918E-1,-7.495055E-2,-1.1118013E0,-4.8839292E-1,1.5070175E-1,-1.8420923E-1,5.4604065E-1,6.5935547E-3,-8.679091E-3,-7.793773E-3,-6.0014244E-2,-5.728097E-3,-4.0531684E-2,2.1094227E-2,-2.6448797E-3,1.8386573E-2,-4.530699E-2,-3.3876603E-3,4.0223766E-2],"categories":[],"categories_nodes":[],"categories_segments":[],"categories_sizes":[],"default_left":[0,0,0,0,0,0,0,0,0,0,0,0,0,0,0,0,0,0,0,0,0,0,0,0,0],"id":18,"left_children":[1,3,5,7,9,-1,11,13,15,17,19,21,23,-1,-1,-1,-1,-1,-1,-1,-1,-1,-1,-1,-1],"loss_changes":[7.557122E0,7.0129004E0,5.8247895E0,1.0862947E1,8.066963E0,0E0,3.9281697E0,8.6281395E0,6.893797E-1,2.4842362E0,1.4469463E1,5.3675113E0,2.9685473E0,0E0,0E0,0E0,0E0,0E0,0E0,0E0,0E0,0E0,0E0,0E0,0E0],"parents":[2147483647,0,0,1,1,2,2,3,3,4,4,6,6,7,7,8,8,9,9,10,10,11,11,12,12],"right_children":[2,4,6,8,10,-1,12,14,16,18,20,22,24,-1,-1,-1,-1,-1,-1,-1,-1,-1,-1,-1,-1],"split_conditions":[1.5430412E-1,0E0,-3.2900998E-1,-3.986921E-2,-5.593528E-1,6.698479E-2,-2.2557178E-1,-5.078484E-1,-5.8396643E-1,-6.699273E-1,3.260606E-1,1.2E1,2.260453E-1,6.5935547E-3,-8.679091E-3,-7.793773E-3,-6.0014244E-2,-5.728097E-3,-4.0531684E-2,2.1094227E-2,-2.6448797E-3,1.8386573E-2,-4.530699E-2,-3.3876603E-3,4.0223766E-2],"split_indices":[3,2,0,2,1,0,2,1,1,1,1,5,3,0,0,0,0,0,0,0,0,0,0,0,0],"split_type":[0,0,0,0,0,0,0,0,0,0,0,0,0,0,0,0,0,0,0,0,0,0,0,0,0],"sum_hessian":[7.4546893E2,7.112643E2,3.420468E1,4.3020724E2,2.81057E2,5.199833E0,2.9004848E1,4.2084503E2,9.362232E0,2.0393219E1,2.606638E2,1.1634289E1,1.737056E1,1.3578273E2,2.850623E2,1.0271478E0,8.335085E0,1.00684E1,1.0324818E1,1.1131988E2,1.493439E2,6.8714547E0,4.7628345E0,5.365378E0,1.2005181E1],"tree_param":{"num_deleted":"0","num_feature":"6","num_nodes":"25","size_leaf_vector":"1"}},{"base_weights":[2.2805908E-3,-9.691275E-2,9.8094456E-2,1.5385945E-1,-2.4547213E-1,7.0530134E-1,5.4790076E-2,7.534152E-2,7.6006645E-1,3.415133E-1,-2.805766E-1,-4.7605327E-1,8.9548594E-1,-3.554388E-1,1.0874435E-1,9.53211E-3,-1.2862796E-2,-3.803312E-2,4.7611922E-2,-2.37266E-2,4.767048E-2,-1.451297E-4,-1.9721994E-2,-4.0105317E-2,9.673527E-3,6.281318E-2,1.0761224E-2,1.1652646E-3,-2.8458795E-2,1.9935468E-2,-1.0526002E-3],"categories":[],"categories_nodes":[],"categories_segments":[],"categories_sizes":[],"default_left":[0,0,0,0,0,0,0,0,0,0,0,0,0,0,0,0,0,0,0,0,0,0,0,0,0,0,0,0,0,0,0],"id":19,"left_children":[1,3,5,7,9,11,13,15,17,19,21,23,25,27,29,-1,-1,-1,-1,-1,-1,-1,-1,-1,-1,-1,-1,-1,-1,-1,-1],"loss_changes":[7.1005073E0,1.3713463E1,9.953653E0,6.472185E0,4.8538847E0,6.091054E0,7.9137554E0,4.7489996E0,5.2892494E0,7.184054E0,6.9048615E0,1.0609285E0,5.1446323E0,3.380083E0,1.1871692E1,0E0,0E0,0E0,0E0,0E0,0E0,0E0,0E0,0E0,0E0,0E0,0E0,0E0,0E0,0E0,0E0],"parents":[2147483647,0,0,1,1,2,2,3,3,4,4,5,5,6,6,7,7,8,8,9,9,10,10,11,11,12,12,13,13,14,14],"right_children":[2,4,6,8,10,12,14,16,18,20,22,24,26,28,30,-1,-1,-1,-1,-1,-1,-1,-1,-1,-1,-1,-1,-1,-1,-1,-1],"split_conditions":[-2.3442335E-1,-5.078484E-1,-1.8608408E-1,-5.240305E-1,-7.18966E-1,1E0,-4.6472988E-1,-5.701314E-1,-8.1295526E-1,-7.956872E-1,-5.464825E-1,1.1936476E-1,3E0,-5.539988E-3,-7.431657E-2,9.53211E-3,-1.2862796E-2,-3.803312E-2,4.7611922E-2,-2.37266E-2,4.767048E-2,-1.451297E-4,-1.9721994E-2,-4.0105317E-2,9.673527E-3,6.281318E-2,1.0761224E-2,1.1652646E-3,-2.8458795E-2,1.9935468E-2,-1.0526002E-3],"split_indices":[2,1,2,1,0,4,1,1,2,0,2,1,4,3,1,0,0,0,0,0,0,0,0,0,0,0,0,0,0,0,0],"split_type":[0,0,0,0,0,0,0,0,0,0,0,0,0,0,0,0,0,0,0,0,0,0,0,0,0,0,0,0,0,0,0],"sum_hessian":[7.4509937E2,3.6608777E2,3.790116E2,1.3617874E2,2.2990901E2,2.4213055E1,3.5479855E2,1.2155838E2,1.4620359E1,1.2481189E1,2.1742783E2,3.1490762E0,2.106398E1,4.0590477E1,3.1420807E2,9.0583015E1,3.0975367E1,1.3083849E0,1.33119755E1,5.4445906E0,7.036598E0,6.352859E1,1.5389923E2,1.9845772E0,1.1644992E0,1.3210851E1,7.853128E0,1.49643955E1,2.5626083E1,9.65171E1,2.1769096E2],"tree_param":{"num_deleted":"0","num_feature":"6","num_nodes":"31","size_leaf_vector":"1"}},{"base_weights":[2.1707555E-3,-1.0412274E-2,7.5489527E-1,1.0925547E0,-1.8270396E-2,7.201481E-2,3.8227466E-1,9.1730714E-2,1.5027528E-1,-4.1885594E-1,2.3468633E-3,-2.681308E-1,1.0763893E0,4.560061E-2,-3.8117714E-2,-2.9085508E-2,1.9755522E-2,5.5583753E-2,-4.8362874E-4,2.2201458E-2,-4.435916E-2,6.3698195E-2,1.0585553E-2],"categories":[],"categories_nodes":[],"categories_segments":[],"categories_sizes":[],"default_left":[0,0,0,0,0,0,0,0,0,0,0,0,0,0,0,0,0,0,0,0,0,0,0],"id":20,"left_children":[1,3,5,7,9,-1,11,-1,13,15,17,19,21,-1,-1,-1,-1,-1,-1,-1,-1,-1,-1],"loss_changes":[7.064318E0,6.379579E0,2.581315E0,3.3652577E0,6.0262833E0,0E0,4.4896145E0,0E0,3.0472817E0,4.9642453E0,9.275269E0,2.8647845E0,5.33381E-1,0E0,0E0,0E0,0E0,0E0,0E0,0E0,0E0,0E0,0E0],"parents":[2147483647,0,0,1,1,2,2,3,3,4,4,6,6,8,8,9,9,10,10,11,11,12,12],"right_children":[2,4,6,8,10,-1,12,-1,14,16,18,20,22,-1,-1,-1,-1,-1,-1,-1,-1,-1,-1],"split_conditions":[4.0017138E0,-9.801228E-1,1E0,1E0,-7.7393246E-1,7.201481E-2,4E0,9.1730714E-2,-6.9975346E-1,-3.2384887E-1,-7.5962824E-1,6.0804643E-2,9.423967E-1,4.560061E-2,-3.8117714E-2,-2.9085508E-2,1.9755522E-2,5.5583753E-2,-4.8362874E-4,2.2201458E-2,-4.435916E-2,6.3698195E-2,1.0585553E-2],"split_indices":[2,2,4,4,2,0,4,0,0,0,2,1,0,0,0,0,0,0,0,0,0,0,0],"split_type":[0,0,0,0,0,0,0,0,0,0,0,0,0,0,0,0,0,0,0,0,0,0,0],"sum_hessian":[7.440158E2,7.327528E2,1.1263002E1,4.207111E0,7.285457E2,2.9575496E0,8.305452E0,1.8238248E0,2.3832862E0,3.4715763E1,6.9382996E2,4.6045575E0,3.7008948E0,1.2994018E0,1.0838846E0,2.9165764E1,5.549998E0,6.4563303E0,6.873736E2,2.2727294E0,2.331828E0,2.6272447E0,1.0736502E0],"tree_param":{"num_deleted":"0","num_feature":"6","num_nodes":"23","size_leaf_vector":"1"}},{"base_weights":[2.4006886E-3,-1.8907122E-2,4.296863E-1,-1.0185759E0,-9.170023E-3,1.263793E0,2.4061058E-1,-5.6705393E-2,-1.1025891E-2,3.9887643E-1,-2.9741224E-2,7.368206E-2,5.836423E-1,-1.7282702E-1,5.066118E-1,-1.6143434E-2,2.9995892E-2,-5.923874E-3,5.023325E-3,7.8036035E-3,3.6954712E-2,1.7709091E-2,-4.417753E-2,-3.392333E-3,3.7246447E-2],"categories":[],"categories_nodes":[],"categories_segments":[],"categories_sizes":[],"default_left":[0,0,0,0,0,0,0,0,0,0,0,0,0,0,0,0,0,0,0,0,0,0,0,0,0],"id":21,"left_children":[1,3,5,7,9,11,13,-1,-1,15,17,-1,19,21,23,-1,-1,-1,-1,-1,-1,-1,-1,-1,-1],"loss_changes":[6.788576E0,6.904808E0,5.281418E0,3.8083315E-1,5.925232E0,4.0465355E-2,3.3985605E0,0E0,0E0,5.1097307E0,7.77161E0,0E0,9.3583584E-2,5.007091E0,2.5934348E0,0E0,0E0,0E0,0E0,0E0,0E0,0E0,0E0,0E0,0E0],"parents":[2147483647,0,0,1,1,2,2,3,3,4,4,5,5,6,6,9,9,10,10,12,12,13,13,14,14],"right_children":[2,4,6,8,10,12,14,-1,-1,16,18,-1,20,22,24,-1,-1,-1,-1,-1,-1,-1,-1,-1,-1],"split_conditions":[1.5430412E-1,-8.7172323E-1,-3.2900998E-1,2.9125305E-2,-7.18966E-1,-4.1293132E-1,-2.2557178E-1,-5.6705393E-2,-1.1025891E-2,1E0,0E0,7.368206E-2,-3.592836E-1,1.2E1,2.260453E-1,-1.6143434E-2,2.9995892E-2,-5.923874E-3,5.023325E-3,7.8036035E-3,3.6954712E-2,1.7709091E-2,-4.417753E-2,-3.392333E-3,3.7246447E-2],"split_indices":[3,0,0,1,0,0,2,0,0,4,2,0,0,5,3,0,0,0,0,0,0,0,0,0,0],"split_type":[0,0,0,0,0,0,0,0,0,0,0,0,0,0,0,0,0,0,0,0,0,0,0,0,0],"sum_hessian":[7.4373456E2,7.093182E2,3.4416412E1,5.8429055E0,7.034752E2,5.3095045E0,2.9106909E1,4.7361817E0,1.1067238E0,3.288018E1,6.705951E2,3.1660402E0,2.1434646E0,1.1532528E1,1.757438E1,7.0313663E0,2.5848812E1,3.988618E2,2.7173328E2,1.1058409E0,1.0376236E0,6.910202E0,4.6223264E0,5.3627915E0,1.2211589E1],"tree_param":{"num_deleted":"0","num_feature":"6","num_nodes":"25","size_leaf_vector":"1"}},{"base_weights":[2.3453832E-3,-9.65962E-3,7.1797246E-1,6.794915E-3,-5.284921E-1,6.880771E-2,3.5980606E-1,-6.9221226E-3,1.9192911E0,-3.2917556E-1,-5.237904E-2,-2.6791316E-1,1.021505E0,4.9238367E-4,-3.312754E-2,2.990062E-2,1.0720923E-1,-3.1777795E-2,6.512792E-2,2.0818798E-2,-4.3693032E-2,6.0367465E-2,1.0149668E-2],"categories":[],"categories_nodes":[],"categories_segments":[],"categories_sizes":[],"default_left":[0,0,0,0,0,0,0,0,0,0,0,0,0,0,0,0,0,0,0,0,0,0,0],"id":22,"left_children":[1,3,5,7,9,-1,11,13,15,17,-1,19,21,-1,-1,-1,-1,-1,-1,-1,-1,-1,-1],"loss_changes":[6.403393E0,6.2634273E0,2.403801E0,1.8683722E1,1.9885039E0,0E0,4.143881E0,7.7866645E0,2.2480583E-1,9.703442E0,0E0,2.6750095E0,4.7653008E-1,0E0,0E0,0E0,0E0,0E0,0E0,0E0,0E0,0E0,0E0],"parents":[2147483647,0,0,1,1,2,2,3,3,4,4,6,6,7,7,8,8,9,9,11,11,12,12],"right_children":[2,4,6,8,10,-1,12,14,16,18,-1,20,22,-1,-1,-1,-1,-1,-1,-1,-1,-1,-1],"split_conditions":[4.0017138E0,2.8660727E0,1E0,2.7409503E0,3.7852323E0,6.880771E-2,4E0,1.9189818E0,9.1918156E-2,3.7092369E0,-5.237904E-2,6.0804643E-2,9.423967E-1,4.9238367E-4,-3.312754E-2,2.990062E-2,1.0720923E-1,-3.1777795E-2,6.512792E-2,2.0818798E-2,-4.3693032E-2,6.0367465E-2,1.0149668E-2],"split_indices":[2,2,4,2,1,0,4,2,0,1,0,1,0,0,0,0,0,0,0,0,0,0,0],"split_type":[0,0,0,0,0,0,0,0,0,0,0,0,0,0,0,0,0,0,0,0,0,0,0],"sum_hessian":[7.435442E2,7.322469E2,1.1297307E1,7.106944E2,2.1552446E1,2.9796166E0,8.31769E0,7.066227E2,4.0717444E0,1.675363E1,4.7988167E0,4.57384E0,3.7438502E0,6.899597E2,1.6662943E1,1.1244636E0,2.947281E0,1.4619181E1,2.1344485E0,2.2949889E0,2.2788515E0,2.6639433E0,1.0799067E0],"tree_param":{"num_deleted":"0","num_feature":"6","num_nodes":"23","size_leaf_vector":"1"}},{"base_weights":[2.470179E-3,-1.7920816E-2,4.089061E-1,-9.977023E-1,-8.553497E-3,5.994753E-2,2.2790259E-1,-5.563593E-2,-1.0780502E-2,1.0415256E0,-1.6444812E-2,-2.377253E-1,4.4088954E-1,8.755339E-2,6.8123075E-3,-4.6145036E-3,4.8189834E-3,-2.4073077E-2,3.0025486E-2,2.9440826E-2,1.2798117E-3],"categories":[],"categories_nodes":[],"categories_segments":[],"categories_sizes":[],"default_left":[0,0,0,0,0,0,0,0,0,0,0,0,0,0,0,0,0,0,0,0,0],"id":23,"left_children":[1,3,5,7,9,-1,11,-1,-1,13,15,17,19,-1,-1,-1,-1,-1,-1,-1,-1],"loss_changes":[6.174741E0,6.503912E0,4.8166685E0,3.637724E-1,5.8497167E0,0E0,3.099193E0,0E0,0E0,3.1437101E0,5.995516E0,2.357973E0,1.2791705E0,0E0,0E0,0E0,0E0,0E0,0E0,0E0,0E0],"parents":[2147483647,0,0,1,1,2,2,3,3,4,4,6,6,9,9,10,10,11,11,12,12],"right_children":[2,4,6,8,10,-1,12,-1,-1,14,16,18,20,-1,-1,-1,-1,-1,-1,-1,-1],"split_conditions":[1.5430412E-1,-8.7172323E-1,-3.2900998E-1,2.9125305E-2,-9.801228E-1,5.994753E-2,-3.0778173E-1,-5.563593E-2,-1.0780502E-2,1E0,0E0,6.385831E-1,1.0452594E0,8.755339E-2,6.8123075E-3,-4.6145036E-3,4.8189834E-3,-2.4073077E-2,3.0025486E-2,2.9440826E-2,1.2798117E-3],"split_indices":[3,0,0,1,2,0,1,0,0,4,2,3,1,0,0,0,0,0,0,0,0],"split_type":[0,0,0,0,0,0,0,0,0,0,0,0,0,0,0,0,0,0,0,0,0],"sum_hessian":[7.4317065E2,7.08577E2,3.4593586E1,5.7111044E0,7.0286597E2,5.399952E0,2.9193634E1,4.61035E0,1.1007545E0,4.2656217E0,6.9860034E2,9.126125E0,2.0067509E1,1.8675696E0,2.3980522E0,4.1787173E2,2.8072858E2,7.4000225E0,1.7261032E0,1.4488787E1,5.578722E0],"tree_param":{"num_deleted":"0","num_feature":"6","num_nodes":"21","size_leaf_vector":"1"}},{"base_weights":[2.493762E-3,-8.991905E-3,6.859947E-1,6.8563297E-3,-5.1470834E-1,6.3599244E-2,3.13854E-1,-6.329262E-3,1.8068058E0,-3.1899762E-1,-5.1609296E-2,-2.8967625E-2,6.221673E-1,4.8899226E-4,-3.2260288E-2,2.869132E-2,1.0065293E-1,-3.0952571E-2,6.1101075E-2,5.0478864E-2,4.0737176E-3],"categories":[],"categories_nodes":[],"categories_segments":[],"categories_sizes":[],"default_left":[0,0,0,0,0,0,0,0,0,0,0,0,0,0,0,0,0,0,0,0,0],"id":24,"left_children":[1,3,5,7,9,-1,11,13,15,17,-1,-1,19,-1,-1,-1,-1,-1,-1,-1,-1],"loss_changes":[5.846573E0,5.8754992E0,2.2847776E0,1.6894747E1,1.926693E0,0E0,2.799024E0,7.284587E0,1.613388E-1,8.899121E0,0E0,0E0,1.3976502E0,0E0,0E0,0E0,0E0,0E0,0E0,0E0,0E0],"parents":[2147483647,0,0,1,1,2,2,3,3,4,4,6,6,7,7,8,8,9,9,12,12],"right_children":[2,4,6,8,10,-1,12,14,16,18,-1,-1,20,-1,-1,-1,-1,-1,-1,-1,-1],"split_conditions":[4.0017138E0,2.8660727E0,-3.0411428E-1,2.7409503E0,3.7852323E0,6.3599244E-2,-9.127312E-2,1.9189818E0,-5.539988E-3,3.7092369E0,-5.1609296E-2,-2.8967625E-2,1.4714404E0,4.8899226E-4,-3.2260288E-2,2.869132E-2,1.0065293E-1,-3.0952571E-2,6.1101075E-2,5.0478864E-2,4.0737176E-3],"split_indices":[2,2,0,2,1,0,0,2,3,1,0,0,0,0,0,0,0,0,0,0,0],"split_type":[0,0,0,0,0,0,0,0,0,0,0,0,0,0,0,0,0,0,0,0,0],"sum_hessian":[7.429567E2,7.316488E2,1.1307908E1,7.103735E2,2.127537E1,3.4528565E0,7.855051E0,7.0619666E2,4.176784E0,1.660992E1,4.6654487E0,1.7900476E0,6.0650034E0,6.897885E2,1.640815E1,1.1405748E0,3.0362093E0,1.4403652E1,2.206269E0,3.0281343E0,3.0368693E0],"tree_param":{"num_deleted":"0","num_feature":"6","num_nodes":"21","size_leaf_vector":"1"}},{"base_weights":[2.5660624E-3,-1.599604E-2,4.0638798E-1,-9.777309E-1,-7.013799E-3,6.642662E-1,-1.3402046E-1,-5.4619074E-2,-1.0540916E-2,3.8257816E-1,-2.6770245E-2,1.4079541E0,3.4706527E-1,-8.945787E-1,5.425434E-1,5.5858213E-3,4.049126E-2,-5.303822E-3,4.611432E-3,8.30438E-2,8.347447E-3,-3.33531E-2,2.8100718E-2,-5.0943222E-2,-1.0626084E-2,5.4874178E-2,-4.131695E-3],"categories":[],"categories_nodes":[],"categories_segments":[],"categories_sizes":[],"default_left":[0,0,0,0,0,0,0,0,0,0,0,0,0,0,0,0,0,0,0,0,0,0,0,0,0,0,0],"id":25,"left_children":[1,3,5,7,9,11,13,-1,-1,15,17,19,21,23,25,-1,-1,-1,-1,-1,-1,-1,-1,-1,-1,-1,-1],"loss_changes":[5.5804815E0,6.142903E0,4.648428E0,3.4827566E-1,5.446742E0,4.77563E0,6.351889E0,0E0,0E0,3.862061E0,6.3626657E0,1.7143326E0,4.0742626E0,2.7045822E-1,2.3999372E0,0E0,0E0,0E0,0E0,0E0,0E0,0E0,0E0,0E0,0E0,0E0,0E0],"parents":[2147483647,0,0,1,1,2,2,3,3,4,4,5,5,6,6,9,9,10,10,11,11,12,12,13,13,14,14],"right_children":[2,4,6,8,10,12,14,-1,-1,16,18,20,22,24,26,-1,-1,-1,-1,-1,-1,-1,-1,-1,-1,-1,-1],"split_conditions":[1.6505545E-1,-8.7172323E-1,1.2E1,2.9125305E-2,-1.4873752E-1,-4.0084434E-1,-2.2557178E-1,-5.4619074E-2,-1.0540916E-2,3E0,0E0,-1.0504753E-1,-3.0778173E-1,1.5206877E-2,-4.5055613E-2,5.5858213E-3,4.049126E-2,-5.303822E-3,4.611432E-3,8.30438E-2,8.347447E-3,-3.33531E-2,2.8100718E-2,-5.0943222E-2,-1.0626084E-2,5.4874178E-2,-4.131695E-3],"split_indices":[3,0,5,1,3,1,2,0,0,4,2,0,1,0,0,0,0,0,0,0,0,0,0,0,0,0,0],"split_type":[0,0,0,0,0,0,0,0,0,0,0,0,0,0,0,0,0,0,0,0,0,0,0,0,0,0,0],"sum_hessian":[7.426155E2,7.108986E2,3.1716822E1,5.580117E0,7.0531854E2,2.1315878E1,1.0400945E1,4.4852066E0,1.0949106E0,3.315456E1,6.72164E2,5.3452005E0,1.5970676E1,4.7448225E0,5.6561227E0,2.1062834E1,1.2091724E1,4.0341724E2,2.6874673E2,4.1592064E0,1.1859941E0,2.4252107E0,1.3545466E1,3.5957808E0,1.1490414E0,2.59616E0,3.0599627E0],"tree_param":{"num_deleted":"0","num_feature":"6","num_nodes":"27","size_leaf_vector":"1"}},{"base_weights":[2.4819649E-3,1.0010946E0,-4.692179E-3,8.3759695E-2,1.3162062E-1,-9.70239E-2,8.221914E-2,4.2636897E-2,-3.73445E-2,4.192678E-2,-3.183323E-1,6.8293166E-1,3.966138E-2,-2.0011824E-2,5.829515E-3,-3.0323466E-2,-1.0056364E-3,-2.2843016E-2,4.3112043E-2,-1.7610507E-2,4.5383186E-3],"categories":[],"categories_nodes":[],"categories_segments":[],"categories_sizes":[],"default_left":[0,0,0,0,0,0,0,0,0,0,0,0,0,0,0,0,0,0,0,0,0],"id":26,"left_children":[1,3,5,-1,7,9,11,-1,-1,13,15,17,19,-1,-1,-1,-1,-1,-1,-1,-1],"loss_changes":[5.3306537E0,2.890202E0,5.9390616E0,0E0,2.7927682E0,1.1047907E1,9.720071E0,0E0,0E0,7.3531384E0,1.1890416E1,5.5365286E0,7.183611E0,0E0,0E0,0E0,0E0,0E0,0E0,0E0,0E0],"parents":[2147483647,0,0,1,1,2,2,4,4,5,5,6,6,9,9,10,10,11,11,12,12],"right_children":[2,4,6,-1,8,10,12,-1,-1,14,16,18,20,-1,-1,-1,-1,-1,-1,-1,-1],"split_conditions":[-9.801228E-1,1E0,-2.3442335E-1,8.3759695E-2,-6.9975346E-1,-3.7817326E-1,-1.8608408E-1,4.2636897E-2,-3.73445E-2,-7.7393246E-1,-2.0477165E-1,1E0,-4.6472988E-1,-2.0011824E-2,5.829515E-3,-3.0323466E-2,-1.0056364E-3,-2.2843016E-2,4.3112043E-2,-1.7610507E-2,4.5383186E-3],"split_indices":[2,4,2,0,0,1,2,0,0,2,1,4,1,0,0,0,0,0,0,0,0],"split_type":[0,0,0,0,0,0,0,0,0,0,0,0,0,0,0,0,0,0,0,0,0],"sum_hessian":[7.424136E2,4.307336E0,7.381062E2,1.9042805E0,2.4030552E0,3.5783633E2,3.802699E2,1.3358619E0,1.0671933E0,2.2031804E2,1.375183E2,2.4162563E1,3.5610733E2,3.119836E1,1.8911967E2,6.941579E1,6.8102516E1,3.0740767E0,2.1088486E1,4.04034E1,3.1570392E2],"tree_param":{"num_deleted":"0","num_feature":"6","num_nodes":"21","size_leaf_vector":"1"}},{"base_weights":[2.382489E-3,-8.498968E-3,6.4513546E-1,6.916149E-3,-5.045746E-1,6.409093E-2,3.05202E-1,-5.7408656E-3,1.7030765E0,-3.1197587E-1,-5.100438E-2,-2.897323E-1,9.3440497E-1,4.9239775E-4,-3.1540617E-2,2.6471058E-2,9.524186E-2,-3.0277804E-2,5.745856E-2,2.4234794E-2,-3.872136E-2,5.519184E-2,9.364032E-3],"categories":[],"categories_nodes":[],"categories_segments":[],"categories_sizes":[],"default_left":[0,0,0,0,0,0,0,0,0,0,0,0,0,0,0,0,0,0,0,0,0,0,0],"id":27,"left_children":[1,3,5,7,9,-1,11,13,15,17,-1,19,21,-1,-1,-1,-1,-1,-1,-1,-1,-1,-1],"loss_changes":[5.2005463E0,5.596557E0,2.2878656E0,1.5259683E1,1.8716555E0,0E0,3.7828815E0,6.886342E0,2.382307E-1,8.20178E0,0E0,2.4720707E0,4.004531E-1,0E0,0E0,0E0,0E0,0E0,0E0,0E0,0E0,0E0,0E0],"parents":[2147483647,0,0,1,1,2,2,3,3,4,4,6,6,7,7,8,8,9,9,11,11,12,12],"right_children":[2,4,6,8,10,-1,12,14,16,18,-1,20,22,-1,-1,-1,-1,-1,-1,-1,-1,-1,-1],"split_conditions":[4.0017138E0,2.8660727E0,1E0,2.7409503E0,3.7852323E0,6.409093E-2,4E0,1.9189818E0,9.1918156E-2,3.7092369E0,-5.100438E-2,4.0935445E0,9.423967E-1,4.9239775E-4,-3.1540617E-2,2.6471058E-2,9.524186E-2,-3.0277804E-2,5.745856E-2,2.4234794E-2,-3.872136E-2,5.519184E-2,9.364032E-3],"split_indices":[2,2,4,2,1,0,4,2,0,1,0,2,0,0,0,0,0,0,0,0,0,0,0],"split_type":[0,0,0,0,0,0,0,0,0,0,0,0,0,0,0,0,0,0,0,0,0,0,0],"sum_hessian":[7.417792E2,7.3040063E2,1.1378507E1,7.093444E2,2.10562E1,2.9961095E0,8.382398E0,7.0507965E2,4.2647996E0,1.6497726E1,4.558473E0,4.5858417E0,3.7965558E0,6.888836E2,1.6196005E1,1.157214E0,3.1075854E0,1.4225114E1,2.2726126E0,1.7653023E0,2.8205395E0,2.7055478E0,1.091008E0],"tree_param":{"num_deleted":"0","num_feature":"6","num_nodes":"23","size_leaf_vector":"1"}},{"base_weights":[2.484596E-3,-1.6126314E-2,3.6934468E-1,-9.60171E-1,-7.429793E-3,1.0847744E0,2.0294653E-1,-5.3729635E-2,-1.0391332E-2,3.775722E-1,-2.7039325E-2,6.350967E-2,4.9783066E-1,-1.626563E-1,4.3218052E-1,-1.14876395E-2,3.0040244E-2,-5.273026E-3,4.3378505E-3,5.0931848E-3,3.3266313E-2,1.5843859E-2,-4.232387E-2,-4.136556E-3,3.2175902E-2],"categories":[],"categories_nodes":[],"categories_segments":[],"categories_sizes":[],"default_left":[0,0,0,0,0,0,0,0,0,0,0,0,0,0,0,0,0,0,0,0,0,0,0,0,0],"id":28,"left_children":[1,3,5,7,9,11,13,-1,-1,15,17,-1,19,21,23,-1,-1,-1,-1,-1,-1,-1,-1,-1,-1],"loss_changes":[5.0745945E0,5.801294E0,4.0517488E0,3.3192492E-1,5.3104086E0,7.953358E-2,2.6133237E0,0E0,0E0,4.759951E0,5.97888E0,0E0,1.4544618E-1,4.340943E0,2.1124687E0,0E0,0E0,0E0,0E0,0E0,0E0,0E0,0E0,0E0,0E0],"parents":[2147483647,0,0,1,1,2,2,3,3,4,4,5,5,6,6,9,9,10,10,12,12,13,13,14,14],"right_children":[2,4,6,8,10,12,14,-1,-1,16,18,-1,20,22,24,-1,-1,-1,-1,-1,-1,-1,-1,-1,-1],"split_conditions":[1.5430412E-1,-8.7172323E-1,-3.2900998E-1,2.9125305E-2,-7.18966E-1,-4.1293132E-1,-2.2557178E-1,-5.3729635E-2,-1.0391332E-2,-7.956872E-1,0E0,6.350967E-2,-3.592836E-1,1.2E1,2.260453E-1,-1.14876395E-2,3.0040244E-2,-5.273026E-3,4.3378505E-3,5.0931848E-3,3.3266313E-2,1.5843859E-2,-4.232387E-2,-4.136556E-3,3.2175902E-2],"split_indices":[3,0,0,1,0,0,2,0,0,0,2,0,0,5,3,0,0,0,0,0,0,0,0,0,0],"split_type":[0,0,0,0,0,0,0,0,0,0,0,0,0,0,0,0,0,0,0,0,0,0,0,0,0],"sum_hessian":[7.4137476E2,7.0649036E2,3.48844E1,5.450099E0,7.010402E2,5.541131E0,2.934327E1,4.358849E0,1.09125E0,3.3091267E1,6.67949E2,3.326264E0,2.214867E0,1.1420027E1,1.7923243E1,8.886235E0,2.4205032E1,3.9548154E2,2.7246744E2,1.1364372E0,1.07843E0,7.0281224E0,4.3919044E0,5.392722E0,1.2530521E1],"tree_param":{"num_deleted":"0","num_feature":"6","num_nodes":"25","size_leaf_vector":"1"}},{"base_weights":[2.4125748E-3,9.5641583E-1,-4.5063156E-3,7.544225E-2,5.9631735E-4,-8.953994E-2,7.504772E-2,4.2786185E-2,-3.0258167E-1,6.504829E-1,3.4197133E-2,-1.9068222E-2,5.673157E-3,-2.9236376E-2,-7.8173506E-4,-2.2125812E-2,4.0963676E-2,-2.107431E-2,3.719901E-3],"categories":[],"categories_nodes":[],"categories_segments":[],"categories_sizes":[],"default_left":[0,0,0,0,0,0,0,0,0,0,0,0,0,0,0,0,0,0,0],"id":29,"left_children":[1,3,5,-1,-1,7,9,11,13,15,17,-1,-1,-1,-1,-1,-1,-1,-1],"loss_changes":[4.90286E0,2.772519E0,4.997656E0,0E0,0E0,1.0079002E1,8.950735E0,6.67236E0,1.107702E1,5.020253E0,6.579819E0,0E0,0E0,0E0,0E0,0E0,0E0,0E0,0E0],"parents":[2147483647,0,0,1,1,2,2,5,5,6,6,7,7,8,8,9,9,10,10],"right_children":[2,4,6,-1,-1,8,10,12,14,16,18,-1,-1,-1,-1,-1,-1,-1,-1],"split_conditions":[-9.801228E-1,2E0,-2.3442335E-1,7.544225E-2,5.9631735E-4,-3.7817326E-1,-1.8608408E-1,-7.7393246E-1,-2.0477165E-1,1E0,-5.107599E-1,-1.9068222E-2,5.673157E-3,-2.9236376E-2,-7.8173506E-4,-2.2125812E-2,4.0963676E-2,-2.107431E-2,3.719901E-3],"split_indices":[2,4,2,0,0,1,2,2,1,4,1,0,0,0,0,0,0,0,0],"split_type":[0,0,0,0,0,0,0,0,0,0,0,0,0,0,0,0,0,0,0],"sum_hessian":[7.4113214E2,4.348235E0,7.3678394E2,2.3665326E0,1.9817026E0,3.5606647E2,3.8071747E2,2.201342E2,1.3593228E2,2.4246702E1,3.5647076E2,3.0814224E1,1.8931998E2,6.801627E1,6.7916E1,3.026566E0,2.1220137E1,2.8129864E1,3.2834088E2],"tree_param":{"num_deleted":"0","num_feature":"6","num_nodes":"19","size_leaf_vector":"1"}},{"base_weights":[2.298696E-3,-8.062086E-3,6.128382E-1,6.901801E-3,-4.9417257E-1,6.1452188E-2,2.8527868E-1,-5.248316E-3,1.6117309E0,-3.0515078E-1,-5.0352175E-2,-2.8704512E-1,8.8746935E-1,3.665105E-4,-3.7234385E-2,2.525941E-2,9.003075E-2,-2.9576331E-2,5.3917862E-2,1.8117504E-2,-4.3252926E-2,5.2456107E-2,8.879557E-3],"categories":[],"categories_nodes":[],"categories_segments":[],"categories_sizes":[],"default_left":[0,0,0,0,0,0,0,0,0,0,0,0,0,0,0,0,0,0,0,0,0,0,0],"id":30,"left_children":[1,3,5,7,9,-1,11,13,15,17,-1,19,21,-1,-1,-1,-1,-1,-1,-1,-1,-1,-1],"loss_changes":[4.6953626E0,5.3142657E0,2.149424E0,1.3838752E1,1.807754E0,0E0,3.4907784E0,6.562279E0,2.049694E-1,7.5225463E0,0E0,2.404085E0,3.6676502E-1,0E0,0E0,0E0,0E0,0E0,0E0,0E0,0E0,0E0,0E0],"parents":[2147483647,0,0,1,1,2,2,3,3,4,4,6,6,7,7,8,8,9,9,11,11,12,12],"right_children":[2,4,6,8,10,-1,12,14,16,18,-1,20,22,-1,-1,-1,-1,-1,-1,-1,-1,-1,-1],"split_conditions":[4.0017138E0,2.8660727E0,1E0,2.7409503E0,3.7852323E0,6.1452188E-2,4E0,2.164064E0,9.1918156E-2,3.7092369E0,-5.0352175E-2,6.0804643E-2,9.423967E-1,3.665105E-4,-3.7234385E-2,2.525941E-2,9.003075E-2,-2.9576331E-2,5.3917862E-2,1.8117504E-2,-4.3252926E-2,5.2456107E-2,8.879557E-3],"split_indices":[2,2,4,2,1,0,4,2,0,1,0,1,0,0,0,0,0,0,0,0,0,0,0],"split_type":[0,0,0,0,0,0,0,0,0,0,0,0,0,0,0,0,0,0,0,0,0,0,0],"sum_hessian":[7.4049054E2,7.2910455E2,1.1386021E1,7.082872E2,2.0817327E1,2.9966307E0,8.38939E0,7.039543E2,4.332889E0,1.637661E1,4.440717E0,4.569682E0,3.8197076E0,6.9315326E2,1.080107E1,1.1675584E0,3.1653306E0,1.4042385E1,2.3342247E0,2.327669E0,2.2420135E0,2.7219725E0,1.0977352E0],"tree_param":{"num_deleted":"0","num_feature":"6","num_nodes":"23","size_leaf_vector":"1"}},{"base_weights":[2.3660874E-3,3.6223942E-1,-1.5102678E-2,1.0314134E-1,7.6588535E-1,-8.558109E-2,8.993421E-2,9.0556765E-1,-1.0148794E-1,1.0502421E0,-2.7872657E-2,-6.194231E-2,-1.0774035E0,-4.45106E-1,1.3097018E-1,4.1051893E-3,7.696896E-2,-1.705814E-2,3.7559666E-2,1.3365693E-2,9.335252E-2,6.658196E-3,-7.932505E-3,-1.3760671E-2,-5.8374763E-2,-4.2911917E-3,-3.8278557E-2,1.7589761E-2,-2.5838807E-3],"categories":[],"categories_nodes":[],"categories_segments":[],"categories_sizes":[],"default_left":[0,0,0,0,0,0,0,0,0,0,0,0,0,0,0,0,0,0,0,0,0,0,0,0,0,0,0,0,0],"id":31,"left_children":[1,3,5,7,9,11,13,15,17,19,-1,21,23,25,27,-1,-1,-1,-1,-1,-1,-1,-1,-1,-1,-1,-1,-1,-1],"loss_changes":[4.6641693E0,3.5131254E0,5.246771E0,3.7165558E0,5.5797777E0,9.87512E0,6.3084884E0,2.2672672E0,4.034679E0,6.709009E0,0E0,7.8558335E0,3.876791E-1,2.295238E0,1.0713131E1,0E0,0E0,0E0,0E0,0E0,0E0,0E0,0E0,0E0,0E0,0E0,0E0,0E0,0E0],"parents":[2147483647,0,0,1,1,2,2,3,3,4,4,5,5,6,6,7,7,8,8,9,9,11,11,12,12,13,13,14,14],"right_children":[2,4,6,8,10,12,14,16,18,20,-1,22,24,26,28,-1,-1,-1,-1,-1,-1,-1,-1,-1,-1,-1,-1,-1,-1],"split_conditions":[-1.4873752E-1,3E0,0E0,-3.0065566E-1,5.1067895E-1,-3.986921E-2,-5.593528E-1,-3.6920744E-1,2.907113E-1,-1.6556427E-1,-2.7872657E-2,-5.078484E-1,-4.908457E-1,-6.699273E-1,3.7894735E-1,4.1051893E-3,7.696896E-2,-1.705814E-2,3.7559666E-2,1.3365693E-2,9.335252E-2,6.658196E-3,-7.932505E-3,-1.3760671E-2,-5.8374763E-2,-4.2911917E-3,-3.8278557E-2,1.7589761E-2,-2.5838807E-3],"split_indices":[3,4,2,0,2,2,1,0,2,1,0,1,1,1,1,0,0,0,0,0,0,0,0,0,0,0,0,0,0],"split_type":[0,0,0,0,0,0,0,0,0,0,0,0,0,0,0,0,0,0,0,0,0,0,0,0,0,0,0,0,0],"sum_hessian":[7.400589E2,3.3346783E1,7.067121E2,2.1074623E1,1.2272159E1,4.2304172E2,2.8367035E2,3.5862436E0,1.748838E1,1.0271422E1,2.0007367E0,4.142315E2,8.810207E0,1.9505438E1,2.6416492E2,2.0510314E0,1.5352122E0,1.411951E1,3.36887E0,5.9221654E0,4.3492565E0,1.3715227E2,2.7707925E2,1.2989523E0,7.511255E0,9.793494E0,9.711945E0,1.1916538E2,1.4499954E2],"tree_param":{"num_deleted":"0","num_feature":"6","num_nodes":"29","size_leaf_vector":"1"}},{"base_weights":[2.305381E-3,-1.468989E-2,3.6878636E-1,-9.410122E-1,-6.368367E-3,9.3635446E-1,1.4897783E-1,-5.282673E-2,-9.900092E-3,3.5717347E-1,-2.4964996E-2,1.0493202E0,1.109394E-2,-1.0392469E-1,4.8012805E-1,-1.6597904E-2,2.7339578E-2,-3.1154791E-3,9.173412E-3,6.72473E-2,2.138215E-2,-1.3567919E-2,4.758936E-2,7.3119745E-2,-1.9696404E-3],"categories":[],"categories_nodes":[],"categories_segments":[],"categories_sizes":[],"default_left":[0,0,0,0,0,0,0,0,0,0,0,0,0,0,0,0,0,0,0,0,0,0,0,0,0],"id":32,"left_children":[1,3,5,7,9,11,13,-1,-1,15,17,19,-1,21,23,-1,-1,-1,-1,-1,-1,-1,-1,-1,-1],"loss_changes":[4.618635E0,5.4577713E0,3.9604964E0,3.3190155E-1,4.765046E0,4.9239254E-1,2.1334574E0,0E0,0E0,4.6636815E0,5.228173E0,8.01466E-1,0E0,2.8969684E0,5.6458626E0,0E0,0E0,0E0,0E0,0E0,0E0,0E0,0E0,0E0,0E0],"parents":[2147483647,0,0,1,1,2,2,3,3,4,4,5,5,6,6,9,9,10,10,11,11,13,13,14,14],"right_children":[2,4,6,8,10,12,14,-1,-1,16,18,20,-1,22,24,-1,-1,-1,-1,-1,-1,-1,-1,-1,-1],"split_conditions":[1.6505545E-1,-8.7172323E-1,-2.3038939E-1,2.9125305E-2,-7.18966E-1,2.6232144E-1,4.3952173E-1,-5.282673E-2,-9.900092E-3,1E0,7.957317E-1,1.1E1,1.109394E-2,1.1094992E-1,-4.5055613E-2,-1.6597904E-2,2.7339578E-2,-3.1154791E-3,9.173412E-3,6.72473E-2,2.138215E-2,-1.3567919E-2,4.758936E-2,7.3119745E-2,-1.9696404E-3],"split_indices":[3,0,0,1,0,3,3,0,0,4,0,5,0,0,0,0,0,0,0,0,0,0,0,0,0],"split_type":[0,0,0,0,0,0,0,0,0,0,0,0,0,0,0,0,0,0,0,0,0,0,0,0,0],"sum_hessian":[7.396694E2,7.0780536E2,3.1864008E1,5.3039756E0,7.025014E2,7.985295E0,2.3878712E1,4.2250977E0,1.0788776E0,3.330097E1,6.6920044E2,6.490435E0,1.4948597E0,1.3927965E1,9.9507475E0,7.02376E0,2.6277208E1,5.6811365E2,1.01086784E2,3.6102426E0,2.8801928E0,1.2662657E1,1.2653089E0,2.814477E0,7.13627E0],"tree_param":{"num_deleted":"0","num_feature":"6","num_nodes":"25","size_leaf_vector":"1"}},{"base_weights":[2.3826528E-3,9.048445E-1,-4.238113E-3,7.712739E-2,9.3397014E-2,-4.4248074E-1,1.0036789E-2,3.8653024E-2,-3.6935087E-2,4.122796E-1,-9.012695E-1,1.7653613E-1,-3.1050699E-2,-1.9492311E-2,1.02382556E-1,-5.3594556E-2,3.1082569E-2,-3.7201843E-4,2.450382E-2,-2.3448052E-2,1.7933997E-3],"categories":[],"categories_nodes":[],"categories_segments":[],"categories_sizes":[],"default_left":[0,0,0,0,0,0,0,0,0,0,0,0,0,0,0,0,0,0,0,0,0],"id":33,"left_children":[1,3,5,-1,7,9,11,-1,-1,13,15,17,19,-1,-1,-1,-1,-1,-1,-1,-1],"loss_changes":[4.4281287E0,2.6489E0,4.6092095E0,0E0,2.51632E0,9.486008E0,4.888819E0,0E0,0E0,1.2347051E1,4.677801E0,8.162319E0,1.6819733E1,0E0,0E0,0E0,0E0,0E0,0E0,0E0,0E0],"parents":[2147483647,0,0,1,1,2,2,4,4,5,5,6,6,9,9,10,10,11,11,12,12],"right_children":[2,4,6,-1,8,10,12,-1,-1,14,16,18,20,-1,-1,-1,-1,-1,-1,-1,-1],"split_conditions":[-9.801228E-1,1E0,-8.1295526E-1,7.712739E-2,-6.9975346E-1,-6.454729E-1,-5.3275543E-1,3.8653024E-2,-3.6935087E-2,4E0,-2.7958345E-1,-6.1331606E-1,-4.28999E-1,-1.9492311E-2,1.02382556E-1,-5.3594556E-2,3.1082569E-2,-3.7201843E-4,2.450382E-2,-2.3448052E-2,1.7933997E-3],"split_indices":[2,4,2,0,0,1,2,0,0,4,1,2,2,0,0,0,0,0,0,0,0],"split_type":[0,0,0,0,0,0,0,0,0,0,0,0,0,0,0,0,0,0,0,0,0],"sum_hessian":[7.3946906E2,4.3974304E0,7.3507166E2,1.957825E0,2.4396057E0,2.2241943E1,7.128297E2,1.3818517E0,1.0577539E0,7.8039436E0,1.4438E1,1.4043729E2,5.723924E2,5.7468257E0,2.057118E0,1.3249719E1,1.188281E0,8.91203E1,5.131699E1,7.507831E1,4.973141E2],"tree_param":{"num_deleted":"0","num_feature":"6","num_nodes":"21","size_leaf_vector":"1"}},{"base_weights":[2.4059115E-3,3.4904394E-1,-1.4524476E-2,-3.164208E-2,4.374365E-1,-2.5392586E-2,6.0622025E-1,1.1382138E0,1.7567801E-1,1.235014E-4,-3.2561693E-1,5.915711E-2,2.9034507E-1,8.894424E-2,2.1222865E-2,-3.9652582E-2,1.3995806E-2,-3.7876465E-3,7.0381067E-3,-4.193412E-2,-1.5198436E-3,-1.3079821E-2,4.2195216E-2],"categories":[],"categories_nodes":[],"categories_segments":[],"categories_sizes":[],"default_left":[0,0,0,0,0,0,0,0,0,0,0,0,0,0,0,0,0,0,0,0,0,0,0],"id":34,"left_children":[1,3,5,-1,7,9,11,13,15,17,19,-1,21,-1,-1,-1,-1,-1,-1,-1,-1,-1,-1],"loss_changes":[4.3492484E0,3.2720218E0,4.7831283E0,0E0,5.7160587E0,5.328073E0,1.8798628E0,3.1721563E0,2.7124474E0,6.8619056E0,8.226729E0,0E0,3.0344687E0,0E0,0E0,0E0,0E0,0E0,0E0,0E0,0E0,0E0,0E0],"parents":[2147483647,0,0,1,1,2,2,4,4,5,5,6,6,7,7,8,8,9,9,10,10,12,12],"right_children":[2,4,6,-1,8,10,12,14,16,18,20,-1,22,-1,-1,-1,-1,-1,-1,-1,-1,-1,-1],"split_conditions":[-1.4873752E-1,-6.443981E-1,4.0017138E0,-3.164208E-2,-3.5410404E-1,2.2472794E0,1E0,-4.41376E-1,-2.7834985E-1,0E0,2.9151804E0,5.915711E-2,4E0,8.894424E-2,2.1222865E-2,-3.9652582E-2,1.3995806E-2,-3.7876465E-3,7.0381067E-3,-4.193412E-2,-1.5198436E-3,-1.3079821E-2,4.2195216E-2],"split_indices":[3,2,2,0,2,1,4,1,2,2,1,0,4,0,0,0,0,0,0,0,0,0,0],"split_type":[0,0,0,0,0,0,0,0,0,0,0,0,0,0,0,0,0,0,0,0,0,0,0],"sum_hessian":[7.392265E2,3.3510273E1,7.057162E2,2.2588608E0,3.1251411E1,6.945156E2,1.1200611E1,7.588151E0,2.3663261E1,6.410337E2,5.3481907E1,2.9914162E0,8.209195E0,3.2124004E0,4.3757505E0,1.6568996E0,2.2006361E1,4.166869E2,2.243468E2,1.886149E1,3.462042E1,4.3747044E0,3.8344913E0],"tree_param":{"num_deleted":"0","num_feature":"6","num_nodes":"23","size_leaf_vector":"1"}},{"base_weights":[2.3943535E-3,-1.4104116E-2,3.5740575E-1,-9.2111295E-1,-6.1381888E-3,5.8061117E-1,-1.2795292E-1,-5.1862806E-2,-9.523293E-3,3.3760425E-1,-2.3864299E-2,1.250387E0,2.920602E-1,-8.523423E-1,4.7773433E-1,2.9875356E-4,3.5790734E-2,-2.959865E-3,8.603629E-3,7.347657E-2,7.5394125E-3,-3.2762703E-2,2.4407865E-2,-4.924075E-2,-8.164017E-3,4.91227E-2,-4.7125174E-3],"categories":[],"categories_nodes":[],"categories_segments":[],"categories_sizes":[],"default_left":[0,0,0,0,0,0,0,0,0,0,0,0,0,0,0,0,0,0,0,0,0,0,0,0,0,0,0],"id":35,"left_children":[1,3,5,7,9,11,13,-1,-1,15,17,19,21,23,25,-1,-1,-1,-1,-1,-1,-1,-1,-1,-1,-1,-1],"loss_changes":[4.338784E0,5.1098385E0,3.6381412E0,3.249488E-1,4.2906923E0,4.024705E0,5.3134346E0,0E0,0E0,4.3270884E0,4.643912E0,1.3530426E0,3.5113034E0,3.368051E-1,2.0357563E0,0E0,0E0,0E0,0E0,0E0,0E0,0E0,0E0,0E0,0E0,0E0,0E0],"parents":[2147483647,0,0,1,1,2,2,3,3,4,4,5,5,6,6,9,9,10,10,11,11,12,12,13,13,14,14],"right_children":[2,4,6,8,10,12,14,-1,-1,16,18,20,22,24,26,-1,-1,-1,-1,-1,-1,-1,-1,-1,-1,-1,-1],"split_conditions":[1.6505545E-1,-8.7172323E-1,1.2E1,2.9125305E-2,-7.18966E-1,-4.0084434E-1,-2.2557178E-1,-5.1862806E-2,-9.523293E-3,-4.4747132E-1,7.957317E-1,-1.0504753E-1,-3.0778173E-1,1.5206877E-2,-4.5055613E-2,2.9875356E-4,3.5790734E-2,-2.959865E-3,8.603629E-3,7.347657E-2,7.5394125E-3,-3.2762703E-2,2.4407865E-2,-4.924075E-2,-8.164017E-3,4.91227E-2,-4.7125174E-3],"split_indices":[3,0,5,1,0,1,2,0,0,1,0,0,1,0,0,0,0,0,0,0,0,0,0,0,0,0,0],"split_type":[0,0,0,0,0,0,0,0,0,0,0,0,0,0,0,0,0,0,0,0,0,0,0,0,0,0,0],"sum_hessian":[7.3890704E2,7.070104E2,3.1896671E1,5.1573515E0,7.01853E2,2.1714443E1,1.0182229E1,4.087901E0,1.0694504E0,3.3533333E1,6.683197E2,5.534529E0,1.6179913E1,4.451316E0,5.7309136E0,1.840816E1,1.51251745E1,5.668063E2,1.0151344E2,4.3343005E0,1.2002287E0,2.3733163E0,1.3806597E1,3.3735397E0,1.0777762E0,2.6632433E0,3.0676703E0],"tree_param":{"num_deleted":"0","num_feature":"6","num_nodes":"27","size_leaf_vector":"1"}},{"base_weights":[2.305026E-3,8.7834513E-1,-4.1408055E-3,6.959475E-2,-1.2868158E-4,-2.1119677E-2,3.258009E-1,-9.0381503E-1,-1.3429508E-2,9.636496E-1,1.7551601E-1,-5.1003642E-2,-9.302334E-3,1.5895942E-2,-1.5331487E-3,5.652399E-2,2.2025604E-2,2.8670605E-3,4.2792674E-2],"categories":[],"categories_nodes":[],"categories_segments":[],"categories_sizes":[],"default_left":[0,0,0,0,0,0,0,0,0,0,0,0,0,0,0,0,0,0,0],"id":36,"left_children":[1,3,5,-1,-1,7,9,11,13,15,17,-1,-1,-1,-1,-1,-1,-1,-1],"loss_changes":[4.1805377E0,2.4499278E0,4.1259747E0,0E0,0E0,4.741131E0,3.286289E0,3.1363297E-1,3.9795651E0,8.246803E-2,2.3947284E0,0E0,0E0,0E0,0E0,0E0,0E0,0E0,0E0],"parents":[2147483647,0,0,1,1,2,2,5,5,6,6,7,7,8,8,9,9,10,10],"right_children":[2,4,6,-1,-1,8,10,12,14,16,18,-1,-1,-1,-1,-1,-1,-1,-1],"split_conditions":[-9.801228E-1,2E0,1.5430412E-1,6.959475E-2,-1.2868158E-4,-8.7172323E-1,-3.2900998E-1,2.9125305E-2,-1.4873752E-1,-4.1293132E-1,1.4563562E0,-5.1003642E-2,-9.302334E-3,1.5895942E-2,-1.5331487E-3,5.652399E-2,2.2025604E-2,2.8670605E-3,4.2792674E-2],"split_indices":[2,4,3,0,0,0,0,1,3,0,2,0,0,0,0,0,0,0,0],"split_type":[0,0,0,0,0,0,0,0,0,0,0,0,0,0,0,0,0,0,0],"sum_hessian":[7.3869244E2,4.407535E0,7.342849E2,2.4179134E0,1.9896216E0,6.99238E2,3.5046944E1,5.032801E0,6.942052E2,5.6508975E0,2.9396048E1,3.9687977E0,1.0640033E0,3.3458076E1,6.607471E2,3.4042954E0,2.2466023E0,2.5969433E1,3.4266138E0],"tree_param":{"num_deleted":"0","num_feature":"6","num_nodes":"19","size_leaf_vector":"1"}},{"base_weights":[2.3794344E-3,6.224837E-2,-8.8311926E-2,3.647562E-2,5.362815E-1,-4.3559965E-2,-4.5421085E-1,5.043067E-1,1.2089377E-2,1.1637543E0,2.6526535E-1,-1.5316698E-1,1.4617328E-1,-5.580921E-1,4.9819216E-1,7.245797E-3,5.1777292E-2,-3.3318233E-3,6.891726E-3,7.648291E-2,1.9768277E-2,-3.2221075E-2,2.2544924E-2,1.6701004E-2,-1.1806983E-2,-5.960556E-3,1.7547833E-2,-3.5971146E-2,1.3329667E-2,4.738062E-2,-1.6121551E-2],"categories":[],"categories_nodes":[],"categories_segments":[],"categories_sizes":[],"default_left":[0,0,0,0,0,0,0,0,0,0,0,0,0,0,0,0,0,0,0,0,0,0,0,0,0,0,0,0,0,0,0],"id":37,"left_children":[1,3,5,7,9,11,13,15,17,19,21,23,25,27,29,-1,-1,-1,-1,-1,-1,-1,-1,-1,-1,-1,-1,-1,-1,-1,-1],"loss_changes":[4.0204E0,5.4292784E0,4.801713E0,4.8320174E0,3.589851E0,5.5014496E0,3.4422693E0,3.8565617E0,4.0094185E0,1.2564316E0,3.2128963E0,6.8490744E0,5.312498E0,4.0912266E0,1.6604123E0,0E0,0E0,0E0,0E0,0E0,0E0,0E0,0E0,0E0,0E0,0E0,0E0,0E0,0E0,0E0,0E0],"parents":[2147483647,0,0,1,1,2,2,3,3,4,4,5,5,6,6,7,7,8,8,9,9,10,10,11,11,12,12,13,13,14,14],"right_children":[2,4,6,8,10,12,14,16,18,20,22,24,26,28,30,-1,-1,-1,-1,-1,-1,-1,-1,-1,-1,-1,-1,-1,-1,-1,-1],"split_conditions":[1.2E1,1.6505545E-1,1.0649902E0,-1.7583472E-1,-4.0084434E-1,0E0,8.0638975E-2,3E0,0E0,-2.9211435E-1,-3.0778173E-1,-6.3832676E-1,-3.1925696E-1,3.8170033E0,3E0,7.245797E-3,5.1777292E-2,-3.3318233E-3,6.891726E-3,7.648291E-2,1.9768277E-2,-3.2221075E-2,2.2544924E-2,1.6701004E-2,-1.1806983E-2,-5.960556E-3,1.7547833E-2,-3.5971146E-2,1.3329667E-2,4.738062E-2,-1.6121551E-2],"split_indices":[5,3,2,3,1,2,3,4,2,0,1,0,0,2,4,0,0,0,0,0,0,0,0,0,0,0,0,0,0,0,0],"split_type":[0,0,0,0,0,0,0,0,0,0,0,0,0,0,0,0,0,0,0,0,0,0,0,0,0,0,0,0,0,0,0],"sum_hessian":[7.384478E2,4.4499966E2,2.9344815E2,4.2307446E2,2.1925222E1,2.6246582E2,3.0982334E1,1.9985638E1,4.030888E2,5.619827E0,1.6305397E1,1.6648299E2,9.598284E1,2.8308647E1,2.673687E0,1.2680138E1,7.305501E0,2.4817981E2,1.5490901E2,3.1358244E0,2.484002E0,2.3445508E0,1.3960846E1,2.3787178E1,1.4269582E2,4.1987698E1,5.3995148E1,2.3783575E1,4.525071E0,1.6275826E0,1.0461043E0],"tree_param":{"num_deleted":"0","num_feature":"6","num_nodes":"31","size_leaf_vector":"1"}},{"base_weights":[2.4589258E-3,-5.6371754E-1,1.1808601E-2,-7.7007604E-1,1.4325216E-1,4.6700305E-1,-7.183428E-3,-5.6173492E-2,-7.1075425E-2,-1.9925313E-2,3.795143E-2,-1.8872392E-1,6.4614356E-1,5.5624273E-2,-1.02692395E-1,2.8469441E-2,-4.0136117E-2,-3.2010794E-2,5.6606382E-2,3.700078E-2,-2.3053799E-2,2.6905108E-2,1.14271E-3,-2.4482356E-3,-1.8723574E-2],"categories":[],"categories_nodes":[],"categories_segments":[],"categories_sizes":[],"default_left":[0,0,0,0,0,0,0,0,0,0,0,0,0,0,0,0,0,0,0,0,0,0,0,0,0],"id":38,"left_children":[1,3,5,7,9,11,13,-1,15,-1,-1,17,19,21,23,-1,-1,-1,-1,-1,-1,-1,-1,-1,-1],"loss_changes":[3.9187653E0,1.8648367E0,6.2970004E0,2.2584605E0,1.4902387E0,3.548821E0,4.2037897E0,0E0,2.446809E0,0E0,0E0,4.919388E0,2.746234E0,6.6731796E0,4.040888E0,0E0,0E0,0E0,0E0,0E0,0E0,0E0,0E0,0E0,0E0],"parents":[2147483647,0,0,1,1,2,2,3,3,4,4,5,5,6,6,8,8,11,11,12,12,13,13,14,14],"right_children":[2,4,6,8,10,12,14,-1,16,-1,-1,18,20,22,24,-1,-1,-1,-1,-1,-1,-1,-1,-1,-1],"split_conditions":[-8.147516E-1,5.4364745E-3,-7.18966E-1,3E0,-4.2059854E-1,1E0,1.2E1,-5.6173492E-2,1.2E1,-1.9925313E-2,3.795143E-2,-7.330529E-1,4.321871E-2,-6.379275E-1,5.1067895E-1,2.8469441E-2,-4.0136117E-2,-3.2010794E-2,5.6606382E-2,3.700078E-2,-2.3053799E-2,2.6905108E-2,1.14271E-3,-2.4482356E-3,-1.8723574E-2],"split_indices":[0,3,0,4,2,4,5,0,5,0,0,0,3,1,2,0,0,0,0,0,0,0,0,0,0],"split_type":[0,0,0,0,0,0,0,0,0,0,0,0,0,0,0,0,0,0,0,0,0,0,0,0,0],"sum_hessian":[7.3803076E2,1.1026398E1,7.270044E2,8.465985E0,2.560413E0,2.8173046E1,6.9883136E2,5.219773E0,3.2462125E0,1.5497693E0,1.0106435E0,6.0337124E0,2.2139334E1,4.2184152E2,2.769898E2,1.8492229E0,1.3969896E0,4.8806987E0,1.153014E0,2.0714746E1,1.4245874E0,2.5848614E1,3.9599292E2,2.3225563E2,4.473418E1],"tree_param":{"num_deleted":"0","num_feature":"6","num_nodes":"25","size_leaf_vector":"1"}},{"base_weights":[2.3008871E-3,8.307078E-1,-3.8396989E-3,7.159151E-2,7.057846E-2,-4.153278E-1,9.312024E-3,3.592404E-2,-3.638903E-2,4.076296E-1,-8.7226033E-1,1.7182086E-1,-3.0883819E-2,-1.830602E-2,9.4993755E-2,-5.2297033E-2,3.0880278E-2,-2.9221035E-5,2.3066381E-2,-2.2385024E-2,1.5847142E-3],"categories":[],"categories_nodes":[],"categories_segments":[],"categories_sizes":[],"default_left":[0,0,0,0,0,0,0,0,0,0,0,0,0,0,0,0,0,0,0,0,0],"id":39,"left_children":[1,3,5,-1,7,9,11,-1,-1,13,15,17,19,-1,-1,-1,-1,-1,-1,-1,-1],"loss_changes":[3.7623215E0,2.3855698E0,3.979036E0,0E0,2.3100348E0,8.918549E0,4.6612387E0,0E0,0E0,1.0869248E1,4.5171633E0,7.0625196E0,1.4941202E1,0E0,0E0,0E0,0E0,0E0,0E0,0E0,0E0],"parents":[2147483647,0,0,1,1,2,2,4,4,5,5,6,6,9,9,10,10,11,11,12,12],"right_children":[2,4,6,-1,8,10,12,-1,-1,14,16,18,20,-1,-1,-1,-1,-1,-1,-1,-1],"split_conditions":[-9.801228E-1,1E0,-8.1295526E-1,7.159151E-2,-6.9975346E-1,-6.454729E-1,-5.3275543E-1,3.592404E-2,-3.638903E-2,4E0,-2.7958345E-1,-6.1331606E-1,-4.28999E-1,-1.830602E-2,9.4993755E-2,-5.2297033E-2,3.0880278E-2,-2.9221035E-5,2.3066381E-2,-2.2385024E-2,1.5847142E-3],"split_indices":[2,4,2,0,0,1,2,0,0,4,1,2,2,0,0,0,0,0,0,0,0],"split_type":[0,0,0,0,0,0,0,0,0,0,0,0,0,0,0,0,0,0,0,0,0],"sum_hessian":[7.3798224E2,4.4420195E0,7.335402E2,1.9870012E0,2.4550185E0,2.1771729E1,7.117685E2,1.4104397E0,1.0445787E0,7.811229E0,1.3960499E1,1.4049261E2,5.712759E2,5.640963E0,2.1702664E0,1.2769826E1,1.1906724E0,8.868027E1,5.1812347E1,7.376852E1,4.975074E2],"tree_param":{"num_deleted":"0","num_feature":"6","num_nodes":"21","size_leaf_vector":"1"}},{"base_weights":[2.3163415E-3,-6.942027E-3,5.468804E-1,7.231144E-3,-4.7461215E-1,5.48306E-2,2.0866543E-1,-4.4658775E-3,1.5353112E0,-2.8384757E-1,-4.9801767E-2,4.5772385E-2,-1.2811595E-1,3.7245316E-4,-3.601141E-2,2.4138983E-2,8.568518E-2,-2.8229123E-2,5.0974317E-2,-3.0720292E-2,2.8312514E-2],"categories":[],"categories_nodes":[],"categories_segments":[],"categories_sizes":[],"default_left":[0,0,0,0,0,0,0,0,0,0,0,0,0,0,0,0,0,0,0,0,0],"id":40,"left_children":[1,3,5,7,9,-1,11,13,15,17,-1,-1,19,-1,-1,-1,-1,-1,-1,-1,-1],"loss_changes":[3.7281168E0,4.824449E0,2.0695007E0,1.2642366E1,1.846818E0,0E0,2.2329042E0,5.996887E0,1.8152618E-1,6.822466E0,0E0,0E0,2.6767292E0,0E0,0E0,0E0,0E0,0E0,0E0,0E0,0E0],"parents":[2147483647,0,0,1,1,2,2,3,3,4,4,6,6,7,7,8,8,9,9,12,12],"right_children":[2,4,6,8,10,-1,12,14,16,18,-1,-1,20,-1,-1,-1,-1,-1,-1,-1,-1],"split_conditions":[4.0017138E0,2.8660727E0,-3.0411428E-1,2.7409503E0,3.7852323E0,5.48306E-2,1E0,2.164064E0,9.1918156E-2,3.7092369E0,-4.9801767E-2,4.5772385E-2,4E0,3.7245316E-4,-3.601141E-2,2.4138983E-2,8.568518E-2,-2.8229123E-2,5.0974317E-2,-3.0720292E-2,2.8312514E-2],"split_indices":[2,2,0,2,1,0,4,2,0,1,0,0,4,0,0,0,0,0,0,0,0],"split_type":[0,0,0,0,0,0,0,0,0,0,0,0,0,0,0,0,0,0,0,0,0],"sum_hessian":[7.3769226E2,7.263309E2,1.1361411E1,7.059218E2,2.0409067E1,3.4734101E0,7.8880014E0,7.015487E2,4.37308E0,1.6073053E1,4.3360143E0,1.9911251E0,5.8968763E0,6.9103503E2,1.0513725E1,1.1709052E0,3.2021744E0,1.36908865E1,2.3821666E0,3.53579E0,2.3610861E0],"tree_param":{"num_deleted":"0","num_feature":"6","num_nodes":"21","size_leaf_vector":"1"}},{"base_weights":[2.3803972E-3,-5.48002E-1,1.1357716E-2,-7.52635E-1,1.4192575E-1,4.672873E-1,-5.57087E-3,-5.5171795E-2,-7.49575E-2,-1.9381532E-2,3.6656864E-2,-2.913375E-1,6.9847924E-1,-6.777015E-2,8.239559E-2,2.703751E-2,-3.963312E-2,-3.635842E-2,3.2123823E-2,4.0441636E-2,-2.259401E-2,-2.23086E-3,-5.2719284E-2,1.1463504E-2,-3.0806116E-3],"categories":[],"categories_nodes":[],"categories_segments":[],"categories_sizes":[],"default_left":[0,0,0,0,0,0,0,0,0,0,0,0,0,0,0,0,0,0,0,0,0,0,0,0,0],"id":41,"left_children":[1,3,5,7,9,11,13,-1,15,-1,-1,17,19,21,23,-1,-1,-1,-1,-1,-1,-1,-1,-1,-1],"loss_changes":[3.653888E0,1.782464E0,5.6167116E0,2.131113E0,1.397604E0,4.7727785E0,3.8483436E0,0E0,2.3063416E0,0E0,0E0,3.2309203E0,2.9376392E0,9.363615E0,6.176682E0,0E0,0E0,0E0,0E0,0E0,0E0,0E0,0E0,0E0,0E0],"parents":[2147483647,0,0,1,1,2,2,3,3,4,4,5,5,6,6,8,8,11,11,12,12,13,13,14,14],"right_children":[2,4,6,8,10,12,14,-1,16,-1,-1,18,20,22,24,-1,-1,-1,-1,-1,-1,-1,-1,-1,-1],"split_conditions":[-8.147516E-1,5.4364745E-3,-7.2675455E-1,3E0,-4.2059854E-1,1E0,0E0,-5.5171795E-2,1.2E1,-1.9381532E-2,3.6656864E-2,8.841472E-3,4.321871E-2,-3.986921E-2,3.7894735E-1,2.703751E-2,-3.963312E-2,-3.635842E-2,3.2123823E-2,4.0441636E-2,-2.259401E-2,-2.23086E-3,-5.2719284E-2,1.1463504E-2,-3.0806116E-3],"split_indices":[0,3,0,4,2,4,2,0,5,0,0,3,3,2,1,0,0,0,0,0,0,0,0,0,0],"split_type":[0,0,0,0,0,0,0,0,0,0,0,0,0,0,0,0,0,0,0,0,0,0,0,0,0],"sum_hessian":[7.372503E2,1.0868689E1,7.2638165E2,8.31235E0,2.5563376E0,2.5052448E1,7.0132916E2,5.063144E0,3.2492063E0,1.5301268E0,1.0262108E0,5.7907476E0,1.9261702E1,4.1097018E2,2.90359E2,1.8815827E0,1.3676237E0,4.098965E0,1.6917825E0,1.7846575E1,1.4151267E0,4.0256833E2,8.401865E0,1.4345563E2,1.4690337E2],"tree_param":{"num_deleted":"0","num_feature":"6","num_nodes":"25","size_leaf_vector":"1"}},{"base_weights":[2.1161109E-3,-6.836221E-3,5.306616E-1,6.6687134E-3,-4.5919073E-1,5.2839518E-2,2.0466825E-1,-4.601689E-3,1.470772E0,-2.7184838E-1,-4.901426E-2,-2.8695637E-2,4.762689E-1,4.590215E-4,-2.9019583E-2,2.297805E-2,8.2342066E-2,-2.7383173E-2,4.8711337E-2,4.207994E-2,-3.234108E-4],"categories":[],"categories_nodes":[],"categories_segments":[],"categories_sizes":[],"default_left":[0,0,0,0,0,0,0,0,0,0,0,0,0,0,0,0,0,0,0,0,0],"id":42,"left_children":[1,3,5,7,9,-1,11,13,15,17,-1,-1,19,-1,-1,-1,-1,-1,-1,-1,-1],"loss_changes":[3.496126E0,4.4430842E0,1.8944116E0,1.1668284E1,1.7917633E0,0E0,2.1423507E0,5.5786037E0,2.0491505E-1,6.3390756E0,0E0,0E0,1.2574365E0,0E0,0E0,0E0,0E0,0E0,0E0,0E0,0E0],"parents":[2147483647,0,0,1,1,2,2,3,3,4,4,6,6,7,7,8,8,9,9,12,12],"right_children":[2,4,6,8,10,-1,12,14,16,18,-1,-1,20,-1,-1,-1,-1,-1,-1,-1,-1],"split_conditions":[4.0017138E0,2.8660727E0,-3.0411428E-1,2.7409503E0,3.7852323E0,5.2839518E-2,-9.127312E-2,1.9189818E0,-5.539988E-3,3.7092369E0,-4.901426E-2,-2.8695637E-2,1.4714404E0,4.590215E-4,-2.9019583E-2,2.297805E-2,8.2342066E-2,-2.7383173E-2,4.8711337E-2,4.207994E-2,-3.234108E-4],"split_indices":[2,2,0,2,1,0,0,2,3,1,0,0,0,0,0,0,0,0,0,0,0],"split_type":[0,0,0,0,0,0,0,0,0,0,0,0,0,0,0,0,0,0,0,0,0],"sum_hessian":[7.3710425E2,7.25798E2,1.1306265E1,7.057143E2,2.0083672E1,3.4677773E0,7.838487E0,7.0131256E2,4.40172E0,1.5891936E1,4.1917353E0,1.7393429E0,6.0991445E0,6.858794E2,1.54331665E1,1.1881253E0,3.213595E0,1.347072E1,2.4212155E0,3.0486054E0,3.050539E0],"tree_param":{"num_deleted":"0","num_feature":"6","num_nodes":"21","size_leaf_vector":"1"}},{"base_weights":[2.1509267E-3,-2.5661606E-2,1.7467754E-1,1.738084E-2,-1.9982362E-1,7.161079E-1,-2.2759058E-2,-1.4789859E-2,4.8379904E-1,7.451826E-2,-2.3314111E-1,-2.8419113E-2,9.265373E-1,2.8339875E-1,-2.2436127E-1,-4.8832204E-2,-2.661686E-4,5.4145258E-2,5.1276493E-3,-2.685279E-2,-3.1123057E-3,4.8701342E-2,-2.6806781E-2,-1.3617766E-2,5.378787E-2,-1.3654599E-2,3.9952744E-2,-3.0190168E-2,-9.059041E-4],"categories":[],"categories_nodes":[],"categories_segments":[],"categories_sizes":[],"default_left":[0,0,0,0,0,0,0,0,0,0,0,0,0,0,0,0,0,0,0,0,0,0,0,0,0,0,0,0,0],"id":43,"left_children":[1,3,5,7,9,11,13,15,17,-1,19,21,23,25,27,-1,-1,-1,-1,-1,-1,-1,-1,-1,-1,-1,-1,-1,-1],"loss_changes":[3.544209E0,4.7722764E0,1.0977571E1,7.674805E0,7.4509306E0,4.3239403E0,4.761159E0,4.356322E0,7.426733E0,0E0,6.4363785E0,4.092438E0,4.1243076E0,9.016386E0,3.6239831E0,0E0,0E0,0E0,0E0,0E0,0E0,0E0,0E0,0E0,0E0,0E0,0E0,0E0,0E0],"parents":[2147483647,0,0,1,1,2,2,3,3,4,4,5,5,6,6,7,7,8,8,10,10,11,11,12,12,13,13,14,14],"right_children":[2,4,6,8,10,12,14,16,18,-1,20,22,24,26,28,-1,-1,-1,-1,-1,-1,-1,-1,-1,-1,-1,-1,-1,-1],"split_conditions":[7.957317E-1,2.5129732E-1,-6.2059583E-3,4.1552648E-2,-6.19171E-1,4.1552648E-2,8.154317E-1,-8.7172323E-1,9.661959E-2,7.451826E-2,6.010962E-2,-2.8296834E-1,1E1,-1.4914338E-1,1.8736904E0,-4.8832204E-2,-2.661686E-4,5.4145258E-2,5.1276493E-3,-2.685279E-2,-3.1123057E-3,4.8701342E-2,-2.6806781E-2,-1.3617766E-2,5.378787E-2,-1.3654599E-2,3.9952744E-2,-3.0190168E-2,-9.059041E-4],"split_indices":[0,1,3,1,2,1,1,0,1,0,2,1,5,2,1,0,0,0,0,0,0,0,0,0,0,0,0,0,0],"split_type":[0,0,0,0,0,0,0,0,0,0,0,0,0,0,0,0,0,0,0,0,0,0,0,0,0,0,0,0,0],"sum_hessian":[7.3668866E2,6.351493E2,1.0153938E2,5.1000638E2,1.2514291E2,2.6430899E1,7.510848E1,4.780048E2,3.200158E1,1.5737683E0,1.2356914E2,6.0147743E0,2.0416124E1,2.9660152E1,4.544833E1,3.662898E0,4.743419E2,1.1729271E1,2.0272308E1,4.370422E1,7.986492E1,1.713385E0,4.301389E0,2.1684854E0,1.824764E1,1.44914875E1,1.5168664E1,1.5325378E1,3.0122952E1],"tree_param":{"num_deleted":"0","num_feature":"6","num_nodes":"29","size_leaf_vector":"1"}},{"base_weights":[2.1367148E-3,7.943629E-1,-3.7589723E-3,6.4495884E-2,-1.8564211E-3,-3.2514977E-1,1.161441E-2,-4.9687123E-1,5.038117E-1,1.0864309E0,-1.3373991E-5,8.486935E-3,-4.3147694E-2,-4.230512E-3,8.4119655E-2,-1.2685731E-2,6.8319626E-2,1.6050607E-2,-8.287155E-4],"categories":[],"categories_nodes":[],"categories_segments":[],"categories_sizes":[],"default_left":[0,0,0,0,0,0,0,0,0,0,0,0,0,0,0,0,0,0,0],"id":44,"left_children":[1,3,5,-1,-1,7,9,11,13,15,17,-1,-1,-1,-1,-1,-1,-1,-1],"loss_changes":[3.4479659E0,2.2948396E0,3.6260056E0,0E0,0E0,5.01928E0,8.756115E0,7.0418973E0,4.4736404E0,3.1600008E0,3.6955798E0,0E0,0E0,0E0,0E0,0E0,0E0,0E0,0E0],"parents":[2147483647,0,0,1,1,2,2,5,5,6,6,7,7,8,8,9,9,10,10],"right_children":[2,4,6,-1,-1,8,10,12,14,16,18,-1,-1,-1,-1,-1,-1,-1,-1],"split_conditions":[-9.801228E-1,2E0,-7.7393246E-1,6.4495884E-2,-1.8564211E-3,-3.2384887E-1,-7.5962824E-1,-6.454729E-1,-7.992791E-1,-7.193783E-1,-1.4873752E-1,8.486935E-3,-4.3147694E-2,-4.230512E-3,8.4119655E-2,-1.2685731E-2,6.8319626E-2,1.6050607E-2,-8.287155E-4],"split_indices":[2,4,2,0,0,0,2,1,2,1,3,0,0,0,0,0,0,0,0],"split_type":[0,0,0,0,0,0,0,0,0,0,0,0,0,0,0,0,0,0,0],"sum_hessian":[7.3656964E2,4.4531E0,7.321166E2,2.4447439E0,2.0083566E0,3.250147E1,6.996151E2,2.7255943E1,5.245527E0,6.4984193E0,6.931167E2,9.852179E0,1.7403765E1,4.117848E0,1.1276788E0,1.1391562E0,5.359263E0,3.310029E1,6.6001636E2],"tree_param":{"num_deleted":"0","num_feature":"6","num_nodes":"19","size_leaf_vector":"1"}},{"base_weights":[2.2465363E-3,5.6783717E-2,-8.086953E-2,1.947872E-2,3.7003964E-1,-2.9443044E-2,-3.5286412E-1,3.31886E-2,-5.456918E-2,9.6314985E-1,-9.844278E-2,-5.4557756E-2,9.807819E-1,-4.1993502E-1,3.744637E-1,1.8537791E-2,2.508323E-4,2.068223E-2,7.442653E-2,-4.3481864E-2,1.0051094E-2,-6.9554534E-4,-2.5060356E-2,9.079775E-2,-7.749898E-3,-2.5196029E-2,1.230353E-2,-1.8647192E-2,4.116915E-2],"categories":[],"categories_nodes":[],"categories_segments":[],"categories_sizes":[],"default_left":[0,0,0,0,0,0,0,0,0,0,0,0,0,0,0,0,0,0,0,0,0,0,0,0,0,0,0,0,0],"id":45,"left_children":[1,3,5,7,9,11,13,15,-1,17,19,21,23,25,27,-1,-1,-1,-1,-1,-1,-1,-1,-1,-1,-1,-1,-1,-1],"loss_changes":[3.3471215E0,5.20276E0,4.081875E0,6.1196384E0,1.3261972E1,6.323636E0,2.4221501E0,3.7597237E0,0E0,5.4483795E0,6.4986963E0,4.388056E0,6.0179687E0,2.5280733E0,1.7996838E0,0E0,0E0,0E0,0E0,0E0,0E0,0E0,0E0,0E0,0E0,0E0,0E0,0E0,0E0],"parents":[2147483647,0,0,1,1,2,2,3,3,4,4,5,5,6,6,7,7,9,9,10,10,11,11,12,12,13,13,14,14],"right_children":[2,4,6,8,10,12,14,16,-1,18,20,22,24,26,28,-1,-1,-1,-1,-1,-1,-1,-1,-1,-1,-1,-1,-1,-1],"split_conditions":[1.2E1,1.1985847E0,5.1067895E-1,1.0649902E0,2.43811E0,4.3661833E-1,8.0638975E-2,-6.484563E-1,-5.456918E-2,3E0,3.2571552E0,7.3968634E-2,3E0,3.8170033E0,2E0,1.8537791E-2,2.508323E-4,2.068223E-2,7.442653E-2,-4.3481864E-2,1.0051094E-2,-6.9554534E-4,-2.5060356E-2,9.079775E-2,-7.749898E-3,-2.5196029E-2,1.230353E-2,-1.8647192E-2,4.116915E-2],"split_indices":[5,2,2,2,1,2,3,1,0,4,1,3,4,2,4,0,0,0,0,0,0,0,0,0,0,0,0,0,0],"split_type":[0,0,0,0,0,0,0,0,0,0,0,0,0,0,0,0,0,0,0,0,0,0,0,0,0,0,0,0,0],"sum_hessian":[7.363905E2,4.4482944E2,2.9156107E2,3.98442E2,4.6387447E1,2.461326E2,4.5428474E1,3.945428E2,3.8991876E0,2.0004883E1,2.6382565E1,2.410851E2,5.047505E0,4.1979908E1,3.4485667E0,2.9453934E1,3.6508887E2,1.0651553E1,9.353329E0,6.846692E0,1.9535873E1,2.219206E2,1.9164501E1,2.5635717E0,2.4839334E0,3.749503E1,4.4848776E0,1.3575752E0,2.0909915E0],"tree_param":{"num_deleted":"0","num_feature":"6","num_nodes":"29","size_leaf_vector":"1"}},{"base_weights":[2.2135668E-3,-1.2345782E-2,3.1291223E-1,-8.4207565E-1,-5.7122894E-3,7.889522E-1,1.2474916E-1,-4.81503E-2,-7.6290504E-3,-3.427297E-2,1.6117397E-1,8.835779E-1,9.2177475E-3,-1.1180601E-1,4.3330884E-1,3.5580999E-4,-1.0273515E-2,3.3642597E-2,-1.4489308E-3,5.7204366E-2,1.7273573E-2,-1.3572129E-2,4.3676298E-2,6.675436E-2,-2.5954426E-3],"categories":[],"categories_nodes":[],"categories_segments":[],"categories_sizes":[],"default_left":[0,0,0,0,0,0,0,0,0,0,0,0,0,0,0,0,0,0,0,0,0,0,0,0,0],"id":46,"left_children":[1,3,5,7,9,11,13,-1,-1,15,17,19,-1,21,23,-1,-1,-1,-1,-1,-1,-1,-1,-1,-1],"loss_changes":[3.3386183E0,3.8763885E0,2.8607743E0,3.188312E-1,3.3447232E0,3.6179495E-1,1.863411E0,0E0,0E0,4.2459655E0,9.997306E0,6.7943954E-1,0E0,2.5760684E0,4.88052E0,0E0,0E0,0E0,0E0,0E0,0E0,0E0,0E0,0E0,0E0],"parents":[2147483647,0,0,1,1,2,2,3,3,4,4,5,5,6,6,9,9,10,10,11,11,13,13,14,14],"right_children":[2,4,6,8,10,12,14,-1,-1,16,18,20,-1,22,24,-1,-1,-1,-1,-1,-1,-1,-1,-1,-1],"split_conditions":[1.6505545E-1,-8.7172323E-1,-2.3038939E-1,2.9125305E-2,7.957317E-1,2.6232144E-1,4.3952173E-1,-4.81503E-2,-7.6290504E-3,2.5129732E-1,-6.2059583E-3,1.1E1,9.2177475E-3,1.1094992E-1,-4.5055613E-2,3.5580999E-4,-1.0273515E-2,3.3642597E-2,-1.4489308E-3,5.7204366E-2,1.7273573E-2,-1.3572129E-2,4.3676298E-2,6.675436E-2,-2.5954426E-3],"split_indices":[3,0,0,1,0,3,3,0,0,1,3,5,0,0,0,0,0,0,0,0,0,0,0,0,0],"split_type":[0,0,0,0,0,0,0,0,0,0,0,0,0,0,0,0,0,0,0,0,0,0,0,0,0],"sum_hessian":[7.361955E2,7.041588E2,3.203664E1,4.5860324E0,6.995728E2,8.171181E0,2.386546E1,3.564221E0,1.0218117E0,5.980227E2,1.01550125E2,6.66639E0,1.5047913E0,1.386987E1,9.995589E0,4.823635E2,1.1565918E2,2.6826017E1,7.4724106E1,3.7330167E0,2.9333732E0,1.2559573E1,1.3102973E0,2.8840508E0,7.111538E0],"tree_param":{"num_deleted":"0","num_feature":"6","num_nodes":"25","size_leaf_vector":"1"}},{"base_weights":[2.27796E-3,-5.15127E-1,1.047239E-2,-7.17132E-1,1.4165424E-1,4.1323158E-1,-6.646301E-3,-5.357352E-2,-5.7174366E-2,-1.8422714E-2,3.4615755E-2,6.2518036E-1,-1.1411555E-1,-8.878095E-2,6.007433E-2,2.630031E-2,-3.8418867E-2,7.911804E-3,6.2954344E-2,-3.407554E-2,3.8537767E-2,1.33096E-3,-2.4605302E-2,7.965992E-3,-4.4535226E-3],"categories":[],"categories_nodes":[],"categories_segments":[],"categories_sizes":[],"default_left":[0,0,0,0,0,0,0,0,0,0,0,0,0,0,0,0,0,0,0,0,0,0,0,0,0],"id":47,"left_children":[1,3,5,7,9,11,13,-1,15,-1,-1,17,19,21,23,-1,-1,-1,-1,-1,-1,-1,-1,-1,-1],"loss_changes":[3.130047E0,1.6286287E0,5.0115094E0,2.0357537E0,1.2501384E0,3.3835797E0,3.8294957E0,0E0,2.1416333E0,0E0,0E0,6.103405E0,5.2153726E0,1.4590071E1,5.7224426E0,0E0,0E0,0E0,0E0,0E0,0E0,0E0,0E0,0E0,0E0],"parents":[2147483647,0,0,1,1,2,2,3,3,4,4,5,5,6,6,8,8,11,11,12,12,13,13,14,14],"right_children":[2,4,6,8,10,12,14,-1,16,-1,-1,18,20,22,24,-1,-1,-1,-1,-1,-1,-1,-1,-1,-1],"split_conditions":[-8.147516E-1,5.4364745E-3,-7.18966E-1,3E0,-4.2059854E-1,-1.205805E-1,-3.725772E-1,-5.357352E-2,1.2E1,-1.8422714E-2,3.4615755E-2,-4.781888E-1,1.2598877E-1,-4.360314E-1,2.1400177E-1,2.630031E-2,-3.8418867E-2,7.911804E-3,6.2954344E-2,-3.407554E-2,3.8537767E-2,1.33096E-3,-2.4605302E-2,7.965992E-3,-4.4535226E-3],"split_indices":[0,3,0,4,2,2,0,0,5,0,0,2,2,0,1,0,0,0,0,0,0,0,0,0,0],"split_type":[0,0,0,0,0,0,0,0,0,0,0,0,0,0,0,0,0,0,0,0,0,0,0,0,0],"sum_hessian":[7.359743E2,1.0509825E1,7.254645E2,7.9674134E0,2.5424113E0,2.8634253E1,6.9683026E2,4.7783318E0,3.1890817E0,1.4915712E0,1.0508401E0,2.0292765E1,8.341488E0,3.1218842E2,3.8464185E2,1.8953279E0,1.2937539E0,1.2404823E1,7.8879423E0,5.222528E0,3.11896E0,2.4346246E2,6.8725945E1,2.309154E2,1.5372644E2],"tree_param":{"num_deleted":"0","num_feature":"6","num_nodes":"25","size_leaf_vector":"1"}},{"base_weights":[2.1350698E-3,7.544952E-1,-3.489358E-3,6.672909E-2,3.7286595E-2,-3.8327888E-1,8.352265E-3,3.27224E-2,-3.604525E-2,3.8707072E-1,-8.3398515E-1,1.5995817E-1,-2.9459933E-2,-1.7677203E-2,8.7655276E-2,-5.0530702E-2,2.9298892E-2,-1.5494977E-4,2.1542642E-2,-2.161266E-2,1.5201624E-3],"categories":[],"categories_nodes":[],"categories_segments":[],"categories_sizes":[],"default_left":[0,0,0,0,0,0,0,0,0,0,0,0,0,0,0,0,0,0,0,0,0],"id":48,"left_children":[1,3,5,-1,7,9,11,-1,-1,13,15,17,19,-1,-1,-1,-1,-1,-1,-1,-1],"loss_changes":[3.1206107E0,2.2268596E0,3.2968652E0,0E0,2.0981143E0,8.018696E0,4.0816765E0,0E0,0E0,9.588111E0,4.1789646E0,6.2792454E0,1.375892E1,0E0,0E0,0E0,0E0,0E0,0E0,0E0,0E0],"parents":[2147483647,0,0,1,1,2,2,4,4,5,5,6,6,9,9,10,10,11,11,12,12],"right_children":[2,4,6,-1,8,10,12,-1,-1,14,16,18,20,-1,-1,-1,-1,-1,-1,-1,-1],"split_conditions":[-9.801228E-1,1E0,-8.1295526E-1,6.672909E-2,-6.9975346E-1,-6.454729E-1,-5.3275543E-1,3.27224E-2,-3.604525E-2,4E0,-2.7958345E-1,-6.1331606E-1,-4.28999E-1,-1.7677203E-2,8.7655276E-2,-5.0530702E-2,2.9298892E-2,-1.5494977E-4,2.1542642E-2,-2.161266E-2,1.5201624E-3],"split_indices":[2,4,2,0,0,1,2,0,0,4,1,2,2,0,0,0,0,0,0,0,0],"split_type":[0,0,0,0,0,0,0,0,0,0,0,0,0,0,0,0,0,0,0,0,0],"sum_hessian":[7.358329E2,4.4720807E0,7.3136084E2,1.9964935E0,2.475587E0,2.116548E1,7.101953E2,1.4401486E0,1.0354384E0,7.864546E0,1.3300934E1,1.4112643E2,5.690689E2,5.580299E0,2.284247E0,1.2085857E1,1.2150761E0,8.8715355E1,5.241107E1,7.282701E1,4.9624188E2],"tree_param":{"num_deleted":"0","num_feature":"6","num_nodes":"21","size_leaf_vector":"1"}},{"base_weights":[2.143685E-3,5.4244667E-2,-7.747387E-2,1.8541653E-2,3.5247967E-1,-4.3730453E-2,-4.79173E-1,3.166037E-2,-5.341192E-2,9.034806E-1,-9.2570275E-2,-5.9156943E-2,6.264996E-2,-5.016581E-2,-1.5673685E-1,1.7331723E-2,2.5945026E-4,1.9588375E-2,6.918263E-2,-4.2397317E-2,9.642517E-3,-1.9109773E-3,-4.2353585E-2,5.1530566E-2,-1.9216003E-2],"categories":[],"categories_nodes":[],"categories_segments":[],"categories_sizes":[],"default_left":[0,0,0,0,0,0,0,0,0,0,0,0,0,0,0,0,0,0,0,0,0,0,0,0,0],"id":49,"left_children":[1,3,5,7,9,11,13,15,-1,17,19,21,-1,-1,23,-1,-1,-1,-1,-1,-1,-1,-1,-1,-1],"loss_changes":[3.0593162E0,4.7399426E0,3.9333954E0,5.724757E0,1.1757154E1,5.4797225E0,3.646418E0,3.2947454E0,0E0,4.7070274E0,6.0366282E0,4.388858E0,0E0,0E0,4.4817266E0,0E0,0E0,0E0,0E0,0E0,0E0,0E0,0E0,0E0,0E0],"parents":[2147483647,0,0,1,1,2,2,3,3,4,4,5,5,6,6,7,7,9,9,10,10,11,11,14,14],"right_children":[2,4,6,8,10,12,14,16,-1,18,20,22,-1,-1,24,-1,-1,-1,-1,-1,-1,-1,-1,-1,-1],"split_conditions":[1.2E1,1.1985847E0,1.6697525E0,1.0649902E0,2.43811E0,1.4655957E0,2.7409503E0,-6.484563E-1,-5.341192E-2,3E0,3.2571552E0,1.0649902E0,6.264996E-2,-5.016581E-2,2.8660727E0,1.7331723E-2,2.5945026E-4,1.9588375E-2,6.918263E-2,-4.2397317E-2,9.642517E-3,-1.9109773E-3,-4.2353585E-2,5.1530566E-2,-1.9216003E-2],"split_indices":[5,2,2,2,1,2,2,1,0,4,1,2,0,0,2,0,0,0,0,0,0,0,0,0,0],"split_type":[0,0,0,0,0,0,0,0,0,0,0,0,0,0,0,0,0,0,0,0,0,0,0,0,0],"sum_hessian":[7.354998E2,4.4476706E2,2.9073273E2,3.9816336E2,4.6603703E1,2.6922614E2,2.1506594E1,3.943737E2,3.7896883E0,2.036296E1,2.6240742E1,2.670041E2,2.2220235E0,7.386931E0,1.4119662E1,2.9637085E1,3.647366E2,1.0736792E1,9.62617E0,6.6555967E0,1.9585146E1,2.6111398E2,5.8901196E0,1.7035242E0,1.2416138E1],"tree_param":{"num_deleted":"0","num_feature":"6","num_nodes":"25","size_leaf_vector":"1"}},{"base_weights":[2.0252275E-3,-1.2545231E-2,2.8450936E-1,-8.127359E-1,-6.3607194E-3,8.440642E-1,1.521406E-1,-4.6801362E-2,-6.9031403E-3,-3.40133E-2,1.537474E-1,5.040314E-1,5.850599E-2,4.2894244E-2,7.7895916E-1,4.3133902E-4,-1.0656547E-2,3.1551432E-2,-1.3233348E-3,4.2568803E-2,-1.8996919E-2,7.989866E-3,-4.684576E-2,5.813181E-2,-2.0575542E-3],"categories":[],"categories_nodes":[],"categories_segments":[],"categories_sizes":[],"default_left":[0,0,0,0,0,0,0,0,0,0,0,0,0,0,0,0,0,0,0,0,0,0,0,0,0],"id":50,"left_children":[1,3,5,7,9,11,13,-1,-1,15,17,19,-1,21,23,-1,-1,-1,-1,-1,-1,-1,-1,-1,-1],"loss_changes":[3.034139E0,3.4646535E0,2.5497007E0,3.1741714E-1,3.0901394E0,1.5274906E-1,2.0524478E0,0E0,0E0,4.5460296E0,8.858761E0,1.8694538E0,0E0,3.2421193E0,1.4520497E0,0E0,0E0,0E0,0E0,0E0,0E0,0E0,0E0,0E0,0E0],"parents":[2147483647,0,0,1,1,2,2,3,3,4,4,5,5,6,6,9,9,10,10,11,11,13,13,14,14],"right_children":[2,4,6,8,10,12,14,-1,-1,16,18,20,-1,22,24,-1,-1,-1,-1,-1,-1,-1,-1,-1,-1],"split_conditions":[1.5430412E-1,-8.7172323E-1,-3.2900998E-1,2.9125305E-2,7.957317E-1,-1.9430451E-1,1.4563562E0,-4.6801362E-2,-6.9031403E-3,2.5129732E-1,-6.2059583E-3,-4.131323E-1,5.850599E-2,1.354084E0,3.3351794E-2,4.3133902E-4,-1.0656547E-2,3.1551432E-2,-1.3233348E-3,4.2568803E-2,-1.8996919E-2,7.989866E-3,-4.684576E-2,5.813181E-2,-2.0575542E-3],"split_indices":[3,0,0,1,0,1,2,0,0,1,3,2,0,1,0,0,0,0,0,0,0,0,0,0,0],"split_type":[0,0,0,0,0,0,0,0,0,0,0,0,0,0,0,0,0,0,0,0,0,0,0,0,0],"sum_hessian":[7.353037E2,7.00146E2,3.5157757E1,4.369566E0,6.957764E2,5.6972966E0,2.9460463E1,3.36691E0,1.0026559E0,5.9397705E2,1.0179936E2,4.0350842E0,1.6622125E0,2.5997812E1,3.46265E0,4.805346E2,1.1344245E2,2.721672E1,7.458264E1,2.9232874E0,1.1117965E0,2.3974298E1,2.0235128E0,2.074477E0,1.3881731E0],"tree_param":{"num_deleted":"0","num_feature":"6","num_nodes":"25","size_leaf_vector":"1"}},{"base_weights":[1.9940725E-3,2.8254932E-1,-1.2114081E-2,5.1607244E-2,6.3944644E-1,-2.1342501E-1,1.2248231E-2,7.907453E-1,-1.3848625E-1,8.8791555E-1,-2.7905202E-2,-3.012449E-1,3.0338192E-1,9.83366E-1,5.1577827E-3,2.5907774E-3,6.75989E-2,-1.8265745E-2,3.3298798E-2,9.367685E-3,8.035071E-2,-2.401021E-2,-5.6401934E-3,-2.114789E-2,3.462901E-2,6.430836E-2,1.2063212E-2,-2.7954304E-3,4.720066E-3],"categories":[],"categories_nodes":[],"categories_segments":[],"categories_sizes":[],"default_left":[0,0,0,0,0,0,0,0,0,0,0,0,0,0,0,0,0,0,0,0,0,0,0,0,0,0,0,0,0],"id":51,"left_children":[1,3,5,7,9,11,13,15,17,19,-1,21,23,25,27,-1,-1,-1,-1,-1,-1,-1,-1,-1,-1,-1,-1,-1,-1],"loss_changes":[2.9170477E0,2.8753147E0,3.4446616E0,3.2723904E0,4.5942574E0,3.5325284E0,4.3123E0,1.9015167E0,3.6659193E0,5.640278E0,0E0,2.148254E0,3.5469036E0,7.0977163E-1,3.4030507E0,0E0,0E0,0E0,0E0,0E0,0E0,0E0,0E0,0E0,0E0,0E0,0E0,0E0,0E0],"parents":[2147483647,0,0,1,1,2,2,3,3,4,4,5,5,6,6,7,7,8,8,9,9,11,11,12,12,13,13,14,14],"right_children":[2,4,6,8,10,12,14,16,18,20,-1,22,24,26,28,-1,-1,-1,-1,-1,-1,-1,-1,-1,-1,-1,-1,-1,-1],"split_conditions":[-1.4873752E-1,3E0,-4.788681E-2,-3.0065566E-1,5.1067895E-1,1.5343653E-1,-9.801228E-1,-3.6920744E-1,2.907113E-1,-1.6556427E-1,-2.7905202E-2,-2.8931767E-1,2E0,1E0,0E0,2.5907774E-3,6.75989E-2,-1.8265745E-2,3.3298798E-2,9.367685E-3,8.035071E-2,-2.401021E-2,-5.6401934E-3,-2.114789E-2,3.462901E-2,6.430836E-2,1.2063212E-2,-2.7954304E-3,4.720066E-3],"split_indices":[3,4,3,0,2,0,2,0,2,1,0,2,4,4,2,0,0,0,0,0,0,0,0,0,0,0,0,0,0],"split_type":[0,0,0,0,0,0,0,0,0,0,0,0,0,0,0,0,0,0,0,0,0,0,0,0,0,0,0,0,0],"sum_hessian":[7.35114E2,3.428542E1,7.0082855E2,2.1510767E1,1.2774654E1,7.481943E1,6.2600916E2,3.754075E0,1.7756691E1,1.0793718E1,1.9809358E0,6.4308685E1,1.0510736E1,3.5395432E0,6.224696E2,2.092014E0,1.662061E0,1.4276996E1,3.4796958E0,6.105827E0,4.687892E0,3.2190044E1,3.211864E1,3.6368108E0,6.8739257E0,1.9931384E0,1.5464047E0,3.6980075E2,2.5266884E2],"tree_param":{"num_deleted":"0","num_feature":"6","num_nodes":"29","size_leaf_vector":"1"}},{"base_weights":[2.1545452E-3,-3.6826166E-3,6.623E-1,1.7247334E-2,-2.4951668E-1,8.5166013E-1,2.5709737E-3,-5.7738934E-2,9.992444E-2,-7.1293944E-1,-9.795823E-3,5.1885236E-2,1.0484365E-2,3.744227E-3,-1.400044E-2,-1.3117469E-2,7.787528E-3,-5.760938E-2,-1.3751789E-2,4.1803624E-2,-1.2603213E-2],"categories":[],"categories_nodes":[],"categories_segments":[],"categories_sizes":[],"default_left":[0,0,0,0,0,0,0,0,0,0,0,0,0,0,0,0,0,0,0,0,0],"id":52,"left_children":[1,3,5,7,9,11,-1,13,15,17,19,-1,-1,-1,-1,-1,-1,-1,-1,-1,-1],"loss_changes":[2.8378599E0,3.7622874E0,7.0288396E-1,4.1843576E0,6.366229E0,3.632455E-1,0E0,1.045846E1,6.5314436E0,3.4424877E0,8.166859E0,0E0,0E0,0E0,0E0,0E0,0E0,0E0,0E0,0E0,0E0],"parents":[2147483647,0,0,1,1,2,2,3,3,4,4,5,5,7,7,8,8,9,9,10,10],"right_children":[2,4,6,8,10,12,-1,14,16,18,20,-1,-1,-1,-1,-1,-1,-1,-1,-1,-1],"split_conditions":[4.198719E0,2.2472794E0,3.5276973E0,-2.3442335E-1,2.9151804E0,1.2E1,2.5709737E-3,-3.7817326E-1,-4.6472988E-1,2E0,5.6299144E-1,5.1885236E-2,1.0484365E-2,3.744227E-3,-1.400044E-2,-1.3117469E-2,7.787528E-3,-5.760938E-2,-1.3751789E-2,4.1803624E-2,-1.2603213E-2],"split_indices":[2,1,0,2,1,5,0,1,1,4,2,0,0,0,0,0,0,0,0,0,0],"split_type":[0,0,0,0,0,0,0,0,0,0,0,0,0,0,0,0,0,0,0,0,0],"sum_hessian":[7.3482776E2,7.293729E2,5.454866E0,6.7300415E2,5.6368744E1,3.8632023E0,1.5916638E0,3.5307486E2,3.1992932E2,1.854464E1,3.7824104E1,2.517265E0,1.3459373E0,2.2154625E2,1.3152861E2,4.2224087E1,2.7770523E2,8.443785E0,1.0100855E1,7.8756485E0,2.9948454E1],"tree_param":{"num_deleted":"0","num_feature":"6","num_nodes":"21","size_leaf_vector":"1"}},{"base_weights":[2.0219234E-3,-1.1337501E-2,2.8574857E-1,-7.980592E-1,-5.4023857E-3,4.6295393E-1,-1.14302434E-1,-4.579467E-2,-9.444427E-3,2.6912838E-1,-2.0022273E-2,1.0488964E0,2.1233964E-1,-8.1834054E-1,4.4803917E-1,3.1775974E-3,3.291298E-2,-3.7326664E-3,2.9845596E-3,7.72035E-2,2.3522045E-2,-3.2026123E-2,1.9254385E-2,-4.7794893E-2,-6.6686803E-3,-2.0571899E-2,3.644161E-2],"categories":[],"categories_nodes":[],"categories_segments":[],"categories_sizes":[],"default_left":[0,0,0,0,0,0,0,0,0,0,0,0,0,0,0,0,0,0,0,0,0,0,0,0,0,0,0],"id":53,"left_children":[1,3,5,7,9,11,13,-1,-1,15,17,19,21,23,25,-1,-1,-1,-1,-1,-1,-1,-1,-1,-1,-1,-1],"loss_changes":[2.7905664E0,3.2793818E0,2.3998382E0,2.0448685E-1,2.8108816E0,3.175455E0,4.7077284E0,0E0,0E0,2.7909503E0,2.898605E0,1.1866436E0,2.8193963E0,3.6460948E-1,1.9269615E0,0E0,0E0,0E0,0E0,0E0,0E0,0E0,0E0,0E0,0E0,0E0,0E0],"parents":[2147483647,0,0,1,1,2,2,3,3,4,4,5,5,6,6,9,9,10,10,11,11,12,12,13,13,14,14],"right_children":[2,4,6,8,10,12,14,-1,-1,16,18,20,22,24,26,-1,-1,-1,-1,-1,-1,-1,-1,-1,-1,-1,-1],"split_conditions":[1.6505545E-1,-8.7172323E-1,1.2E1,-1.5029952E-1,-1.4873752E-1,-4.0084434E-1,-2.2557178E-1,-4.579467E-2,-9.444427E-3,0E0,0E0,-6.0035944E-1,-3.0778173E-1,1.5206877E-2,-3.4690574E-1,3.1775974E-3,3.291298E-2,-3.7326664E-3,2.9845596E-3,7.72035E-2,2.3522045E-2,-3.2026123E-2,1.9254385E-2,-4.7794893E-2,-6.6686803E-3,-2.0571899E-2,3.644161E-2],"split_indices":[3,0,5,1,3,1,2,0,0,0,2,2,1,0,1,0,0,0,0,0,0,0,0,0,0,0,0],"split_type":[0,0,0,0,0,0,0,0,0,0,0,0,0,0,0,0,0,0,0,0,0,0,0,0,0,0,0],"sum_hessian":[7.3436005E2,7.02254E2,3.2105976E1,4.2588854E0,6.979952E2,2.214116E1,9.964816E0,3.1466992E0,1.1121861E0,3.441148E1,6.635837E2,5.6787634E0,1.6462395E1,4.222771E0,5.742045E0,2.3277426E1,1.1134053E1,3.9377576E2,2.6980792E2,2.1602416E0,3.5185218E0,2.3167396E0,1.4145656E1,3.1871738E0,1.0355973E0,1.2994124E0,